nep4 5 Ga O Si C H 
cutoff 9 6 338 103
n_max 10 8
basis_size 12 10
l_max 4 2 0
ANN 96 0
  1.0668520e+00
 -9.4051963e-01
 -6.7365966e+00
  4.8696804e+00
 -5.2035851e+00
  4.6973640e-01
 -2.4074440e-01
  8.7167531e-01
 -3.7189958e+00
  1.4793190e+00
 -3.7867613e+00
  3.1658068e-01
 -1.1170928e+00
  3.1264919e-01
 -2.6301608e+00
 -3.0820181e+00
 -9.2183465e-01
  2.2340503e-01
 -1.8308308e+00
  1.3291054e+00
  1.1023921e+00
  1.0930300e+00
 -2.8554598e-02
 -4.6609521e-01
 -1.0076693e+00
  2.2193424e-01
  1.4469923e+00
  1.7948544e+00
 -1.2270048e+00
 -1.6964883e-01
 -9.6088171e-02
 -1.1373645e-01
  4.9984175e-01
  6.3525933e-01
  1.7757542e+00
 -6.2280911e-01
 -3.0052004e+00
  1.9604368e+00
 -3.4580034e-01
 -2.2186293e-01
  1.3683340e+01
 -7.7256125e-01
  3.1432877e+00
 -2.2913450e-01
  2.4413924e+00
 -3.0840836e+00
 -2.7888495e-01
  8.7233889e-01
 -2.0885375e+00
 -3.7239335e+00
 -4.2104304e-01
 -6.6811651e-01
 -1.4233930e+00
 -5.9161997e+00
 -1.6555170e+00
 -6.8451371e+00
 -7.3463574e-02
  2.3731907e-01
 -6.9354063e-01
  1.6052735e+00
 -3.1319544e+00
  1.4366950e-01
 -4.0132937e+00
  3.0182307e+00
  4.2993850e-01
 -9.6659964e-01
 -2.7246819e+00
 -1.6997794e+00
  3.0336887e-01
  1.1556721e+00
 -6.0172421e-01
  8.4666319e+00
 -3.5607705e-01
  5.3079376e+00
  2.7557203e-01
 -1.7054121e+00
 -3.5088345e-01
  9.5830627e-02
 -6.3481646e+00
 -1.5981978e+00
  4.6985811e-01
  2.1858491e-01
  1.8239127e+00
  2.0148749e+00
 -3.0658197e-01
 -1.4434090e+00
  3.1163496e-01
 -5.8391423e+00
  1.2503735e+00
  2.4417789e+00
 -2.4232550e+00
 -4.0274267e+00
 -6.5404224e-01
  7.0790565e-01
  1.9246459e+00
 -3.5497880e+00
 -3.3653982e+00
  2.4337950e+00
 -1.1449276e+00
 -2.9507756e-01
 -5.3762755e+00
 -3.8833139e+00
  8.5621500e-01
  2.2671134e+00
 -3.4735325e-01
 -1.2564392e-01
  1.2043422e-01
 -4.6860180e+00
  2.2305627e+00
  6.5887225e-01
 -2.1367717e+00
  6.8275654e-01
  5.9257191e-01
  4.6200302e-01
 -1.9143317e+00
  3.3229067e+00
  9.5859909e+00
  1.5067711e-01
 -1.5895585e+00
  1.3868508e+00
  5.5204716e+00
 -2.2054867e-01
 -3.1447408e+00
  6.0276553e-02
 -1.5842721e+00
  4.2647381e+00
  2.9063342e+00
  1.8588215e+00
  8.4565008e-01
  2.4286525e-01
 -2.0495744e+00
  9.6918124e-01
  6.6380858e-02
  6.6174369e+00
 -1.5299575e+00
 -1.5195355e+00
  4.6404308e-01
 -8.8656801e-01
 -3.4858167e-01
  2.0028749e+00
  4.4832984e-01
 -1.7259840e+00
 -7.7071756e-01
 -3.2731220e-01
 -8.3548441e+00
 -1.6470619e+00
  7.6924405e+00
 -1.8160061e+00
  8.2312411e-01
 -1.3166596e-01
 -7.3900944e-01
 -2.4885452e+00
 -1.4376038e+00
  8.1133270e+00
 -3.4550902e-01
 -6.5181394e+00
  2.9134021e+00
 -9.0392447e-01
 -6.2957716e+00
 -5.0295930e+00
 -1.9345470e-01
  1.8534133e-01
 -3.3590686e+00
 -6.1281532e-01
  7.3840313e-02
  2.0125670e+00
 -9.2440033e-01
 -1.7134247e+00
 -9.6856651e+00
  1.1732452e+00
 -6.2673626e+00
  4.9883702e-01
  5.9454241e+00
 -2.1797760e+00
  4.6208391e+00
 -4.4116449e+00
 -6.0286398e+00
 -4.9050002e+00
  6.9374639e-01
 -8.8798723e+00
  2.6021202e+00
 -2.6211805e+00
  5.1277456e+00
 -3.9243840e-02
  1.2120371e+00
 -1.2608431e-01
  1.8577799e+00
 -1.3141305e+00
  3.9376650e+00
  1.6424147e+00
 -6.5125805e-01
 -5.1988773e+00
 -2.4553366e+00
  4.8080015e-01
  1.2363178e+00
  2.7120929e+00
 -1.3925154e+00
  4.1519060e+00
 -5.4658097e-01
  4.1346421e+00
 -9.2556275e-02
 -1.0171652e+01
 -5.0774717e+00
  4.7948613e+00
  7.1750169e+00
 -7.9353794e-02
 -3.8060349e-01
  2.9967973e+00
 -1.6218216e+00
 -8.9266294e-01
  1.5658281e+00
  2.9809036e+00
  3.9025638e+00
  4.2557058e+00
  5.0865726e+00
 -9.4188625e-01
  1.9390064e+00
 -5.7111459e+00
  4.0650006e-02
  8.6347562e-01
 -2.9700785e+00
 -1.0155815e+00
 -6.5380402e-02
  1.3099828e+00
 -2.0334150e-01
 -1.2880732e+00
  2.9578054e+00
 -8.1316900e+00
 -1.7199508e+00
  1.0519852e-01
 -6.1003098e+00
 -2.2556628e-01
 -1.7265235e-01
 -1.5621743e+00
  3.6206117e-01
 -2.1492068e-02
  1.4534397e+00
 -1.4975088e+01
 -6.9064531e+00
  6.0282177e-01
  4.4230047e-01
 -2.6139758e+00
  3.9335334e+00
 -2.3016400e+00
 -7.8748219e-02
 -5.4861492e-01
 -1.6667494e+00
  6.9492453e-01
  6.1735624e-01
  1.7700346e+00
  2.2399280e+00
  1.2547822e+00
  1.2339876e+00
  2.2663341e+00
 -8.8395171e-02
  4.5563841e-01
  1.1133562e+00
  6.8597907e-01
  4.7329373e+00
 -7.1980512e-01
 -5.5778730e-01
 -9.7482176e+00
 -3.4627428e+00
 -3.2695925e+00
 -1.2353172e-01
  2.2323067e+00
 -1.8881210e+00
 -7.4786007e-01
 -2.2501044e+00
  9.6076053e-01
  6.8384665e-01
 -4.6649442e+00
 -1.8037634e-01
  6.7829557e-02
 -8.0405372e-01
 -6.3713298e+00
 -1.0123518e+00
  1.3912189e+00
 -7.5562291e+00
 -7.9978991e-01
  1.1708153e+00
  3.9904587e-02
 -3.9567242e+00
 -6.5687037e-01
 -1.5996430e+00
 -2.7439208e+00
 -2.2622132e+00
 -3.5313365e+00
  2.8638389e+00
 -2.2010341e+00
  2.7698426e+00
  4.9079070e+00
 -2.2108772e-01
  4.6008462e-01
  1.7329139e+00
  2.2897163e-01
  9.4476992e-01
  1.3070480e+00
 -3.9738178e-02
 -1.2164172e-01
 -3.3113292e-01
 -6.1957508e-01
  7.3950062e+00
 -3.2273033e-01
 -1.2285700e+00
 -7.1204227e-01
 -2.7095134e+00
 -6.6426593e-01
  4.1818509e-01
  1.2058772e+00
  4.2218356e+00
 -3.3823851e-01
 -5.9017986e-01
  4.1406807e-01
  1.6676465e+00
 -3.2910137e+00
 -1.6989223e+00
 -1.9770166e+00
  2.3283932e+00
 -1.1757603e+00
 -4.2728859e-01
 -4.9226522e-01
 -1.2442787e+00
  3.8209715e-01
 -6.2427807e+00
 -2.5796190e-01
 -1.3810993e+00
  1.0636647e+00
  2.1036859e+00
 -1.0988810e+00
  2.0715966e+00
  3.8352555e-01
  1.3516098e+00
 -5.5492644e+00
 -4.3958765e-01
 -1.3578042e+00
 -1.2342125e+00
 -7.6216948e-01
 -2.1829576e+00
  6.8263083e+00
  3.3636071e-02
  3.5944827e+00
  5.4109085e-01
 -7.4137084e-02
  1.8613234e+00
  3.5066035e-01
 -9.9888843e-01
 -7.2102919e-02
  5.4300199e+00
  4.3144625e-01
  1.3322204e+00
  1.3546257e-01
  8.3798420e-01
 -2.6391900e+00
 -2.3482027e-02
  4.1113219e+00
  7.4520850e+00
 -1.1903459e+00
 -3.5166225e-01
 -3.9695594e-01
 -1.2605626e-02
  1.1318605e+00
  1.1639497e+00
 -2.0589833e+00
 -7.6052275e+00
 -1.7282267e+00
 -3.9098935e+00
 -4.7904059e-02
 -1.9298241e-01
 -1.6532379e+00
  1.8379936e-01
 -1.0562891e+00
  1.7759081e+00
  2.8247466e+00
  1.5264355e+00
  9.6324366e-01
  1.2153751e+00
 -2.6447639e+00
 -4.9548988e+00
 -3.3393686e+00
  1.8741809e-01
 -7.8602052e+00
 -4.9009299e+00
  3.1653247e+00
 -3.7694077e+00
  8.2631534e-01
  4.4709034e+00
 -5.2638739e-01
  1.7115736e+00
 -3.1290340e-01
  3.5326335e+00
 -3.3716685e-01
 -2.0865340e+00
  3.7987036e-01
 -2.2397442e+00
 -8.9974540e-01
 -6.8068333e-02
  9.8380470e-01
 -1.0434399e+00
  2.7477200e+00
  3.4105547e-02
 -2.4495420e+00
 -1.3593324e+00
  4.1235919e+00
 -2.8161314e-01
  1.8790773e+00
 -5.2318043e-01
  4.4269413e-02
  4.8490825e+00
 -4.8441288e-01
  5.7129097e-01
 -7.8928727e-01
 -3.6521020e+00
  4.4205225e-01
 -9.1772825e-01
 -1.8071034e+00
  7.7170360e-01
 -1.2782366e+00
  2.9412922e-01
  8.6944361e+00
  1.7214066e+00
  1.2725081e+00
 -3.7712135e+00
 -4.3800332e-02
 -7.8798389e-01
  1.3344961e+00
  7.1655279e-01
  1.1069102e+01
 -3.3305341e-01
  6.5909414e+00
  1.7828928e+00
  5.3270668e-01
 -9.1527450e-01
 -3.2324874e+00
  1.8304939e+00
 -9.0056963e+00
 -8.8923767e-02
  2.7474487e-01
 -3.0815962e-01
 -7.2902513e-01
 -5.0258674e-02
 -2.5042161e-01
  6.1807704e-01
  6.6092741e-01
 -1.7242019e+00
  5.6969339e-01
 -2.5420763e+00
  1.9450410e-01
  8.2529086e-01
  1.3090563e+00
  3.6392622e+00
 -7.6030582e-01
  1.4389005e+00
 -2.1487112e+00
  4.1096029e-01
  2.0791981e+00
 -4.4627210e-01
  5.6453609e+00
 -2.4648969e-01
  4.1876183e+00
 -4.5792884e-01
  4.9033144e-01
 -7.5947922e-01
  7.3744170e-04
 -1.1777307e+00
 -2.2803411e-01
 -2.8285844e+00
 -2.8172634e+00
  1.4225240e+00
  1.8547373e+00
 -6.0483432e-01
  1.7606876e+00
  3.4884498e+00
 -1.3348821e+00
 -1.4449780e+00
  4.1489717e-01
 -2.3407437e-01
  5.8804238e-01
 -1.5804460e+00
 -7.6678276e+00
 -1.0429392e-01
 -7.0900970e+00
 -4.4294664e-01
  3.1176343e+00
  1.4858491e+00
  9.3422689e+00
  5.5025082e+00
  9.3097970e-02
  5.1757548e-02
  4.8108377e+00
 -4.2548540e-01
 -1.5453990e+00
 -1.5827664e+00
  3.6558667e-01
 -6.0167438e-01
 -1.1982185e-01
  1.7089813e+00
  1.0972316e+00
  8.6445558e-01
 -3.5652521e-01
 -7.6411428e+00
  1.4059528e+00
  2.2791870e+00
  9.7648874e-02
  4.6317923e-01
  6.0213858e-01
 -4.2007378e-01
  2.9261086e+00
  5.9011066e-01
  3.4327507e+00
  2.6287845e-01
  6.7371660e-01
  4.2594008e+00
  2.4452248e+00
  5.0738263e+00
  1.7897140e+00
  8.5220081e-01
  1.5100453e+00
 -3.4607954e+00
  1.6820551e+00
 -4.1718702e+00
  5.1267618e-01
  1.7802902e+00
  3.8075330e+00
 -6.7770749e-01
  1.4402028e+00
  2.4432704e-01
 -7.2309129e-02
 -8.7604403e-01
  3.9087769e-01
  5.4209447e+00
  2.9411268e+00
 -1.0076240e-01
 -6.3102144e-01
 -1.1187841e+00
 -2.8001659e+00
 -3.5529238e-01
  6.9511199e+00
  7.2478682e-01
  1.2471639e-01
  4.4990659e+00
  6.7933446e-01
  4.9639434e-01
 -1.7665095e+00
  4.2214241e+00
  4.2652884e+00
  3.2625651e-01
  7.2017694e-01
 -1.1462699e+00
  1.2397323e-01
 -2.3821070e+00
 -1.8402996e+00
 -1.7283925e+00
 -1.2102505e+00
  1.6011741e+00
 -1.3076664e+00
 -6.7605920e+00
 -4.4140749e+00
  1.7527575e+00
  5.2533951e+00
 -1.0574958e+00
  6.8299055e-01
  1.0791894e+00
 -1.1025261e+00
 -5.6875267e+00
  1.1839381e+00
  6.1257052e+00
  1.7220243e+00
 -1.7107648e+00
 -3.0281973e+00
  6.5516748e-02
  1.8955225e+00
  1.1086745e+00
 -2.2138484e+00
 -1.3738734e+00
 -3.5107341e+00
 -4.5919815e-01
  4.0825801e+00
  4.4405074e+00
 -6.4853859e-01
  1.7533516e+00
 -4.6145949e+00
  2.7720182e+00
  1.2523595e+00
 -2.2284458e+00
 -1.2686446e+00
 -4.0492302e-01
  2.5218799e+00
  8.4523469e-01
 -1.5434955e-02
 -6.4043337e-01
  6.8261631e-02
 -6.3608336e-01
  1.9932207e-02
  1.1271513e+00
  2.9613888e-01
 -2.7107577e+00
 -4.4193168e+00
  1.0446618e+00
  2.3228095e+00
  1.7984961e+01
  1.6031491e+00
  1.0652916e+00
 -1.2687198e+00
 -1.4865169e-02
  4.3448424e+00
 -4.2910782e-01
 -8.5286605e-01
  2.1262827e+00
 -6.5555098e-03
 -4.3548763e-01
 -8.4759021e-01
  5.5269116e-01
  1.4770974e+00
  5.2358180e-01
  6.4709055e-01
  1.2598251e+00
  3.5552790e+00
 -8.2750732e-01
 -2.5278940e+00
  2.8573487e+00
 -1.5704839e-01
 -1.5871067e+00
 -1.3536246e+00
  2.3224074e-01
 -3.2597554e-01
  7.9330456e-01
 -4.7892933e+00
  4.4680285e-01
 -9.2281562e-01
 -1.0620157e+00
 -3.1630871e+00
 -5.9305990e-01
 -3.5862250e+00
 -3.6640513e+00
 -1.2317157e+00
  2.5207398e+00
 -8.5948831e-01
  1.5444356e+00
 -2.5810900e+00
 -3.2991464e+00
  6.3141358e-01
  9.8863028e-02
 -7.6818526e-02
 -2.5315037e+00
 -1.1316416e+00
 -3.5555720e+00
  2.6875126e+00
  3.5609871e-01
 -3.1794562e+00
 -1.0981633e+01
  3.4361339e+00
 -5.3979599e-01
  4.4464016e+00
  3.8912970e-01
  1.4530616e+00
 -1.7647673e+00
  3.4303417e+00
 -1.9517109e+00
 -9.9970683e-02
  8.4680641e-01
 -2.1877633e-01
  6.8986807e+00
 -1.5856203e+00
 -1.2058343e+00
  6.5551829e-01
  1.6646446e-01
 -8.5398239e-01
  2.9417205e+00
 -4.0635667e+00
 -5.9864550e+00
 -3.1420333e+00
 -1.4873321e+01
  7.3699087e-01
 -4.7044911e+00
  1.1614927e+00
  1.1853528e+00
 -1.1384288e+00
 -4.2536492e+00
  6.7146482e+00
 -8.5641676e-01
  2.8878772e+00
 -1.3863566e+00
 -5.5142456e-01
 -1.0964090e+00
  5.4819882e-01
  2.0398765e+00
 -3.3182557e+00
 -7.2643852e-01
 -7.5066841e-01
 -1.2370808e+00
  1.7137722e+00
  5.2457877e-02
 -7.4267209e-01
  7.4464661e-01
  5.5628870e-02
  2.5848324e+00
 -2.9280889e+00
 -1.3885250e+00
 -1.2628479e-01
  5.3015441e-01
 -7.5648069e-01
  2.2399673e+00
 -2.3506513e+00
  6.5237445e-01
  1.1699886e+00
  1.7589761e+00
 -2.5207644e+00
  1.7698482e+00
  3.4520195e+00
 -2.6643233e+00
 -1.3431160e+00
 -4.3150210e+00
 -1.6356935e-01
  1.8643785e-01
  5.2924614e+00
 -6.5683186e-02
 -5.6104487e-01
 -8.8356256e-02
 -1.7142051e-01
  3.6060426e-02
  1.3508533e+00
  4.3111186e+00
  5.7681837e+00
 -2.7847118e+00
  1.1711955e+00
 -1.2171279e-01
 -1.8789423e+00
  1.3518058e+00
 -3.6057370e+00
  1.6983130e+00
 -4.2745620e-01
  3.0960057e+00
  6.4059234e-01
  5.9338015e-02
 -2.5696232e+00
 -9.4124633e-01
  2.9369195e+00
  1.8415514e+00
  8.8448042e-01
 -4.0550027e-02
 -2.0849314e+00
  4.4722233e-02
  7.5051934e-01
 -2.7220157e-01
  3.6726233e-01
  3.1752689e+00
 -1.1672717e+00
  5.4931742e-01
 -4.3341894e+00
  5.4924887e-01
 -9.6823847e-01
  1.4273915e+00
  2.6067117e-01
 -2.5261621e+00
 -5.0041682e-01
 -1.0271282e+00
  1.5873743e+00
 -1.7926359e-01
  2.8429738e-01
  9.8928881e-01
 -7.1295464e-01
 -8.2050190e+00
 -2.4118974e+00
 -8.6369318e-01
 -2.4325571e+00
  1.0494648e+01
 -5.0943359e-03
  2.0249414e+00
 -1.0868782e+00
  7.8016780e-02
  2.6742500e-01
  2.0897372e+00
 -4.4611912e-02
 -8.2345796e-01
  4.0698031e-01
  4.2820530e+00
 -1.1383512e+00
  1.9177179e+00
 -1.5849600e-02
 -1.3973601e+00
  7.8483814e-01
  2.9509637e-01
 -1.7084563e-01
  2.9370889e-01
  6.8961400e-01
 -4.6619897e+00
  2.0092776e+00
  1.2298471e+00
 -6.9936061e-01
  2.3736317e-01
 -3.5829487e+00
  2.5561392e+00
 -6.7591625e-01
  2.0388000e+00
  1.7025812e+00
 -4.1234360e+00
  4.3988219e-01
  5.0732880e+00
 -1.4956304e-01
 -1.3956095e+00
 -4.2874789e-01
  1.2553863e-01
 -3.9520907e-01
  6.4630065e+00
  4.9244773e-01
 -4.2901263e-02
  7.2476739e-01
  4.3869960e-01
 -3.9444187e-01
  4.2383569e-01
  1.0860226e+00
  3.4403461e-03
  8.9290738e-01
  4.5946586e-01
  2.2870603e+00
 -1.4996413e+00
 -7.4141318e-01
  1.5605938e+00
 -1.8751529e+00
  3.0500164e+00
  1.6383941e+00
 -1.3063894e-01
 -4.0627289e+00
  3.3951411e-01
 -4.0863013e-01
  3.0470817e+00
  1.2464346e-02
 -3.8142014e+00
  9.3421586e-02
  7.8371435e-01
  2.5940959e+00
 -5.4075205e-01
  1.4661808e+00
  1.0582668e+00
  1.0196260e+00
 -3.8374538e+00
  4.0120277e+00
 -1.3328801e+00
 -5.3431322e-03
  7.7006006e-01
 -4.3847233e-01
 -1.8166526e-01
 -5.6589758e-01
 -1.8092458e+00
 -3.9135144e+00
 -1.9072060e-01
 -1.0739619e+00
  3.7993672e+00
 -1.0129334e-01
 -6.5109618e-02
  4.7211587e-01
  1.1785727e+00
 -1.2998714e-01
  7.6452255e-01
  5.9442396e+00
  2.4270251e+00
 -5.7301182e-01
 -6.4312491e+00
 -2.7856842e-01
 -1.5843790e+00
  1.7296132e-02
 -3.7221572e-01
 -2.5566673e-01
 -1.0187314e+00
  1.2684113e-01
 -2.7869430e-01
  1.1857333e+00
  3.6957744e-01
 -4.1490388e+00
  5.6645312e+00
  2.2121570e+00
 -1.1405871e+00
 -1.5757768e+00
  6.6983576e+00
  1.1705676e+00
 -6.9841547e+00
  1.4631039e+00
  3.0173361e+00
  2.7436051e-01
 -2.6808369e+00
 -5.4449601e+00
 -2.6136608e+00
  1.3229713e-01
  1.3794603e+00
 -9.9985176e-01
 -3.2192140e+00
  2.0033401e-01
 -1.5449178e-01
 -3.5619485e+00
 -9.3745580e-03
 -2.2182479e+00
  1.3728209e+00
  5.8487787e+00
 -7.7986225e-02
  1.7925800e+00
 -1.0094894e-01
  5.0561604e+00
 -9.0366917e+00
  1.1340712e+00
 -1.0954327e-02
 -4.5736899e+00
 -3.9563876e-01
 -8.8691444e+00
  2.6748233e+00
 -4.4107616e-01
  1.5583997e+00
  6.2088914e-02
 -2.6703730e-02
 -4.4254386e-01
 -2.1563869e+00
  2.2192478e+00
 -6.0603034e-01
  7.4684000e-01
  4.3915948e-01
  1.0253342e+00
  6.3141239e-01
  9.9501429e+00
 -3.4015536e-01
 -4.4867970e-02
 -5.2723402e-01
 -1.3566756e+00
  2.0274863e+00
 -3.1530802e+00
 -4.9807754e+00
  2.7547100e+00
 -4.8724091e-01
  4.2768109e-01
  5.3672171e-01
 -1.7646841e+00
  6.5283269e-02
 -1.8787682e+00
 -2.7276939e-01
  3.4755886e-01
  6.7003884e+00
  2.3306185e-02
  1.3391274e+00
  3.0541918e+00
 -3.3985224e-01
  1.0172262e+00
 -1.7175130e+00
  2.3232989e-01
  2.5943315e-01
  5.1780844e-01
  8.5916269e-01
  7.8104097e-01
  1.6804270e+00
  4.3315077e-01
  7.2762914e-02
  1.1764958e+00
 -1.4925754e+00
 -2.8005001e-01
  1.0506660e+00
 -1.7187794e+00
 -2.6983085e-01
  1.3749925e+00
  3.8070515e-01
 -1.3939563e+00
  9.7158200e-01
  1.1875466e+00
  3.6655656e-01
 -2.3573327e+00
  1.8425107e+00
  9.5487148e-01
  4.9058303e-01
 -9.9093163e-01
  1.9259697e-01
  5.0085912e+00
  1.9798908e+00
 -6.6836321e-01
  2.0290551e+00
  6.7432791e-01
 -2.3883610e+00
 -2.3756883e+00
 -9.5563596e-01
 -1.8032757e+00
  1.7275413e+00
 -1.8354888e+00
  2.6906712e+00
 -7.4412513e-01
 -1.0185037e+00
 -9.4450361e-01
 -5.2523422e+00
  3.5449708e+00
 -1.4195971e+00
  1.0173817e+00
  2.4211876e+00
 -5.3030634e-01
  1.0440229e+00
  2.2836211e+00
 -3.1184125e+00
 -1.2811309e-01
 -2.0298038e+00
 -1.4933876e+00
  7.4897605e-01
  4.5575678e-01
 -1.3621945e+00
 -4.2319303e+00
 -7.7283144e-01
 -2.8314769e-01
  1.7475449e-01
  2.8121336e+00
  3.5776193e+00
 -1.6574302e-01
  8.6968637e-01
 -1.2927999e+00
 -1.6301284e-02
 -3.0189021e+00
 -1.2246267e+00
 -2.2766032e+00
  5.4030037e-01
  4.7648498e-03
  1.6382672e+00
  2.3230922e+00
 -4.8595057e-03
 -8.7246031e-01
 -5.1621836e-02
 -3.0506456e-01
  1.3927014e+00
  1.0958239e+00
 -4.1374448e-01
  1.0443137e+00
 -3.5971291e+00
 -2.2363892e+00
 -4.6037117e-01
  3.0730684e+00
 -3.5194700e+00
  1.1494376e+01
  2.5299087e-01
 -7.6045454e-01
 -9.7581810e-01
  6.4789569e-01
  3.5386796e+00
  3.4078926e-01
  8.4593976e-01
  1.5876473e+00
 -2.5041668e+00
  1.2335824e+00
 -9.2206264e-01
 -4.8075184e-01
  2.2806239e+00
 -1.3089976e+00
 -7.6456517e-01
 -3.7212820e+00
  1.4059013e+00
  3.8980496e-01
  2.1222835e+00
  1.7936743e-03
 -8.7709057e-01
  2.9884097e-01
 -5.5066371e+00
  3.0685301e+00
 -7.4487519e-01
 -2.6099937e+00
  1.0274901e+00
 -1.5230709e+00
  2.0477249e-01
  6.2160093e-01
  1.9071511e+00
 -1.8524210e-01
 -1.3960867e+00
  2.8725728e-01
  1.4775060e-01
 -3.6871636e-01
 -5.9021196e+00
 -6.8205148e-01
 -2.1802223e-01
 -8.8137668e-01
 -3.6748514e-01
 -1.6244169e+01
  6.3667774e-01
 -6.9745439e-01
 -2.1499662e+00
  3.4318385e+00
  7.8504860e-01
  1.3473116e-01
  1.2882693e+00
 -5.4035014e-01
  7.2114439e+00
 -8.1580679e-04
  5.1899996e+00
  6.4109206e-01
  1.1342224e+00
  5.5042291e-01
  8.4741364e+00
  3.1669763e-01
 -2.1929283e+00
  6.5183765e-01
 -3.3738875e+00
 -1.7384138e+00
  4.6487789e+00
 -6.2435317e-01
  7.8575872e-02
  4.3975101e+00
 -2.8584890e+00
  1.3791029e+00
 -1.0852270e+00
 -8.5619628e-02
  1.1295335e+00
  1.4366284e-01
  2.4734590e-02
 -1.1929777e-01
  1.3764192e+00
 -5.4632390e-01
 -9.2334658e-01
 -3.1658571e-02
 -4.1399765e-01
 -6.5679698e+00
  7.3454803e-01
 -2.7411246e-01
 -2.3329623e+00
 -2.1357200e+00
  1.9889958e+00
 -9.0451390e-01
  1.9795524e+00
 -2.8697801e+00
  5.8427852e-02
  1.5918288e-02
  2.8410155e-01
 -1.0704058e+01
  1.1986582e+00
  1.5063748e-01
 -2.6521501e-01
 -1.0221927e+00
  1.4311085e+00
 -5.8992138e+00
  3.4143439e-01
  1.1621769e+01
  5.4506546e-01
 -2.4161727e+00
 -1.5395314e+00
  2.8401530e+00
  1.1917614e+00
 -3.4372750e-01
 -2.6551437e+00
 -1.9040091e+00
 -4.3478906e-01
 -1.4241740e+00
 -3.8981381e-01
 -1.5313634e+00
  1.7931266e+00
  7.1557438e-01
 -1.3053622e+00
  2.9298651e-01
  2.6836437e-01
 -1.7746800e-01
 -2.8499591e+00
 -1.4270830e+00
 -7.4440308e+00
  2.4525039e+00
 -2.1906052e+00
  5.1817465e-01
 -6.5311074e+00
 -1.5778227e+00
 -1.0207542e+00
 -4.1104946e+00
  4.9311700e-01
 -8.7496531e-01
  2.3200998e+00
  1.7378553e+00
 -3.5676581e-01
  3.2359366e+00
  3.2306799e-01
  1.1165186e+01
  1.0571864e+00
 -7.3272723e-01
  5.4485351e-01
 -2.8383782e+00
 -1.9530013e+00
 -4.7253570e-01
  1.1295461e-01
  2.2737350e+00
 -2.9653666e+00
  3.6804864e-01
  6.3146744e+00
 -1.9836557e-01
  1.0492893e+00
  4.8742121e-01
 -1.8849206e+00
  7.4633735e-01
 -2.0415816e+00
  8.5227805e-01
  1.0679661e+00
  6.3173044e-01
 -3.2705379e-01
  8.9509092e-02
 -9.9521941e-01
 -5.0825983e-01
  4.4656235e-01
  4.8200359e+00
  1.1475731e+00
 -9.9721625e-02
  8.9687910e+00
 -1.7457405e+00
  5.1869690e-01
  7.8278697e-01
  9.2525721e-01
  1.4019048e+00
 -8.2466871e-01
  4.6596556e+00
  9.7659923e-02
 -1.8604509e+00
 -2.3241129e+00
  2.7315217e-01
 -7.0666093e-01
 -4.1455153e-01
 -2.3914389e-01
 -2.9955572e-01
 -1.9706701e+00
 -1.2761860e+00
 -1.7454704e+00
 -4.2856938e-01
  5.9912366e-01
  6.5967578e-01
 -6.0595655e-01
 -5.7261834e+00
 -1.2378967e+00
 -2.5356433e+00
  7.4762255e-02
  2.9043126e-01
  1.6875401e+00
 -2.5698903e+00
 -1.5355489e-01
  7.0370537e-01
 -1.7357594e+00
  6.9582695e-01
 -1.0299131e+01
  1.2911311e-01
 -1.6521460e+00
 -1.1582241e+00
 -4.1816145e-01
 -9.9526863e+00
  3.1225124e-01
 -1.6351078e+00
 -3.0025430e+00
 -5.4889975e+00
 -1.6113105e+00
 -3.1037006e-01
  1.0716228e+00
  7.3605299e-02
  5.4270706e+00
 -7.9135019e-01
 -5.1005802e+00
  2.6495802e+00
  1.3458980e+00
 -6.7057624e+00
  7.2555113e-01
 -1.8170526e+00
  1.2437956e+00
 -9.1450185e-01
  7.3288076e-02
  2.5700596e-01
 -5.3874797e-01
 -1.1496122e+01
 -1.9880446e+00
  8.4595740e-01
  7.0049703e-01
 -7.3627579e-01
 -4.7901735e+00
 -1.7105275e-01
 -2.3781464e+00
  1.9462684e-01
  1.6000756e+00
 -7.2975111e-01
  7.1499139e-01
 -3.3506981e-01
  1.3001591e+00
 -1.6134239e+00
 -2.7317243e+00
  3.6589852e-01
 -5.8779578e+00
  7.4825895e-01
  1.1833074e-01
 -1.2912545e-01
  2.0463014e+00
 -5.4559124e-01
  1.4058632e+00
 -3.3371982e-01
 -3.4270719e-01
 -1.4049933e+00
  9.8798640e-02
  4.9345765e-02
  3.2572246e-01
 -3.6634177e-01
 -5.0058618e+00
 -9.2843437e-01
 -1.4015509e+00
 -3.0757967e-01
  2.0056489e+00
 -1.3545642e+00
  2.1222222e-01
 -3.5131347e+00
 -5.2176279e-01
 -2.6975658e+00
 -1.1953497e+00
  2.5423679e+00
 -1.4936101e+00
  1.8265343e-01
  1.9587964e+00
 -9.8520774e-01
 -1.6014279e+00
  2.8876832e+00
 -2.5246201e+00
 -6.6168511e-01
 -3.1770868e+00
 -1.5128219e+00
  1.5711163e+00
  2.8142867e+00
  1.7507482e+00
 -2.0594144e+00
 -1.1630602e+00
 -1.3627353e-01
  3.3955159e+00
 -2.3025062e+00
  1.6053003e+00
 -1.2558271e+00
 -1.5118933e+00
  1.1016458e+00
 -2.2269297e+00
  1.6242966e-02
  2.3874919e+00
 -4.3241973e+00
  9.9714345e-01
  8.9687681e-01
 -6.5001216e+00
 -7.5043035e-01
 -6.1151195e-01
 -1.3423797e+00
 -3.4337315e-01
 -1.7512660e+00
  2.7729076e-01
 -5.0280509e+00
  1.5709341e+00
 -8.6133111e-01
  2.9469785e-01
  2.8534021e+00
 -5.5202627e+00
  1.2603872e-01
 -3.5248067e+00
  2.1355288e+00
  3.1606872e+00
  5.8955021e+00
  2.3824999e+00
 -7.3072571e-01
 -8.7928009e-01
 -1.8654548e+00
  3.5940647e-01
  4.1384330e+00
 -9.8739691e-02
  2.9212937e+00
  4.9000052e-01
  1.5227613e+00
  6.3488193e+00
 -1.0364799e+00
 -3.9898787e+00
  1.8522946e+00
  2.8845522e+00
 -3.6170706e-01
 -1.6142039e+00
 -2.9059198e+00
  3.9817563e-01
 -2.1197519e+00
 -9.7374898e-01
  2.2636795e+00
 -3.2983863e+00
  1.2491164e-01
 -3.5026181e-01
 -7.5173056e-01
  6.4296536e+00
 -8.9805615e-01
 -2.3157382e+00
  1.7143974e-01
  6.1847577e+00
 -1.9948099e+00
 -5.1202977e-01
 -3.6531016e-01
 -6.8275845e-01
  8.0157626e-01
 -3.1644607e-01
  2.2516772e-01
  3.8878124e+00
 -1.6864535e-01
  4.0165973e+00
 -9.7884737e-02
  5.3239912e-01
  7.8569978e-02
 -6.5236559e+00
  1.1493900e+00
 -1.3884676e+00
 -4.8412058e-01
  4.5212522e+00
 -1.6862722e-01
 -1.6134816e+00
  1.0042055e+00
  1.5445683e+00
  4.2801031e-01
  2.1607611e+00
 -1.6744771e+00
  2.9950917e-01
 -1.0515552e+00
  1.4638902e+00
 -9.5431376e-01
  2.6228542e+00
 -8.5926847e+00
 -6.5708643e-01
 -2.2041531e-01
 -6.8925440e-02
 -4.1113716e-01
 -5.3138393e-01
 -1.1203921e+00
 -3.7911895e-01
 -2.6453304e+00
  1.2810661e+00
 -7.5360066e-01
  7.5877601e-01
  8.6650960e-02
 -8.8719022e-01
  1.4471118e+00
 -4.2982273e+00
  1.0001454e+00
 -1.6095090e+00
  4.1989574e+00
  4.1487485e-01
 -2.3046719e-01
 -1.7790055e+00
 -1.5406252e+00
 -3.3421962e+00
 -9.4027030e-01
  2.9096621e-01
 -1.6404518e+00
  6.8833642e-02
  3.5446620e-01
 -2.6044939e+00
  5.1273578e-01
 -3.7254333e-01
 -1.1725380e+00
  8.2978497e+00
  7.0515990e-01
  2.1379445e+00
 -8.0475755e-02
 -4.1244242e-01
  5.8629614e-01
 -2.9831663e-01
  3.2527569e-01
  1.2403725e+00
 -2.8789022e+00
  3.1897748e+00
  2.1865560e-01
 -1.8813156e-01
  7.5666761e-01
 -2.0071168e+00
 -1.8704910e+00
 -7.2399043e-02
  6.0559392e-01
 -1.1118416e+00
 -3.6227009e-01
  1.7997752e+00
 -5.9552402e+00
 -6.3945472e-01
 -1.2372150e+00
  9.4543463e-01
  1.8339604e+00
 -1.8542073e+00
 -5.2810848e-01
 -2.7813728e+00
  2.3828287e+00
  6.0739380e-01
 -7.2882664e-01
 -1.2841123e+00
  2.7760634e+00
 -4.0563345e-02
 -1.2470973e+00
  1.3727633e+00
 -2.1592658e+00
  4.1131952e-01
  1.2665474e+00
 -9.2493132e-02
 -1.1667663e+00
 -1.9680613e-01
  2.1113455e+00
  2.2892194e+00
  2.1384377e+00
  3.2013640e-01
 -6.4606559e-01
 -9.1792017e-01
  3.0556184e-01
  2.7511306e+00
  3.1286147e+00
  4.5725811e-01
 -3.7138158e-01
  1.6027560e+00
  4.7095060e+00
 -1.8068687e+00
 -4.2425710e-01
 -4.7680101e+00
 -2.2862864e+00
 -1.2356073e+00
  5.0011158e-01
  1.3188949e-01
 -2.6445976e-01
 -6.1191249e+00
 -6.9230753e-01
  7.3346782e+00
 -5.1658034e-01
 -3.5861185e+00
 -1.0668471e+00
 -7.5017995e-01
 -8.0040234e-01
  9.9707812e-01
  9.6293128e-01
 -2.2206857e+00
  4.6352682e+00
 -9.4241869e-01
 -2.4937481e-01
 -9.2258066e-01
  5.8703423e-01
  7.4591494e-01
  2.6524570e+00
 -2.9768196e-01
 -2.1304817e+00
 -2.0393248e+00
 -1.6980687e-01
  2.7632740e+00
  1.3932879e+00
  5.2736101e+00
  5.8456475e-01
  2.7465847e-01
 -2.3477796e-01
  1.7965122e-01
 -2.3811052e+00
 -6.7485862e+00
 -2.3460748e+00
  1.3983874e+00
  6.7639136e-01
 -2.8066072e+00
 -1.0500912e+01
 -3.6828376e-02
  2.1116695e+00
  5.1250368e-02
 -5.3050905e-01
 -3.0340162e-01
  2.1055987e+00
  1.9527198e+00
  7.9518044e-01
 -3.9527288e-01
 -1.0130477e+00
  7.9986578e-01
 -2.4155726e+00
  1.8785341e+00
 -5.1438980e+00
 -3.7114542e+00
  6.8829393e-01
  6.0826522e-01
 -3.0324652e+00
  1.7895147e+00
  4.3164134e+00
  5.3113788e-01
  2.8550334e+00
  9.4784003e-01
 -2.7501971e-01
  1.0155504e+00
 -7.3601892e-03
 -8.5995418e-01
 -5.7948017e-01
  7.2315079e-01
  1.2397231e+00
  9.7838944e-01
  4.1455683e-01
  9.9938077e-01
  4.9659562e-01
 -4.8532143e-01
 -5.6005526e-01
  3.8537778e-02
 -4.8351116e+00
  2.8458753e+00
 -4.3526894e-01
 -4.9465269e-01
  8.0255091e-01
  2.1109411e-01
  2.3614505e-01
 -3.0647883e-01
 -8.8356279e-02
  1.0529214e+00
 -4.5708141e-01
 -1.0325030e+00
 -3.8595903e+00
  9.2965662e-01
 -3.6301219e+00
  5.3320575e-01
  3.5395672e+00
  3.2832913e+00
 -6.2703955e-01
 -3.2077923e+00
 -3.8397869e-01
  1.8560181e+00
  1.4460260e+00
 -1.5405847e+00
 -4.8131948e+00
  1.5093825e+00
 -2.2915676e+00
 -1.7898364e+00
 -1.3524004e+00
 -5.8737892e-01
  1.7396700e-01
  1.9826150e+00
  2.0632625e+00
 -1.2732069e-01
  1.6467459e-01
  7.3794360e+00
 -2.2759526e+00
 -1.8208788e-01
  8.8808998e-02
  1.8375196e+00
 -1.5867313e+00
 -2.9927835e+00
  4.5824013e+00
  1.4964066e+00
 -1.8260604e+00
  1.2271022e+00
 -6.3730222e-01
  3.4007795e+00
  2.0588772e+00
 -4.5483031e+00
  1.9829777e+00
  8.9640325e-01
  2.2989442e+00
 -1.0860649e+00
 -8.6932260e-01
 -6.1548061e+00
 -9.1975868e-01
 -4.1082702e+00
  2.9774797e+00
  2.8221071e-01
 -1.2080812e+00
 -1.0124688e+00
 -6.4377861e+00
  6.8102902e-01
  1.6042483e-01
 -2.2024353e-01
  1.2070902e-01
 -3.6885126e+00
 -1.7199653e-01
  1.0893244e+00
  5.1057404e-01
  1.8541677e+00
  5.0377198e-02
 -6.0982537e-01
  7.5772572e-01
  1.1459493e-01
  8.6443830e-01
  1.7118725e+00
 -2.5309634e+00
  8.2559544e-01
 -9.5436192e-01
 -3.2960482e+00
  1.0157185e+00
 -5.3578463e+00
 -1.1733581e+00
  1.5311995e-01
 -2.7180421e+00
 -2.3341217e+00
 -5.0222272e-01
  7.0735192e+00
  1.8741485e-01
 -2.2756972e+00
  1.7488074e-01
  1.5561248e+00
  1.2527045e+00
  1.5147518e-01
 -5.0646746e-01
  2.5820899e+00
  2.7305982e-01
  2.5058517e-01
  4.8883045e-01
 -7.8851432e-01
  4.6166143e-01
  1.2190504e+00
 -3.4798184e-01
  4.9546375e+00
  1.8653519e+00
  6.4613259e-01
 -2.9691384e+00
 -1.7485168e+00
 -1.7674578e+00
  3.1024368e+00
 -6.2653130e-01
  2.2190340e+00
  9.9423809e+00
  2.7653143e-01
 -1.0073560e+00
 -3.0550233e-01
  2.9445996e+00
  6.2854163e-02
  9.0404570e-01
 -1.1691573e+00
  9.1492474e-01
 -1.5100178e+00
  1.2208798e+00
  5.6819959e+00
  6.5110141e-01
  1.3374949e-01
 -4.0294051e+00
  6.8808949e-01
 -1.4666255e+00
 -2.2695644e+00
  4.1303071e-01
  7.5912414e+00
  7.9016109e+00
  6.0483205e-01
 -1.6203556e+00
 -1.7186773e+00
 -2.2297664e+00
 -2.9221117e+00
 -4.8632421e+00
 -1.4254761e+00
  2.2003120e-01
  2.7508302e+00
  4.5756844e-01
 -1.7445786e+00
 -1.2793671e+00
 -8.9080954e-01
 -2.6185768e+00
 -7.4474043e-01
 -8.0826607e+00
  4.7847918e-01
 -1.5693291e-01
 -2.5063589e+00
 -1.7115345e+00
  3.7113895e+00
 -4.0870756e-01
 -5.3492432e+00
 -7.5839224e+00
  4.8239355e+00
 -1.8986679e+00
  1.0448210e+00
 -1.1715791e+00
 -6.8178711e+00
 -1.3990417e+00
  9.7414666e-01
 -4.5414579e-01
 -2.1537473e+00
 -5.5714126e+00
 -6.6517377e+00
 -2.2809198e+00
  1.0299750e-01
  2.6697338e+00
 -3.4472096e+00
 -1.8096212e+00
 -3.6211555e+00
  2.1466224e+00
 -1.2392856e+00
 -1.0495818e+00
 -5.8812147e-01
 -2.1275442e+00
  3.7453532e-02
 -6.7327279e-01
 -4.0220208e+00
 -1.1471664e+01
 -4.0507573e-01
 -1.7323618e-01
  2.1089473e+00
  3.2388029e-01
  1.7340943e+00
  1.2541908e-01
 -1.4691743e+00
 -8.3292508e-01
  6.5494466e-01
  6.8363628e+00
 -4.7021627e+00
  8.2731414e-01
 -6.7350453e-01
  1.3056585e+00
 -3.1835365e+00
  1.8876348e+00
  5.0185376e-01
 -2.8711720e+00
 -3.0276525e+00
 -1.0532395e+00
  1.7422429e+00
 -5.9734529e-01
  1.4875182e+00
  6.2277466e-01
  5.9331280e-01
  5.4030371e+00
 -6.1346722e+00
 -2.5385344e+00
 -2.3609364e+00
 -8.7128806e-01
  2.1099536e+00
  8.8636899e-01
 -3.3037430e-01
 -9.1751325e-01
  3.5011470e+00
 -1.5012938e+00
 -1.3292255e+00
  1.6455169e+00
 -1.6349925e+00
  2.2105362e+00
  5.3193414e-01
 -1.8205488e-01
  5.1659858e-01
  1.9122903e+00
 -1.8284793e+00
 -2.8512144e-01
  7.1823215e-01
 -1.0839092e+00
 -1.9682274e+00
 -3.6561503e+00
  4.1882935e+00
 -6.9280758e+00
  3.9292037e+00
  4.5292473e+00
  1.4470704e+00
  8.9312849e+00
  6.1175513e+00
  2.3963799e-01
  4.9648385e+00
  9.4085735e-01
  2.4100986e+00
  1.1921812e+00
 -1.5844232e+00
  3.0172849e+00
  8.6203378e-01
  5.3992873e-01
 -1.2507834e+00
 -1.8798707e-01
 -5.2908812e-02
 -2.4584468e-01
 -2.1803033e+00
 -6.5004563e-01
 -3.6248159e+00
  8.2144970e-01
  1.4176766e+00
 -1.0550265e+00
  4.2390471e+00
 -3.9017117e-01
  4.9020454e-01
  1.6654025e-01
 -3.2617527e-01
 -4.7962174e-01
  2.9373884e-01
  4.6667400e-01
  1.5988295e+00
  3.8789353e+00
  1.0524828e+00
 -4.5080695e-02
  1.0956354e+00
  2.0026515e-01
 -6.1021537e-01
  5.0527482e+00
 -3.7356789e+00
  2.4546485e+00
 -3.3791113e+00
 -5.4290283e-01
 -8.2312353e-02
  5.3919940e+00
 -6.7594337e-01
  1.7398207e+00
 -1.0673587e-01
  2.6753220e-01
 -6.7187223e+00
 -7.8215188e-01
  3.2216399e+00
 -2.3640199e-01
  1.0908054e-01
 -3.7241793e+00
  4.1156030e+00
  1.4687868e+00
 -2.2783720e+00
 -3.7898600e-01
 -2.9544979e-01
 -3.7498942e-01
  3.8635522e-01
 -5.2045584e-02
  4.1858011e-01
 -2.8819379e-01
 -2.4049431e-02
 -8.9343959e-01
  8.6203218e-01
 -3.6619494e+00
 -2.6557777e+00
 -1.0239166e+00
  3.0771881e-01
  8.0368906e-02
  1.6729645e-01
 -2.0443420e+00
 -2.9698918e+00
 -1.2498752e+00
  3.2349851e-02
 -8.4185672e-01
  6.7762041e-01
  4.3645525e+00
 -4.0818896e+00
 -1.7209545e+00
 -9.2511821e-01
 -5.0718743e-01
  3.2856596e-01
  1.1295266e+00
  1.7000624e+00
 -4.9007800e-01
  1.3787476e+00
 -9.9461257e-01
 -9.6261816e+00
 -1.8566214e-01
 -4.2815175e+00
 -2.2520740e+00
 -6.9853455e-01
 -9.6689296e-01
 -4.6526125e-01
  1.7467318e-01
  7.3220429e+00
  9.2571217e-01
 -4.1069818e-01
 -4.0244517e+00
 -1.1103221e+00
  4.2405838e-01
  7.3938924e-01
 -5.0154168e-02
 -3.5759017e-01
  4.2717314e+00
  1.2442566e+00
  1.6447617e+00
  4.2250043e-01
 -2.3541505e+00
 -3.4070745e+00
 -3.8407702e+00
  1.1507550e+00
 -3.2875523e-01
 -1.8598895e+00
  3.0395424e+00
  1.9028804e+00
  5.6922388e-01
  2.7192092e-01
 -1.7961116e+00
  4.2105004e-01
  2.4099324e+00
  1.1019008e+01
  2.2996857e+00
 -1.0452250e+00
  2.6190534e-01
  1.4102631e+00
  3.6673322e+00
 -2.6349447e+00
 -3.7866545e-01
 -9.2771806e-02
 -1.6716964e+00
  1.5928879e-01
  1.5664818e+00
 -2.4667642e-01
  6.7025587e-02
  9.3142158e-01
 -2.3923352e+00
 -1.0967031e+00
 -3.9220354e-01
  4.2041668e-01
 -1.1616158e+00
  3.7889111e+00
  6.3027069e-02
  4.7225246e-01
  1.1987675e+00
 -2.1789232e-01
 -3.0281391e+00
  8.8445740e+00
  1.8083040e+00
  6.3434215e+00
  2.6066622e-01
 -7.5996369e-01
 -2.1464951e-01
 -1.5041786e+00
  1.4483501e-01
 -3.6685314e+00
 -2.3740442e-01
  1.0193089e-01
 -7.2843957e+00
 -3.2920253e-01
 -1.7084967e+00
 -2.3269889e+00
  6.7089877e+00
  7.7507262e+00
 -3.3065312e+00
  8.9593314e-02
  2.4828196e-02
  1.3246679e-01
  1.9871446e+00
  1.6857414e+00
  1.2622948e+00
 -6.5910144e+00
  7.8153801e-01
 -1.3330732e-01
 -3.1061337e+00
  1.2465441e+00
  3.4259727e+00
 -6.3024998e-01
 -1.9350972e+00
 -2.9404062e-01
 -1.6819484e+00
  1.0749608e+00
  5.8172119e-01
  3.6791813e+00
 -2.2090106e-01
 -6.6199237e-01
 -8.2732153e-01
  6.9749790e-01
 -5.5689101e+00
 -5.2357411e+00
 -5.7913961e+00
  9.5900983e-01
 -2.3668530e+00
 -5.4763255e+00
 -1.8005295e-01
  1.9245138e+00
  7.1273947e-01
 -5.7292372e-01
  1.1942129e+00
  7.3817241e-01
  9.8013246e-01
  1.2877002e-01
  6.8256849e-01
  3.4484818e+00
 -3.9149415e+00
 -7.1033525e-01
 -1.1577739e+00
  1.0263520e+00
 -3.8435978e-01
 -4.6759361e-01
 -1.0074837e+00
 -1.4470545e+00
  7.0855403e-01
 -7.4263674e-01
  1.2056924e+00
 -3.9960852e+00
  7.8330642e-01
 -1.0933583e+00
  1.8100691e+00
 -2.5808790e+00
  3.2894151e+00
  7.1409297e-01
 -1.7388886e+00
  1.4612070e-01
  1.0440943e+00
  1.9604850e+00
  3.9667434e-01
  4.3003398e-01
  2.0343680e+00
 -1.8664256e+00
 -1.6794289e+00
 -5.1192403e-01
 -1.1963263e+00
  6.5458202e-01
  2.5192532e-01
 -2.2415755e+00
  4.5647235e+00
  2.9692607e+00
  4.7136936e-02
 -1.8145974e+00
 -4.0939326e+00
 -1.2190828e+00
  6.9175897e+00
  3.3468332e-02
 -6.2824392e-01
  2.3510053e+00
 -4.4661517e+00
  5.5631686e-02
 -5.7934684e-01
 -1.5009903e+00
  5.6632429e-01
  2.3300856e-02
  7.9966718e-01
 -1.0476291e+00
  1.9502053e+00
 -8.1967044e-01
 -2.3228729e+00
  3.2339379e-02
 -9.6686554e+00
  5.4246074e-01
  6.5097833e+00
 -5.9099913e-01
 -4.5215697e+00
 -2.8082685e+00
 -1.2784975e+00
  5.8331633e-01
 -1.1155151e+00
 -2.1457222e+00
 -7.6878738e-01
  3.1808016e+00
 -2.8334159e-01
  8.2454222e-01
 -2.7187934e+00
 -1.0007584e+00
  1.3084730e+00
  1.3283421e+00
 -2.1870628e-01
 -4.2541361e-01
  5.9183729e-01
 -3.0680621e+00
  9.3615401e-01
  2.1890676e-01
  3.4944120e-01
  7.1829386e-02
 -5.4017973e-01
  7.5709450e-01
 -5.5739641e-01
  8.9735843e-02
  2.3977201e+00
 -2.3570979e+00
  2.1905839e-01
  1.2961551e+00
 -9.0263373e-01
  5.8907189e+00
 -1.1068259e+00
 -2.7622340e+00
 -4.9033203e+00
  1.6324811e+00
  1.2783733e-01
  2.2388253e+00
  5.1370835e+00
  3.4838042e-01
  6.5164798e-01
  3.7479105e+00
 -9.0737420e-01
  2.0716910e+00
 -2.7847991e+00
  6.7795134e-01
  2.5733912e-01
 -9.1261722e-02
 -3.4294350e+00
  1.6766478e+00
 -3.6687294e-01
  3.9993815e+00
  1.2735090e+00
  1.4382979e+00
  1.5796449e+00
  1.0488069e+00
  4.5260322e-01
  1.1032702e+00
  1.1684241e+00
  3.0116710e-01
  2.1608346e+00
 -1.8417551e-01
 -1.2391663e+00
 -3.4826910e+00
 -1.3687264e+00
  1.6404026e+00
  2.2106659e+00
  4.8967722e-01
 -1.7201715e+00
  2.0747080e+00
 -8.1389714e-03
  3.6049294e+00
  1.4621512e+00
 -1.3165925e+01
  4.0930793e-01
  1.2592010e-01
 -5.4267269e-01
 -7.7605855e-01
 -1.5180226e-01
  1.5911294e+00
  9.6720912e-02
  1.3248184e+00
  8.7286675e-01
  1.9224987e+00
 -5.4338324e-01
 -2.1470304e+00
  5.1458573e+00
  8.1487477e-01
 -7.5082397e-01
  3.3643475e-01
  3.4142909e+00
 -9.0826809e-01
 -1.3654298e+00
 -2.2958314e+00
 -8.5379757e-02
  1.5761214e+00
  9.8149814e-02
  5.4038577e+00
 -3.5087690e-01
 -4.6026349e+00
 -2.2619460e+00
 -8.9863783e-01
 -1.3133461e+00
  1.7605342e-01
 -4.1661385e-01
  5.0607097e-01
  1.7471400e+00
 -1.3909696e+00
 -2.6083547e-01
  1.2129898e+00
 -3.8688451e-01
 -1.8083474e-01
 -2.1103694e+00
  7.4310184e+00
 -2.1226776e+00
  6.5623665e+00
  1.1123533e+00
  8.7983429e-01
 -1.6514443e+00
  8.0748308e-01
  2.3535921e-01
  1.0110861e+00
 -8.4423000e-01
 -2.2808664e+00
 -7.4844792e-02
 -3.1706148e-01
 -2.5838780e+00
  2.1802843e+00
  5.5841208e-01
 -4.4111148e-01
 -1.0254897e+00
  5.8942580e-01
  5.0461807e+00
 -1.1080843e+00
 -1.5617568e+00
  8.7696964e-01
  6.5709621e-01
  2.6194017e+00
  1.9197228e+00
  2.9049244e+00
 -1.3279548e+00
  3.6092269e+00
 -5.0919337e+00
  6.2645696e-02
 -2.2663826e-01
  2.6708498e+00
 -3.1616044e+00
  7.6314402e-01
  4.5615120e+00
 -5.6099933e-01
 -6.3532794e-01
  6.1595571e-01
 -6.8394405e-01
 -3.3833387e-01
  2.3964903e+00
  9.1070867e-01
  2.7636262e-02
  8.5164413e-02
 -1.1193909e-01
 -1.0415877e+00
 -2.3659324e-02
  1.3407241e+00
 -2.0718966e+00
 -1.1853373e-01
 -2.8262484e+00
 -3.1908202e-01
  2.1235016e-01
  2.4016027e+00
  4.6526794e+00
 -4.1642404e+00
  2.2945602e+00
  1.5421754e-01
  2.3825388e+00
 -4.1009173e+00
  8.2002878e-01
 -3.2648841e-01
 -2.6650288e+00
 -3.6010273e+00
 -1.4467847e+00
 -1.9998471e+00
 -1.6499425e-01
 -3.3067310e-01
 -2.5698652e+00
  1.2025037e+00
  2.1112304e+00
 -9.0857643e-01
 -6.4785299e+00
 -3.9041430e-01
  1.3970037e-01
 -3.4451418e+00
  1.6630334e-01
  1.4614251e+00
 -2.8760606e-01
 -3.5798132e+00
  2.1533115e+00
  2.7446747e+00
 -8.6724812e-01
 -9.0508890e-01
 -6.9130316e+00
 -5.3459463e+00
 -2.3807514e+00
 -9.8221439e-01
 -3.1053946e+00
 -3.4920454e-02
  4.1421646e-01
 -3.1780674e+00
 -2.0087931e-01
 -1.5803877e+00
  2.3552382e+00
 -5.1239414e+00
  7.0355387e+00
 -1.2314944e+00
  3.2791767e+00
 -7.4191976e-01
 -2.5572833e-01
 -3.1391197e-01
 -5.1186544e-01
  3.0086694e+00
  5.4026999e+00
 -4.9111204e+00
  7.9798241e+00
  1.1628877e-02
  2.1483359e+00
  7.5366688e-01
  1.6489064e+00
 -1.4296798e+00
  1.9511000e+00
  4.4179230e+00
  1.3469121e-02
  2.1198988e-01
  1.4764215e+00
  1.0905410e+00
 -2.0489350e-02
  2.4798971e-01
  2.0883248e+00
  3.2745115e-02
  9.9119675e-01
  9.6646506e-01
 -7.0824212e-01
 -9.0247679e+00
  2.4607652e-01
  4.1687765e+00
 -4.2797235e-01
  6.1862618e-01
 -2.4379684e-01
 -7.0068133e-01
 -2.5272286e+00
 -2.3332686e+00
 -8.9495220e+00
  6.5460855e-01
 -2.3384709e+00
 -2.7006612e+00
 -1.1974916e+00
  7.1775955e-01
  2.2943519e-01
  1.3574138e+00
  8.4388733e-01
  4.6983144e-01
  3.7098520e+00
  1.3128279e-01
 -4.0862203e-01
  2.7268412e+00
  1.4372022e-01
  1.5527860e+00
 -9.6455103e-01
 -1.2454476e+00
 -6.5050745e-01
 -5.7747936e-01
  3.1353347e+00
 -1.2925701e+00
 -8.2322592e-01
  8.2827008e-01
  8.9439273e-01
  9.1715521e-01
 -7.1037656e-01
 -2.8733284e+00
  3.0354104e+00
 -1.4408108e+00
 -1.6655478e+00
 -4.3766947e+00
  6.2837939e+00
  1.7423118e+00
  9.9050009e-01
 -7.0149079e-02
  7.4476212e-01
  3.2288861e+00
  1.1694412e+00
  8.4272552e-01
 -5.0554595e+00
 -1.3100863e+01
 -5.5590954e+00
  4.6572089e+00
 -1.3778925e-01
 -1.7491277e-01
  7.4856751e-02
  1.8558048e+00
 -1.1072357e+00
 -7.5276369e-01
 -1.8562579e+00
 -1.0039524e+00
 -6.7868867e+00
  2.9092546e+00
  9.0671426e-01
 -1.7867373e+00
 -5.5021930e-01
 -2.7019658e+00
 -2.1989188e+00
 -6.4243674e-02
  1.6514204e+00
 -1.9140062e+00
  2.1866002e+00
  1.1263326e+00
 -2.9597290e+00
 -2.8667629e+00
 -2.1564074e+00
 -2.7926061e+00
  7.9196149e-01
  2.7621214e+00
  3.5181417e+00
  3.7032455e-01
  1.0616860e+00
 -4.4196138e+00
  2.0246150e+00
 -8.5378659e-01
  1.1115437e+00
 -2.4727349e-01
 -4.4813856e-01
  2.4712648e+00
  1.7997390e-01
 -1.4556231e+00
  4.3615170e+00
  2.1027751e+00
 -5.7131326e-01
  4.4679174e+00
 -1.3605204e+00
 -1.7136765e+00
 -7.6883059e+00
  1.1064965e+00
 -3.1187403e+00
 -3.2916825e-02
  1.0579261e+00
 -2.0465198e+00
 -1.0360193e+00
 -6.6049113e+00
  2.6764252e+00
  1.6831487e+00
  7.2621089e-01
  6.7669261e-01
 -1.5786655e+00
  3.5632384e-01
  2.3324595e-01
 -1.8218360e+00
 -3.0627065e+00
 -2.4062350e+00
  1.0449241e+00
  8.8051957e-01
 -1.8194537e-01
  3.3372268e-01
  9.0254277e-01
 -4.4554667e+00
  9.5569825e-01
  2.7561352e+00
  4.9288366e-02
 -1.2281450e+01
  5.4283834e-01
 -1.8750752e+00
 -5.4605126e-01
  4.2091277e-01
  4.5959978e+00
  3.0289359e+00
  8.1862223e-01
  1.8649438e-01
  1.7705461e-01
 -7.8616393e-01
  7.7083841e-02
 -7.8226142e-02
 -5.0074410e-02
  1.5066117e+00
 -3.7291033e+00
 -1.4594699e+01
 -1.9115984e+00
  2.1744425e+00
 -4.5858741e-01
  1.1153203e-01
  3.5105568e-01
  4.2064002e-01
  4.1269824e-01
  7.1552366e-01
 -1.0153961e-01
 -1.4503034e+00
 -1.8141932e+00
 -2.9654109e-01
  7.5130224e-01
 -2.3476814e-01
  1.3233442e+00
  1.3876408e+00
 -7.8443575e+00
  3.2090819e+00
 -6.5445170e+00
 -2.8596625e+00
  2.5965774e+00
 -8.0842966e-01
  7.2994095e-01
  2.2715337e+00
 -1.0802885e+00
 -4.7534665e-01
  6.0070187e-01
 -2.6363471e-01
  1.1455705e+00
  4.6358070e+00
 -1.1902807e+00
  2.5654838e+00
  3.4685183e+00
 -2.0914558e-01
 -4.3110085e+00
  1.8520855e+00
 -4.9950385e-01
 -1.7489910e+00
  3.0649230e+00
  3.1572059e-01
  5.9303713e-01
 -3.6143053e-01
  2.0784929e-01
 -3.9073122e-01
 -1.7708740e-01
 -5.9631324e-01
  8.5772389e-01
 -1.2697687e+00
  3.7340293e+00
 -2.4749057e+00
  2.8512773e-01
 -1.6895379e+00
  2.2760196e+00
 -1.3001591e+00
 -2.6519135e-01
 -1.2090884e+00
  2.1615717e+00
  2.9723811e-01
 -3.0781171e-01
  2.3436985e+00
  1.2401474e+00
 -1.1315788e-01
 -1.1382608e+00
  1.2890358e-01
 -2.0085913e-01
 -1.4141475e+00
 -8.1383139e-01
 -4.2546740e+00
  1.6936555e+00
 -9.3180203e-01
 -5.8459692e+00
  1.0989280e+01
 -4.7967136e-01
 -1.3838558e+00
  1.5288729e-03
 -1.7785282e+00
  3.1909335e-01
 -3.2948654e+00
  1.4515069e+00
 -2.1454940e+00
  1.3545452e+00
  1.2823222e+00
 -1.0028563e+00
  4.6935925e-01
  6.6205323e-01
  2.2662160e+00
 -1.3901228e+00
 -2.4888163e+00
  1.3649122e+00
 -4.1122379e+00
 -1.1273193e-01
 -4.3219692e-01
 -4.4445056e-01
  2.2377858e+00
 -4.9225000e-01
 -2.3755627e+00
 -7.6258409e-01
  2.6053486e+00
 -7.2519028e-01
 -1.3435826e+00
 -3.1646206e+00
 -7.1232378e-01
 -3.0522954e+00
 -5.5470757e+00
 -3.9327376e+00
 -1.4140001e-01
  5.9876966e-01
 -2.1329878e-01
  9.3803614e-02
 -9.4385749e-01
 -9.1617644e-02
  3.6933696e+00
 -6.5868288e-01
 -4.3422189e+00
  2.4478878e-01
 -2.6865417e-02
 -1.9147005e+00
  6.7863994e+00
 -1.5875086e+00
  2.2939861e+00
 -6.0069108e-01
 -6.2858033e-01
 -6.5849023e+00
 -3.0979779e-01
 -1.4273366e+00
  2.5210494e-01
 -1.8582888e-01
  2.5094404e+00
  1.4477433e-01
 -1.0630317e+00
  1.8634268e+00
  1.5566320e+00
 -5.1221199e+00
  1.9586246e+00
 -3.4267998e+00
  2.6317868e-01
  1.1981035e+00
  1.9709276e-02
  3.3087809e+00
 -9.4021475e-01
  4.7539482e+00
  1.4859141e+00
 -3.8517101e+00
 -5.2482706e-01
  1.0674113e+00
 -3.8104138e-01
 -5.0339448e-01
 -8.7114153e+00
  2.6081927e+00
 -5.9694541e-01
  5.0217545e-01
 -2.0083116e-01
  6.1752230e-02
  1.7380459e+00
  1.1323797e+00
 -8.6448580e-01
  7.1269953e-01
  1.7633155e-01
 -1.6200880e+00
  9.4273210e-01
 -3.5027820e-01
  1.6554029e-01
 -1.1227776e+00
 -1.2698523e+00
 -8.5951048e-01
 -1.2133574e+00
 -4.5654960e+00
  2.6160147e-02
  2.6654389e+00
  7.3202592e-01
 -3.8748839e-01
  1.4075975e+00
  1.1910868e+00
 -5.1482220e+00
 -6.1105514e+00
 -1.4125420e+00
 -1.5004750e+00
  2.8436714e-01
  1.1646717e+00
  6.4306953e-03
  3.5227901e-01
 -8.7458491e-01
 -2.2220278e+00
  3.0423896e+00
  3.8247783e+00
  8.4625572e-01
  2.1784010e+00
 -1.0098826e-01
  6.3392162e-01
 -1.2487192e+00
 -1.3426912e-01
 -2.2289839e+00
  1.5862858e+00
 -4.1715290e-02
 -1.4926307e+00
 -3.2482958e+00
 -5.9428549e-01
  6.3192368e-01
 -6.4385813e-01
 -9.7866058e-01
 -6.3799024e-01
 -1.1912488e-01
  8.0432111e-01
 -1.2734302e+00
  1.6032691e+00
 -2.1674094e+00
  1.2557711e+01
  5.9264416e-01
  6.4827907e-01
  5.4107151e+00
 -2.6716573e+00
 -1.3657587e+00
  3.2403171e-02
  2.1940662e-02
 -6.9964182e-01
 -3.8309476e+00
  1.1206349e+00
 -1.6716284e+00
 -2.8934002e+00
 -2.2549945e-01
 -3.0783749e-01
 -6.5953131e+00
  1.4309406e-01
 -1.2563525e+01
  5.9738833e-01
  5.4593307e-01
  1.5412660e+00
 -5.4688913e-01
  3.1932364e+00
 -3.9839110e+00
  6.3231908e-02
 -1.4968587e+00
 -2.3500040e+00
  3.3956409e-01
  5.7233987e+00
  1.5193075e-01
  3.0502541e+00
  1.8799106e+00
 -8.8453424e-01
  6.6312599e-01
 -6.7098135e-01
  2.9897594e-01
  9.9741548e-01
  7.4937820e+00
 -6.4124340e-01
 -1.6189642e-01
  6.0119992e-01
 -3.2219114e+00
  1.3219663e+00
  1.0452954e+00
  1.3824807e+00
  2.3248010e+00
  2.5315276e-01
 -4.2790136e+00
 -2.1159832e+00
  1.2743629e+00
  1.1253942e+00
 -1.8375053e+00
  1.0248886e+00
 -1.5381167e+00
  2.6312384e-01
  1.8714867e+00
  4.7043923e-01
  1.3331230e+00
  1.5656362e+00
  3.1071820e+00
 -7.0387063e+00
 -4.1145105e-02
  6.0410714e-01
 -1.4581032e+00
  2.1303977e-01
  1.5041932e-01
 -5.6051617e+00
  1.1009562e+00
 -3.1746992e-01
  3.2300740e-02
  1.5146805e+00
  1.7866305e+00
  1.4493469e+00
 -1.3939160e+00
  1.1796049e+00
  2.7842873e-01
  1.8844545e+00
 -5.0951576e+00
 -2.4376497e-01
 -2.6166763e+00
  7.6321983e+00
 -1.4331185e+00
 -5.3840190e-01
  1.5669900e+00
 -5.0417125e-02
  5.5620754e-01
 -5.2943957e-01
  1.2440660e+00
 -1.0390987e-01
  4.5391531e+00
 -2.3038983e-01
  1.4050492e+00
 -1.4841005e+00
 -4.2141959e-01
  3.1138072e+00
 -4.1295174e-01
 -7.7273375e-01
  4.4970748e-01
 -6.3124770e-01
 -3.8557276e-02
 -6.8998569e-01
  2.6715002e+00
 -3.7182614e-01
 -3.2986760e-01
 -3.2028350e-01
 -5.4405665e-01
  6.6668296e-01
 -6.0808957e-01
  8.2213771e-01
  1.4914479e+00
 -1.7849053e+00
 -2.7509544e+00
 -2.0297854e+00
  4.1966305e+00
 -2.8249261e+00
 -5.8721584e-01
 -1.2212653e+00
  1.9769597e+00
  3.1322312e-01
  1.5224428e-02
 -1.5532677e+00
  1.5629956e+00
 -3.1294143e-01
 -2.9704019e-01
  1.3736920e-01
 -8.3584917e-01
  2.4551909e+00
  2.6281157e-01
  5.2368581e-01
  9.2215366e+00
 -1.3918105e-01
 -2.5635278e+00
  2.4770099e-01
 -5.2098536e+00
  1.3475001e+00
 -4.5752478e+00
  1.2765877e+00
 -2.7649484e+00
 -2.1299131e+00
 -9.6799594e-01
  2.1082807e+00
 -9.1168857e-01
 -5.4767923e+00
  2.5839148e+00
  6.6300148e-01
 -9.5805609e-01
  4.1118402e+00
 -3.1530023e+00
 -2.1739857e+00
  1.3503784e+00
 -6.1975569e-01
  4.0188719e-02
 -7.0563233e-01
 -6.9230604e+00
  1.2747229e+00
 -4.1691513e+00
 -9.2132902e+00
 -9.1939431e-01
 -9.4341213e-01
 -4.8126429e-01
  1.1407058e+00
 -3.7122140e+00
 -3.4204466e+00
 -4.5757222e+00
 -1.0516169e+00
 -9.1315639e-01
 -3.8434575e+00
 -1.3156844e+00
 -3.2136485e-01
 -4.6961418e-01
  2.3751257e-01
  2.4803750e-01
  8.4590399e-01
 -4.4865075e-01
  2.2490599e+00
 -2.5583327e+00
 -1.4156060e+00
  4.1787762e-02
  1.8782339e+00
  1.8684969e+00
 -1.7315677e+00
 -2.6576669e+00
 -4.4671450e+00
 -1.5148934e+00
  8.2287149e+00
  6.9952166e-01
 -2.7481430e+00
  7.4913126e-01
  4.6880275e-01
 -2.1513541e+00
  2.3818786e-01
  6.0121655e-01
 -2.7551847e+00
 -3.7356886e-01
 -4.8895054e+00
  5.3671751e+00
 -8.9369001e+00
  8.0655313e-01
 -9.4324738e-01
  5.9694934e-01
  1.2472454e+00
  1.2678371e-03
  3.1573087e-02
 -1.2406880e-01
 -7.4581628e+00
  6.9441277e-01
  6.8558655e+00
 -1.4286604e+00
  2.0371387e+00
  6.3257700e-01
  4.6988982e-01
 -1.1864319e-01
 -1.1401592e+00
 -9.3019170e-01
 -9.6214688e-01
  5.3436532e+00
  6.2580729e-01
 -7.7187443e-01
 -1.2454683e-01
 -3.6690038e-01
 -1.6730928e-01
  1.1455653e+00
  1.4731334e+00
 -1.3381356e-01
 -2.0647688e+00
  3.4845960e+00
 -1.3568400e+00
  9.2715405e-02
  2.6455171e+00
 -2.8462837e+00
  9.4865716e-01
  2.4018896e+00
 -1.6166809e+00
 -2.0237374e+00
 -3.2815094e+00
 -1.3912666e-01
  4.2723432e-02
 -2.2473862e+00
 -1.7108045e+00
 -3.4036045e+00
  1.1297655e+00
  1.2710038e+00
  3.1040859e+00
 -6.2132859e-01
  3.4323391e-02
 -5.8405912e-01
 -7.1634132e-01
 -2.3358923e-01
  3.3067048e-01
 -3.6010176e-01
  1.8685783e+00
 -1.8928196e+00
  1.1291606e+00
  2.7715001e+00
 -1.0390931e+00
 -1.2554011e+00
 -1.5285383e+00
 -2.1625719e+00
 -1.1356230e+00
 -1.8173531e-01
 -5.7529283e+00
 -3.9587530e-01
  1.1013029e+00
  2.6295202e+00
 -2.6428792e-01
 -2.8027701e-01
 -5.9182975e-02
  2.1147008e+00
 -4.0703535e+00
 -1.0690161e+00
  6.2213111e+00
  2.5389212e-01
 -4.8797088e+00
  1.4076331e+00
 -2.8008366e+00
  9.2219400e-01
  6.4117587e-01
 -9.4114918e-01
  1.4259833e-01
 -2.2026334e+00
  1.3325344e-01
  9.9884105e-01
 -2.4298279e+00
  8.6470008e-01
 -6.4755793e+00
 -7.4557441e-01
 -6.2177706e-01
  9.0396494e-01
  1.3877366e+00
 -2.3945563e+00
 -5.1863098e-01
 -1.5955110e+00
 -3.3261964e+00
 -7.5801814e-01
 -2.2505100e+00
  6.1259806e-01
 -6.4287096e-01
 -2.3086624e+00
 -2.8406554e-01
  5.8351648e-01
 -2.2323194e-01
 -5.0498563e-01
 -9.6502155e-01
  8.7386169e-02
 -1.2242100e+00
 -1.0650812e+00
  1.9959053e-02
  1.3733042e+00
  5.1418513e-01
  2.6535501e+00
  8.4645796e-01
 -8.6797019e-03
 -4.6379030e-01
  7.0365686e+00
  3.7479916e+00
  5.4967237e+00
  2.3310253e-01
  4.4672035e-02
  3.0731490e-01
  1.7628440e+00
 -5.3750038e-01
 -3.0749631e-01
  4.5079985e-01
 -4.2559129e-01
  3.1416287e+00
 -4.4343278e-01
  9.9976325e-01
  3.9676840e+00
  2.3222989e-01
  8.6803329e-01
 -1.4868327e+00
  1.9416133e-01
  5.7713801e-01
 -1.1090809e+00
  1.3881187e-01
  4.8735261e-02
 -9.3011932e+00
 -1.8523946e-01
  1.8527777e-01
  1.9026344e+00
  7.2413003e-01
 -8.6171138e-01
  8.5152373e-02
 -1.6300827e+00
  5.2868441e-02
  6.7871219e-01
  3.3174450e+00
 -1.1243382e-01
  7.9918826e-01
 -4.8598349e-01
 -2.2107922e-01
 -1.8443278e+00
  4.0723772e+00
 -2.9790002e-01
 -2.7386637e+00
 -8.2234669e+00
  1.8469983e+00
 -2.6383051e-01
  1.6302301e+00
  1.2919062e+00
 -1.1907228e+00
 -4.7200724e-02
 -5.2080336e+00
 -1.5074794e-02
  5.3973885e+00
  1.0804486e+01
  2.0255771e+00
  2.1016302e+00
 -2.6557264e+00
 -6.7351155e-02
  1.1483363e-01
  4.7610775e-01
 -1.4007717e+00
  1.2633607e+00
 -3.7718731e-01
  5.7243544e-01
 -6.6896138e+00
  2.9963095e+00
  6.8219882e-01
  7.1940941e-01
 -4.4627070e+00
  1.1105971e-01
 -5.5233970e-02
  3.5485609e+00
  4.5612917e+00
 -6.8889270e+00
 -7.1537724e+00
 -1.3061484e+00
  7.0456845e-01
 -2.9896924e-01
  4.4563818e-01
 -1.0980419e-01
  3.1208012e-01
 -8.2337230e-01
  2.4858376e-01
 -2.6667269e-02
  3.6828296e+00
 -3.1150025e-01
 -1.8634039e+00
 -1.0161133e+00
 -9.8953301e-01
 -1.2448351e+00
  3.1089849e+00
 -2.6630383e+00
 -2.1593299e+00
 -1.5979727e-01
  1.1337694e+00
  5.0829144e+00
  4.4875753e-01
 -9.0142262e-01
  9.3985116e-01
 -1.2113763e+00
  7.3408312e-01
 -1.2109959e-02
 -3.0787295e-01
 -4.9732637e+00
 -1.2404143e+00
  4.9117699e+00
 -1.1546009e+00
  8.1748766e-01
  1.5489829e+00
  6.0719955e-01
  5.7757587e+00
  6.2511700e-01
  3.8489082e+00
 -8.0903810e-01
 -7.8239770e+00
  8.7662882e-01
 -1.0899043e+00
 -7.7483835e+00
  3.4263667e-01
  1.3390505e+00
  5.6576233e+00
 -3.3099167e+00
 -2.9742619e-01
  7.1390688e-01
  6.3481110e-01
 -5.2057648e-01
  9.1082931e-01
  2.0177364e+00
 -2.6732641e-01
  1.9051993e+00
 -6.0965985e-01
 -1.3853229e+00
  6.1127362e+00
 -2.8706098e-01
 -2.2407599e-01
 -5.2380338e+00
 -1.1083407e+00
  1.2163970e+00
 -3.7319687e-01
  3.9708560e+00
  1.2294779e+01
  1.2148057e+00
 -4.0973554e+00
 -2.4406643e+00
  9.4489229e-01
  3.4441236e-01
  1.2781619e+00
 -1.0873888e-01
  4.3889365e-01
  2.6684573e+00
  3.3348992e-02
  2.1544963e-01
 -2.4886320e+00
  1.6281872e+00
 -2.3554432e+00
  1.5826637e+00
  5.6716595e+00
 -7.3092520e-01
  2.0432708e+00
 -1.5684994e+00
 -1.5225711e-01
  1.8671470e+00
  6.1904612e+00
 -3.8891501e+00
 -6.4288986e-01
 -3.9964187e-01
  1.1351287e+00
  1.8853134e+00
  9.4795555e-01
  2.5105205e+00
 -1.6341388e+00
  2.0765260e-01
  9.3462259e-01
  8.8280267e-01
  6.1888665e-01
  8.8251412e-02
  9.1092825e-01
  9.8253069e+00
  2.9366521e-02
 -5.1953459e-01
 -1.9715282e+00
 -2.7180083e+00
  8.0585390e-01
 -7.5647837e-01
 -3.7140918e+00
 -6.2506503e-01
 -1.2841425e+00
  1.0741096e+01
  2.2947142e+00
  1.4805353e-01
  1.6815940e+00
  7.6423383e-01
 -1.5844800e+00
  9.3219888e-01
  3.4676716e+00
 -2.1461904e+00
 -8.7816298e-01
 -1.6901106e+00
  5.3299254e-01
 -1.6100837e-02
  1.0676460e+00
  1.0156237e+00
 -1.4670948e+00
 -4.3813992e-02
 -2.6376219e+00
 -3.9314427e+00
 -4.0759545e-02
 -7.2229587e-02
  4.1429234e+00
 -9.3538857e-01
  3.2022071e+00
  5.9758196e+00
  3.1538088e+00
  2.4339335e+00
 -3.7835383e+00
  2.0696504e+00
 -2.0288336e-01
 -2.1558700e+00
 -1.1773566e+00
  1.7510988e+00
 -3.4510344e-01
 -2.7244282e-01
  3.7259275e-01
 -4.3016181e+00
 -4.8093400e+00
  1.9443076e+00
  1.4251511e+00
 -1.4616355e-02
 -1.9432328e+00
  5.8304787e-01
  7.2375852e-01
  5.4505982e-02
  4.2051032e-02
  6.2964016e-01
 -1.3707004e+00
  1.0771956e-01
  4.2628464e-01
  6.3384610e-01
 -5.8318162e-01
  8.1974983e+00
 -3.6731114e+00
  1.3533410e+00
  7.6775330e-01
 -1.9078009e+00
 -2.9533753e-01
  8.3333278e-01
 -7.8306419e-01
  6.1913476e+00
  1.1317580e+00
 -1.1803276e-01
 -3.7003851e-01
 -5.8515680e-01
 -8.6652088e-01
 -1.4768581e+00
 -4.2042106e-01
  2.8164639e+00
 -2.7998431e+00
  1.0154794e+00
  3.6391568e-01
 -1.1674215e+00
  3.0167797e-01
  9.4716883e-01
  1.9322164e-01
  6.1644578e-01
 -2.3319137e-01
  2.5309958e+00
 -5.6529808e-01
  4.3162489e-01
 -7.6924562e-02
 -2.0474458e-01
 -7.6708072e-01
 -2.8614330e+00
 -3.4149304e-01
 -3.9706576e+00
 -3.9031043e+00
 -1.8447374e+00
 -3.2358897e+00
  6.2985787e+00
 -1.6204218e+00
  1.4962334e-02
 -6.9672185e-01
 -2.5176108e-01
 -4.1451895e-01
  6.9656372e-01
 -3.3360596e+00
 -6.4817657e+00
  1.8908331e+00
 -1.1566635e+00
 -2.5650880e+00
  2.3882740e+00
 -2.7703280e+00
 -6.7596376e-01
  2.5720009e-01
 -7.7366414e+00
  9.8987848e-01
  1.6832104e+00
 -1.1880835e-01
  3.1392696e-01
 -5.6761417e+00
  1.9093548e-01
 -1.2644444e+00
 -7.8210247e-01
 -1.4222373e+00
 -2.9779694e+00
 -3.5672891e+00
 -2.3623686e-01
  4.9828725e+00
  7.7702218e-01
  4.5065899e+00
 -6.9304429e-02
  8.6971402e-02
 -1.1485649e+00
 -3.1246400e+00
 -1.1902233e+00
  1.0562744e+00
 -1.6905910e+00
 -2.2688534e+00
  5.9470673e+00
 -1.7962143e+00
 -1.8899844e+00
  1.0281311e+00
 -4.3734127e-01
 -3.0552906e-01
 -7.6536274e-01
  1.7029142e-01
 -2.0825574e+00
 -1.7330071e+00
 -8.5475880e-01
  2.2300005e+00
 -2.6787114e-01
  1.3656945e+00
 -2.2885421e-01
  1.0368958e-01
  2.9893386e+00
  5.6935472e+00
 -1.9946482e+00
  2.9617455e+00
 -2.7040522e+00
 -1.9361562e+00
  3.6448720e+00
 -3.1236264e-01
 -1.6235622e+00
 -2.0411077e+00
  3.1693358e+00
 -3.1993601e+00
  1.2536788e+00
 -5.0209486e-01
  5.4522314e+00
 -6.4566431e+00
 -4.9289939e-01
 -1.5492412e+00
 -1.6047240e+00
 -9.2614716e-01
 -5.0119295e+00
 -5.9307528e+00
 -4.4446683e-01
  1.4962327e+00
  5.5381718e+00
  1.4512913e-01
 -7.7543402e+00
 -2.0319131e-01
 -5.3306830e-01
 -8.7478369e-01
 -7.8752261e-01
  3.5210333e+00
  2.3285935e+00
  2.1001267e-01
 -2.2377143e+00
 -4.0923078e-02
 -9.9528551e-01
 -5.6812280e-01
 -4.5501513e+00
 -7.1240765e-01
  2.9445550e-01
  9.4646969e+00
 -1.0812374e+00
  1.7897136e+00
  4.2769706e-01
 -4.0192022e+00
  1.8697366e-02
 -8.3028787e-01
 -1.5246739e+00
 -4.7669673e-01
  5.3630239e-01
  3.2236722e-01
  6.2930532e+00
 -2.4810334e-01
  1.2598009e-01
 -5.7694778e+00
 -5.3901362e-01
  3.6063671e-01
 -3.0094118e+00
  3.5976282e-01
  8.0804700e-01
 -1.8638810e+00
 -2.7069491e-01
  8.7064385e-02
  4.2653260e+00
  2.5148049e-01
 -7.7121359e-01
 -1.1738907e+00
  3.6125624e+00
 -4.8600678e+00
  4.9888131e-01
  4.6360145e+00
  9.1317501e+00
  2.0485113e+00
 -2.7304521e+00
 -5.4551733e-01
  2.8850093e+00
  1.4881072e+00
 -2.5966832e-01
 -8.3053470e-01
  4.5260782e+00
 -2.5607412e+00
  5.6608992e+00
  3.8994796e+00
  8.4359288e-01
  1.6215103e+00
 -2.1532171e+00
 -5.9808892e-01
 -1.1476476e+00
  1.1390873e+00
 -1.1308821e-01
 -3.0788960e+00
 -3.2464147e-01
 -4.2838335e-01
 -2.3135116e+00
 -1.3480572e+00
  4.2874417e+00
 -6.1221594e-01
  9.0568286e-01
  2.8587852e+00
  1.0570010e+00
  3.8466933e-01
 -3.3969229e-01
 -3.4864008e+00
  2.9512665e+00
 -4.6872339e-01
  1.1854187e+00
 -2.8158598e+00
  2.4335804e+00
  2.9787428e+00
  3.3884647e-01
  1.1871479e+00
  1.2109362e+00
  4.7273743e-01
 -5.2243185e-01
 -2.6578336e+00
 -3.4894404e+00
  1.2483397e+00
 -1.0476086e+00
  6.4406371e+00
 -3.4556767e-01
  6.3532865e-01
  5.2849793e-01
 -2.8592888e-01
  1.3840591e+00
 -1.1247454e+00
 -1.0339748e+00
  1.9922601e-01
 -4.8454702e-01
  2.7304664e+00
 -1.5895834e+00
  1.2985530e-01
 -4.0515099e+00
 -1.8853855e-01
 -3.3967045e-01
 -1.6275638e+00
 -4.1485772e+00
  3.1957386e+00
 -5.9826642e-01
  1.4897679e+00
 -5.2735919e-01
 -1.3916104e+00
  2.4198241e+00
  3.2912490e-01
  2.6583585e-01
 -6.7055712e+00
 -4.9016347e+00
  8.8029981e-01
 -1.1507597e+00
 -8.1794542e-01
 -4.9763605e-01
  8.2216352e-01
 -5.9683230e-02
  1.3153644e-02
 -2.0013289e-01
  4.8435517e-03
 -8.1585318e-02
 -8.2972759e-01
  6.7444739e+00
 -9.4535627e+00
 -1.5821924e+00
 -5.1142949e-01
 -1.9063865e-01
  1.2466145e+00
  3.1923308e+00
  4.3355188e-01
  3.0697209e-03
 -1.4469381e-01
 -2.3308740e+00
 -7.7290821e-01
  3.7100193e-01
 -8.9122319e-01
 -7.0314772e-02
  7.5320967e-02
  1.6670400e+00
 -7.2400576e-01
  3.6791250e-01
  6.0933948e+00
  2.8300302e+00
 -1.0538010e-01
 -1.7767006e+00
 -7.9863214e+00
  1.8090488e+00
 -6.4252567e-01
 -3.4608402e+00
  5.4098291e+00
  4.5243773e+00
  1.1888627e+00
 -2.2587914e+00
  8.2537632e+00
 -1.2856647e+00
  5.4914565e+00
 -7.9653984e-01
 -4.3325627e-01
  9.0553695e-01
 -1.0518870e+00
 -3.6218762e-01
 -4.8173141e+00
  8.2987678e-01
 -2.7918913e+00
 -4.9709940e-01
  2.2278501e-01
  6.0042596e-01
 -9.5780596e-02
 -1.3715463e+00
  5.9570050e-01
  2.4478424e-01
  2.7171307e+00
 -8.1077833e+00
  5.7601649e-01
  1.8645003e+00
 -5.0404876e-01
 -1.4531481e+00
 -1.3924191e+00
  9.0189159e-02
 -3.4450665e-01
  9.7483099e-03
 -5.7486027e-01
  2.9121175e-01
 -6.8905139e-01
 -8.6649543e-01
 -2.3613039e-01
  1.6683774e+00
  2.3352246e-01
  1.1079507e-01
  3.4423879e-01
  9.2601115e-01
  3.4321136e+00
  2.2229114e+00
 -2.2777040e+00
 -2.2003394e-01
 -2.6468563e+00
 -9.8862684e-01
  1.8095924e+00
  1.9331198e+00
  6.4062667e-01
 -4.5703861e-01
  3.0672017e-01
 -9.1693908e-01
 -6.3487810e-01
  3.6064990e+00
  9.2439985e+00
 -1.4748734e+00
 -9.6013457e-01
 -2.0858076e+00
 -1.9578928e-01
 -4.2015948e+00
  6.2507349e-01
  2.3129041e+00
 -1.8720872e+00
 -3.7951193e+00
 -4.1356468e-01
 -2.1001370e+00
  1.2933131e+00
  1.4608741e+00
  2.3065884e+00
  5.2070312e-02
  1.1280401e+01
 -3.6279619e+00
 -1.8952897e+00
 -4.2363057e-01
  6.8542421e-02
  2.8970566e+00
  2.6636813e+00
 -2.5406797e+00
  2.6033354e+00
 -3.1977310e+00
  6.0839797e-03
 -4.4416246e+00
 -5.0213742e-01
  3.8086414e+00
 -3.5578394e+00
  1.6574933e-01
 -1.8602473e-03
 -4.5568533e+00
  2.3009752e-01
 -9.3870586e-01
  6.1118975e+00
 -1.2651469e+00
  3.6315219e+00
  6.9137079e-01
 -1.1576172e+00
 -2.4681914e+00
 -4.2834109e-01
 -1.1086879e+00
 -9.1687393e-01
 -2.0520940e-01
  7.7736968e-01
 -7.6546162e-02
  7.3574537e-01
  1.0766248e-01
  2.5534375e+00
 -1.6390760e+00
  9.2182714e-01
 -6.7803419e-01
  1.8604850e+00
  2.0219016e+00
 -2.2748551e+00
  9.1009808e-01
 -1.5218397e+00
  3.8809905e+00
  1.0109220e-01
 -2.9685700e+00
 -3.0327028e-01
 -5.3686458e-01
 -1.1274686e-01
 -1.2742857e+00
 -1.2521156e+00
  1.7931242e+00
  2.0566592e+00
 -3.3787420e+00
 -5.1541334e-01
  1.4038975e+00
 -4.8093310e-01
 -2.9569215e-01
 -1.2059137e+00
  2.5272832e+00
  6.2277403e+00
 -4.3458864e-01
 -2.6809390e+00
  3.0971715e+00
 -1.4477597e-01
 -1.7825131e+00
 -1.0611858e+00
  5.3998750e-01
  5.1045853e-01
  7.0738535e+00
  5.3720880e+00
  1.2688251e+00
 -3.8791435e+00
 -5.4172974e-02
 -1.6149457e+00
  3.8324574e-01
 -8.3278960e-01
  7.1532023e-01
  3.5175923e-01
  4.4259992e-01
 -7.0920002e-01
  3.5747404e+00
 -4.4482909e-02
  1.2521032e+00
 -2.5022736e+00
  3.9435532e+00
 -2.0121021e-02
  1.5561180e+00
 -5.2013111e-01
  9.7755080e-01
  1.8177063e+00
 -4.1648597e-02
  8.4008064e+00
  2.4097297e+00
  1.7363764e-01
  4.8379132e-01
 -2.2064590e-01
 -2.2062564e-01
  6.5286332e-01
  2.2663493e-01
 -7.3098403e-01
  3.8311738e-01
  4.2468706e-01
  1.3783700e+00
 -1.4675373e+00
 -6.2196054e+00
  3.5117039e-01
  6.0704317e+00
 -6.6734426e-02
  1.5589716e+00
  1.5246477e+00
  3.7139437e+00
  3.5472000e-01
 -7.7875681e-02
 -1.1989784e+00
 -7.7665200e+00
 -3.1504273e-01
  4.3701520e+00
 -8.9340967e-01
  1.9660141e-01
 -1.5808003e+00
  4.6843424e+00
 -1.6252662e+00
 -1.2730461e+00
  2.2261188e+00
  1.0861137e+00
 -4.0308604e-01
 -2.7320504e+00
 -1.0323652e+00
 -5.2579713e+00
  2.1844807e+00
  1.7749237e+00
 -1.3555074e+00
 -4.4798696e-01
 -1.5726925e+00
 -3.5440701e-01
 -8.3210364e-02
  4.8454266e+00
 -1.2040239e-01
 -8.7301964e-01
  8.1034935e-01
  1.0965182e+00
 -2.8590946e+00
  4.1617972e-01
  1.2819560e+00
 -2.6188798e+00
  2.9058003e+00
 -3.5615988e+00
  1.9915906e+00
  4.7534418e+00
 -6.3641810e-01
 -6.8640332e+00
 -9.9090385e-01
  7.1534044e-01
 -4.6263999e-01
  1.6593082e+00
  5.1056437e+00
 -5.7569509e+00
 -5.7972574e-01
  8.5208702e-01
 -4.1376781e+00
 -2.8496108e+00
  2.9676292e+00
  4.1986617e-01
 -3.9449117e+00
  3.3248007e-01
 -1.0244092e-01
  3.1288397e+00
 -4.7414374e+00
  1.0115319e+00
 -2.0178652e-01
  4.7077844e-01
 -2.0642148e-01
  6.1339009e-01
 -3.8408062e-01
  1.4606926e+00
  1.1729984e+00
 -7.1065497e-01
  1.1617707e+00
 -3.3848307e+00
  4.2365599e-01
 -1.6223059e+00
 -1.4942958e-02
 -7.8299010e-01
  2.2878312e-01
 -3.3600107e-01
 -1.2690322e-01
  5.7943754e+00
 -1.9771128e+00
 -7.9752415e-01
  1.3942599e+00
  1.0099038e+00
 -2.5196069e-01
 -6.5064800e-01
 -1.1110021e+00
 -7.9750580e-01
  1.4143909e+00
 -5.3729683e-01
 -9.6467853e-01
  1.0596271e+00
 -9.3470556e-01
  6.7841792e-01
  4.4568822e-01
 -2.6298988e+00
 -1.0249093e+00
  3.2997551e+00
 -1.8452954e+00
 -2.1074712e-01
  1.5317943e+00
 -1.5757270e-02
  3.8222542e-01
 -5.8252174e-01
 -3.3657012e+00
  3.4936550e+00
  4.9672160e-01
 -1.3264148e-01
  3.7043867e+00
  9.6687895e-01
 -2.0590854e+00
 -8.7927192e-02
  4.0760255e+00
  1.1776669e+00
 -2.5279727e+00
  3.4489122e-01
  3.8450468e-01
  4.6242619e-01
 -6.2147999e-01
  9.7837853e-01
 -3.1762297e+00
 -2.5161970e-01
  2.3802546e-01
  7.8302436e-02
 -3.0213833e-01
 -2.0981417e+00
 -2.1287382e+00
 -3.9796740e-01
 -7.3061031e-01
  3.2665333e-01
 -4.4920077e+00
  1.9848827e-01
  2.7731836e+00
  6.4501023e-01
 -4.5506078e-01
 -3.1270669e+00
  3.2195966e+00
  5.2384156e-01
  4.6894258e-01
  2.5015612e+00
 -4.7301194e-01
 -6.6652541e+00
 -2.5788367e+00
 -1.2065349e+00
  1.3682690e+00
  1.8904495e-01
 -3.5467115e-01
 -1.1083018e-01
 -1.1672957e+00
  5.5759829e-01
  1.8556993e+00
 -8.3064318e-02
  1.3021901e+01
 -2.6942313e-02
 -3.2876146e+00
  3.9242885e-01
 -4.5974422e+00
 -3.6725140e-01
 -1.2785335e+00
 -6.4970541e-01
  1.4308088e-01
 -4.7037168e+00
 -7.5889640e-02
  9.6560019e-01
 -2.7430053e+00
 -3.2804039e+00
 -2.5536731e-01
  6.1691946e-01
 -6.2904377e+00
  2.3713167e+00
  2.9355988e-01
  3.4674668e-01
 -1.1781610e+00
 -2.7111837e-01
 -3.4758444e+00
 -1.5379676e-01
 -6.4950150e-01
 -1.7762167e+00
  1.2612751e+00
 -3.3615234e-01
  1.1225004e+00
 -5.0193614e-01
 -1.4512905e-01
  7.7282630e-02
  6.9342256e-01
  1.7614975e+00
  1.2305267e+00
  7.1739984e-01
 -1.7822815e-01
 -2.5350666e+00
  1.3544166e+00
 -5.1843560e-01
  2.0433287e-01
 -2.2081609e+00
 -8.4602922e-01
 -8.0284014e+00
 -1.9235402e+00
  8.0722648e-01
 -2.4096455e-01
 -5.2848858e-01
 -5.8400445e+00
 -1.0534189e+00
  2.7148867e+00
  2.3442299e+00
 -5.3243685e-01
 -4.0848956e-01
  6.9544338e-02
  2.9410796e+00
  3.6087242e-01
 -8.7225113e+00
  1.8282620e-02
 -4.6568081e-02
  1.1913220e-02
 -5.2650218e+00
  5.6722152e-01
  1.9932127e-01
 -1.7647704e+00
 -3.9718218e+00
  2.8336221e-01
 -4.5587111e+00
  9.7573322e-01
 -1.5019249e+00
  1.1252609e+00
 -6.0174417e-01
  1.5958574e-01
 -1.6256447e+00
  6.1205465e-01
  4.1692212e-02
  3.3408382e+00
 -2.8620923e-01
  2.6246089e-01
 -7.9926813e-01
 -5.7516533e-01
  7.4765939e-01
 -1.1551986e+00
 -8.5839748e-01
  2.2694113e+00
 -1.2924961e+00
 -1.3532450e+00
  8.8282442e-01
  2.1661112e-02
 -7.9617896e+00
  6.4081969e+00
 -1.4809208e-01
 -8.4009415e-01
 -1.1919451e+00
 -1.9136962e-01
 -1.3943335e+00
 -3.4139030e+00
 -4.2377019e-01
  5.9992027e-01
 -9.7400837e-02
 -1.4177588e+00
  3.6315054e-01
 -6.5098089e-01
  3.0014069e+00
 -4.0708218e+00
 -1.8775618e-01
  7.6173800e-01
  4.8683149e-01
  5.4618645e-01
  1.1572028e+00
 -1.0808569e-01
 -5.3663912e+00
 -1.7177926e-01
  1.2074888e+00
 -7.2058868e-01
  1.5578141e+00
  4.2606020e+00
 -1.7185476e+00
 -1.4209630e-01
 -1.6751044e+00
 -4.4784242e-01
  3.9039962e+00
  1.7704314e+00
 -3.0145672e-01
  2.2783053e+00
 -7.9465222e-01
  2.7710929e+00
  6.2921953e-01
 -3.4085674e+00
 -1.0600230e+00
 -5.4416943e-01
 -1.7702347e+00
  3.0969968e-01
  1.1466314e-01
 -5.6401736e-01
  1.0336164e+00
 -4.0085933e-01
 -4.7086053e+00
 -2.2438567e+00
  4.8470049e+00
  8.9654040e-01
  1.8930937e+00
 -4.0155625e+00
 -1.7753009e-01
 -1.6023217e+00
 -3.3106041e+00
  1.3004627e+00
  2.1794393e+00
  1.0700879e+00
  3.2984775e-01
 -3.2418466e+00
  5.4131496e-01
  1.3838478e+00
 -6.4434147e+00
 -1.2163644e+00
 -2.5993724e+00
  1.4025784e+01
  1.8500152e+00
  1.5981278e+00
 -9.1788214e-01
 -1.2988243e+00
 -7.0856065e-01
 -6.1874332e+00
  6.4371073e-01
 -1.1605920e+00
  1.0488502e+00
  2.9762456e+00
  2.1044691e-01
  1.6056517e+00
 -4.7209630e+00
  5.0272723e-03
 -2.2078667e+00
 -2.3120685e-02
  1.0907464e+00
  7.1235758e-01
  3.5570822e+00
  5.9186572e-01
 -2.1642278e-01
  9.6437320e-02
 -2.0227027e+00
 -3.6545665e+00
  1.6207169e-01
 -1.0585870e+00
 -9.1121644e-01
  7.6187682e-01
  1.9505587e+00
 -1.8857545e+00
 -1.9821047e+00
 -1.6029010e+00
 -4.4726214e-01
 -1.5449999e-01
  2.3314972e+00
  4.3712430e+00
 -2.8267949e+00
  2.6883337e-01
 -2.6561171e-01
 -2.9398131e+00
 -6.1699476e+00
 -4.4048581e+00
  5.0792438e-01
  1.8007884e+00
  7.9186690e-01
 -1.9814093e+00
 -2.5349057e+00
  2.8122988e+00
  4.2578716e+00
  7.0882624e-01
 -2.3185122e+00
 -5.4951224e+00
  7.6541984e-01
  3.0374985e+00
  2.6158112e-01
 -2.8712759e+00
 -1.0887833e+00
 -2.2626987e+00
  5.1895137e+00
 -4.5556903e-01
 -2.2778561e+00
 -6.9729209e-01
  3.3450184e+00
 -2.0245976e+00
  1.7199688e+00
 -1.7949543e+00
 -2.5970766e-01
  2.5010256e-02
 -1.4103776e+00
 -2.4350412e+00
  1.0457853e+00
 -1.9609866e+00
 -3.3003256e-01
 -9.4031268e-01
  8.7589063e-02
  9.7726995e-01
  8.3512318e-01
 -2.5435419e+00
 -2.8368795e+00
  1.9928782e+00
 -3.1756848e-01
  2.3960576e+00
  1.4925009e+00
 -1.2670085e+00
 -1.0132378e+00
 -1.1252383e+00
  1.0767614e+00
  4.2705994e-02
  3.5350338e-01
 -3.7226815e+00
 -4.6010690e+00
  2.2432110e+00
  1.7986127e+00
  2.5544736e-01
 -2.6526957e+00
  6.4027965e-01
 -3.7066400e+00
 -6.6684568e-01
  7.5524819e-01
 -1.6333201e+00
  4.1575193e-01
 -1.2302019e-01
 -6.1643934e-01
  4.4777551e+00
  1.7667700e+00
 -3.7353966e+00
  2.5039163e-01
  2.1871877e+00
 -9.2004128e-02
 -1.5636767e+00
 -9.9816847e-01
 -8.9187068e-01
  8.2120252e-01
  1.4371394e+00
  7.1770841e-01
  1.0606750e-01
  1.0638076e+00
  2.6421511e-01
 -6.9726545e-01
  5.9938545e+00
 -7.7694291e-01
 -8.3824100e+00
  2.6438129e+00
  2.4413168e+00
  7.6235180e+00
 -1.4292831e+00
 -1.1711899e+00
  7.3990840e-01
 -1.0943778e+00
 -5.2535123e-01
  8.6709166e-01
 -8.8263392e-02
 -2.6720273e+00
  6.5043324e-01
 -5.0693446e-01
 -1.9062634e-01
  8.2488871e-01
  7.9579002e-01
  9.6466243e-01
 -5.5820131e-01
 -1.7887580e+00
 -1.6597575e+00
 -4.3691816e+00
  6.5890926e-01
  2.9790464e-01
  7.8970239e-02
  4.9150648e+00
  7.6135403e-01
 -3.6635437e+00
  8.4782000e+00
  5.6025302e-01
 -1.8731807e+00
  8.9967269e-01
  4.6298862e+00
  4.7715276e-01
 -3.5298600e+00
  1.6166160e-01
 -1.1876379e+00
 -9.8595604e-02
 -4.4430327e+00
  5.9571118e+00
 -1.6079062e+00
 -1.0014431e+00
  5.6243091e+00
  8.8995194e-01
 -3.8475094e+00
 -5.2121677e-02
  5.1791120e-01
  4.4075384e+00
 -8.1958084e+00
 -1.4952743e+00
 -5.5044246e-01
 -2.1337447e+00
 -1.8547909e+00
  3.1560416e+00
  2.5073793e+00
 -3.4665725e+00
 -3.5353329e+00
  4.1323972e+00
 -5.7724161e+00
  2.3399374e+00
  2.5182881e+00
  8.2041597e+00
 -4.8584890e-02
 -6.9220918e-01
 -1.0317776e+00
  2.9801037e+00
  1.0663416e+00
  4.8718200e+00
  1.5173004e+00
  1.4818677e+00
  6.8531621e-01
 -4.3858247e+00
 -1.4676327e+00
 -1.0674424e-01
  1.1944209e+00
  2.4430649e+00
  1.3588681e+00
  3.0790496e+00
 -1.2304549e+00
  3.6535544e+00
 -6.8410134e-01
 -2.2121367e+00
  3.4170464e-01
  1.4183311e-01
  3.0662429e+00
  2.4256032e+00
 -8.1467879e-01
 -4.0134835e+00
  2.6367417e-01
 -1.4381268e+00
 -1.2765570e+00
  9.1523862e-01
  3.3879423e+00
 -3.8597841e+00
 -4.3018606e-01
 -9.0527177e-01
  4.1797405e-01
  5.7531983e-01
  1.3548244e+00
 -1.7569244e+00
  6.0780973e+00
  9.3123162e-01
 -6.4354908e-01
 -1.8836203e-01
 -1.1977538e+00
  3.1815869e-01
 -6.6410142e-01
 -3.4447059e-01
  1.8017396e+00
  1.9625348e+00
  6.7588776e-01
 -3.6509011e+00
 -8.1189793e-01
 -1.9225729e-01
  9.9760425e-01
  1.7750816e+00
  1.8883539e+00
  3.6852428e-01
  4.1936879e+00
  3.8393229e-01
 -1.6609287e+00
  9.8648536e-01
  5.3621161e-01
 -3.2532678e+00
 -1.5855490e+00
 -9.0960867e-04
 -1.1748763e-01
 -1.6444975e+00
  4.0304122e+00
 -4.6450806e-01
  5.2917558e-01
  8.6782324e-01
  9.6711498e-01
 -2.3961976e+00
  7.4155748e-01
 -5.9624881e-01
  5.1448288e+00
  3.8432145e-01
 -4.6020934e-01
 -3.4788408e+00
  5.9598155e+00
  2.1427629e+00
  3.4660449e+00
 -1.4449263e-01
 -1.3927740e-01
  1.4648002e+00
 -9.7558057e-01
  5.2589655e+00
  4.3303394e+00
  1.2649918e-01
  1.8430233e-01
  2.7647457e-01
  1.3013154e-01
 -1.1896855e-01
 -1.2980657e+01
  1.5871209e+00
 -9.9851716e-01
  8.3925450e-01
 -6.3525953e+00
 -2.6131994e-01
 -1.4767927e+00
 -2.9074693e+00
  5.5085551e-02
  2.2560361e-01
 -1.2674304e+00
  6.7018700e-01
  1.9673498e-01
  5.5158563e+00
  4.5854849e-01
  5.1614137e+00
 -3.7718150e-01
 -2.4733008e-01
  3.5582421e+00
 -3.1717429e-01
 -7.0739207e+00
 -2.1552980e+00
 -1.4447662e+00
 -3.4742081e+00
 -3.9877146e-01
  4.5706358e+00
  2.1979651e+00
 -4.2123288e-01
  3.2443729e-01
 -2.6264184e+00
 -1.1274951e+00
 -5.0335865e+00
 -7.8042066e-01
  6.6800551e+00
  1.5275599e+00
  1.1032373e+00
 -4.3653846e-01
  2.0528378e+00
  1.0157332e+00
  4.5800862e-01
 -2.5872955e+00
 -2.7194962e-01
  4.2552180e+00
  1.0171498e+00
  1.1114751e+00
 -2.8350830e+00
 -2.2558500e-01
 -7.7414441e+00
 -1.6994306e+00
 -4.3179736e-01
 -1.4583203e+00
 -2.6016662e+00
 -1.6111190e+00
 -4.7607012e+00
 -4.0077323e-01
  5.4508269e-01
 -6.9326061e-01
  1.1033574e+00
 -1.2138935e-01
  3.1279855e+00
 -2.5364547e+00
 -9.0050364e-01
 -2.3304114e+00
  1.3699029e-01
  3.0397470e+00
  6.3251295e+00
  7.6663637e+00
  3.3827915e+00
  6.1552900e-01
  3.3466181e-01
 -4.7169762e+00
  1.7684723e-01
 -2.2622511e+00
 -7.9397839e-01
  3.4913474e-01
 -5.4863143e-01
  3.9216988e+00
 -5.7574993e-01
 -4.5294392e-01
 -3.7694594e-01
 -3.3104982e+00
  6.3295090e-01
 -1.0030184e+00
  3.9604720e-01
  2.2516294e+00
 -3.7512422e-01
 -1.2161337e-02
 -1.1692854e+00
 -1.7810240e-02
  9.4091284e-01
 -2.6579309e+00
  1.9953328e+00
 -5.8695795e-03
 -3.3512821e+00
 -1.5598370e+00
  4.7184954e+00
 -5.5844102e-02
 -1.0576047e+00
 -1.8316050e+00
 -6.8531785e+00
  3.4693420e-01
 -8.0030060e+00
  1.0139233e+00
  1.1378565e+00
 -8.5038699e-02
 -2.9046679e+00
  7.0061798e+00
  1.1669847e+00
  4.0199580e+00
 -8.5251307e-01
  1.0818975e+01
  4.6325438e-02
  1.3951780e+00
  1.0891212e+00
  7.0363837e-01
 -7.1813881e-01
  4.0816590e-01
  3.2164598e-01
  2.4783716e+00
 -9.7886008e-01
  1.6351994e+00
 -1.5188831e+00
  3.7501376e+00
 -1.6650464e-01
  2.9836714e+00
  9.3053120e-01
 -6.5066642e-03
  1.0535600e-01
  6.5402621e-01
 -2.0303530e-01
  5.4385406e-01
 -2.3306181e+00
 -5.5336773e-01
 -1.5411365e+00
 -1.0621830e+00
  2.9117441e+00
 -1.7678463e-01
 -2.6238582e-01
 -3.2487452e-02
 -6.2833703e-01
  1.8198279e-01
  6.8140790e-02
  2.1340170e+00
 -3.2710156e-01
 -7.9270563e+00
 -9.3446690e-01
  4.2898102e+00
 -9.7952646e-01
 -1.7368015e+00
 -3.0316794e+00
  7.1538728e-01
  3.0608773e-01
 -1.0591330e-01
  8.5928507e-02
 -6.4090711e-01
  2.6985261e+00
 -5.1926392e-01
  1.5433953e+00
 -4.5696995e-01
  6.7322761e-02
 -3.3099258e-01
  2.2075005e+00
 -4.0731943e-01
  1.9775691e+00
  3.1571128e+00
  9.0694910e-01
 -2.3922083e+00
  3.0274215e-01
 -3.2990332e+00
 -1.7789537e+00
  2.8250835e+00
  5.6359446e-01
  1.0522348e-02
  3.3036001e+00
  4.6281605e+00
  1.0207628e+00
  4.2231650e+00
  1.1189640e-01
 -3.4162048e-01
 -7.1023762e-01
  1.2064028e+00
  2.9803774e-01
  2.0836733e-01
 -2.0240452e+00
 -9.1480531e-02
 -8.4801044e+00
  8.9873618e-01
 -5.8602709e-02
 -1.1503009e+00
 -1.1106943e-03
  6.8374932e-01
 -1.9557996e-01
  3.3347087e+00
  5.1318735e-01
 -4.2959017e-01
 -3.8976178e-01
  4.4767874e-01
 -5.3989196e+00
  1.9964705e+00
  3.1743708e-01
 -2.1034390e-01
 -2.9116470e-01
 -4.0288731e-02
 -3.3358657e+00
 -7.5678301e-01
  2.1345539e+00
 -3.4640181e-01
  3.0554347e+00
  3.4272830e+00
 -1.9270828e+00
  4.2299971e-01
  1.8904531e-01
  3.1195962e+00
 -4.6974868e-01
 -5.2279276e-01
  2.0423932e+00
  2.6666012e-01
 -1.8589600e+00
  1.1745386e+00
  2.3229563e+00
 -1.0137863e+00
  3.3766177e-01
 -1.7884046e+00
 -8.1969851e-01
  6.9266751e-02
 -2.9554388e-01
 -4.2377064e-01
 -8.1001170e-02
 -7.0161855e-01
  4.3662643e+00
 -5.9217095e-02
  7.7924842e-01
 -1.5852261e+00
 -8.0188167e-01
 -6.4328561e+00
 -1.8836646e-01
  2.7941138e-01
  4.9471798e+00
  2.8495710e+00
  1.1826155e+00
  1.8115262e+00
 -6.9626564e-01
  7.5371790e-01
  2.0400503e+00
 -3.5078480e+00
  8.5341907e-01
 -1.8631810e-01
 -1.8795925e-01
 -1.3948694e-01
 -8.8638043e-01
 -4.0846753e-01
 -1.3327017e+00
 -4.2474806e-01
  8.9857674e+00
  2.6901901e+00
  3.3075283e+00
  2.2896335e+00
 -3.6483524e+00
 -4.3115158e+00
 -2.0147974e+00
  3.1156027e-01
  1.3289222e+00
  3.0187845e+00
 -1.4680508e+00
  4.2985838e-02
 -5.5099714e-01
 -2.7041665e-01
 -2.2733955e+00
 -1.8112931e+00
 -8.8273829e-01
  9.8175597e-01
  7.3175067e-01
 -2.7353730e+00
  8.2276468e+00
 -5.1444232e-01
  5.4116845e+00
 -6.6275471e-01
  1.4735187e+00
  4.7946134e+00
  3.7656808e+00
 -3.2465880e+00
 -1.9035575e+00
  1.4873811e+00
  3.8825257e+00
 -1.0270128e+00
 -2.5379865e+00
 -1.3626041e+00
  6.5661752e-01
  1.3904127e+00
 -5.0308790e-02
 -1.4322704e+00
 -3.1170886e+00
  8.9540410e-01
 -4.2182049e-01
 -2.0185742e-01
 -1.8281941e+00
 -1.7352821e+00
  2.1920819e+00
  2.1773975e-01
  1.5260681e+00
  4.2653704e+00
  1.2849947e+00
  2.5497395e-01
 -1.4253135e+00
 -2.7631670e-01
 -8.6870632e+00
 -2.3115575e+00
 -2.7287354e+00
  2.8324220e+00
  1.8923579e+00
 -2.5536722e-01
 -6.1645880e+00
 -3.1858528e+00
  1.3574658e-01
 -1.6243546e+00
  6.8595498e-03
  1.6660799e+00
  4.9195805e-01
  3.3324492e-01
  5.2948177e-01
  5.0284702e-01
  1.1197685e+00
  1.4458212e+00
  1.1958667e-01
  2.6526186e+00
 -8.3623099e-01
  4.6541286e-01
 -1.7605563e+00
  7.9374371e+00
 -2.1198239e+00
 -2.8248358e-01
 -1.4618370e-01
  5.0511522e+00
  2.6183558e-01
 -2.7503898e+00
  1.0811229e-01
 -3.0697824e-02
 -1.2274945e+00
 -9.2401862e-01
 -1.9541761e+00
 -1.4061093e+00
  5.6236500e-01
  4.2594409e-01
 -3.5434399e+00
 -2.5472898e+00
 -5.6048214e-01
  2.2552454e+00
 -1.0990107e+00
 -2.2480187e+00
 -3.9502275e-01
  2.4492374e-01
  6.7077678e-01
 -1.4646091e+00
  7.5585098e+00
  6.7819875e-01
 -6.0062985e+00
  3.2345355e-01
 -2.6894851e-02
 -3.1408799e+00
  1.3488606e-01
 -2.5862699e+00
 -4.9946406e-01
  1.4047079e+00
 -7.8278147e-02
  7.6488429e-01
 -1.0957961e+00
 -3.5010746e+00
  1.3096205e+00
 -2.3637599e-01
  8.8538045e-01
 -1.6966162e+00
  1.9084425e+00
  3.8951554e+00
  2.0814106e-01
  1.0975705e+00
  1.1639339e+00
  2.2007987e+00
 -4.7793980e+00
  1.9210944e+00
 -6.7945868e-01
  7.7934432e-01
  2.3717048e+00
  3.0765510e+00
  2.6601567e+00
  5.2968705e-01
 -1.4761351e-01
 -6.2416959e-01
 -4.3786798e-02
  3.5646443e+00
 -1.8843879e-01
 -1.0025762e+00
  1.3799995e+00
  5.9493785e+00
  2.1558012e-01
  3.9945643e+00
 -8.8764328e-01
 -2.8571200e+00
 -8.3875703e-03
 -1.9068046e+00
 -1.9289937e+00
 -1.8895900e+00
 -4.8677201e+00
 -1.8483614e+00
  2.2708662e+00
 -2.4625311e+00
 -1.4473064e+00
 -3.3253312e+00
 -9.7606808e-01
  1.8311377e-01
 -2.4074366e+00
 -3.1548028e+00
  1.2755033e+00
  2.0102789e-01
  5.4025561e-01
 -2.2809081e-01
 -3.0325368e-01
  9.1927662e+00
  1.1809202e+00
 -2.5932930e+00
  3.2555005e-01
 -2.6652679e-02
  1.7205145e+00
  1.4587150e+00
  4.3649178e-02
  1.0979973e+00
  7.9368174e-01
 -5.2452731e-01
  1.7374051e+00
  1.3434762e-01
  1.3190948e+00
 -5.2453370e+00
  2.3341436e+00
  9.1956460e-01
  3.4019867e-01
 -2.1230018e+00
 -9.0326414e+00
  2.1405229e-01
  9.3402795e-02
  7.9241691e+00
 -1.1490480e+00
 -1.1401809e+00
 -7.5702459e-01
 -1.1085200e+00
  3.3118033e-01
 -3.0607634e+00
  8.2181680e-01
 -3.7813514e-02
  4.6241050e+00
  8.2149833e-01
 -6.2643450e-01
  9.1662580e-01
 -1.0643988e+00
  3.6355501e-01
  5.1546926e+00
  1.8113602e+00
 -3.7544154e-02
 -3.5215840e+00
 -1.6875335e+00
 -6.4186864e-03
  1.4574161e+00
  1.6750799e+00
 -2.9110360e-01
  6.2659259e+00
  6.5619773e-01
 -7.9736620e-01
  2.2427101e+00
  2.6086372e-01
  1.5187255e+00
  1.7811353e+00
  9.2160875e-01
 -1.2864676e+00
  1.7847223e+00
 -8.6529905e-01
  4.2885563e-01
  2.4232574e+00
  2.8313861e+00
  4.8422176e-01
  2.0688782e+00
 -1.3118597e+00
  5.1422037e-02
 -2.1269543e+00
 -5.3532845e-01
  1.3862947e+00
 -3.5922744e+00
 -4.9070111e-01
  4.6757478e-01
  1.7012025e-01
 -4.4650117e-01
 -1.9237849e-01
  8.0918264e-01
 -1.0037411e+00
 -2.9574361e-01
 -1.2479476e+00
  7.6405388e-01
 -2.1335125e+00
  4.4868503e-02
 -2.5395033e-01
  2.7302730e+00
  2.1604342e+00
 -6.1961776e-01
 -4.5404646e-01
  1.1006118e-01
  4.6126771e-01
 -1.1437809e-01
 -3.3049512e+00
 -4.7339031e-01
 -5.5506516e+00
  2.9707119e-01
  2.3866801e+00
 -1.5947711e+00
 -1.4196014e-01
 -1.2597485e-01
 -7.6810116e-01
 -1.3839712e+00
 -8.0182753e+00
 -2.5995193e+00
 -1.3179721e+00
  3.1931348e+00
  1.4342734e+00
 -4.4928355e+00
  2.4781024e+00
 -2.0037117e+00
 -4.1210309e-01
 -1.6681148e+00
 -4.0030046e+00
 -5.3340727e-01
  1.1494039e+00
  4.1302535e-01
  2.2863764e-01
 -2.6815844e+00
 -5.6466583e-02
  2.8925285e+00
  1.5653340e+00
 -1.0445473e+00
 -5.2405643e-01
 -5.0773196e+00
 -7.0462185e-01
 -4.3723507e+00
 -7.8849423e-01
 -1.0811819e+00
 -7.8110194e-01
  1.0969565e+00
 -7.1081430e-02
 -1.3068789e-01
  4.9137526e+00
 -6.2665606e+00
 -1.4185091e+00
  1.3953398e+00
  8.3940440e-01
  1.0817705e+00
  6.5324521e-01
 -2.0578129e+00
 -6.9157630e-01
  2.0294433e+00
 -2.6556571e+00
  9.0545428e-01
  7.1122986e-01
 -1.9130303e-01
 -4.0745321e-03
 -1.4002311e+00
  1.6043173e-01
 -1.2044727e+00
  2.0432787e-01
 -5.2240455e-01
  1.8019961e-01
 -2.1041477e+00
 -7.2365561e+00
  2.4722304e+00
 -4.3075001e-01
  1.4787391e+00
 -1.3298571e+01
 -1.5837610e+00
  6.6033021e-02
 -2.3501685e+00
 -3.9062876e-01
  5.1080918e-01
 -4.3246222e-01
 -5.3532678e-01
 -1.3526272e+00
  2.8211994e+00
  2.7000561e-01
  2.2602849e+00
  2.1610701e+00
  2.1166281e-01
 -3.7843204e+00
  9.8901892e-01
  4.9049020e-01
  8.2360369e-01
  3.8181123e-01
 -2.0296746e-01
 -1.8129213e+00
 -3.3459291e-01
  2.3235093e-01
  6.0248771e+00
 -1.5582670e+00
  1.9008715e+00
  3.0388110e+00
  4.6003695e+00
  2.9404801e-01
 -4.4057851e+00
  9.0248692e-01
  3.6473000e+00
 -6.8180698e-01
  8.9113355e-02
  3.7957963e-01
  3.3089194e-01
 -2.4476361e+00
  6.0465865e+00
 -2.0009430e-01
 -4.1783306e-01
  1.7559628e-01
 -4.7518945e-01
 -4.9739289e-01
 -3.2314187e-01
  7.5028920e-01
 -5.0647712e+00
  3.7342417e+00
 -2.5176728e-01
  2.2220981e+00
 -6.7828994e+00
 -7.2123593e-01
  7.1400249e-01
  3.9257908e+00
  1.4521506e+00
 -5.6054634e-01
 -2.1314782e-01
 -2.7382808e+00
  4.5193729e+00
  3.3406827e-01
 -3.0447036e-01
 -1.3987082e+00
  2.6602769e-01
 -5.3649473e-01
  7.6116309e-02
 -1.4300400e-01
  6.1095780e-01
  2.5532740e-01
  5.7138149e-02
 -4.0828142e-01
  6.2230551e-01
  1.4558072e+00
 -1.1670600e+00
 -7.3834187e-01
 -2.8643396e-01
 -4.6475258e+00
  1.1267242e+00
  4.0883164e+00
 -1.3638176e+00
  4.6999998e+00
 -2.3208685e+00
 -4.6134391e+00
 -3.5395153e+00
 -1.5784999e+00
 -4.8515022e-01
  1.0619897e+00
  1.7548008e+00
 -2.1782441e+00
  1.3611810e+00
  4.9882275e-01
 -2.2462797e+00
 -2.7897804e+00
 -3.0457619e-01
  5.4750323e-01
 -7.2889967e+00
 -1.5214049e+00
 -1.8891822e+00
  4.9343672e+00
 -4.1399426e+00
 -2.1850815e+00
 -5.5658177e-02
  5.5715475e+00
 -2.0214327e-01
 -1.1233178e+00
  2.4388684e-01
 -3.5201669e+00
 -3.9804983e-01
  2.2864084e+00
  9.9055305e-02
  1.1786817e+00
  5.5843961e-01
  5.0184789e+00
  4.5030365e+00
  1.1226594e+00
 -1.6286060e-01
  6.9803338e+00
 -1.9393181e+00
  7.9043686e-01
  1.2603375e+00
  2.4161122e+00
  3.7128565e-01
 -1.5761650e+00
  1.0120698e+00
 -5.5652864e-02
  1.9467672e+00
  2.6671213e-01
  2.5157537e+00
 -5.2073336e-01
 -6.2157154e-01
  1.7543907e-01
  1.1963354e-01
 -1.5209664e+00
 -5.3386068e-01
  2.2501466e+00
  9.5291871e-01
  2.0515828e-01
  1.9050917e-02
  7.1222015e-02
  7.2329612e+00
 -1.3128545e+00
  8.1032743e+00
  3.4753668e+00
  1.7838988e+00
  2.9344201e+00
  7.4218521e+00
 -7.6197207e-01
 -2.9623833e-01
  2.7930361e-01
 -1.9935291e+00
 -3.1265530e-01
  1.9627972e+00
  8.9163476e-01
 -2.7518263e+00
 -4.5913655e-02
  1.4001185e-01
 -5.7400161e-01
  5.2119164e+00
 -1.6810404e+00
 -3.9227584e-01
  2.2315171e+00
  1.0987784e+00
  2.7591310e+00
  1.4632000e+00
  8.6259848e-01
  8.1359577e-01
 -2.5584614e+00
  5.3723752e-01
 -4.7082660e-01
 -8.9942807e-01
  6.0557752e+00
  3.5764500e-01
 -8.5537262e-02
 -5.1186842e-01
  2.9898329e+00
 -8.4428316e-01
  2.2115774e+00
  7.3450848e-02
 -9.9980432e-01
  1.6745031e+00
  9.8944759e-01
  5.8060116e-01
 -8.1348777e-01
 -1.5840003e+00
 -1.7007692e+00
 -3.8932111e+00
 -7.3182899e-01
 -3.4108429e+00
  1.7580546e+00
 -6.4437765e-01
 -2.3686366e+00
 -1.4475878e-01
 -1.4953572e+00
  3.0208495e-01
 -1.4007043e+00
  3.7929493e-01
  1.3924654e+00
 -4.3820789e-01
 -9.8650795e-01
 -3.1541822e+00
 -2.2568140e+00
  2.7078897e-01
  8.9265466e-01
 -1.6127431e-01
  1.7532115e+00
  1.0668970e+00
  2.5922728e-01
 -1.7246075e+00
  6.8306726e-01
 -1.5397609e+00
  2.3119830e-01
 -1.2276991e-01
  4.9936557e+00
 -1.0264806e+00
  1.1030713e-01
 -1.6109177e-01
  2.0911665e+00
 -2.6839378e-01
  4.9508500e-01
 -3.7802181e+00
  1.3194577e+00
  1.1259474e+00
  1.8246247e+00
 -3.3334693e-01
  7.7837890e-01
 -8.0104866e+00
  7.7699465e-01
 -1.3950962e+00
  4.3926945e-01
  8.9268252e-02
  6.6506181e+00
  3.8078859e-01
  2.5640590e-02
 -1.1739404e-01
 -4.0237215e-01
 -9.6574789e-01
 -3.9946401e+00
 -2.8225023e-01
  1.7582510e+00
  6.7920047e-01
  1.1838788e-01
 -2.2261348e+00
 -5.8374894e-01
  7.1627796e-02
  3.2514250e-01
 -5.2332749e+00
 -5.5739450e-01
 -2.2466333e+00
 -2.2673438e+00
  1.2650061e+00
  3.4115107e+00
 -2.6826043e+00
 -8.7398797e-01
 -2.5557292e-01
 -6.3058710e-01
  1.3110213e-01
  7.6308292e-01
  3.3148327e-01
 -5.8348479e+00
 -6.3170397e-01
  4.1204605e+00
 -3.6156148e-01
 -1.5287778e+00
  5.4477119e+00
 -7.7513367e-01
  4.2775120e-03
 -5.0526280e+00
 -3.1584752e+00
 -2.3215671e+00
 -1.2978936e+00
 -1.3426185e+00
  1.3305019e+00
 -5.0319588e-01
  4.3678142e-02
 -9.7018862e+00
  3.9489436e+00
  2.3502319e+00
  9.9215782e-01
 -1.5292077e-01
  6.7710608e-01
 -8.9906559e+00
 -5.6619090e-01
  2.0206897e+00
 -2.6315026e+00
  3.1971323e-01
 -3.2474369e-02
  3.2515666e+00
  2.8133841e+00
 -1.8062450e-01
  8.8461983e-01
 -1.0189259e+00
 -2.6253644e-01
 -6.6996205e-01
  7.1667641e-01
  8.1120318e-01
 -2.7049416e-01
 -9.4510019e-01
  2.1213834e+00
  9.1629940e-01
 -4.3483982e+00
  2.0386937e-01
  2.4143798e+00
  9.9020815e-01
  1.1864675e+00
 -4.0298238e-01
 -7.6141512e-01
  1.4027857e+00
  3.7024500e+00
  2.1138942e+00
  6.8596721e-02
 -4.1162472e+00
  1.7211359e+00
 -1.0192437e+00
 -8.2746115e+00
 -1.8290695e+00
 -2.1313221e+00
  3.5766760e-01
  2.8692269e-01
 -1.1522529e-01
  1.3491582e+00
  1.4173808e+00
 -6.7084599e-01
  1.8374865e+00
  1.2711348e-01
  9.8231047e-01
  6.6617399e-01
 -2.5904076e+00
 -1.7506063e+00
 -1.0420933e+00
 -1.0240498e+01
 -3.0181983e+00
 -7.9917246e-01
 -6.1627688e+00
 -8.3572704e-01
  1.1858066e+00
 -2.4470001e-01
  8.9650798e-01
 -8.7417889e-01
 -1.7172792e+00
  1.6445277e+00
  2.0190477e+00
 -6.9295108e-01
 -6.1545072e+00
 -2.1161938e-01
 -2.8084786e+00
 -7.8360081e-01
  1.1919742e+00
  4.3281012e+00
 -1.1548421e+00
 -5.1013356e-01
  1.4249288e+00
 -1.3776162e+00
 -1.2502695e+00
  9.4501507e-01
  6.6725221e+00
  8.9291149e-01
  4.4211121e+00
  6.7519647e-01
 -1.6807643e+00
 -2.4365599e-01
  8.3765202e+00
  7.1755028e-01
 -1.7693710e+00
  1.3480004e+00
 -9.3375570e-01
  1.5751739e+00
  1.0735173e+00
  1.4401718e+00
  8.8886185e+00
 -9.5941722e-01
  6.3186204e-01
 -2.2292987e-01
  5.7238448e-02
  1.6630121e+00
  1.3941588e+00
  6.3190184e+00
 -1.4820318e+00
  1.0345645e+00
  1.5935321e-01
  1.2405971e+00
 -9.8128980e-01
 -1.5807061e+00
 -6.1393766e+00
 -2.3922627e+00
  4.9228761e-02
  4.5446849e-01
  6.0354412e-01
  2.7673033e-01
 -2.3615148e+00
  1.0259502e+00
 -5.4937553e-01
  1.9432767e-01
 -1.1522199e+00
  9.5353121e-01
  2.9903092e+00
 -1.0125909e-01
  1.6821871e+00
  4.9455090e+00
 -2.5648400e-02
  2.1869290e+00
 -8.2581741e-01
 -8.3599319e+00
  4.8104733e-02
 -1.9349724e+00
  2.9154712e-01
  1.5759071e+00
  4.6076856e+00
 -8.8065732e-01
 -3.1425944e-01
  6.2516050e+00
 -1.6021036e+00
 -8.1111300e-01
  1.5082556e-01
  4.2356765e-01
  8.1274256e-02
 -2.3095345e-01
 -1.3195481e+00
 -4.5783526e-01
  4.0344486e+00
  1.6270608e+00
  7.9410958e-01
 -2.2975998e+00
 -2.0161615e-01
 -9.1365039e-01
 -1.3899730e-01
 -4.0196502e-01
 -3.4451387e+00
 -1.5867808e+00
 -4.3819264e-01
 -1.0966876e+00
 -9.2440802e-01
 -5.4028192e+00
 -1.8366320e+00
  6.0733944e-01
  1.7719978e+00
  3.8692534e-01
  1.8105509e+00
 -3.0215101e+00
 -3.2251263e+00
  2.6082926e+00
 -5.4332066e-01
  1.7354651e-01
 -2.2626995e-01
  5.1633984e-01
 -1.9273018e+00
  5.0828916e-01
  3.1314628e+00
  3.7177496e+00
 -3.1405416e+00
  8.6656494e+00
 -3.8197181e+00
  1.2450931e+00
  2.3986516e+00
  1.1016905e+00
  3.0606251e+00
 -1.7156821e-01
 -3.5895455e+00
  2.5168941e+00
 -4.0722280e+00
 -6.8348426e-01
 -1.6125996e+00
  1.2700518e+00
  1.1349701e+00
  1.1022298e-01
 -2.6809070e+00
 -3.6733317e-01
 -2.0279560e+00
 -1.1713589e+00
 -6.6441268e-01
 -5.6171769e-01
 -9.9221581e-01
  9.5566636e-01
 -3.4617772e+00
 -1.0661820e+01
 -2.6156986e-01
  9.9978524e-01
  1.0780084e+00
 -4.7809914e-01
 -2.1918608e-01
  3.7015686e+00
  1.8203408e-01
  5.9502041e-01
 -5.6881833e+00
  1.0097700e+00
  3.0445638e+00
  2.6375716e+00
  3.2214630e+00
 -5.9291255e-01
  2.9384008e-01
 -2.6575723e+00
  3.6471872e+00
  4.1532278e+00
 -2.1805575e+00
  2.1992507e+00
 -1.3008546e+00
  2.0126319e+00
 -5.8618536e+00
 -4.1465053e-01
 -4.1712603e-01
 -9.2644852e-01
 -3.7538189e-02
  1.2988248e+00
  3.2972059e+00
 -4.0151525e-01
 -2.2757787e-01
  1.0400045e+00
  2.0138872e+00
 -1.0361329e+00
  1.9412657e+00
 -1.8084377e+00
 -4.8769214e-03
  8.1698310e-01
  1.0257225e-01
  1.9917123e+00
  5.7382770e+00
  2.6053655e+00
 -9.2513698e-01
  1.3123839e+00
  2.0115185e+00
  8.0286598e-01
  1.1295222e+01
 -1.5464467e+00
 -3.7393932e+00
  8.8190681e-01
 -2.6933110e+00
 -1.0887846e+00
  1.6703151e+00
  1.1574030e+00
 -7.6774657e-01
  1.0661579e+00
  2.7726829e+00
  1.0977036e+01
  1.0447818e+00
 -4.1368270e+00
 -3.2748559e-01
  2.4920859e+00
 -9.9939877e-01
 -5.5271953e-01
 -3.0448191e+00
 -3.8268626e-02
 -1.0315958e+00
 -8.2292043e-02
 -5.2883279e-01
 -2.0478933e+00
 -5.4227120e-01
  3.3354859e+00
 -1.0694915e+00
  3.0353515e+00
  2.3491361e+00
 -7.2906642e+00
  1.0189912e+00
  8.7684947e-01
 -2.3610935e-01
  1.3351278e+00
 -8.6746365e-01
  1.6120881e-02
 -2.9894025e+00
 -8.2740389e-02
 -1.1393069e+00
 -1.1323880e+00
  2.4417937e+00
 -4.6037838e-02
 -1.7271823e+00
  1.4060174e+00
  1.1540568e+00
  3.8498826e-02
 -3.3406961e-01
 -3.1997707e-01
 -3.2167573e+00
  1.8937721e+00
  6.1514275e-04
 -5.3222890e+00
  5.9557309e+00
 -7.3201090e-01
 -7.8362602e-01
  1.1081059e+01
 -1.0965188e-01
  2.9405313e+00
 -4.0573001e+00
 -3.3831983e+00
 -6.0603881e-01
  3.1484187e+00
 -4.5055795e-02
  3.3718586e+00
 -3.0150783e+00
 -1.0773156e+00
 -2.6479372e-01
  4.9376020e+00
  2.2694151e+00
  3.7477808e+00
 -5.5421788e-01
 -2.6779816e+00
  4.7090212e-01
  8.9546889e-01
 -1.2952458e+00
  1.7060637e-02
  1.5124942e-01
 -8.1839520e-01
  1.2769057e-01
  1.5979775e+00
 -1.0651878e+00
 -3.7654271e+00
 -4.9771709e+00
 -1.5139772e+00
  2.6979246e+00
 -2.3363519e+00
 -4.7126111e-01
 -4.5698700e+00
 -7.6962501e-01
 -1.6646134e+00
 -2.4266450e+00
  4.8780012e+00
  6.0708709e-02
 -8.4934368e+00
 -1.6524152e-01
  9.5406377e-01
 -6.5296745e-01
 -2.2127251e-01
  7.7147073e-01
 -1.1332142e-01
 -2.9884560e+00
 -4.3664184e+00
 -1.4723235e+00
  2.0269398e-02
  7.9906505e-01
  1.7761692e+00
  8.3999529e+00
 -1.4641583e+00
  2.6890926e+00
  4.3959680e+00
  1.7967073e+00
 -1.5492615e+00
 -4.5902777e+00
  9.6417509e-02
  5.5389318e+00
 -2.8618793e+00
 -5.1664486e+00
  2.3670864e+00
  2.7794647e-01
  4.8327842e-01
 -6.8954170e-01
  4.9799776e+00
 -2.2162077e+00
 -2.8750000e+00
 -2.8826847e+00
  9.2454422e-01
 -1.2165931e+00
  1.0409895e+00
 -3.3548823e-01
  1.5432146e+00
  6.5375179e-02
 -1.0821204e+00
 -1.2412008e+00
 -9.6610826e-01
 -3.1964612e-01
 -9.1297679e-02
  5.7749778e-01
 -3.9776930e-01
 -4.1194882e+00
 -3.2715219e-01
  1.0632693e+00
 -9.9859416e-01
 -5.6085384e-01
 -3.8995460e-01
  4.3461185e+00
  4.7096882e+00
  1.1376274e+00
  7.9464608e-01
 -3.9054248e+00
 -5.2456808e-01
 -2.1088276e+00
  2.8600680e-02
  5.6986403e+00
 -1.0329763e+00
 -8.2025498e-01
  4.9330139e+00
  1.4310740e-01
 -1.1550843e+00
 -1.2749769e-01
  4.0056920e-01
 -7.2880812e-02
 -5.1362608e-02
 -9.9364674e-01
 -1.9165399e-02
 -3.5419378e+00
  1.0852598e+00
  2.9517231e+00
  3.5815999e-01
 -3.5114896e+00
 -6.0002297e-01
 -2.3819096e+00
  3.5671854e+00
  3.8003349e-01
  8.0351276e+00
 -5.3676587e-01
 -6.8720287e-01
 -1.4525528e+00
 -2.0016868e-01
  5.1013823e+00
  3.9558828e+00
 -2.0076909e+00
  1.1326784e+00
  1.1345013e+00
  1.2548226e+00
  9.3546468e-01
 -2.6689563e+00
  3.9830104e-01
 -6.2167752e-01
 -5.3733916e+00
 -3.6399490e-01
  6.7695413e+00
 -1.5043515e+00
  1.7183046e+00
 -2.0495644e+00
 -8.4515848e+00
 -1.8186831e+00
  5.3148346e+00
  1.7305377e+00
 -1.9753566e+00
 -6.7984885e-01
  1.9662545e+00
  2.7022037e-01
  2.3898892e+00
 -9.0764719e-01
 -1.4857489e-01
  8.0512309e-01
  8.4237331e-01
  4.5018876e-01
  1.3771059e-01
 -4.5805306e+00
 -8.8527117e+00
 -4.8505039e+00
 -2.0344958e+00
  1.5143961e-01
 -1.1994287e-01
  5.4861748e-01
 -2.5134450e-01
 -2.6651049e+00
 -2.5169971e+00
  6.9286931e-01
  3.4665017e+00
  2.5354042e+00
 -1.0217327e+00
 -2.8652308e+00
  5.3300369e-01
 -6.5587264e-01
  5.5267897e+00
  4.1194439e+00
  4.3462742e-02
  3.3954492e+00
  3.0704861e+00
 -2.6808152e+00
  2.2324965e+00
 -6.8205929e-01
 -1.3905379e+00
 -5.8042186e-01
 -2.4569523e+00
 -1.2270406e+00
  9.1474514e+00
  1.7190237e-01
 -4.6411175e-01
 -4.9300747e+00
 -1.9200830e+00
 -4.8372183e+00
 -1.5084898e+00
 -3.5937244e-01
 -2.4477787e-01
  9.7206526e+00
  1.9393903e+00
 -1.1509675e+00
  5.4164147e+00
  4.3764157e+00
 -2.0480075e+00
 -5.5695958e+00
 -1.0497485e-01
 -2.6399133e+00
  1.5130825e+00
 -4.6936136e-01
  3.6605209e-01
 -1.6177815e+00
  2.3481646e+00
 -7.0834291e-01
  1.2175641e-01
 -8.2188731e-01
 -1.3881733e+00
  6.3838940e+00
 -2.9260232e+00
 -4.1086082e+00
 -5.1570258e+00
 -1.0595897e+00
  3.8249867e+00
 -1.0890973e+00
  1.6614285e+00
  8.4603101e-02
 -2.1213591e+00
 -2.4293518e+00
  1.3948176e-02
  5.4268920e-01
 -1.2452323e+00
 -1.3482611e+00
  5.5003572e+00
 -1.3717357e+00
  1.0049813e+00
 -6.7190185e-02
 -1.2386172e+00
  2.1983504e+00
 -1.6243908e-01
 -1.2498819e+00
 -8.5651106e-01
 -2.7410285e+00
  3.5500348e-01
 -8.1607258e-01
 -2.7215415e-01
 -1.7546251e+00
  5.4438090e-01
 -4.1483002e+00
 -1.4410056e+00
 -6.2651014e-01
  9.6724620e-03
  1.5828511e+00
  3.2824910e-01
  4.2153549e+00
 -5.7636525e-02
  1.5470665e+00
 -3.8192546e-01
 -9.4653362e-01
  2.7310340e+00
 -3.8818693e+00
 -1.1671808e+00
  2.3074548e+00
  8.9963126e-01
  7.5431496e-01
  1.1893507e-01
  7.7913094e+00
 -4.3952661e+00
  9.9290609e-01
  3.9437349e+00
 -7.3924339e-01
 -2.9867300e-01
 -3.2478637e-01
 -8.2576478e-01
 -4.3901992e+00
  2.2665451e+00
  1.3280638e+00
 -1.2388251e-01
 -4.5043945e+00
  3.7355583e+00
 -1.0956013e+00
  2.6021609e+00
  3.4530425e+00
 -1.1217769e+00
  1.5646809e+00
  7.2640878e-01
  1.6060138e+00
 -2.3928149e+00
  3.3619413e+00
 -3.5046360e-01
  4.3825838e-01
  1.0483747e+00
  3.1486812e+00
 -1.4700972e+00
 -4.3500776e+00
 -1.1325685e+00
  3.0140870e+00
  1.3050663e+00
  3.1927886e+00
 -1.9240614e+00
 -7.6296240e-01
 -2.8039479e+00
 -6.0390487e+00
  2.1525502e+00
 -1.6013888e+00
 -5.7701192e+00
 -7.7882624e-01
  2.2822731e+00
  6.3992065e-01
 -1.8009872e+00
  5.0643706e-01
  5.1886803e-01
  2.4345949e+00
 -4.5248241e+00
 -4.4612374e+00
 -2.5133190e+00
 -2.8105609e+00
 -4.0908670e-01
  3.2841462e-01
  1.4042124e-01
 -3.4743087e+00
  1.4722157e+00
  1.5031400e-01
 -3.1687028e+00
  2.8740053e+00
 -3.2945621e+00
 -3.0872095e+00
 -2.3077326e+00
 -7.9370832e-01
  1.5876969e+00
  1.3522004e+00
 -9.6947485e-01
 -2.4370649e+00
 -1.5545257e+00
  1.0840524e+00
  2.8904319e-01
  5.5089459e-02
 -9.0015773e-03
  4.6100923e-01
 -2.0229357e-01
 -2.1695178e+00
 -2.0457444e+00
  6.1632133e-01
 -2.6757106e-01
  2.5737932e+00
 -1.0439274e+00
  1.5876758e+00
 -2.7343895e+00
  3.0071354e+00
  1.0285036e-01
  4.9593067e-01
  1.4976637e+00
  1.5957328e+00
  2.1027398e+00
  1.2052462e-02
 -1.6994681e+00
  3.1750493e+00
  5.6215639e+00
  1.0760956e+01
  2.5452799e-01
  1.7710019e+00
 -1.0842783e+00
 -7.0252669e-01
 -5.9652555e-01
  2.6858437e+00
  6.9654900e-01
 -1.4022288e-01
 -2.7272326e-01
  1.3462554e+00
  1.6840149e+00
  2.3829374e+00
 -2.0388934e-01
 -3.2156498e+00
 -1.9113725e+00
  2.5567698e+00
  1.2312472e+00
 -2.0795987e+00
 -1.0251845e+00
  1.6420382e-01
  7.0536709e-01
  7.7160686e-01
 -2.4370419e-02
 -6.7293315e+00
  1.2737880e+00
 -8.1342955e+00
  1.6332570e+00
  5.7866230e+00
  3.5400212e-01
 -5.6486902e+00
  8.0388528e-01
  3.8434713e+00
 -7.7664709e-01
  2.6467280e+00
 -3.3281326e-01
 -1.3213204e-01
  4.2448649e+00
  6.5663409e-01
  3.7333968e-01
  1.0829566e+00
 -2.2039108e+00
 -3.5598655e+00
  2.6504164e+00
 -2.8712502e+00
  6.3426266e+00
  1.3253338e+01
  1.9043802e+00
  1.4765313e+00
  1.3572084e+00
 -2.3973174e+00
  2.2937608e+00
 -4.6853366e+00
  7.8106618e+00
 -1.1748949e+00
 -9.4432366e-01
 -8.9851856e+00
 -1.8498410e+00
  1.8635352e+00
  9.8377335e-01
 -3.6954975e+00
  1.5474830e+00
 -1.5222913e+00
 -4.7618231e-01
  1.2339756e-02
 -1.5137565e+00
  2.8794067e+00
  1.3653903e+00
 -7.3584044e-01
  5.5877268e-01
  1.2528821e+00
 -5.6978035e+00
 -6.1311612e+00
  1.8589988e-01
  2.2569063e+00
  1.5964686e+00
 -6.8086755e-01
  4.6511683e+00
  4.4827924e+00
 -4.9119983e+00
 -1.9921204e+00
  3.3908790e-01
  9.4612949e-02
 -1.8332425e-01
 -3.5743606e+00
 -8.4855092e-01
  1.1239716e+00
 -6.4137435e-01
 -4.5130386e+00
  7.3746854e-01
 -3.8117361e-01
  1.3549063e+00
  1.4405907e+00
 -3.8810778e-01
 -8.0048525e-01
 -3.8898185e-01
 -3.8513017e-01
  4.9016887e-01
  3.7597559e-02
  4.3889370e-02
 -2.2124942e-02
  2.6123250e-01
  4.9633023e-01
 -1.2295551e+00
 -8.3970857e-01
  3.2746404e-02
  4.9353227e-01
 -2.0687096e-01
  1.0972794e+00
  1.0547180e+00
 -8.9214939e-01
 -9.1527618e-02
 -1.1970600e-01
  5.2649868e-01
 -2.1026011e+00
 -3.9610329e+00
 -1.5886316e+00
  5.1258039e+00
  1.2246005e-01
 -1.6443548e+00
  4.6296766e-01
 -1.3884546e+00
  9.2540884e+00
  5.4609938e+00
  1.1340215e+00
 -5.9783840e-01
  6.5298194e-01
 -7.7775270e-01
  2.7211871e+00
  8.1373018e-01
  2.3704740e-01
  3.9463401e-01
 -3.4172449e+00
  3.1465418e+00
 -3.5962071e+00
 -2.9948099e+00
  5.0349081e-01
 -5.9387171e-01
 -2.5375086e-01
 -3.0029690e-02
 -5.3464609e-01
  8.3522105e-01
  1.3665458e+00
  1.2884198e+00
 -4.4855289e+00
 -1.3857666e-01
  5.3732044e-01
  1.6848261e-02
  5.2996030e+00
 -2.4515009e+00
  9.6112144e-01
  5.6332201e-01
  2.8958756e-01
  2.4141139e-01
 -1.8026873e+00
 -3.9687094e-01
  4.8187345e-01
 -2.3512514e+00
  3.9381618e+00
 -2.9892786e+00
 -3.4778795e+00
 -1.5803174e+00
  5.6752157e+00
 -8.6684742e+00
 -6.4070687e+00
 -5.4021144e-01
 -5.2350049e+00
  2.3358850e+00
  1.0261474e+00
 -4.8662696e+00
  3.5201342e+00
 -3.3972669e+00
 -8.2897210e-01
  4.3690424e+00
 -1.6780747e-01
  2.3885071e+00
 -1.0509706e+00
 -5.9057558e-01
  4.5030463e-01
  1.2403568e+00
  8.9188874e-01
  2.2453789e-01
  1.9774505e+00
  1.8290299e+00
  9.2505205e-01
 -9.4113833e-01
  5.3200316e-01
 -4.3716497e+00
  1.6022357e+00
  1.8234559e+00
  2.7829528e-01
 -3.3452578e+00
 -1.7274536e+00
 -2.5449839e-01
  1.6283867e+00
 -4.9934980e-01
 -5.0640756e-01
 -1.3835758e+00
  1.5376072e-01
  2.1831255e+00
 -5.5363399e-01
  2.0139511e+00
 -2.6979499e+00
 -3.4993410e+00
  5.8159947e+00
  2.4043651e-01
 -1.1467985e+00
 -3.6698442e+00
  9.1701919e-01
  2.5005874e-01
  9.5031488e-01
 -6.7737609e-01
  5.5321658e-01
 -5.8313495e-01
 -1.6445446e+00
 -4.3516609e-01
  5.4344306e+00
 -1.0481039e+00
  6.8722790e-01
  2.0156713e-02
 -3.2344529e-01
 -1.7301075e+00
  4.9474673e+00
 -1.7331605e-01
 -1.1836367e+00
  1.0983436e+00
 -4.4745154e+00
  6.1659062e-01
 -1.2839415e+00
 -6.5536328e-02
 -1.3062690e+00
 -7.1878111e-01
 -1.7714225e+00
  2.0557969e+00
  3.3314037e+00
 -5.5212111e+00
  1.8433912e-01
  1.7630298e+00
 -1.0284737e+00
 -8.3107817e-01
 -5.6761390e-01
  5.4553992e-01
  2.7731675e-01
 -1.3166707e+00
  4.2615455e-01
  3.3963090e-01
 -2.6580379e+00
 -1.9871762e+00
  1.6463832e+00
 -6.3140023e-01
 -2.5617862e+00
  3.1485293e+00
  4.8358102e+00
 -2.2532748e-01
  7.7145213e-01
 -3.7165959e+00
  3.5278833e-01
  1.8141880e+00
 -1.9073704e-01
 -2.2984859e-01
 -7.4629414e-01
 -4.8808724e-01
  3.0569773e+00
 -1.5979254e-01
 -6.7640328e+00
 -2.9030290e-01
 -2.8009477e+00
  6.1098576e-01
  5.3843582e-01
  4.8792672e-01
  9.7044683e-01
 -1.1329086e-01
  3.4333136e+00
  3.3484566e+00
  5.7039732e-01
  9.4650865e-01
  8.9775658e+00
  1.5802885e+00
  2.2103751e+00
  4.5892853e-01
 -8.9262962e+00
 -4.4386011e-01
 -7.6570261e-01
  8.2851782e-02
 -4.0723618e-02
 -5.1946914e-01
 -9.2598391e-01
  4.7902737e+00
 -2.3994973e+00
 -1.4976568e+00
  1.2524104e+00
 -1.4197323e+00
 -4.6733549e-01
 -1.4291395e+00
  3.7895086e-01
  4.6324131e-01
  1.3671178e-01
 -5.1149642e-01
  7.5897989e+00
 -4.6541259e-01
 -1.7803077e-02
  5.0438166e-02
  4.6213093e-01
 -2.4399188e+00
 -5.1783884e-01
 -6.2239695e-01
  5.4264522e-01
 -3.4667122e+00
  2.8276896e-01
 -1.1232221e+00
 -4.9301466e-01
  8.3424681e-01
  1.0998579e+00
 -5.4516835e+00
  2.6762505e+00
  6.4869297e-01
 -2.7647965e+00
 -1.0430776e+00
 -8.5745090e-01
  3.0633588e+00
  1.5724993e-01
  4.5686164e+00
  4.7632030e-01
 -5.3268772e-02
 -4.3417697e+00
 -5.8333289e-02
  3.4787383e+00
  3.7307060e-01
  3.9017352e-03
 -4.7803295e-01
 -5.7651687e-01
 -4.8910360e+00
  1.0852070e+00
  1.5991712e+00
  1.6527928e+00
 -1.5528919e+00
  5.8893281e-01
 -5.5329967e+00
  8.7243021e-01
  2.2491388e-01
  1.4609596e+00
  9.2163754e-01
 -3.1984749e-01
  1.0749919e+00
 -1.6710592e+01
 -1.0775677e+00
 -9.2384651e-02
 -1.3914651e+00
 -3.4854228e+00
 -8.8054645e-01
  9.4490260e-01
  2.2465920e-01
  4.5712581e-01
  2.4852309e+00
 -1.8225773e-01
  1.1098504e+00
 -7.1463466e-01
  1.2023530e+00
 -2.6850826e-01
  1.9624182e+00
 -1.7270499e+00
  1.1023440e+00
 -5.1639017e-02
 -7.0275764e+00
 -8.5927404e-02
 -1.4012290e+00
 -1.5915234e+00
  2.8631444e+00
  5.9627814e+00
  4.7907817e-01
 -4.6125087e-01
 -2.0681044e-01
 -3.3770064e-01
  1.6363270e+00
  3.4745815e+00
  2.0392302e-01
  1.4373120e+00
  4.0444380e-01
  4.0671892e+00
 -1.7991101e+00
 -2.0133398e-01
 -3.6207104e+00
  3.5450265e+00
  1.3555874e+00
 -1.7496041e+00
 -1.4106562e+01
 -3.1396639e+00
 -6.0568303e-01
  2.1874723e+00
 -7.1903870e-02
 -1.7471031e+00
  4.0037221e-01
 -1.7345423e+00
 -9.0939283e-01
 -9.8605669e-01
  5.0823712e-01
  2.2428644e+00
  8.8617935e+00
 -1.7911012e-04
 -1.0897139e+00
  5.6989307e+00
 -2.6400292e+00
 -2.7603158e-01
 -4.6156487e+00
 -2.2201610e+00
  4.9788266e-01
 -7.0197959e+00
 -4.4852304e-01
 -1.2083096e-01
  6.6341848e+00
 -7.6383871e-01
 -3.5018239e+00
 -3.1198115e+00
  1.2612613e-01
  3.2007596e-01
  4.4825312e-01
 -3.7791201e-01
 -6.9461596e-01
  3.3030546e-01
  2.6358299e+00
  9.8955023e-01
 -5.6149733e-01
 -1.3897831e+00
 -1.0355449e+00
 -1.3614748e-01
  4.6693286e-01
 -1.2883921e+00
 -9.3271983e-01
  3.4839070e-01
  1.2258594e+00
 -3.7834638e-01
  6.4663658e+00
 -1.2326792e+00
  6.9562358e-01
  4.1929250e+00
 -7.4290162e-01
  2.2047532e-01
 -3.8008914e+00
 -1.3879032e-02
 -1.6032569e+00
 -2.0425718e+00
  3.0636042e-01
  9.8358315e-01
  7.7453321e-01
  5.7172161e-01
 -6.4636850e-01
 -8.1441844e-01
 -1.4862809e+00
 -4.8176975e+00
  8.5725710e-02
 -4.5401868e-01
  1.5314314e+00
  5.0264341e-01
  1.3678578e+00
 -8.3897978e-01
  2.2846703e-01
 -2.1391923e+00
  5.1047587e+00
  4.4664469e-01
 -1.4788587e+00
 -3.0981994e-01
  6.2843494e+00
 -3.7872450e+00
 -7.5553322e+00
 -3.9097095e+00
 -4.5736947e+00
 -1.5126835e-01
  4.6180525e-01
 -5.5937076e-01
  1.6712579e-01
 -1.6643817e+00
  1.1742378e+00
  2.5201771e-01
  5.5189171e+00
 -3.3411381e-01
 -3.1690580e-01
  5.2189082e-01
  1.6116089e-01
 -8.1056201e-01
  5.5973073e-03
  2.3647116e-01
  2.4896758e+00
  2.4803600e+00
  1.7723846e+00
 -4.6892834e+00
 -4.2030215e+00
  3.3300841e-01
 -1.1281328e+00
  6.8129951e-01
 -1.0358506e-01
  3.7943002e-02
 -6.7455368e-03
 -1.2306800e+00
  3.3996408e+00
