nep4 5 Ga O Si C H 
cutoff 9 6 338 103
n_max 10 8
basis_size 12 10
l_max 4 2 0
ANN 96 0
 -6.5212315e-01
 -8.2124430e-01
 -6.7510114e+00
  5.0530972e+00
 -5.7486086e+00
  7.2318177e+00
 -1.4142517e+00
 -1.0603709e+00
 -3.7440248e+00
  2.4216411e+00
 -2.6006722e+00
 -5.8309979e+00
  3.8058460e-01
 -5.8500299e+00
 -5.1476192e+00
 -3.3581500e+00
 -8.8335171e+00
  3.7275603e+00
 -2.5656464e+00
  1.1206582e+00
  1.5999655e+00
  1.1964164e+00
 -2.4047868e+00
  9.3896866e-01
 -1.0124640e+00
 -8.0456600e+00
  1.2184623e+01
 -5.3995824e-01
 -1.1303883e+00
  1.1691972e+00
 -1.6303734e+00
 -2.4472615e-01
 -1.8997469e+00
  9.2218361e+00
  4.8664584e+00
 -9.5366478e+00
 -3.0289288e+00
  5.7863981e-01
 -2.4075375e+00
 -6.5083539e-01
  1.2697123e+01
 -4.4231744e+00
 -7.2315258e-01
 -1.3186218e+00
  2.4412775e+00
 -2.9210207e+00
 -2.2411828e+00
  3.4810479e+00
 -2.9182947e+00
 -7.0262704e+00
  4.9320202e+00
 -4.0829091e+00
 -3.5633142e+00
 -6.3505845e+00
 -2.2552614e+00
 -5.9860721e+00
 -6.5580430e+00
  1.8516882e-01
 -3.7738261e+00
  1.5534803e+00
 -3.1610711e+00
  8.1513338e+00
 -2.6635923e+00
  2.2741094e+00
  1.7952037e-01
 -5.0800862e+00
 -3.4948900e+00
  3.9196020e-01
  3.3107439e-01
  1.3781252e+00
  3.9546366e+00
  9.9325371e+00
  2.8631704e+00
 -7.8790779e+00
 -2.1096056e+00
 -1.7435503e-01
 -2.8053164e-01
 -7.2437960e-01
 -3.8314829e+00
 -1.6302921e+00
  6.8731880e-01
 -1.0163308e+01
 -1.1578912e+00
 -1.5447958e+00
  1.0275460e+01
 -1.9980168e+00
  2.5587986e+00
 -7.1994853e+00
  4.8402198e-02
 -6.0368304e+00
 -1.4536878e-03
 -7.1061568e+00
 -1.0613671e+01
 -1.5239526e+00
  2.7734644e+00
 -5.4275570e+00
 -1.2407347e+00
  4.2890530e+00
 -1.8173639e+00
 -2.6201496e-01
 -1.2184018e+00
 -4.7889237e+00
 -1.0248234e+01
  2.3502445e+00
  8.5300922e+00
 -5.2210956e+00
 -6.2683843e-02
 -4.9741330e+00
  2.5860381e+00
  3.9694958e+00
 -2.6972368e+00
 -8.1377211e+00
 -5.0556356e-01
  8.0800194e-01
  2.2410376e+00
 -1.6934094e+00
  1.0010187e+01
  1.2179640e+01
  1.2125258e+00
 -3.8611400e+00
  6.0068350e+00
 -4.8683457e+00
 -2.4645274e+00
  4.3758898e+00
  3.7903740e+00
  4.8540001e+00
  3.0554345e+00
  4.9964361e+00
  8.3009988e-01
  4.6504200e-01
 -1.9169747e+00
  5.5045915e+00
 -5.2167833e-01
  6.8101406e+00
 -7.5104170e+00
  9.7235097e-03
 -6.4946456e+00
 -2.5478158e+00
 -1.4916170e-01
  4.3978887e+00
  1.0626035e+00
  4.1889925e+00
  9.7286886e-01
 -1.0698279e+01
 -8.5953569e+00
 -2.3670058e+00
  1.0280579e+01
  1.0048075e+00
 -5.7052078e+00
 -5.1750767e-01
 -1.7339181e+00
 -2.6928825e+00
 -7.2481418e-01
  9.4777060e+00
 -2.2703371e+00
 -6.5388665e+00
  2.3860679e+00
 -3.6764681e-01
 -4.9554935e+00
 -4.6264787e+00
 -2.1473296e+00
 -1.2385343e+00
 -3.4867566e+00
 -4.3695426e-01
  3.0748420e+00
  2.2080733e-01
  2.1014469e+00
 -7.4483871e+00
 -9.2273970e+00
  3.4627417e-01
 -1.1794387e+01
  5.4947335e-01
  5.9283504e+00
 -1.8953528e+00
  4.3086967e+00
 -3.2770004e+00
 -6.4644279e+00
 -5.1660399e+00
 -1.9262624e+00
 -7.4628453e+00
  3.9985802e+00
 -2.9552650e+00
  2.4691001e-01
 -2.5906107e+00
  1.0225995e+01
  2.5567427e+00
  1.8415611e+00
 -7.7475386e+00
  9.7932072e+00
  3.5611725e+00
 -4.7868404e-01
 -1.8053414e+00
 -1.9999704e+00
  3.7819347e-01
  1.0194998e+00
  5.3395286e+00
  9.1275245e-02
  3.3508050e+00
 -6.7987480e+00
  5.2224445e+00
  5.1176238e+00
 -5.3837409e+00
 -7.0820699e+00
  1.3376052e+00
  1.2005455e+00
 -7.9414687e+00
 -4.9585479e-01
  3.0075932e+00
  2.4522941e+00
  1.2512883e+00
  5.0985074e+00
 -1.1220695e+00
  5.2241488e+00
  3.9904897e+00
  5.0765066e+00
  1.1946839e+01
  7.0554334e-01
 -6.5225019e+00
  4.9445030e-01
  4.2646995e+00
 -2.9741406e+00
  1.9894849e+00
 -3.5506973e+00
  1.1325257e+00
 -5.6557879e+00
 -2.1214681e+00
  3.7345083e+00
 -9.3869057e+00
  1.7562348e+00
  6.5985590e-02
 -6.1664691e+00
 -2.8096879e-01
 -1.0824715e-01
 -9.0701777e-01
  4.3623943e+00
  4.5532908e+00
  1.2120012e+01
 -1.5732111e+01
 -5.7578478e+00
  9.4108772e-01
  1.0774344e+00
 -3.1371374e+00
  2.9574142e+00
 -6.3051271e+00
 -1.1792587e+00
 -9.0029484e-01
 -6.7973274e-01
 -2.5546105e+00
  7.6519752e+00
 -1.8941445e+00
  2.1603713e+00
  4.1567974e+00
  3.1124332e+00
  6.3186234e-01
 -3.5819983e+00
  1.8154950e-01
 -3.5653777e+00
 -2.6567185e-01
  5.5742116e+00
  1.9461474e+00
  1.2385073e+00
 -9.6003494e+00
 -7.2433333e+00
 -1.5447100e+00
 -5.1685476e-01
  1.8140025e+00
 -6.7510514e+00
 -3.4322722e+00
 -2.5980747e+00
  2.3430997e-01
  1.4618167e+00
 -4.8158355e+00
 -5.6358510e-01
 -5.8484137e-01
 -1.9596107e+00
 -1.0129855e+01
 -2.5915744e+00
 -1.7298737e+00
 -9.9337883e+00
  2.4233048e+00
  2.6813836e+00
 -6.2628202e-02
 -4.9067426e+00
 -3.7862704e+00
 -1.6641899e+00
 -5.5214083e-01
 -2.0982685e+00
 -4.6165419e+00
  2.9273205e+00
 -2.8832614e+00
  3.3168600e+00
 -2.3668529e-01
  4.3414012e-01
  1.0087222e+00
  3.1749752e+00
 -9.9238098e-02
  2.4518678e+00
  2.8400581e+00
  3.5272319e+00
  4.2571826e+00
  2.5390136e+00
  2.7485523e-01
  8.6938562e+00
 -3.9852705e+00
  1.3053166e+00
  5.5745173e-01
 -4.0496120e+00
  1.7917925e+00
  6.9282532e-01
  1.6909905e-01
  5.8567367e+00
 -1.5587371e+01
  3.6451790e+00
  7.5613093e-01
  1.7799915e+00
 -3.4664104e+00
 -8.6641502e+00
  3.3567009e+00
  8.6247796e-01
 -5.6032777e+00
  3.3826458e-01
  4.5140600e-01
 -5.8788508e-01
  1.8297708e+00
 -6.2225971e+00
  5.4876766e+00
  5.1954513e+00
  2.9070938e+00
  4.3895617e+00
 -2.6001182e+00
  3.2119744e+00
 -7.8166909e+00
  1.9759294e-01
 -5.3754091e+00
  1.2675205e+00
  2.5600512e+00
  8.1255579e+00
  4.7514164e-01
  1.1972064e-02
  1.0946835e+01
 -1.7538776e+00
  3.7260427e+00
  1.6120604e+00
 -8.0508814e+00
 -2.9965572e+00
  5.3685136e+00
 -1.5116252e+00
  7.3463577e-01
  7.3899345e+00
  1.5533434e+00
  5.2777380e-01
 -4.7788787e+00
 -3.0192670e-01
 -2.0201862e+00
  1.0218594e+00
  1.0566173e+00
  9.2817011e+00
 -1.1222740e+00
  7.3241272e+00
  1.2071746e+01
 -3.8166124e-01
 -3.2002702e+00
 -2.1630094e+00
 -8.4034389e-01
 -8.6243219e+00
 -2.3724570e+00
 -2.8515730e+00
 -7.3683482e-01
  6.1195030e+00
  8.0214443e+00
  3.1651351e+00
 -4.5961590e+00
  9.2657633e+00
  2.6245594e+00
  1.8167993e+00
  1.1046422e+00
 -1.8155833e+00
 -2.8581433e+00
 -4.8388019e+00
 -3.6016326e+00
  2.8191705e+00
 -8.1771250e+00
 -4.8787370e+00
 -3.1244400e+00
 -4.0331888e+00
 -8.3780318e-01
  2.5698371e+00
  1.9787797e+00
  8.2673913e-01
 -2.3350070e+00
  1.3852676e+00
 -3.7490859e+00
 -2.2221228e-01
  1.0282397e+00
 -2.2759249e+00
 -2.9481318e+00
 -2.3838842e+00
 -2.9414110e+00
  2.3114882e+00
 -1.1963799e+00
 -2.4114990e+00
 -2.3242788e+00
  8.0095263e+00
  5.2059746e+00
 -4.1973882e+00
 -1.2614471e-01
 -3.5804229e+00
  2.4405355e+00
  5.5559931e+00
  5.2397329e-01
 -1.6182154e+00
 -4.8828748e-01
 -4.4884329e+00
 -3.6511084e-01
 -7.0800056e+00
  5.3237921e-01
 -4.8849840e+00
  8.9658678e-01
 -1.3022220e+00
  5.0616045e+00
 -2.2912946e+00
 -1.5300857e+00
 -3.8158712e+00
 -1.9526119e+00
  9.3464165e+00
  8.3558645e+00
  9.2008334e-01
  1.1446967e+01
 -5.9826298e+00
  6.9196558e+00
  5.5272422e+00
  7.1583757e+00
 -1.7519988e+00
 -3.4312711e+00
  3.2184358e+00
 -8.8024406e+00
  5.3833156e+00
  2.7328126e+00
  2.2499714e+00
  5.5272284e+00
 -2.0169182e+00
  1.1232749e+00
 -3.4796574e+00
  1.9027035e+00
 -9.2462993e-01
 -2.1014884e+00
 -5.4052753e+00
  7.4370222e+00
  5.0559521e+00
 -1.9319431e+00
  3.3522801e+00
 -1.0694751e+00
  7.7666205e-01
 -2.0900321e+00
  3.5156760e+00
  1.8305784e+00
  9.1029921e+00
  5.3037906e+00
  1.5868713e+00
  7.2252674e+00
 -1.8625598e+00
  3.8497679e+00
 -2.0629747e+00
  3.0694950e+00
 -3.8758159e+00
 -5.0279255e+00
 -3.0445437e+00
 -1.7705072e+00
  3.5628006e-01
 -5.4369926e-01
  4.2059731e+00
 -1.5724809e+00
  9.6471906e-01
  2.0100784e+00
 -4.7440643e+00
 -5.8825474e+00
  5.8824849e-01
 -1.1108814e+00
 -2.8573563e+00
 -6.6433930e+00
  3.1732976e-01
 -7.3022022e+00
 -3.0479175e-01
 -7.6600285e+00
  5.1530647e+00
  8.5257807e+00
  8.3060617e+00
  1.0761566e-01
  7.2669668e+00
  6.5503669e+00
  1.1173748e+00
 -1.1054619e+01
 -3.5321188e+00
  1.1544984e-01
  2.5158949e+00
 -1.5603846e+00
 -2.3104317e+00
  6.6959257e+00
  5.3707905e+00
 -3.2338386e+00
 -7.5745792e+00
  3.9216597e+00
  6.4476662e+00
  1.0725464e+00
 -1.5925702e+00
  2.4923992e+00
 -1.1200000e+00
  7.3449802e+00
  1.3665174e-01
  8.5628777e+00
  5.1338309e-01
 -3.4703875e-01
  2.8114059e+00
  2.3127038e+00
  5.6989079e+00
  1.8207700e+00
 -3.4360746e-01
  4.5373340e+00
 -7.2709947e+00
  5.7603312e+00
 -4.8192797e+00
 -6.3594365e+00
  3.5781789e+00
  5.7878418e+00
  3.4368510e+00
 -1.2429457e+00
 -6.3679260e-01
  2.0504405e+00
 -7.0546203e+00
 -7.8388369e-01
  4.4093342e+00
  5.4609804e+00
 -2.0546744e+00
  3.5653517e+00
 -7.2687764e+00
 -3.8152578e+00
  3.2662802e+00
  7.1543708e+00
 -4.2453665e-01
 -2.8402582e-02
  2.9381156e-01
 -3.2374248e-01
 -5.9731913e+00
 -1.9100044e+00
  5.2157321e+00
  7.2689452e+00
  1.0699077e+00
  4.8836312e+00
 -1.8751158e+00
  3.9369810e+00
 -2.1925077e+00
 -8.5924834e-02
  1.7581847e+00
  1.3658398e-01
  1.5475868e+00
 -4.1803780e+00
 -6.7677894e+00
 -3.9627423e+00
 -1.7301173e+00
  9.4183750e+00
  1.7460423e+00
  1.0863972e+01
  3.2892344e+00
 -1.5867517e+00
 -5.4528251e+00
 -4.9818981e-01
  5.6775031e+00
 -3.5581994e+00
  5.6502142e+00
  7.8153902e-01
  2.0446551e+00
  7.4289477e-01
 -3.9529574e-01
 -4.6706672e+00
 -3.3796209e-01
 -4.7664638e+00
  1.2372082e+00
  4.6724911e+00
  6.4241376e+00
 -1.4237736e+00
  2.1409686e+00
 -7.9783669e+00
 -5.0228343e+00
 -6.1368313e+00
 -2.1084208e+00
  3.5274990e+00
  2.7979455e+00
  2.4830654e+00
  2.1798925e+00
  1.8926668e-01
  9.5526618e-01
 -2.4980516e+00
  4.2993751e+00
  5.0508900e+00
  6.6136966e+00
  3.0817268e+00
  3.1013355e+00
 -7.4957628e+00
 -1.1701809e+00
  7.8326802e+00
  1.8938627e+01
 -2.4622173e+00
 -1.0116461e+01
  3.0612750e+00
  4.0322633e+00
  4.4538097e+00
 -1.1633036e+01
  3.1007323e+00
  7.0279813e-01
 -5.6464189e-01
  3.1345954e+00
  2.5238612e-01
  6.3102283e+00
  2.7765121e+00
  1.8012947e+00
  8.4984674e+00
  2.8699749e+00
 -3.5641983e-01
  1.1584211e+01
 -1.3025842e+00
 -1.0708677e+01
 -3.2004872e-01
  4.2515411e+00
  1.7454624e-01
  3.7933435e+00
  4.8184675e-01
  7.0261115e-01
 -3.9235010e+00
 -1.0877749e+00
 -1.4364448e+00
  1.2666984e+00
 -6.3118205e+00
 -3.8741779e+00
 -5.9630948e-01
 -8.5674038e+00
  7.6461709e-01
  9.4075018e-01
 -2.6472597e+00
  2.7457204e+00
  4.2079997e+00
 -2.8095427e+00
 -5.5145411e+00
 -1.3809475e+00
 -2.5709863e+00
 -3.6340878e+00
 -4.5912967e+00
 -3.2148898e+00
  3.4862581e-01
 -3.9526868e+00
 -2.9509840e+00
 -1.0766568e+01
  9.0221462e+00
  9.3469820e+00
  4.6824932e+00
  4.1984093e-01
  8.8153136e-01
 -1.7201711e+00
  4.4530911e+00
 -1.9516244e+00
  7.3133445e-01
  2.9379228e-01
  1.4760274e+00
  6.8510194e+00
 -9.5604544e+00
 -9.0267009e-01
  4.7021043e-01
 -2.7277551e+00
 -1.2521338e+00
  3.2945323e-01
 -4.2365065e+00
 -4.8182430e+00
 -3.2222209e+00
 -1.4313066e+01
 -5.2165914e+00
  4.9992755e-01
  1.7840922e+00
  4.6416245e+00
 -1.1545699e+00
 -3.9014213e+00
  3.3031857e+00
  1.2458713e+00
  4.2445431e+00
 -6.8843622e+00
  1.8058575e+00
 -1.7230583e+00
 -1.5482810e+00
  1.5873995e-01
 -4.2982507e+00
 -4.1349816e+00
  1.6055690e+00
 -9.1053400e+00
  9.1523829e+00
 -5.6261649e+00
  9.1625392e-01
  3.0007380e-01
  3.8776765e+00
  2.8378687e+00
 -7.3376656e+00
  6.2694483e+00
  3.2911439e+00
 -2.0072925e+00
  2.3942323e+00
 -3.9294736e+00
 -4.4676609e+00
  5.6419053e+00
  4.8600855e+00
  6.3903469e-01
 -9.9240154e-01
 -7.8288865e+00
  3.7515352e+00
 -1.6326317e+00
 -5.9108748e+00
 -4.6437025e+00
  1.8456185e+00
  7.0696964e+00
  5.9416447e+00
 -9.6300163e+00
 -4.5801344e+00
 -3.8702686e+00
 -1.3387157e-01
 -1.9838905e+00
  1.2185485e+00
  5.7533097e+00
 -1.4073374e+00
 -5.0600219e+00
 -3.1844611e+00
  3.8238788e+00
 -1.4235842e+00
  2.5917876e+00
 -2.1727066e+00
  2.2307303e+00
 -9.0078926e-01
  6.5595841e+00
  5.1792111e+00
 -7.5718436e+00
 -9.0551251e-01
 -1.3226433e+00
  3.0324655e+00
  2.5152969e+00
 -2.3824570e+00
  6.6561670e+00
 -5.8807487e+00
 -1.0206798e+00
  8.7070389e+00
 -2.3421025e+00
 -3.6667916e-01
  3.7403886e+00
 -2.5269914e-01
 -1.0290416e+01
 -4.1607571e+00
  1.3108352e+01
  6.9859996e+00
 -2.5790350e+00
 -1.2001566e-01
  4.7722216e+00
 -1.4372777e+00
  6.2679875e-01
  1.8706698e-02
 -3.9054859e+00
  2.9535276e-01
 -2.0632823e+00
  2.1223955e-01
 -7.9631925e+00
 -3.7399364e+00
 -8.6788195e-01
 -8.6833057e+00
  9.4788122e+00
 -3.5990307e+00
  3.7657318e+00
 -3.7070128e-01
 -1.3799658e+00
 -5.8667994e+00
  5.5917468e+00
  1.4988847e+00
 -2.5376270e+00
 -7.8661317e-01
  4.4442158e+00
 -1.3717983e+00
  1.5089126e+00
 -1.1820663e+01
  2.1788015e+00
  1.8583127e+00
  2.6563640e+00
 -1.3302829e+00
 -8.3342495e+00
 -2.5345698e-01
 -3.2818840e+00
  1.9276479e+00
 -6.1862955e+00
 -4.5504785e+00
  1.9108361e+00
 -4.8767619e+00
  3.0494058e+00
  6.7470231e+00
 -4.7393837e+00
  4.5211935e+00
 -8.9292371e-01
  1.3610643e+00
  4.7337513e+00
 -2.0183520e+00
  4.1839824e+00
  1.0539665e+00
  4.1705918e+00
  6.7405242e-01
  7.1167860e+00
  6.8276662e-01
  4.9031110e+00
 -3.6536026e+00
 -4.0393419e+00
  2.6537934e-01
  4.2295608e-01
  2.2347527e+00
  8.4392786e-01
  7.5232059e-01
 -3.6343506e-01
  2.2073371e+00
 -1.2938859e+00
  8.6398464e-01
  3.8234210e+00
 -4.7364473e+00
  4.5678952e-01
  6.7112154e-01
  2.1816630e+00
  7.1570152e-01
 -3.1983283e+00
  1.1934871e+01
  2.6243515e+00
  5.7848320e+00
 -3.9901545e+00
  5.8303374e-01
  3.9433506e+00
  4.6885991e+00
 -8.1836052e+00
  3.7850463e-01
  5.7730609e-01
  6.5689368e+00
 -3.7816391e+00
 -2.0752742e+00
 -3.3272274e+00
 -2.7652165e-01
 -4.9551601e+00
  1.0625812e+00
  6.1717290e-01
 -5.5904818e+00
  4.9854670e+00
 -3.5302100e+00
  3.2884765e+00
  1.4415990e-01
  5.5919437e+00
  1.6455263e+00
 -3.7607715e+00
  1.3323789e+00
  2.3601618e+00
 -1.5712875e+00
  5.2287483e-01
 -2.3900630e+00
  1.8801161e+00
 -1.2843200e+01
 -7.3863807e+00
  4.2854195e+00
 -3.5026833e-01
 -4.4806290e+00
  6.9630222e+00
  2.3109524e+00
 -1.4361419e-01
  1.4979315e-01
  3.2322887e-02
 -6.1973634e+00
  3.5726011e-01
 -3.9156530e+00
  5.7275786e+00
  1.7971436e+00
 -2.7462020e+00
 -2.7048555e-01
  7.8774953e+00
 -9.6354513e+00
 -5.0130620e+00
  6.1432047e+00
  3.2967160e+00
  5.2328634e+00
 -4.0974078e+00
 -6.9419904e+00
 -2.6027179e+00
 -8.1692445e-01
  1.4031200e+00
 -4.5364065e+00
 -2.9056184e+00
 -5.2116981e+00
  5.6540275e+00
 -2.2598526e+00
 -3.9214096e+00
 -4.0141296e+00
 -1.5279975e+00
  2.7011943e+00
  2.1055367e+00
  3.0312252e+00
 -4.8109412e+00
 -3.9808340e+00
 -5.8499861e+00
  1.2111417e+00
 -2.0883071e+00
 -3.2557688e+00
 -6.3654814e+00
 -1.6114496e+01
  5.3225031e+00
 -2.5533812e+00
  3.3008676e+00
 -7.4969025e+00
  1.7664416e+00
 -3.2718289e-01
 -2.5526214e+00
  2.4697025e+00
 -4.6199575e-01
  1.8994895e+00
  3.3246806e+00
 -5.6200294e+00
  3.8371330e-01
  1.1113032e+01
  1.1086857e+01
 -3.6214654e+00
 -8.1812400e-01
 -1.2265140e+00
  1.6534930e+00
 -3.0120757e+00
 -4.1108232e+00
  1.5401565e+00
  3.0070903e-02
  2.1896071e+00
  1.1180812e+00
 -5.4378595e+00
  9.5071167e-01
  1.5660279e+00
  3.7563388e+00
  5.0446439e+00
  6.9118967e+00
  1.7013471e+00
  6.3593082e+00
  2.1852238e+00
 -2.5057438e-01
  5.4955739e-01
 -7.1711988e+00
  3.2694645e+00
 -5.7282545e-02
  3.0123395e-01
  1.8766009e+00
 -2.1749896e-01
 -1.9773358e+00
  5.6355529e+00
  3.8600856e-01
  2.2068698e+00
  2.1842902e+00
 -7.7392060e-01
 -3.0847509e+00
  2.0653958e+00
 -1.7544949e+00
  2.8832664e+00
  2.4371298e-01
 -6.2812982e+00
  3.1219206e+00
  6.9649248e+00
  3.1542173e-01
 -4.9587088e+00
 -2.4728999e+00
 -1.9366877e+00
 -2.7616069e+00
  2.2621915e+00
  3.6610398e-01
  4.3657341e+00
 -1.0154864e+01
  3.0466342e+00
  3.7674286e+00
 -8.9840975e+00
  1.9055597e+00
  8.9407196e+00
 -2.1760528e+00
 -1.3719143e+00
  7.9207110e+00
 -5.3792553e+00
 -4.7156301e+00
 -5.2134423e+00
 -1.3835207e+00
  9.4791298e+00
 -6.9937563e+00
  3.6177194e+00
 -4.2890248e-01
  2.9320824e+00
  1.0036821e+01
 -6.5648812e-01
  1.0919774e+00
 -8.5096943e-01
 -5.5454602e+00
  1.0483047e+01
 -5.8672929e+00
 -1.6567127e+00
 -9.7746525e+00
 -3.4680951e+00
  1.2478803e+00
 -2.6311154e+00
 -8.1262487e-01
  6.7369556e-01
  2.3633316e+00
 -2.1583027e-01
  3.5684106e+00
 -1.2458247e-01
 -6.0092039e-02
  5.8405867e+00
  6.7050451e-01
  1.0537208e+00
 -2.2828157e+00
  6.4056883e+00
  3.0392513e+00
 -2.4247959e-01
  8.9479768e-01
  6.2996030e+00
 -4.3900471e+00
  2.0170686e-01
  2.4845593e+00
  5.7981243e+00
  1.1993177e+00
  3.1664419e+00
  5.7562671e+00
  3.4541793e-02
 -2.5476825e+00
 -2.6072028e+00
 -6.9830644e-01
 -3.3759663e+00
 -3.7366877e+00
  1.1308143e+01
  1.7621467e+00
  4.6890249e+00
  1.0222179e+00
  1.2444947e+00
 -3.2599087e+00
 -1.1843024e+00
 -6.2926078e+00
  1.9047066e+00
 -2.8833437e+00
  1.8516738e+00
  1.6754520e+00
 -8.6528885e-01
  2.3007951e+00
  2.6826093e+00
 -4.7154827e+00
 -4.2210975e+00
  7.4005073e-01
  1.9494249e+00
  2.4903021e+00
  2.7562025e+00
 -6.5815419e-02
 -1.2635221e+00
 -3.0296412e+00
 -8.1337795e+00
  2.8771229e+00
  2.9550784e+00
  1.7507133e+00
 -1.3932775e+00
  2.7343397e+00
  6.6391354e+00
  8.3011472e-01
  1.9123007e-01
 -2.0156758e-01
  1.4643323e+00
 -2.4181745e+00
  7.6456153e-01
 -7.7452879e+00
 -6.9310741e+00
  1.3740979e+00
 -3.1303719e-01
 -6.3459840e+00
 -1.6260666e+01
  3.3591145e-01
  4.3300967e+00
  1.3380357e+00
 -1.1371027e+00
 -2.1954277e+00
  1.2601362e-01
 -4.3116398e+00
 -7.1347338e-01
  2.7886119e+00
 -3.3578782e+00
  4.4994049e+00
  2.8826182e+00
  3.5955688e-01
  8.7339443e-01
  8.1216736e+00
  7.7500027e-01
  1.9898334e+00
 -9.7603166e-01
 -3.1278188e+00
 -1.4689264e+01
  2.9042432e+00
 -5.7418041e+00
 -6.3272542e-01
  5.7456188e+00
 -3.6414790e+00
  1.2651571e+00
 -3.9337039e+00
  3.2380340e+00
  1.6432830e+00
 -7.2787843e+00
 -2.8587928e+00
  5.9411187e+00
 -1.2112536e+00
 -2.6216924e+00
  2.2552478e+00
  4.3363838e+00
  6.9416761e+00
 -6.2662587e+00
 -1.5764514e+00
  1.2304173e+00
  4.3034520e+00
  1.4668970e+00
  7.4177498e-01
 -1.0310420e-01
  5.4039532e-01
 -3.3482654e+00
  8.0799228e-01
 -1.1423010e+00
 -1.1230266e-01
 -9.7852554e+00
  3.2569256e+00
  7.7339735e+00
 -7.0912042e+00
  7.0537716e-01
  3.8220460e+00
 -5.9996257e+00
 -7.1636909e-01
  1.1517802e+01
 -4.0101924e+00
 -1.6062390e+00
 -2.0981979e+00
  2.9259918e+00
  4.1550479e+00
 -9.4408774e-01
  3.0835335e+00
 -8.2084093e+00
  1.0716737e+01
 -7.3220110e+00
 -7.2261167e+00
 -1.0168028e+01
 -2.4018347e-01
 -1.7753891e+00
 -1.3642997e+00
  2.9562238e-01
 -3.8866370e+00
 -1.3307995e+01
  4.7562447e+00
 -2.1722846e+00
 -7.3462214e+00
  9.4348329e-01
 -3.3641642e-01
 -1.4252584e+00
 -6.5863619e+00
 -7.8230605e+00
 -8.3319950e+00
  3.6901662e+00
 -2.8038933e+00
 -1.9654940e+00
  9.0130907e-01
 -4.9477479e-01
  8.4918737e+00
  6.7702013e-01
  4.3506613e-01
  1.3633210e+01
 -4.6948034e-01
 -2.0869610e+00
  6.4277995e-01
 -2.0053258e+00
 -6.1896133e+00
 -6.2208071e+00
 -4.8539014e+00
  2.8376734e+00
 -1.6687170e+00
  5.2474213e+00
  6.9390836e+00
  1.0550979e+00
 -1.9027086e+00
 -6.2429786e+00
 -3.5353272e+00
  4.3158784e+00
 -2.7401202e+00
  2.7747853e+00
 -6.8469167e-02
  5.7076639e-01
  1.2216511e+00
 -8.4227890e-01
 -4.2431669e+00
  3.1744468e+00
  5.9357338e+00
  5.0722075e+00
 -4.2106833e+00
  2.8190117e+00
  1.2052419e+01
  1.0047158e+00
  5.2489918e-01
 -2.2997751e+00
 -1.5215199e+00
 -1.1935179e+01
  9.2580385e+00
  5.0718737e+00
  3.4111404e+00
 -4.4059911e+00
 -9.3546858e+00
 -1.5185202e+00
  3.5885351e+00
  6.6933846e+00
 -4.0405493e+00
  4.0554514e+00
  2.8252413e+00
  1.9830652e-02
 -6.6559488e-01
 -4.0186920e+00
  5.7987757e+00
  2.5186343e+00
 -2.5535710e+00
 -7.8595346e-01
 -9.7892028e-01
  8.8642514e-01
  2.3099811e+00
 -9.6541805e+00
  3.9989507e-01
  2.0315816e+00
 -4.5573549e+00
 -1.5933482e-01
 -2.2482939e+00
  2.0457840e+00
 -6.2537580e+00
 -2.8434353e+00
  7.4690304e+00
  1.6264758e+00
 -1.2217490e+01
 -1.0016272e+01
  4.2003703e+00
  3.3850572e+00
 -3.0055606e+00
 -6.7434192e+00
 -8.3939734e+00
 -1.7371341e+00
  2.9576559e+00
 -2.6415453e+00
  5.8670659e+00
 -1.6898774e+00
 -5.6521692e+00
  4.7870793e+00
 -4.5949817e+00
 -1.0696509e+01
  1.3202310e+01
 -2.6162426e+00
  1.5329112e+00
 -4.7274837e+00
  6.3468510e-01
  3.6722887e+00
 -4.5404916e+00
 -1.1791724e+01
  7.1871781e+00
 -5.5650729e-01
 -1.9597512e-01
 -6.3847055e+00
 -4.0829787e+00
 -2.1392171e-01
 -1.2757051e+00
 -7.2214949e-01
  4.8733011e-01
 -7.7276158e+00
  1.7003644e+00
 -3.9512265e+00
  2.4842784e+00
 -2.1306109e+00
 -8.2803030e+00
 -8.4593029e+00
 -6.5997615e+00
  2.7617514e-01
  8.4041518e-01
  3.2667687e+00
 -3.0106473e+00
  3.7736354e+00
 -7.1609861e-01
  4.7300124e+00
  2.8624072e+00
 -5.1102614e+00
 -1.0834603e+00
 -1.2068330e+00
 -5.6243544e+00
  6.1548429e+00
 -9.8427258e+00
  2.2923946e+00
 -2.0199447e+00
  3.6726685e+00
  7.0775280e+00
 -4.4248152e-01
 -1.8089006e+00
 -3.7010448e+00
 -3.5352105e-01
  3.1687055e+00
 -8.1560749e-01
  1.1208172e-01
 -6.8563318e+00
 -6.3124311e-01
  1.8621044e+00
 -1.0577445e+00
 -4.0455690e-01
  2.8698180e+00
 -3.5845950e+00
  3.5619080e+00
 -2.3078599e+00
  3.0405536e+00
 -3.0327575e+00
  2.2865155e+00
  3.3557391e+00
 -2.1498692e+00
  5.5719171e+00
 -2.3213671e-01
  5.9152502e-01
 -2.7035561e+00
 -4.4893488e-01
  4.9652610e+00
 -1.4121246e+00
  8.0860119e+00
 -3.6610951e+00
  5.1357913e+00
  5.0799460e+00
 -2.1602566e+00
 -3.5710788e+00
 -7.3220003e-01
 -8.4572468e+00
 -9.2060012e-01
 -2.5522203e+00
 -1.9189527e+00
 -4.9011502e+00
 -8.3241653e-01
 -2.0487435e+00
 -4.9808102e+00
  4.7561369e+00
  7.1811886e+00
  8.7820607e-01
  6.6691241e+00
 -8.3678665e+00
 -1.6121017e+00
  1.6673205e+00
  3.5280100e-01
  4.4580045e+00
  6.0706277e+00
  2.8714964e+00
 -3.2992866e+00
 -1.3623641e+00
 -5.1130705e+00
  4.9429798e+00
  2.9801667e+00
 -1.3970028e-01
  6.6694922e+00
  1.8475915e+00
  1.3583112e+00
  6.8130555e+00
 -4.4840306e-01
 -3.9441645e+00
  1.3509209e+00
 -1.2762244e+00
 -2.8105345e+00
 -1.1397026e+00
 -2.7623687e+00
 -2.6618743e+00
  1.7286842e+00
 -2.0565462e+00
 -2.8344042e+00
 -2.5698907e+00
  7.9315104e+00
 -5.8045397e+00
 -9.8916489e-01
  5.4713464e+00
 -7.0860310e+00
 -2.4781802e+00
  4.0193763e+00
  4.0034819e+00
 -3.9461334e+00
 -7.5348129e+00
 -3.2666543e-01
 -1.1373527e+00
 -1.0071701e+00
  1.3232136e+00
  1.1619645e+00
 -5.2518886e-01
 -9.3986692e+00
  4.3496270e+00
  6.4334040e+00
 -6.7102140e-01
 -1.8831625e+00
 -7.2959681e+00
 -1.7983483e+00
 -8.2745533e+00
  1.1632039e-01
 -4.3608826e-01
 -1.7101215e-01
 -1.6132565e+00
  6.8338871e+00
 -1.7895112e+00
  4.3663497e+00
 -5.7870936e+00
  2.2942388e-01
  3.6344447e+00
 -3.6493802e+00
  7.9500804e+00
 -1.4289997e+01
  1.1463885e+00
 -8.5990868e+00
  7.8549566e+00
 -4.1651663e-01
 -1.4500754e+00
 -2.9085584e+00
 -7.4070984e-01
 -2.5940752e+00
 -3.5051799e+00
 -2.8145268e+00
 -1.6228138e+00
  1.8434316e+00
  8.6916924e-02
  2.2792773e+00
 -8.0797893e-01
  1.4683684e+00
 -8.0641165e+00
 -4.0483518e+00
  4.1056919e+00
  6.0590968e+00
  1.9852145e-01
  2.9957528e+00
  3.5487585e+00
 -1.3128542e+00
 -3.4529772e+00
  5.5927458e+00
  1.9286901e+00
 -5.3109899e+00
  6.1972636e-01
  1.4704672e+00
 -6.8620520e+00
 -1.3656605e-02
  2.3659978e+00
 -6.6716933e-01
  7.8617330e+00
  9.2084956e-01
  2.5730546e+00
  5.7014151e+00
  2.9323497e+00
 -1.1152318e+00
  1.2948527e+00
 -3.0738387e+00
  9.4476438e-01
  1.5914650e+00
  3.9545574e+00
 -2.1092296e+00
 -4.1254749e+00
  7.3324895e-01
  5.5316410e+00
  3.9113026e+00
 -4.1235681e+00
 -1.4222447e+00
 -3.2900336e+00
 -5.8925521e-01
  1.9506648e+00
 -6.6084609e+00
  2.5540941e+00
  9.3105450e+00
  9.0018147e-01
  1.5120974e+00
 -3.2052417e+00
 -3.6253865e+00
 -2.2170844e+00
  2.6205921e+00
 -4.0311117e+00
 -2.0599337e+00
 -2.4253957e+00
 -9.0081900e-01
 -7.5805885e-01
 -2.5992098e+00
  1.5354351e+00
 -2.2512648e+00
 -8.5473213e+00
  2.3327458e-01
 -1.1405370e+00
  1.1329008e+00
  1.1281139e+00
  7.5018382e-01
  2.8977566e+00
 -1.0019320e+00
 -2.4570193e+00
 -1.7718188e+00
  5.3530908e+00
 -4.7959247e+00
  1.7462379e-01
  5.8503780e+00
 -9.9663758e-01
  8.0853933e-01
 -4.1087499e+00
  1.3171465e+01
 -3.1036451e+00
  1.6528212e+00
 -9.0327826e+00
 -2.1280048e+00
  4.8670316e+00
  2.1610599e+00
  8.6692882e-01
  9.1409534e-01
 -1.2233904e+01
 -7.6028752e-01
  7.3064499e+00
 -3.8680775e+00
 -4.2115231e+00
 -5.3974706e-01
  7.5743097e-01
  9.8851948e+00
 -3.6950512e+00
  4.3930779e+00
 -1.5736732e+00
  4.7870188e+00
 -9.1294891e-01
  1.1548834e+00
  1.7499411e+00
  6.5862358e-01
 -2.6485392e-01
 -2.8831646e+00
 -1.5654871e+00
 -2.3515401e+00
 -1.0534008e+01
  1.1909815e+00
  8.7262907e+00
  3.8263624e+00
  4.8514748e+00
  7.6634817e+00
  5.6277485e+00
  4.6079683e+00
  2.9072189e+00
  2.2534814e+00
 -8.0533161e+00
 -3.0536826e+00
  2.1136262e-01
 -3.0586135e+00
 -5.4587369e+00
 -1.0651540e+01
  3.0721319e+00
 -7.6373287e-02
 -7.0263510e+00
 -7.0685208e-01
  1.9614244e+00
  8.1311111e+00
 -7.8546232e-01
  9.2701089e-01
 -1.1825395e+00
  3.2608755e+00
  1.5631980e-01
 -1.9664794e+00
  1.3266459e+00
 -2.2414532e+00
 -4.3308311e+00
 -8.1782665e+00
  2.8886163e+00
 -7.9923353e+00
  3.6927536e+00
  4.0629187e+00
 -6.8534589e-01
  5.5476189e+00
  2.9179935e+00
  6.6811979e-01
  2.3212571e+00
 -3.7035069e-01
 -5.5803318e+00
 -3.1681223e+00
 -4.7184619e-01
 -2.2696321e+00
  2.4448805e+00
  1.1657496e-01
 -2.6099415e+00
  3.9249985e+00
 -6.7406826e+00
 -1.9048135e+00
 -6.3573475e+00
 -3.0336702e+00
  2.9118221e+00
 -1.0228378e-01
  7.7844625e+00
 -2.1605160e+00
  6.3607728e-01
  3.1280990e+00
  5.6739402e-01
  8.3339298e-01
  1.0491104e+00
  1.6666709e+00
 -2.9487612e+00
 -3.4840422e+00
  3.8047452e+00
 -5.5375280e+00
  2.1649244e+00
  3.2486038e+00
  2.8449521e+00
  2.1331296e+00
 -3.1701472e+00
 -1.9315672e+00
  1.5242627e+00
 -6.0609502e-01
 -5.1554155e+00
 -5.6610374e+00
  5.2602978e+00
 -2.4856904e+00
 -1.6464984e+00
  9.4256306e+00
 -2.8211209e-01
 -1.2598425e+00
  3.3195190e+00
  2.6221292e+00
 -9.7536314e-01
 -2.5173452e+00
  8.6150780e+00
 -6.9053845e+00
 -1.5336546e+00
 -5.5289304e-01
 -1.3513318e-01
 -1.7376230e+00
 -3.2939105e+00
  3.7552397e+00
 -1.1221220e+00
 -8.4279203e+00
 -4.3789930e+00
 -8.7941051e-01
 -2.8126409e+00
  2.9835606e+00
 -4.6567106e+00
  5.4886093e+00
  1.3138589e-01
 -1.5257095e-01
 -4.1805366e-01
 -2.2309217e+00
 -1.0878969e+01
  6.1439431e-01
 -4.5685744e+00
 -6.7791122e-01
 -2.0421113e-01
 -3.9611366e+00
  1.7486379e+00
 -7.0437455e+00
  1.6410244e+00
 -5.5357008e+00
 -8.0828075e+00
  9.6325598e+00
 -4.0866446e+00
 -2.0651155e+00
  8.4668941e+00
 -4.2843289e+00
  1.4387776e+00
 -2.6610470e+00
  1.5263305e+00
  4.6735370e-01
 -8.0355883e+00
 -5.4584761e+00
 -1.6877983e+00
  1.9312702e+00
  5.1944585e+00
 -2.0808935e+00
 -3.0700302e+00
 -4.7994499e+00
 -9.6337719e+00
  1.1009387e+01
 -1.3213875e+00
  1.5435722e+00
 -1.0479237e+00
  5.8254933e+00
  6.3898172e+00
 -1.1255196e+00
 -9.4209967e+00
 -1.1275924e+00
  3.1387074e+00
 -2.6419141e+00
 -5.3825492e-01
  4.5001888e+00
  6.9235892e+00
 -1.8684341e+00
 -1.0969471e-01
 -7.5685058e+00
 -1.5947291e+00
  4.6167750e+00
  1.3530865e+00
  1.1531693e+01
  4.6321316e+00
  2.4408705e+00
  5.7447443e+00
 -2.2486844e+00
 -1.1701634e+00
 -2.0755990e+00
  2.7932179e+00
 -4.3521891e+00
 -2.1068599e+00
  7.7075095e+00
  4.1081858e+00
 -5.2562838e+00
 -4.2431712e+00
  4.9773173e+00
  2.6043704e+00
  9.3446958e-01
  1.6181648e-01
 -1.9706425e-01
  2.0340238e+00
 -3.5533428e+00
  4.4437990e+00
 -3.9493373e-01
 -2.9893965e-01
  3.3423431e+00
  5.0095878e+00
  1.7660494e+00
 -3.4166160e+00
 -2.0642071e+00
  1.1109685e+01
  5.2982540e+00
 -2.7095008e+00
  6.0378704e+00
 -6.4587152e-01
 -2.0906815e-01
 -3.5870826e+00
 -4.8489704e+00
 -1.2703229e+00
  6.7846327e+00
  8.6232338e+00
  1.6740305e+00
 -2.5468237e+00
 -2.1260617e+00
 -1.3516266e+00
 -6.9435477e+00
  6.0449533e-02
 -8.5385332e+00
  1.0061468e+00
  9.7087326e+00
  1.1372495e+01
  5.1263452e+00
  3.9301922e+00
  3.6707194e+00
 -4.1638932e+00
 -4.1143713e+00
  3.9106677e+00
  2.1155992e+00
  7.3592882e+00
  3.1048310e+00
 -6.5678778e+00
 -1.4647883e+00
 -1.6248701e+00
 -6.2549226e-02
 -1.6745824e+00
 -6.1245980e+00
 -5.1849413e+00
 -1.5282878e+00
 -3.9463249e-01
  2.8107607e+00
 -5.1822262e+00
  1.4597530e+00
 -6.9997964e+00
 -1.0066241e+01
  1.3693563e+00
 -3.4290226e+00
  9.2302513e+00
  1.8581918e+00
  3.2213807e-02
 -4.5752794e-01
 -4.1072211e+00
 -1.1246946e+01
  5.7163024e-01
  1.4326486e-01
 -1.2217064e+00
  3.4539506e+00
  3.6011264e+00
  1.4079736e-01
  5.2893486e+00
 -6.6682148e-01
  1.1824855e+00
  3.6914806e+00
 -1.2275918e+00
 -6.5733004e+00
  9.4981070e+00
  2.7728152e+00
  1.5113939e+00
  2.9685452e+00
 -8.0947056e+00
  3.2224469e+00
 -5.9754610e+00
 -4.4214911e+00
  1.8214043e+00
  2.5543482e+00
  7.6503509e-01
  3.2688179e+00
  3.1593701e-01
  4.9969845e+00
 -6.4356933e+00
 -2.4934294e+00
  3.6228724e+00
  3.4603798e-01
 -1.7610283e+00
  1.7618091e+00
  1.1397101e+00
 -8.3881617e-01
  1.0201241e+01
  9.5800358e-01
 -2.8514485e+00
  1.7682618e+00
 -1.5654317e+00
  1.3140414e+00
 -2.7000883e+00
 -7.6503692e+00
  4.9990211e+00
  3.6785922e+00
  2.1308618e+00
  1.3180938e+00
  1.7160615e-01
 -3.7573128e+00
 -1.0872629e+00
 -2.9047382e+00
  5.0931106e+00
 -7.0064244e+00
  4.0846033e+00
  4.4688892e+00
  2.9094169e+00
  1.0484520e+01
  6.0757189e+00
 -8.5297549e-01
  4.6984072e+00
  1.5552868e+00
 -9.5594549e+00
  3.1050377e+00
  3.0378654e+00
  2.6069112e+00
  1.8689463e-01
  2.4501562e+00
 -5.0747557e+00
  3.7601137e+00
  4.7786865e+00
 -2.7934036e+00
 -1.7108159e+00
 -1.2606184e+01
 -2.6597617e+00
 -6.6544813e-01
 -8.9104950e-01
 -2.1859760e+00
  4.6419539e+00
 -1.7491243e+00
 -6.5831385e+00
  1.7351774e+00
  2.7603374e+00
  6.6711241e-01
 -7.0813298e+00
 -1.5725725e+00
  9.5328420e-02
  3.5327873e+00
 -6.8976218e-01
 -1.9341538e+00
  4.5998268e+00
  2.5076373e+00
  3.4131250e+00
  3.4899409e+00
 -9.0686733e-01
  1.9104205e+00
 -4.1300263e+00
 -4.3085537e+00
  1.7462626e+00
  2.9744587e+00
  2.0219033e+00
  1.4735954e+00
 -5.6574903e+00
 -1.1620802e+00
 -6.5335493e+00
  3.1822996e+00
  2.5444770e+00
 -7.5244971e-02
  1.1409258e+01
 -1.1514316e+00
  4.1529455e+00
  1.8816140e+00
 -1.9874464e+00
  4.2565699e+00
  5.9894476e+00
 -6.9872169e+00
  1.7755415e+00
 -1.4393309e+00
 -7.2915095e-01
  3.1003034e+00
 -1.2653290e+01
  7.8875911e-01
 -2.9070525e+00
 -2.0542939e+00
  4.8862365e-01
 -4.7785106e+00
 -2.5031486e+00
  4.0036759e-01
 -9.2053622e-01
 -3.5104551e+00
 -6.4255199e+00
  5.7383597e-01
  1.1697601e+01
 -4.5866799e-01
 -7.0858994e+00
  5.7964578e+00
 -5.3695583e+00
 -6.2629943e+00
 -7.2902136e+00
 -3.8828239e+00
  2.2219806e+00
  9.8053491e-01
 -4.0918336e+00
  4.5724967e-01
 -4.0195622e+00
  1.1106242e+00
 -1.1929734e+01
 -2.5587961e-01
 -4.5166960e+00
  3.0639896e+00
 -3.7329438e-01
 -1.9391242e+00
  8.5867376e+00
 -3.8908823e+00
  1.1647455e+01
 -4.4615631e+00
 -5.6648475e-01
 -3.5890501e+00
  1.5161774e-01
 -1.9851186e+00
 -2.3492281e-01
  7.3232746e+00
 -1.4060652e+00
  5.0898075e+00
 -3.7423372e-01
 -1.0632557e+00
  6.3223271e+00
  7.7460217e+00
  4.0976256e-01
 -2.3631098e+00
  3.6754158e-01
 -5.6095595e+00
 -3.4590948e+00
  9.1344728e+00
 -6.0972862e+00
 -7.1456943e+00
  3.3269646e+00
 -3.4910343e+00
 -5.6707448e-01
  1.5193944e+00
  1.0145165e+01
  2.4712679e+00
 -1.2921357e-01
 -1.4054142e+00
 -6.9431067e-02
  6.2464786e+00
 -4.8472128e+00
  4.0681630e-01
  1.7775072e+00
  1.2357315e+00
  1.8362383e+00
  9.6768160e+00
  7.4614186e+00
  2.0437631e-01
  1.2358487e+01
 -3.1538188e-01
 -2.4866076e-01
 -1.6064392e+00
 -6.2900643e+00
 -9.8960775e-01
  3.8991330e+00
 -9.4961506e-01
  4.2371092e+00
  4.2636979e-01
 -1.2624816e+00
 -3.1287160e+00
  8.8628654e+00
  1.4854833e+00
  9.6248789e+00
  7.2424498e+00
 -2.9013865e+00
 -7.8862796e+00
 -9.7402687e+00
  7.9820142e+00
 -4.9607887e+00
 -5.0735149e+00
  2.1020169e+00
 -6.4689007e+00
 -2.1882601e-01
  5.0182514e-02
 -2.5494988e+00
  6.9230490e+00
  8.1416998e+00
 -5.7238178e+00
  3.4685078e+00
  7.7701669e+00
  1.8256660e+00
  3.4128392e+00
  2.7004659e+00
  4.2882400e+00
 -8.0946684e+00
  6.9565070e-01
  8.4755287e+00
 -2.9925921e+00
  2.3384550e+00
  6.1696792e+00
  3.5033810e-01
  1.2999777e+01
 -6.6899428e+00
 -6.7938395e+00
  1.8615659e+00
 -4.8723559e+00
  5.6251807e+00
  1.3157748e+00
 -1.3521569e+00
  2.3210959e+00
  1.7095444e-01
 -5.6200509e+00
 -5.0837440e+00
 -5.3059425e+00
  6.4097919e+00
  5.2324815e+00
 -7.5298758e+00
  1.0508149e+00
  1.2498744e+00
  1.4646363e+00
  1.2940810e+00
 -2.5459414e+00
  1.6627386e+00
  7.7840362e+00
  3.3424463e-02
  2.2089648e+00
  4.9223094e+00
 -1.9073769e+01
 -4.0172434e+00
  2.5829476e-01
 -5.1019745e+00
  4.8824816e+00
 -6.1093682e-01
  4.9170637e+00
 -5.9756107e+00
  1.4900915e+01
 -1.3306559e+00
 -5.4998463e-01
 -3.7277594e+00
  4.4363265e+00
 -3.3268209e+00
 -4.2299938e+00
  3.9359808e+00
  2.6815295e+00
  1.6380322e+01
 -1.8769550e+00
 -9.1929665e+00
  9.3259840e+00
  2.1996775e+00
 -6.2955041e+00
  7.2093840e+00
  3.1576025e+00
  9.1188154e+00
 -5.9995251e+00
 -6.8006718e-01
 -7.5611286e+00
 -4.4191041e+00
  2.6387215e-01
 -2.2719390e+00
  6.9556212e+00
  4.8714952e+00
 -3.3343387e+00
 -8.4120977e-01
 -3.6426771e+00
  9.3907249e-01
  6.4926705e+00
 -4.1733770e+00
  6.0742564e+00
  6.6493220e+00
 -2.0391753e+00
  8.5110273e+00
 -8.2439697e-01
  1.6012497e-01
  6.4847422e+00
 -1.1095096e+01
 -5.1482868e-01
 -1.1768583e+00
  3.7796807e+00
 -4.7996926e+00
 -5.5566306e+00
  5.7644928e-01
 -4.5509477e+00
  1.1557478e-01
  6.7667785e+00
 -4.1926818e+00
 -7.1586776e+00
 -2.9665401e+00
 -5.8800187e+00
 -2.5530386e+00
 -3.7993152e+00
 -2.2797420e+00
  1.5462992e+00
  3.1577425e+00
 -4.9965143e-01
 -2.4215162e+00
 -2.7056401e+00
  2.9201000e+00
  1.5482104e+00
 -3.2159545e+00
 -1.2373122e+00
  7.0950012e+00
  9.1303331e-01
  1.1918385e+00
  1.2220720e+00
 -7.7656347e-01
 -3.1407371e+00
  4.4348121e+00
 -2.6191956e-01
 -6.1824598e+00
 -7.8714366e+00
 -4.4254575e+00
  1.4847006e+00
 -4.3583703e+00
 -1.0822141e+00
  3.2432194e+00
 -3.2740772e-01
  4.0100803e+00
 -3.0313042e-01
 -3.3963337e+00
 -1.1028432e+01
  1.6073443e+00
  5.4424896e+00
  2.4914856e+00
  4.9906230e+00
 -7.9463634e+00
  2.8658652e+00
  3.6944683e+00
 -1.6465449e+00
 -2.2458136e+00
 -2.2637203e+00
  3.9272773e+00
 -3.9609912e-01
  1.3246828e+00
  1.6741126e+00
  3.4069552e+00
 -4.3151994e+00
  6.3060846e+00
 -1.9045137e+00
 -3.9088764e+00
 -1.7888497e+00
  1.0787134e+00
  3.8414371e+00
 -4.1929736e+00
  1.1403420e+00
 -9.0008421e+00
  3.6284654e+00
  2.8832779e+00
  3.6210109e-02
 -3.5967159e+00
  1.8070381e+00
 -3.3175595e+00
  4.7803793e+00
  7.5435233e-01
 -7.6692039e-01
  1.2969229e+00
 -4.6261578e+00
  5.7519979e+00
  1.6836666e+00
 -1.3342105e+01
 -4.9791713e+00
  1.1710894e+00
  7.8312051e-01
 -7.9024220e-01
 -3.3215094e+00
  8.6292181e+00
 -1.9594299e+00
 -6.0765305e+00
  4.3352979e-01
 -3.0005810e+00
 -2.7766387e+00
 -4.4747978e-01
  6.6526093e+00
 -2.5199112e-01
 -6.3379469e+00
 -2.4153190e+00
  2.7151415e+00
 -2.3966446e+00
 -3.7129393e+00
  7.8798189e+00
 -3.8168542e+00
 -3.5331476e-01
  1.0952842e+00
  2.8406842e+00
  1.8492622e+00
 -4.7368450e+00
 -7.7729870e-04
  1.6548201e+00
 -2.6620154e+00
  5.1667600e+00
 -5.9017211e-01
 -1.7957787e-01
  6.0790138e+00
  6.3385522e-01
 -1.8911583e-03
 -5.8180232e+00
 -1.5224233e+01
 -3.4588006e-01
  8.5294065e+00
  1.0595707e+01
  2.6367273e+00
  6.6825728e+00
  4.8671060e+00
  2.5006211e-01
 -1.3121184e+00
  3.7743421e+00
  2.5336189e+00
 -1.1486671e+00
  4.2085800e-01
 -2.4442735e+00
 -2.0042658e+00
 -2.2318549e+00
 -3.6777313e+00
  1.1879436e+01
 -2.5186441e+00
 -3.5047638e+00
  4.6129427e+00
 -6.9296703e+00
  9.3944483e+00
 -1.9768316e+00
  4.2472655e-01
 -4.9113555e+00
  4.1736576e-01
  2.8007660e+00
  3.0611739e+00
  2.0972261e+00
  3.4684917e-01
  3.5960710e+00
 -5.0563855e+00
 -1.0201659e+00
 -9.8174579e-02
  2.8265765e+00
 -3.2448647e+00
 -1.7524219e-01
  4.5066419e+00
  1.4759991e+00
  3.6792424e-01
 -7.0512919e+00
 -4.6471701e+00
 -4.1800566e+00
  2.7242312e+00
  1.5220975e+00
 -1.0418884e+00
 -6.7654705e-01
  3.8033597e+00
 -1.0121151e+00
  6.0789710e-01
  6.6925483e+00
  3.7146046e+00
 -9.5076389e+00
 -2.1816409e+00
 -8.8315725e-01
 -4.5609961e+00
  2.5904262e+00
  5.1638594e+00
 -3.7374544e+00
  1.6423410e+00
  4.8213607e-01
 -3.8238743e-01
 -4.3244042e+00
  6.5091252e-01
  1.3287338e+00
 -1.8457711e+00
 -3.2569232e+00
 -1.2134349e+00
 -5.4079084e+00
  7.3727717e+00
 -1.0702413e-01
  1.4327401e+00
 -1.7523448e+00
 -2.0381340e-01
 -2.0735800e+00
 -6.3942904e+00
 -3.0798104e-01
 -4.1766429e+00
 -1.9084048e+00
  1.3576518e-01
  3.6558050e-01
  3.2510917e+00
 -2.7747948e+00
  1.9828088e+00
  3.8566990e+00
  1.4035141e+00
 -8.2804966e+00
  3.3207271e-01
 -6.1581831e+00
 -5.6553531e-01
 -7.1440949e+00
 -2.4438541e+00
  2.7365106e-01
  6.9741601e-01
 -2.9690495e+00
  1.0178849e+00
  1.9109761e+00
  1.6746875e+00
 -5.7009091e+00
  7.0578942e+00
  2.6765767e-01
 -8.1926546e+00
 -1.0180696e+00
 -9.9229515e-01
 -5.7965402e-02
  6.7411113e+00
  1.0797898e+00
  5.9296451e+00
 -4.8648992e+00
  8.6393013e+00
  6.2241554e-01
  4.4191742e+00
 -2.8340161e-01
  5.5663389e-01
 -9.9474782e-01
 -1.0435322e+01
  5.0805826e+00
 -1.3390205e+00
  3.8335288e+00
  4.3491554e+00
  1.1578470e+00
  1.8867799e+00
  1.8381748e+00
 -3.7890892e+00
  4.8854169e-01
 -1.0342956e-01
  1.2662753e+00
 -4.4917002e-01
 -1.1469535e+01
  8.1265599e-01
 -2.4148564e+00
 -6.3947755e-01
  9.4784826e-01
  5.9155788e+00
 -1.0561639e+00
 -1.0563681e+01
 -2.0472765e+00
 -7.9773636e+00
 -1.3439560e+00
  6.4426386e-01
 -1.2518679e+00
 -1.2608812e+00
  1.8843577e+00
  2.5593486e+00
 -4.2847686e+00
 -2.7302277e+00
  2.5430338e+00
  3.2349682e+00
 -2.3743818e+00
 -5.4101974e-01
  3.7320697e+00
 -1.1549494e-01
  2.9053345e+00
 -2.0555727e+00
 -1.5614220e+00
 -6.2453663e-01
 -1.1369091e+00
  2.5945127e-01
  1.2285579e+00
  5.3508668e+00
 -1.5831797e+00
 -1.0515817e+00
 -1.0561359e+00
 -4.3245516e+00
 -2.3311768e+00
  2.3599360e+00
 -1.2782944e+00
 -1.7067498e+00
 -4.5160627e+00
  6.2652016e+00
  1.7612408e+00
  9.1397262e-01
  7.1134669e-01
  7.5826705e-01
  2.4038997e+00
  1.1625842e+00
 -3.2200508e+00
 -5.0675168e+00
 -1.4366414e+01
  1.6447840e+00
  5.8400202e+00
 -4.7210747e-01
  1.1631049e-01
 -1.5440893e+00
  7.0679933e-01
 -1.1398593e+00
 -3.7819660e+00
 -3.0003700e-01
  1.2444263e+00
 -6.6568265e+00
  1.8401161e+00
  1.1110966e+00
 -2.1117084e+00
  7.3422217e-01
 -2.3177793e+00
 -1.8301934e-01
 -4.8905209e-02
  8.3760738e-01
 -3.6615791e+00
  1.4815605e+00
 -2.7127166e+00
 -2.1254375e+00
 -3.5388184e+00
 -2.9097123e+00
 -6.1983500e+00
  1.7571603e+00
  1.8575089e+00
  4.6926150e+00
  2.5285530e-01
  1.3002493e+00
 -4.3784895e+00
  1.4144124e+00
  6.2415361e-01
  7.3766738e-01
 -4.8671193e+00
  3.3960953e+00
  3.5629542e+00
  6.1956954e-01
  2.0500727e+00
  7.7655306e+00
 -7.6411730e-01
  5.6889358e+00
  5.2325616e+00
 -1.1272975e+00
 -1.9583462e+00
 -2.6791954e+00
 -1.3990647e+00
 -2.9530027e+00
 -8.1898242e-01
  5.3106344e-01
  7.1361190e-01
  2.6005008e+00
 -4.8653793e+00
  2.6486790e+00
  5.4375267e-01
  5.9126348e+00
  5.7194328e+00
  4.6439400e+00
  7.6872811e+00
  6.3575964e+00
  4.0532279e+00
 -3.1082692e+00
 -4.0925975e+00
 -3.3580487e+00
 -1.0787857e-01
  1.5020272e+01
 -2.1492119e-01
  9.4826740e-01
 -4.5046539e+00
  3.5364978e+00
  2.3725927e+00
 -1.5684714e+00
 -9.3518457e+00
 -1.3943009e+00
 -2.4174392e+00
  1.5784459e+00
 -1.5400256e+00
  1.5375744e+00
 -1.1526877e+01
  1.8488806e-04
 -4.8748693e+00
  1.9605479e+00
  1.9576472e+00
  8.1907310e+00
 -1.2473648e+00
 -4.1646102e-01
 -2.9163399e+00
 -3.7009151e+00
 -1.2768824e+01
  4.3956685e+00
  1.8337613e+00
  4.5456538e+00
 -2.6106150e+00
  2.9007618e+00
  2.9113839e+00
 -6.2087383e+00
  7.2533054e+00
 -5.0581751e+00
 -1.9783806e+00
  3.5496640e-01
  4.5598054e+00
 -1.7682854e+00
  8.2879508e-01
  2.3390636e+00
  4.8984647e+00
 -6.8560381e+00
  2.2586427e+00
 -8.5348625e+00
 -6.2919884e+00
  2.7279596e+00
  6.2415630e-01
  2.2866991e+00
  3.0298939e+00
  9.4678831e-01
  1.0771021e+00
  4.8163362e+00
 -4.9469081e-01
  2.1748753e+00
  5.3573518e+00
  2.6190183e+00
  6.2011647e+00
  5.3788738e+00
  4.6370745e-01
 -5.7654433e+00
  1.8857524e+00
 -2.3509095e+00
 -8.6393535e-01
  1.7360853e+00
 -8.9843512e-01
  7.1214354e-01
 -4.2220291e-01
  1.6483753e+00
 -3.4863389e-01
  4.4771719e+00
 -5.7448130e+00
  3.9914389e+00
 -3.0949354e-01
 -1.5803306e+00
 -1.0746273e+01
  8.6347075e+00
  1.3173335e+00
  1.0159261e+00
 -1.2551130e+00
 -4.5677071e+00
 -2.3485198e+00
 -3.3128273e+00
  3.1269615e+00
 -4.9088454e+00
  1.8793801e+00
  2.4673359e-01
 -1.5250624e-02
 -3.1229017e+00
  2.9213057e+00
  1.2334688e+00
 -3.1732953e+00
 -4.9402481e-01
 -5.1315217e+00
  3.9129391e+00
 -1.2253716e+01
  2.5840455e-01
  1.1064194e+01
  9.9898231e-01
 -2.2654276e+00
 -4.7386590e-01
 -4.9022851e+00
  2.2619975e+00
 -7.1892796e+00
 -1.6919982e+00
  2.6660913e-01
 -5.3718495e+00
 -3.3322756e+00
  3.2010236e-01
  1.0582362e+00
 -3.7608657e+00
 -2.8798055e-02
 -4.5304871e-01
 -2.2364688e+00
  1.9800534e+00
 -5.4048886e+00
 -4.7250719e+00
 -3.0608791e-01
 -4.0685567e-01
  1.7466131e+00
 -4.5363913e+00
 -2.0826244e+00
  6.1517423e-01
 -8.0052757e-01
 -7.5770475e-02
 -8.6061239e+00
 -9.9630046e-01
 -8.1513292e-01
 -3.1832139e+00
 -5.1029401e+00
 -3.8809628e+00
 -6.7880309e-01
 -4.5031800e+00
 -2.3468661e+00
 -5.2636182e-01
 -1.8414960e+00
  1.0298127e+01
  5.6369843e+00
  8.2141104e+00
 -4.2784929e+00
 -2.8516290e+00
  4.4478483e+00
  1.2299351e+01
  7.1909728e+00
 -5.4570718e+00
  1.9339364e+00
 -5.1916304e+00
 -1.6741452e+00
 -7.9561286e+00
  2.9975271e+00
 -2.9519644e+00
 -6.8755507e-02
  6.8535453e-01
  1.0817944e+00
 -2.1550006e-01
  2.4421706e+00
 -1.2755123e+00
  1.3097976e-01
 -6.4151807e+00
 -9.4248420e-01
 -1.0654773e+00
  4.7158008e+00
  1.3768582e+00
 -2.4602319e-01
  3.9773579e+00
 -2.0246427e+00
  5.0295811e+00
  3.0376549e+00
 -4.7602520e+00
 -2.2295935e+00
 -2.8735304e+00
 -5.0847983e-01
 -1.1926547e+00
 -8.1180840e+00
  2.2742476e+00
 -1.7157973e+00
  2.8448460e-01
 -6.0946107e-01
 -2.3337896e+00
  7.5579290e+00
  2.5281638e-01
  2.8564265e+00
 -1.6033853e+00
  1.6527743e+00
  5.1224911e-01
 -1.5777457e+00
 -7.8926109e-02
 -1.4003340e+01
 -2.7417870e+00
 -2.9369259e-01
  2.9498541e+00
  2.0356393e+00
 -4.7403407e+00
 -1.7821243e+00
  4.4617038e+00
 -4.6496735e+00
  7.7745247e+00
 -1.0613526e+01
  8.2030201e-01
 -4.7707119e+00
 -3.4586995e+00
 -2.5303447e-01
  7.3854971e-01
  2.3927250e+00
  7.8445411e+00
  7.0750278e-01
  4.1721654e-01
 -4.9519193e-01
 -2.9624889e+00
  2.9312408e+00
  3.8822544e+00
  8.0913663e-01
  5.4155889e+00
  2.4484465e+00
 -7.5636768e-01
  1.6244956e+00
  3.5731003e+00
 -2.2328420e+00
 -2.9350808e-01
  8.3772240e+00
 -3.0088770e+00
 -1.1043967e+00
  5.3318992e+00
 -9.1189051e+00
  1.8914355e+00
  2.1897190e+00
 -6.8894312e-02
  2.0454729e+00
 -7.4039453e-01
 -1.6557301e+00
 -5.8770162e-01
  6.3845932e-01
  1.3391562e+01
  6.0046184e-01
  1.2079124e+01
  5.3758974e+00
 -2.6130869e+00
  2.4372925e-01
 -4.0512457e+00
  4.3252401e+00
 -6.0787859e+00
 -2.8112357e+00
  1.2567416e+00
 -3.8538370e+00
 -2.7753918e+00
  1.9817489e+00
 -2.7369020e+00
 -6.7124214e+00
 -4.7884426e+00
 -9.0020742e+00
  2.0278390e-02
 -9.0654010e-01
  1.0145688e+00
 -5.6620560e+00
  2.2697914e+00
 -1.6152794e+00
  3.4092250e-03
  3.7396545e+00
  1.0530213e+01
  3.3245199e+00
  6.8103228e+00
  3.6063952e+00
  4.4962773e+00
  1.7830123e+00
 -1.0124502e+00
  8.2798308e-01
  1.5289487e+00
 -3.6430269e-01
  1.7442003e+00
  8.0391245e+00
  1.1703339e+00
 -6.9538531e+00
  5.9387511e-01
 -4.6547976e+00
  6.9332488e-02
 -1.1213509e+00
  7.3280678e+00
  2.0641825e+00
  6.4904847e+00
 -5.5161033e+00
 -2.1083293e+00
  4.0551767e+00
 -1.3330208e+00
 -2.4648998e+00
  5.3088202e+00
 -2.3647206e+00
 -3.9037727e-02
  4.0235262e+00
  4.3483877e+00
 -3.0887673e+00
 -8.7150377e-01
 -9.6964294e-01
 -7.4880877e+00
  8.0101573e-01
 -6.0216367e-01
 -5.3078753e-01
  5.9385109e+00
  1.2098280e+00
 -9.4636869e+00
 -6.0512751e-01
 -7.6368016e-01
 -2.9594520e-01
 -7.9625053e+00
 -3.7040122e+00
  1.3488193e+00
 -4.1583128e+00
  2.0718939e+00
  1.1019394e+00
  1.3459029e+00
 -8.6153708e+00
  5.1096563e+00
  3.1872809e+00
  1.1887936e+01
 -8.2071626e-01
  2.7876693e-01
  2.2364459e+00
  7.2485161e-01
  1.4884570e+00
 -4.0298557e+00
  1.7726591e+00
  1.6291746e+00
  7.8699207e+00
 -3.4481101e+00
 -1.1854570e-01
 -2.6311090e+00
 -1.6104274e+00
  8.3361549e+00
 -1.9616026e+00
  2.5966766e+00
  1.5084753e+00
  7.7108908e+00
  2.7951436e+00
 -5.4270930e+00
  8.5691729e+00
  6.6926360e+00
 -2.8212506e-01
 -2.2480779e+00
 -1.6252799e+00
 -9.1294312e-01
  3.9053330e+00
 -3.0045044e-01
  1.4007469e+00
  1.6283863e+00
 -7.1219478e+00
 -1.7089721e+00
  3.9043479e+00
 -2.9743133e+00
 -3.5346687e+00
  6.7272406e+00
  3.5694811e+00
  1.1123452e+00
 -8.9002639e-01
 -1.6652921e+00
  4.5893669e+00
  2.6960680e+00
  6.3457408e+00
  1.2858437e+00
 -1.4239577e+00
  3.9721048e+00
 -1.2521075e+01
 -3.0250907e+00
  9.9372768e+00
  1.0017159e+01
 -2.4103926e-01
 -2.8458054e+00
 -8.2130671e+00
 -1.2601995e-01
 -4.6303592e+00
 -5.9718313e+00
 -4.3334112e+00
 -1.5519240e+00
  6.4692817e+00
  2.4801186e-01
  2.7166362e+00
 -6.7540517e+00
  7.8912969e+00
  1.0247246e+00
  2.5448010e+00
  2.2365699e+00
 -6.9174498e-01
 -4.2052751e+00
 -2.3701182e-02
  2.4140026e-01
 -8.2142198e-01
  4.7627268e+00
 -8.0356979e+00
  1.6071965e+00
 -7.7569375e+00
 -5.4413357e+00
 -1.6592227e+00
 -3.4178762e+00
  3.3898556e-01
 -2.3113968e+00
 -1.6466429e+00
 -8.4524083e-01
 -5.5620666e+00
 -2.9622488e+00
  6.4722676e+00
 -5.5976901e+00
 -6.2514844e+00
 -4.6650395e-01
  3.6663189e+00
  2.4820735e-01
  2.7762251e+00
  8.9197254e-01
 -3.1778462e+00
  2.2121425e+00
 -3.2099290e+00
 -4.2410079e-01
 -1.5885243e+00
  3.3254499e+00
 -1.8722050e+00
 -1.6543705e+00
  1.3496923e+00
 -4.6687155e+00
 -7.9030007e-01
  7.8523464e+00
  5.2821856e+00
  5.6841574e+00
 -1.7971683e+00
  7.5100511e-01
 -2.6852384e+00
  3.8680676e-01
  2.2465584e+00
 -3.9968510e+00
  1.1540168e-01
 -5.9889688e+00
  5.1651378e+00
 -9.6470137e+00
  6.6426125e+00
 -4.8220172e+00
  8.5085897e+00
  5.4500073e-01
  2.0246036e-01
  2.5175319e+00
 -3.4298688e-01
 -7.6996489e+00
  2.6607401e+00
  9.3286114e+00
 -3.6265397e+00
 -2.7540770e+00
 -2.1012327e-02
 -2.2664111e+00
  1.5675536e+00
 -6.9802344e-01
 -1.4914130e+00
 -2.3914168e+00
  6.8947859e+00
 -6.1622891e+00
 -2.4421126e-02
 -6.7418318e+00
 -1.2426546e+00
  4.0955758e+00
 -6.2800341e+00
 -3.9826038e+00
  1.1782420e+00
  1.0470978e+00
  2.9717615e+00
 -1.4159920e+00
 -3.4258363e+00
  1.6472436e+00
 -4.5801363e+00
  6.2931024e-02
  2.7327282e+00
 -1.6607046e+00
 -3.9448345e-01
 -3.5944529e+00
 -2.6026595e-01
 -6.4879994e+00
 -6.8861872e-01
 -1.9980235e+00
 -5.4390807e+00
 -4.6178999e+00
  1.4157691e+00
 -2.3191448e-01
 -5.6690092e+00
 -9.2635852e-01
  1.0348715e+01
 -3.6674993e+00
  1.1600969e-02
  5.0570722e+00
  7.9125449e-02
  3.1213934e+00
 -1.4970329e+00
  6.9486004e-01
  3.6421368e+00
 -1.2806275e+00
 -3.7483284e-01
 -1.0185974e+01
 -3.6065391e-01
  1.9642502e+00
 -3.4902313e+00
 -6.1703348e+00
 -1.9282949e+00
 -3.0587487e+00
 -3.9207780e+00
  5.4449487e+00
  1.4872446e+00
  1.3451425e+00
  3.3461442e+00
 -7.7223663e+00
 -3.0754036e-01
  6.1110463e+00
 -2.5840082e+00
 -7.9826136e+00
  2.2352812e+00
 -3.2506969e+00
 -6.2088954e-01
  8.5026824e-01
  6.2744625e-02
 -2.1869905e+00
 -1.5709648e+00
  7.5614697e-01
 -4.3413339e+00
 -5.5757933e+00
 -5.7256503e+00
 -6.4065623e+00
  9.9666710e+00
 -3.9672542e+00
  3.6109865e+00
  2.5963287e+00
 -1.8552238e+00
 -6.5621322e-01
  1.8417520e-02
 -2.5378537e+00
 -8.2758236e+00
  6.0188713e+00
  6.3613677e+00
 -2.4507439e+00
  4.1425900e+00
 -2.9591877e-02
  1.3689401e+00
  1.1920788e+01
 -2.6049595e+00
  7.2098742e+00
  4.0234020e-01
 -3.0584335e+00
 -1.0766928e+01
 -8.8813162e-01
  1.6466014e+00
  5.1123829e+00
  9.4787321e+00
  3.0673268e-01
  1.0881783e+00
  2.2705850e-01
  7.8915453e+00
  5.2120370e-01
  6.1853848e+00
  1.1203040e+01
  1.2417507e+00
  3.7475228e-01
  7.6181895e-01
 -5.2049768e-01
 -9.0589553e-01
  4.6132901e-01
  5.4722738e+00
  9.8280144e-01
  3.3598127e+00
 -6.6737318e+00
  2.9422891e+00
  2.0930369e+00
  8.7393516e-01
 -8.6436729e+00
  1.2460961e+00
  2.4434243e-01
  5.4012079e+00
 -3.3301852e+00
  3.8112926e+00
 -1.0355703e+01
 -8.4216576e+00
 -4.1872799e-01
  4.3286557e+00
 -4.3012872e+00
  1.3893319e+00
  9.1108656e+00
  5.5742579e+00
  1.1798719e+00
  4.2546420e+00
  4.9178519e+00
 -8.6737877e-01
 -2.7863261e-01
 -1.8074105e+00
  2.9122641e+00
 -2.5735588e+00
  4.2839303e+00
 -5.7837687e+00
  2.4755449e+00
 -1.0055988e+01
 -2.6929286e+00
 -3.1940520e+00
 -3.8472229e-01
  1.3469011e+00
  3.9674206e+00
  4.9900870e+00
 -2.9804556e+00
  1.1282972e+01
  5.4001479e+00
  1.1069270e+01
  2.5225208e+00
  1.6039406e+00
 -3.2540224e+00
 -2.3107314e+00
  1.6946018e+00
  6.4582944e-01
 -1.9068575e+00
  3.2490144e+00
  1.2083137e+00
 -3.6228545e+00
 -7.1850519e+00
  3.7333868e+00
 -2.0215899e-01
  4.2771378e+00
 -4.1064649e+00
  5.5449238e+00
  2.9988620e+00
 -1.5828710e+00
  4.3142767e+00
 -4.3322535e+00
 -4.7277474e+00
 -3.1315398e+00
 -6.0400972e+00
 -3.2631493e-01
 -6.0366592e+00
 -1.5459063e+00
 -3.4783301e-01
 -3.1234462e+00
  2.1124051e+00
  4.2927117e+00
  3.2543173e-01
  2.7868319e-01
 -2.4079573e+00
  3.6492729e+00
  1.2417819e+00
 -1.1607006e+00
  3.0447452e+00
 -3.2126076e+00
 -4.9455423e+00
 -5.8260961e+00
 -3.4779432e+00
  4.5361605e+00
  5.5497345e-02
 -5.8827937e-01
  8.3936286e-01
 -1.6641445e+00
  6.2611198e+00
 -9.3507421e-01
 -3.7040737e+00
 -3.8586643e+00
 -1.4339229e+00
  4.7949314e+00
  1.4446415e+01
 -3.5182362e+00
 -3.5433779e+00
 -2.3085074e+00
  7.4934316e+00
 -1.3488594e+00
  3.7442641e+00
 -1.2271065e-01
 -8.1238689e+00
  3.3108462e-02
 -1.0782862e+00
 -8.4087896e+00
  2.7967453e+00
 -1.2790818e+00
  7.2317581e+00
 -3.2562406e+00
 -2.5384310e-01
 -9.8157520e+00
  9.0383112e-01
  6.3166513e+00
  1.2287199e-01
  1.5376976e+00
 -8.3329945e+00
  1.9775560e+00
 -8.7427855e-01
  4.6738777e+00
  5.9710894e+00
 -5.9604269e-01
  1.5998111e+00
 -5.5094328e+00
 -5.7544880e+00
 -6.4917415e-01
 -2.6009798e+00
  3.6411383e+00
  1.2547593e+01
 -2.1023228e+00
  6.5600853e+00
 -1.5586632e+00
  3.6713910e+00
  3.3479875e-01
 -4.8895235e+00
  8.9400780e-01
 -8.2619643e-01
  1.6764244e+00
 -3.5582497e+00
  2.7143612e+00
 -2.7560225e+00
 -4.2457652e+00
  1.3042252e+00
 -4.6744246e+00
  5.0118709e+00
  2.3609802e-01
  5.1055608e+00
 -2.4850249e+00
 -3.2078979e+00
  5.1882377e+00
  5.7758522e+00
 -1.6604471e+00
 -4.8411222e+00
  3.5545437e+00
  3.3528006e+00
  2.6958573e+00
 -5.6005639e-01
  2.3853877e+00
 -4.2440391e+00
 -7.6212258e+00
  1.6065755e+00
 -5.3457671e-01
  4.5849519e+00
  5.0472169e+00
 -1.7234944e-01
  1.0289093e+01
 -7.5207037e-01
  6.7750626e+00
  1.2243693e+00
 -7.7056170e-01
  1.1474133e+01
 -7.5093079e-01
 -4.0104818e+00
  4.8030666e-01
 -1.0377709e+00
  8.1938334e+00
  2.6020486e+00
  2.0749298e-01
  4.8884311e+00
  6.0297990e-01
 -3.1614866e+00
 -1.2958668e+00
 -7.1143940e-02
  2.1927946e+00
 -2.1877542e+00
 -5.1332698e+00
  3.1453671e+00
  2.2131584e+00
  1.3561593e+00
  3.2987421e+00
 -5.0794902e+00
 -5.0614078e-02
 -6.4228505e-01
 -1.9393444e+00
  2.8451633e+00
 -7.1523528e+00
  1.5982094e+00
  6.4613277e-01
  4.8248386e+00
  6.5758696e+00
  3.8918767e+00
  2.2963529e+00
 -4.5652580e+00
  7.6085644e+00
  5.1013207e+00
  2.4116041e-01
  1.6057322e+00
 -3.2138052e+00
 -5.4820788e-01
  1.4053549e+00
  5.2997327e+00
 -8.2414541e+00
 -9.2124109e+00
  1.9614393e+00
  4.0290141e+00
 -3.0663445e+00
 -9.6529608e+00
  2.4697974e+00
  2.8059292e+00
 -3.8431964e+00
  9.5160723e-01
 -6.8402964e-01
 -5.2299304e+00
  7.3601274e+00
 -4.2774627e-01
  1.0351586e+00
 -1.7162790e+00
  1.2046239e+01
 -4.0268412e+00
  7.2506714e-01
  2.2268084e-01
  7.0515561e-01
  1.5538272e+00
  8.2089013e-01
 -7.7709925e-01
  4.8638482e+00
  2.8890522e+00
 -1.3871523e+00
 -6.1494031e+00
 -1.2680631e+00
  2.7603486e+00
  6.5823894e+00
  5.9801183e+00
  6.4999657e+00
 -3.1221650e+00
  4.7972832e+00
 -3.8978798e+00
  6.9345059e+00
  2.5190166e-01
  7.8568769e-01
  9.7157936e+00
  3.8733237e+00
 -2.2610385e+00
  1.1396484e+01
 -6.4673746e-01
  4.4705429e+00
  4.5833245e-01
  1.7098633e+01
  9.5893707e+00
  4.4348178e+00
 -5.5663338e+00
 -2.4562743e+00
 -2.9217153e+00
 -1.5490011e+00
 -8.4846096e+00
  8.3682041e+00
 -8.9347452e-01
  1.3973092e+00
 -8.1066144e-01
  2.7408149e+00
  4.3282222e-02
 -2.9368138e-01
 -3.6604688e-01
 -6.3695502e+00
 -2.3956695e+00
 -1.5807823e+00
 -2.4833906e+00
  1.3168451e+00
 -3.3117149e+00
  6.6095239e-01
 -3.8969252e+00
 -3.2441473e+00
 -5.0613613e+00
 -2.3859034e+00
  1.2743373e+00
  7.5334871e-01
 -4.1187992e+00
 -3.3267698e+00
 -6.7058420e-01
  3.1911821e+00
 -5.3377934e+00
 -2.9024038e+00
 -3.6362543e+00
  1.0080054e+00
  4.0456095e+00
  2.6704471e+00
  4.5803361e+00
 -3.2936916e+00
  5.9172904e-01
 -1.1218693e+00
 -2.7841644e+00
 -1.2540047e+00
  9.2864549e-01
  6.5457410e-01
 -2.1326106e+00
  6.1240783e+00
 -5.6834453e-01
  1.0556871e+01
  8.4506311e+00
 -6.7805901e+00
 -1.3108864e+00
  6.0087055e-01
 -5.4261260e+00
  3.7499983e+00
  1.3249019e-01
 -4.1012740e-01
  6.4274063e+00
 -1.7174679e+00
  1.3398558e+00
 -2.0982552e+00
  2.4661663e+00
  3.3277862e+00
  9.3856878e+00
 -4.2329368e-01
  3.9488378e+00
  7.5349474e-01
 -3.7123907e+00
  3.3121972e+00
  6.0349232e-01
 -2.3134174e+00
 -9.3531370e-01
 -1.0020514e+01
 -2.7712202e+00
  2.1784237e-01
  3.9742584e+00
  4.5046024e+00
 -9.3401146e+00
 -3.6970711e-01
 -4.7243352e+00
 -5.0380287e+00
  6.2726560e+00
 -4.2105198e+00
 -5.6587558e+00
 -7.1630220e+00
  2.4123011e+00
  8.5041723e+00
  8.1860982e-02
 -7.7252584e+00
  2.2384520e+00
 -8.8105669e+00
  7.1647158e+00
  1.8740089e-01
  2.6629817e+00
 -2.9752851e+00
 -1.0822870e+00
 -5.7016568e+00
 -1.9153938e+00
 -9.2483997e+00
  1.4916798e-01
  1.8794338e+00
  1.6280499e+00
  2.9324901e-01
  9.4734907e+00
 -2.2962086e+00
  8.0576706e-01
  8.2998600e+00
 -1.8955386e-01
 -3.2570739e+00
  9.7397947e-01
 -1.8177080e+00
 -1.9415162e+00
 -2.5816400e+00
 -2.5982919e-01
  6.2231402e+00
 -1.6884325e-01
 -4.1415362e+00
 -1.6933385e+00
  3.3365378e+00
  6.9554496e-01
 -3.3373969e+00
 -4.2851071e+00
  1.3422567e+00
 -9.6102276e+00
 -6.5071697e+00
 -2.2416782e+00
 -8.3837616e-01
  1.5766002e+00
  1.9124277e-01
 -1.4044174e+00
  3.7649252e+00
 -6.1317334e+00
  1.8679380e+00
  4.4610815e+00
  1.0249196e+01
  2.7551320e+00
  3.2859530e+00
 -2.4747002e+00
  4.9459100e+00
 -3.4074122e-01
 -5.0288576e-01
 -5.5441637e+00
  5.2306919e+00
 -1.4951240e+00
  5.5142021e+00
  3.1850469e+00
  2.3751413e-02
  1.0163992e+01
 -8.8178215e+00
 -6.8397367e-01
 -3.2790949e+00
 -4.5868421e+00
  4.7011743e+00
 -5.2451448e+00
 -1.5347733e+00
 -1.8210950e+00
  2.5225797e+00
 -2.1213005e+00
  4.8325877e+00
 -1.6414363e+00
 -5.7314029e+00
  8.2326680e-01
 -3.2447622e+00
 -5.5444722e+00
  6.5702105e-01
 -3.3175573e+00
  4.7609472e+00
  4.2219928e-01
  4.9498591e-01
  8.4329185e+00
  4.1718245e+00
  9.7074385e+00
 -4.5356879e+00
  6.6862597e+00
  1.8170248e+00
  2.8815858e+00
  1.8449980e+00
 -3.3142292e+00
 -7.1075410e-01
  1.1527963e+00
 -2.8680711e+00
  5.8357258e+00
 -3.0354545e-01
 -6.9450969e-01
  2.4793427e+00
  5.9838146e-01
 -1.4932238e+00
  2.3396749e+00
 -5.7980051e+00
 -4.0743523e+00
  2.9595642e+00
  2.8968532e+00
 -1.9236747e+00
 -7.5086355e+00
 -4.5662036e+00
  4.8949862e+00
 -2.7479980e+00
 -4.8872270e-02
 -4.4825568e+00
  4.0722232e+00
 -1.6203008e+00
  3.7416139e+00
  1.1026475e+00
  2.4559455e+00
 -3.5591645e+00
  4.4407411e+00
  4.3545926e-01
 -9.0874262e+00
 -4.7902260e+00
  6.2911954e+00
 -1.0901574e+00
  1.3640226e-01
 -3.6266127e+00
 -2.1974213e-01
 -4.2658620e+00
 -2.2707558e+00
  2.4767053e+00
 -4.9894657e+00
  1.6024375e+00
 -1.4693223e+00
  6.4339819e+00
 -8.5178490e+00
 -1.9710180e+00
  7.4866858e+00
  4.0968326e-01
 -1.7464793e-01
  2.4156804e+00
 -3.7777495e+00
  4.2978489e-01
  2.5773382e+00
 -1.4123368e+00
 -7.8568780e-01
 -1.4549604e-01
  1.7242373e+00
 -1.8469700e+00
 -2.3906741e+00
 -2.0622613e+00
 -2.2023234e+00
 -4.0910718e-01
  8.8061476e+00
 -2.4675696e+00
 -2.3812829e-01
 -8.0741024e-01
 -6.2908006e+00
  3.0229619e+00
  3.3591690e+00
 -2.9118061e+00
  4.1341071e+00
  6.9178948e+00
  3.9668636e+00
  4.8240039e-02
  7.7714114e+00
 -2.4605792e+00
  4.4259820e+00
 -4.1648474e+00
  2.5616200e+00
 -5.2222013e+00
  5.6888289e+00
  8.0963039e+00
 -4.3511591e+00
  2.4191322e+00
 -3.0230863e+00
  6.6006047e-01
 -7.6019812e+00
 -2.3002713e+00
 -3.4568098e-01
 -6.6376262e+00
  8.2452387e-01
  1.9618366e+00
  3.3362744e+00
 -8.0927734e+00
  1.6823654e+00
  9.8301339e-01
 -2.9433334e+00
 -7.1329737e-01
  7.6526551e+00
 -2.6227720e+00
 -2.3165181e-01
 -4.2094202e+00
  2.8235712e+00
 -2.5270803e+00
 -3.9209671e+00
 -1.9955310e+00
  7.8049284e-01
  4.6902161e+00
  5.6435281e-01
 -7.3295627e+00
  5.4065933e+00
  2.3062651e+00
  3.4123709e+00
 -8.1498516e-01
 -2.8623669e+00
  3.9143393e+00
 -2.2806273e+00
  1.9732642e-01
 -2.9162121e+00
  3.9653115e+00
 -3.7954624e+00
 -9.8663062e-01
 -1.4343375e+01
  1.0952843e+01
  9.5441875e+00
 -2.7251968e+00
  1.0373177e+01
 -1.5410588e+00
 -9.2311651e-01
 -2.0920892e+00
 -7.0187078e+00
 -4.0719061e+00
  2.6116440e+00
 -2.5720036e+00
  1.4938120e+00
 -1.0492821e+01
  5.6224737e+00
 -9.7150892e-01
 -5.6908196e-01
 -3.9333594e+00
  7.5071874e+00
 -4.0331678e+00
  1.0571361e+01
 -2.8456576e+00
  4.2966442e+00
  3.8995957e-01
  3.9890972e-01
 -4.0986476e+00
  3.2815745e+00
 -3.3452172e+00
  1.1127764e+01
  1.8364516e+00
  1.1331134e-01
 -2.9591846e+00
  2.0712407e+00
  7.3697062e+00
 -3.9587612e+00
  3.4651794e+00
  3.1465101e+00
 -4.2940235e+00
  2.4987795e+00
  7.1253049e-01
  7.2660136e+00
 -4.5724797e+00
  1.0071491e+01
  7.3784804e+00
 -3.3214059e+00
 -2.5282202e+00
 -2.6820275e-01
 -1.8088167e+00
  1.3135324e+00
 -5.7725579e-01
 -5.8649187e+00
  1.1978058e+00
  5.0663080e+00
  3.4876922e-01
 -1.1118768e-01
  2.9270763e+00
  6.5654385e-01
 -4.2051539e-01
 -1.6736517e+00
  2.0521386e+00
 -1.2815742e+00
  1.4051261e+00
 -1.2897663e+00
  3.8982987e+00
 -8.0470304e+00
 -2.0401583e+00
  4.9556974e-01
  7.0175705e+00
 -5.8393397e+00
 -4.6706420e-01
 -8.8191338e+00
 -9.6782780e-01
 -4.2385678e+00
 -3.6270826e+00
 -1.2614195e+00
 -1.0814157e+00
  7.4726498e-01
 -1.2401752e-02
 -1.0314989e+00
  3.3204231e+00
  5.7251997e+00
 -2.0136262e-01
 -2.6715474e+00
  3.1866612e+00
  2.2663345e+00
 -7.0477619e+00
  1.9663029e+00
  4.7334094e+00
 -1.1676928e+00
  7.3118329e+00
  1.2130483e+01
  2.9390523e+00
 -3.3235338e+00
 -1.9865410e+00
 -3.7859919e+00
  4.1347914e+00
 -5.4341073e+00
 -1.3767927e+00
 -5.9730787e+00
 -2.9072380e-01
 -1.7631476e+00
  3.2268152e+00
 -4.3824544e+00
  2.5576541e+00
 -1.0701355e+01
  5.4258246e+00
 -7.7767811e+00
  1.5454280e+00
  3.1744540e+00
  4.6318693e+00
  3.8600638e+00
 -9.4645338e+00
  7.9903426e+00
  3.4815562e+00
  1.9071554e+00
  5.4916143e+00
  7.7624164e+00
 -1.0112436e+00
 -3.1860611e-01
  5.2127705e+00
  8.2916719e-01
  6.9311136e-01
 -3.5812883e+00
 -1.7900754e+00
 -1.5451518e+00
 -6.0893006e+00
  2.9672604e+00
 -1.4374777e+00
 -1.8345447e+00
  1.2373407e+00
  2.4462976e+00
  4.6464181e+00
  5.4234662e+00
 -1.4128770e-01
 -7.9809437e+00
 -9.3055267e+00
  5.0513864e-01
  4.5457215e+00
  2.1029723e+00
 -3.7424743e+00
  3.0329435e+00
  7.0054145e+00
  3.0726690e+00
  1.0043769e+01
  2.2449727e+00
  6.5089598e+00
 -3.2280803e+00
 -2.9395804e+00
 -1.6703112e+00
 -5.2416558e+00
  1.5892574e+00
  4.3122611e+00
  1.6189009e+00
 -1.0232269e+00
 -5.7320863e-01
  4.7993794e-01
 -6.4685071e-01
  3.7442217e+00
  5.9707129e-01
  2.0605776e+00
 -6.6594160e-01
 -7.0670015e-01
 -1.1571980e+01
 -2.7744792e+00
 -2.5178437e+00
 -1.9996701e-01
  2.2301557e+00
 -3.8413754e+00
 -3.4312522e+00
  4.7740002e+00
  1.7632054e+00
 -6.3856626e+00
  2.8568797e+00
  6.5554368e-01
 -1.5904701e+00
  3.5687485e+00
  5.3132687e+00
 -5.8150630e+00
  5.7865387e-01
 -3.4598851e+00
 -4.8377153e-01
 -3.0784490e+00
  5.0583348e+00
 -2.1741495e+00
 -6.3063316e+00
  5.6100190e-01
  2.5095024e+00
  5.4928279e+00
 -7.2317934e-01
  5.9608908e+00
 -4.4636953e-01
  1.0309378e+01
  1.0072143e-01
 -5.7945299e+00
  1.1904919e-02
  3.1815424e+00
 -6.4482009e-01
  9.0809383e+00
  5.4673352e+00
 -4.5252957e+00
 -7.7802320e+00
 -7.2796116e+00
 -3.5645647e+00
 -5.8932781e+00
  8.3683605e+00
  1.5969217e+00
 -1.8049657e+00
  4.8308315e+00
 -5.7842994e+00
 -4.8525720e+00
  3.1969213e+00
 -2.1837566e+00
  1.2072161e+00
  8.2467499e+00
 -3.3963346e-01
 -7.1642690e+00
  7.7426429e+00
 -1.5562824e+00
 -6.6567750e+00
  1.0849216e+00
  5.0814521e-01
  3.9533062e+00
  7.9533606e+00
  3.9632423e+00
  4.1057132e-02
  3.0039291e+00
 -4.0802178e+00
  4.3375869e+00
  1.0273242e+00
 -1.1455363e+01
 -5.1002989e+00
  1.3723888e+00
 -2.5399427e+00
  4.1563897e+00
  5.8783245e+00
 -1.2594395e+00
  4.8729677e+00
  3.9322574e+00
 -7.5315204e+00
  1.9766440e+00
  4.5061889e+00
  2.7613640e+00
 -3.8597758e+00
 -7.4392162e-02
 -1.5214153e-01
  2.4424477e+00
 -2.6366429e+00
 -2.0404494e+00
  7.0715111e-01
 -3.2846072e+00
 -4.0454507e+00
  1.5258720e+00
 -3.9342253e+00
 -2.2063444e+00
 -1.5262951e+00
 -3.0440059e+00
  2.8749880e-01
  6.3380537e+00
 -6.8644195e+00
  4.1797437e-02
  1.2413738e+00
 -4.8406610e+00
  6.6298714e+00
 -2.9029994e+00
  2.6546953e+00
 -1.3280500e+00
  1.4006803e+00
  4.3788352e+00
 -1.4203159e+00
 -6.6750612e+00
  3.7490437e+00
  1.2220955e+00
  5.9270959e+00
 -7.1880937e+00
 -1.9251894e+00
 -8.1319809e+00
  4.2875175e+00
  4.0374327e+00
  1.5480524e+00
  6.1119170e+00
  1.5360170e+01
  5.1685853e+00
 -2.4915574e+00
 -1.5706645e+00
 -4.6080594e+00
  2.6902204e+00
 -2.0016553e+00
 -1.2417027e-01
  1.0016898e+00
 -8.6620432e-01
 -5.0769746e-01
  8.5251963e-01
 -9.8602438e-01
 -2.6108096e+00
  7.7671776e+00
  1.2739875e+00
 -6.1335697e+00
 -9.9072553e-02
 -2.1933923e+00
 -1.8528172e+00
  7.1250266e-01
  2.0759268e+00
 -3.4183631e+00
 -5.0802283e+00
 -3.8549323e+00
  2.5466902e+00
  1.4160943e+00
  2.9726593e+00
 -4.4345551e+00
  2.6747649e+00
 -9.6061449e+00
  5.4915252e+00
  6.1872172e-01
  2.4393559e+00
 -3.8707871e+00
  6.9787331e+00
 -2.0245757e+00
 -5.0516572e+00
  9.9030942e-01
  2.4545288e+00
  2.3974483e+00
 -2.2814367e+00
  3.9906232e+00
 -9.1716690e+00
 -6.4428906e+00
  1.1575804e+00
  2.5465219e+00
  3.6990366e+00
 -5.5163007e+00
  2.0260419e-01
  4.6477013e+00
  4.1760645e+00
  2.6409256e+00
 -4.3676902e-02
  4.9151200e-01
  4.4776082e+00
  4.0156221e+00
 -8.8404179e+00
 -2.2294493e+00
  6.9535990e+00
  7.0477190e+00
 -3.6127384e+00
  4.7281742e+00
 -4.7335392e-01
 -1.9024513e+00
 -3.3675585e+00
 -2.3391316e+00
 -4.4055004e+00
 -8.2924128e+00
 -5.6382146e+00
  1.8393766e+00
  1.4664940e+00
  2.6183162e+00
 -3.3332157e+00
 -4.0741262e+00
  3.2952636e-01
  3.2513685e+00
 -5.5930772e+00
 -1.1430395e+00
  1.4395374e+00
  1.2942137e+00
 -1.0756747e+00
 -1.8801726e+00
 -5.0394523e-01
  2.6408639e+00
 -3.6001625e+00
 -6.8304336e-01
  3.6482189e+00
  2.0862923e+00
 -2.0433877e+00
  7.4087882e+00
  5.3717967e-02
 -7.5644946e-01
  4.9768343e+00
  1.7353648e+00
  3.7219160e+00
 -3.4970200e+00
 -2.5590982e+00
 -7.7164259e+00
  3.7461987e+00
 -4.7471195e-02
 -2.6688097e+00
  5.7349625e+00
  5.4319758e+00
 -8.5242376e+00
  4.2873874e+00
 -3.7267745e+00
 -8.0068054e+00
 -4.7796229e-01
 -2.2704608e+00
 -5.4878459e+00
 -5.0193925e+00
  1.7301439e+00
  6.9429312e+00
 -2.9560809e+00
  2.2299662e+00
  2.9445860e+00
 -6.6760850e+00
 -1.6733980e-01
 -1.9538294e+00
 -3.9448929e+00
  3.8514249e+00
 -7.1368533e-01
 -1.0838588e+00
  2.8994739e+00
 -8.2411232e+00
  4.3520560e+00
  8.2890062e+00
 -3.4920130e+00
 -4.4458857e+00
  1.5144706e+00
 -1.5698425e+00
  1.5851456e+00
 -4.0925789e+00
 -4.1545258e+00
  2.3430324e+00
 -6.4374475e+00
 -3.2404239e+00
 -2.1850872e+00
  7.3390818e+00
  4.5488420e+00
 -2.2213893e+00
 -4.4164901e+00
  1.9147338e+00
 -1.7283940e+00
  4.7063651e+00
  8.5052639e-02
  2.9397037e+00
  7.2385750e+00
  2.2927150e-01
  4.3661766e+00
 -2.6287673e+00
  1.2558562e+00
 -6.4246392e+00
  1.5266550e+00
  1.6855428e-01
  1.3399673e+01
  2.2160168e+00
  1.5443263e+00
 -1.0433787e+00
 -2.3254116e+00
 -1.8370118e+00
 -4.0006337e+00
 -7.1083963e-01
 -1.2512147e+00
  1.5070300e+00
  2.8422308e+00
  7.9081850e+00
  7.0858800e-01
 -4.6999602e+00
 -1.0055696e+01
 -1.5147411e+00
 -1.5694811e+00
  1.1346470e+00
 -3.1634357e+00
  3.3394983e+00
  3.6460370e-01
  1.8674762e+00
  5.1334548e+00
 -7.7817094e-01
 -3.0174139e+00
  8.4361229e+00
  3.0071995e+00
 -2.2365499e+00
  9.9947125e-01
  2.0962038e+00
 -2.0251141e+00
  9.6365350e-01
 -2.0022237e+00
  1.5010772e+00
  6.0338931e+00
  6.5419006e-01
  5.8900099e+00
 -2.8480656e+00
  4.9064067e-01
  1.0023549e+00
 -2.7726312e+00
 -7.0114441e+00
 -4.3532419e+00
 -3.9829716e-01
 -1.2728791e+00
  5.7046318e+00
  1.0606403e+00
 -1.9556737e-02
  6.3746343e+00
  4.5111699e+00
  7.0417585e+00
 -2.3998692e+00
 -5.5670304e+00
 -5.5311912e-01
 -6.2148082e-01
  1.4012852e+00
 -2.2344289e+00
 -1.2364826e+00
 -2.8566163e+00
  4.2770858e+00
  1.1633938e+01
  3.1801739e+00
  7.3185444e+00
  5.6314812e+00
  1.4123473e+00
  3.9594426e+00
 -1.2108104e+00
  2.3043885e+00
  6.8633142e+00
 -1.8201952e+00
 -2.1310897e+00
  1.4947084e+00
 -9.3100303e-01
  3.2939141e+00
  7.0663304e+00
  1.1909411e+00
  1.7097538e+00
 -1.9115058e+00
  1.8300152e+00
 -6.0906106e-01
  4.8030577e+00
  3.3787613e+00
  6.5643511e+00
  3.1957574e+00
 -7.3847690e+00
 -4.9507904e+00
 -3.2442641e+00
 -5.2201039e-01
  5.3633815e-01
 -1.0758613e+01
 -3.6604142e+00
 -2.0806417e+00
  2.6711304e+00
 -4.8667212e+00
 -2.0383854e+00
 -1.3128896e+00
  1.0044894e+01
  2.6623361e+00
  1.0899720e+00
  3.4001677e+00
 -1.0557677e+00
 -5.1772599e+00
  5.5524669e+00
 -6.7829237e+00
  1.7747016e+00
 -1.3256247e+00
 -3.8967876e+00
  8.4586984e-01
  1.0374467e+00
  6.5700035e+00
 -3.5969481e+00
 -7.0643101e+00
 -3.3434799e+00
 -1.0047871e+00
  2.4711876e+00
 -2.6348772e+00
 -2.9725165e+00
  3.9746780e+00
 -4.7523585e-01
 -2.7678239e+00
  3.4204576e+00
 -2.4271421e-02
 -7.9120665e+00
 -3.8306530e+00
  8.4577951e+00
  8.1308479e+00
  9.4749457e-01
  2.1256728e+00
  5.0919521e-01
 -7.1859269e+00
 -2.5984707e+00
  3.6029080e-01
 -4.0951180e+00
 -2.8982317e+00
  3.9094453e+00
 -3.8502803e-01
 -1.1369984e+00
 -1.9314907e+00
  3.3117487e+00
  2.3479669e+00
 -1.2003524e+00
 -4.9537258e+00
 -2.5753148e+00
 -6.1143336e+00
  2.1911733e+00
 -1.0383102e+00
 -1.7780396e+00
  4.5000010e+00
 -3.7236023e+00
 -1.1242212e+01
  7.1588135e+00
 -2.4036398e+00
 -1.5132586e+00
  1.0382403e+01
  4.9801717e+00
  1.1870643e+00
 -3.4032166e+00
  5.1104879e+00
  1.1479469e-01
  1.7163157e+00
 -4.5866919e+00
  4.8082609e+00
 -1.0367895e+00
 -1.0979750e+00
  6.0895343e+00
  2.3522341e+00
 -3.9043467e+00
 -7.9660928e-01
 -1.9880468e-01
  1.0874478e+01
 -8.3975353e+00
 -1.3445772e+00
 -1.0025797e+00
 -1.9561566e-01
 -1.7551870e+00
 -1.8868560e-01
  7.3327975e+00
  8.9149706e-02
 -4.1279020e+00
  4.4732060e+00
 -1.9343380e+00
  2.3676236e+00
  2.8496094e+00
  6.1955376e+00
  5.0643163e+00
  1.6145350e+00
 -1.1813691e+00
 -9.0951271e-02
 -1.7434845e+00
  4.8133287e+00
  6.5002179e+00
 -1.8673187e+00
  2.5732467e+00
 -4.5047240e+00
  4.4211702e+00
 -3.1177936e+00
  2.1872108e+00
 -2.4000907e+00
  1.6302686e+00
  2.9636915e+00
 -7.1646061e+00
  7.3614092e+00
 -3.3534760e+00
 -2.6013455e+00
 -2.8308275e+00
 -1.2541878e+00
  3.2542152e+00
  6.8234162e+00
  1.2610971e+00
 -3.6989057e+00
  8.4893382e-01
  4.3189206e+00
 -1.1074018e+01
  2.7492986e+00
  2.6670763e+00
  3.6924226e+00
  6.2705998e+00
 -6.1150259e-01
  1.5422707e+01
 -1.0592258e+00
  3.2413394e+00
 -3.5368850e+00
  6.7389154e+00
  3.5298152e+00
  7.5702500e+00
  5.2634144e+00
  2.9035351e+00
  7.3406758e+00
  6.4464726e+00
  2.9245499e-01
  1.8480519e+00
  7.4070950e+00
 -1.2212468e+00
 -2.8351326e+00
 -1.6044114e+00
 -1.8813391e+00
  3.7508948e+00
 -2.2368853e+00
 -4.6195288e+00
  1.2680010e+00
  4.7032366e+00
 -1.4288915e+00
  6.6224885e+00
  9.1173840e-01
 -2.6673737e+00
 -8.8188057e+00
  9.2685976e+00
  1.0969027e+00
 -9.5178193e-01
  9.9710596e-01
  4.4502134e+00
  4.1011472e+00
  3.8109308e-01
  1.1064141e+00
 -3.0416548e+00
 -2.0125918e-01
 -4.7987530e-01
  2.1200323e+00
  3.4316649e+00
 -6.5358391e+00
 -2.2414322e+00
 -3.4658446e+00
  1.3342707e+01
  1.1461312e+00
 -1.7018238e+00
 -9.9948716e-01
  3.6194735e+00
  1.1985717e+00
  2.0581250e+00
  5.8908243e+00
  2.9544990e+00
 -7.6757092e+00
  4.0598154e+00
  1.0783190e+01
  9.9269308e-02
 -1.0831776e+00
 -1.0433972e+01
  4.6549420e+00
  6.5880483e-01
 -8.7082376e+00
 -1.3036705e+01
 -6.2595448e+00
 -7.8798497e-01
 -2.0776653e+00
 -5.3912902e+00
  3.0900025e+00
  3.8843286e+00
  3.5160444e+00
  8.4805107e-01
  3.2881985e+00
  2.1244910e+00
  2.7864003e+00
 -7.9650822e+00
 -6.5015674e+00
  3.4372995e+00
  3.9210997e+00
 -7.1065812e+00
 -5.2165270e+00
 -7.7976944e-04
  2.0452979e+00
  4.4833505e-01
  3.3857255e+00
  1.9587357e+00
 -3.0991678e+00
 -1.5955760e-01
 -1.7003065e+00
 -1.0570019e+00
 -4.9148407e+00
  3.0444634e+00
  5.6383410e+00
 -1.0037835e+00
  2.6358744e-02
  7.1413499e-01
  6.2146535e+00
 -1.8464575e+00
 -2.0803783e+00
  9.3721056e-01
 -6.7160025e-02
  3.1100426e+00
  6.8228769e-01
 -1.7692455e+00
 -7.7817428e-01
 -3.3208079e+00
 -8.8873463e+00
 -6.5184402e+00
 -3.8575871e+00
 -4.1480012e+00
  7.8108454e-01
 -1.5930381e+00
 -4.2393345e-01
  3.2781567e-02
  1.2779617e+00
 -6.8243203e+00
 -1.3235883e-01
 -1.5497235e+00
  3.0592129e+00
 -1.5022902e+00
 -1.1687597e+00
 -4.0962067e+00
  4.1452785e+00
  1.0484874e+01
  1.0675072e+01
  9.5129318e+00
  3.5043375e+00
 -2.3963151e+00
 -4.8194804e+00
 -3.6576438e+00
 -5.3673017e-01
 -2.8257692e+00
 -6.2545319e+00
 -4.3232307e+00
 -1.5939921e+00
  5.7163925e+00
 -7.4086195e-01
 -1.6014597e+00
  2.8448255e+00
  6.5228128e+00
 -9.0883350e-01
 -3.3693995e+00
 -3.4457831e+00
  5.3105700e-01
  6.2521853e+00
 -2.4518387e-01
 -3.9289126e+00
 -7.5544925e+00
  1.0661910e+00
  3.7818968e-02
  1.9657108e+00
  4.9968460e-01
 -5.1058378e+00
 -1.0920448e+00
  4.8094692e+00
 -3.7048504e-02
  1.4358008e+00
  2.4573526e+00
 -6.6604781e+00
  2.6533990e+00
 -9.1332703e+00
  5.7884698e+00
 -5.4766831e+00
 -3.8594651e+00
 -3.4522099e+00
  7.5350232e+00
  7.0841658e-01
  6.1541271e+00
 -3.3015130e+00
  9.4209261e+00
 -3.1077006e+00
  1.9710981e+00
  3.1178114e+00
  5.0813298e+00
 -5.8544736e+00
  5.5694139e-01
  5.6774344e+00
  9.7667913e+00
  3.1008122e+00
  6.3261590e+00
 -1.5139754e+00
  2.8972137e+00
  6.0923100e-01
  3.5237122e+00
 -3.5609850e-01
  1.8283206e+00
 -4.2161117e+00
 -6.9770598e-01
 -3.5005406e-01
 -2.5962772e+00
 -9.3295422e+00
 -1.2297837e+00
  1.6154943e-01
 -9.8123729e-01
  5.6033382e+00
  2.6133075e-01
 -4.2538491e-01
  2.4020259e+00
 -1.4251420e+00
 -2.3786373e+00
  8.5782319e-01
  2.2155807e+00
 -9.3529433e-01
 -7.5403810e+00
 -8.3572397e+00
  1.9025910e+00
  5.5520167e+00
 -5.7744594e+00
 -1.2868030e+00
  2.2435267e+00
  1.0377739e+01
 -2.9705620e+00
 -5.4103675e+00
  5.3697534e+00
  2.7224803e+00
 -6.8700081e-01
 -9.3822775e+00
 -4.2151934e-01
  6.5147014e+00
  5.4676690e+00
  4.6559572e-02
  1.4268317e+00
 -4.3788147e+00
  9.0913897e+00
 -4.3223958e+00
  7.2776341e-01
  2.2053626e+00
 -4.2782326e+00
 -2.9787199e+00
  1.4263202e+00
  1.3459311e+01
  6.3640990e+00
  4.5906563e+00
 -2.7945430e+00
  7.2602667e-02
  3.5901661e+00
 -2.7107737e+00
 -1.8768798e+00
  3.9630654e+00
 -3.4523037e-01
  3.0224211e+00
  6.4065537e+00
 -7.6008549e+00
  1.2987002e+01
 -8.9227810e+00
 -3.3454688e+00
  4.8135166e+00
 -1.8674606e-01
 -1.7876406e+00
  1.0252221e+00
  7.8629522e+00
  5.7220392e+00
  4.7632995e+00
 -3.0345792e-01
  4.9171071e+00
  1.5710156e-01
 -6.3813224e+00
  1.1896331e+00
 -1.9111077e+00
 -1.7158847e+00
 -2.1318710e+00
 -4.2850667e-01
 -3.4728065e+00
 -8.5941702e-01
  2.4506013e+00
  1.3479033e+01
 -8.4829211e-01
  8.2314855e-01
  1.0088840e+00
 -3.1202847e-01
  3.4575039e-01
 -2.0406194e+00
  3.4065831e+00
  4.4206195e+00
  1.9679868e+00
  2.9468352e-01
  6.6656814e+00
  6.5981287e-01
  2.4377675e+00
 -1.4476900e+00
  3.1682167e+00
 -6.8933761e-01
  6.2447801e+00
 -1.8671662e-01
 -4.7303829e-01
 -4.9971189e+00
 -2.6901305e-01
  1.6695596e+00
  6.6241875e+00
 -3.0060182e+00
 -1.8632556e+00
 -1.3582356e+00
  2.9413657e+00
 -1.0126836e+01
 -4.9753246e+00
  1.0775075e+01
  4.9024577e+00
  1.7019178e+00
  1.9901810e+00
  3.2300756e+00
  5.9960070e+00
 -2.1689489e-01
  2.1162112e+00
 -3.6665580e+00
  7.1238093e+00
 -2.0039759e+00
 -2.3422763e+00
 -5.0909009e+00
 -9.2768974e+00
 -4.0253949e+00
 -4.6835508e+00
  3.0490503e+00
  6.2700830e+00
  4.1919327e+00
  1.0295291e+01
  8.6140833e+00
 -5.8452082e+00
  5.4038167e-01
  7.2768207e+00
 -4.0537477e+00
 -1.3828220e+00
 -2.5382447e+00
 -1.5035377e+00
  7.3666632e-01
  1.5843756e+00
  2.8717811e+00
 -4.1243901e+00
 -2.2929597e+00
 -5.1065736e+00
  2.1033440e+00
 -9.0339289e+00
  1.7568580e+00
  9.5506992e+00
  1.7606603e-01
  5.7889071e+00
  8.5675561e-01
  8.4347212e-01
  4.8721051e+00
  4.3353372e+00
 -3.2964184e+00
 -1.7045612e+00
  3.8265331e+00
  4.4741287e+00
  2.4800689e+00
 -2.2464733e+00
 -6.2393796e-01
  6.0737157e-01
  1.0652249e+00
 -4.1903505e+00
  8.6005449e-01
  3.7119884e+00
 -1.0067689e-01
 -3.7276772e-01
 -4.3634596e+00
 -4.5219965e+00
 -3.5051429e+00
 -4.3427682e+00
  7.0167785e+00
 -3.3853436e+00
  4.9370728e+00
  4.3662405e+00
  6.4010113e-01
 -1.6903558e+00
 -1.3538295e+00
 -9.3330145e+00
 -1.8985292e+00
  4.0198259e+00
  3.0229244e+00
 -5.6184845e+00
  3.1418445e+00
 -6.0193839e+00
 -3.8617327e+00
 -2.2339532e+00
  2.7413204e-01
 -8.2679968e+00
 -5.9539309e+00
  5.7360296e+00
  1.2887800e+00
 -8.5661000e-01
 -3.8916194e+00
  4.8668370e+00
  1.0235111e+00
  1.1177608e+00
  5.2968063e+00
 -6.1324315e+00
  1.5170375e+00
 -4.2444215e+00
  8.4884949e+00
 -1.7676595e+00
 -1.0546104e-01
 -6.4941201e+00
  6.1477613e+00
 -7.0438776e+00
 -2.9323769e+00
  8.4643517e+00
 -3.5278729e-01
  9.3401480e-01
 -4.2940001e+00
  1.8212322e+00
  5.3362447e-01
  1.1029982e-01
  6.9090085e+00
 -3.8679857e+00
  3.1392746e-02
  7.7429790e+00
  1.3621053e+00
  1.0147183e+00
 -2.4684746e+00
 -3.8701081e-01
  1.0778663e+01
  3.3732588e+00
 -2.5604558e-01
  1.8057993e+01
 -1.2393998e+00
 -6.0084224e+00
  2.2549158e-01
 -1.5826457e+00
 -2.6642964e+00
 -7.3169547e-01
  4.0805030e+00
  3.9985960e+00
 -4.7520866e+00
 -2.0734325e-02
 -3.2754380e-01
  7.0495176e-01
 -3.8656611e+00
 -6.4141541e+00
 -1.3086192e-01
 -9.3208003e-01
 -2.6722157e+00
  1.9394448e-01
  4.1232510e+00
 -3.0112565e-01
  1.8060533e+00
  6.8290561e-01
  1.9949415e+00
 -2.8741608e+00
 -1.6977280e+00
  1.4204375e+00
 -9.8385563e+00
  8.9320965e+00
  3.4970102e+00
  2.9496076e+00
 -1.6015520e+00
 -7.7689438e+00
  2.6257155e+00
  3.3524883e+00
  2.5823035e+00
 -2.1563165e+00
  1.3450644e+01
  5.0115519e+00
  7.9087071e+00
 -5.6487918e+00
  3.9228933e+00
  2.3666706e+00
 -2.1758642e+00
 -5.6110826e+00
 -1.9387369e+00
 -2.0887809e+00
  7.9226208e+00
  3.4696558e+00
 -1.7792770e+00
  2.2696948e+00
 -2.0607483e+00
  7.5778925e-01
 -3.8100462e+00
 -1.1646210e+00
  2.6552932e+00
 -1.6846278e+00
 -1.9889203e-01
  4.0420671e+00
  7.4140887e+00
  6.0537958e+00
 -2.3080077e+00
 -7.0638500e-02
  4.9314723e+00
 -6.5663594e-01
 -2.6914513e+00
 -4.0481949e+00
  3.4755573e-01
 -6.8745470e-01
 -3.3822386e+00
  2.1035001e+00
  8.4413266e-01
 -6.0835075e+00
 -3.1803820e+00
 -7.5837231e+00
 -3.4162664e+00
  6.5506654e+00
 -1.9140855e+00
  2.1472528e+00
  1.6963158e+00
 -4.4860678e+00
 -2.8274423e-01
 -9.5865755e+00
 -5.3087111e+00
  4.2175550e+00
  8.2638388e+00
 -3.8703809e+00
  1.9117154e-01
 -5.9769430e+00
 -7.4908257e+00
  6.6546333e-01
 -1.2658063e+00
 -1.4057118e+00
  1.8726906e-01
  6.3466029e+00
 -4.1214595e+00
 -8.2267873e-02
  6.1043000e-01
 -1.1992420e+00
 -5.0890746e+00
  1.1079453e+01
  7.9845756e-02
  3.2340069e+00
 -3.3910491e+00
  1.4103744e+00
 -3.1788278e+00
 -1.1525891e+00
 -2.3204417e+00
  7.0683002e+00
  6.3586245e+00
  4.0867581e+00
 -4.3910899e+00
  8.4943771e+00
 -1.4596468e+00
  5.1246138e+00
  3.7791116e+00
 -8.5186702e-01
 -4.3434262e-02
  4.7349477e+00
  8.5342157e-01
 -1.5565659e+00
  3.2082679e+00
  1.9105030e+00
  3.4685476e+00
 -1.1706533e+00
 -3.3970554e+00
 -2.8311820e+00
 -4.4519610e+00
 -1.7209979e+00
 -8.3466060e-03
 -7.2708611e+00
 -3.0521915e+00
  3.9118655e+00
  6.7133373e-01
  2.1075690e+00
  3.8132846e-02
 -8.9091482e+00
 -1.2410498e+00
 -4.3512959e+00
 -2.5251665e+00
  2.4045486e+00
 -4.7886044e-02
 -2.8394184e+00
 -5.0836644e+00
  1.0196371e+01
 -3.3794427e+00
  2.8464191e+00
  1.8505620e+00
  1.1030653e+01
 -2.0771666e+00
 -6.7226595e-01
 -8.2840961e-01
 -7.0567775e-01
 -5.6294885e+00
 -8.4203320e+00
  1.5584488e+00
 -1.6839650e-01
 -6.6574353e-01
 -3.1801242e-01
 -6.0576673e+00
 -1.1907479e+00
 -7.9755316e+00
 -2.6765568e+00
 -2.3859279e+00
 -4.2548389e+00
 -1.0150771e+00
 -3.0669603e+00
  7.7903891e-01
  5.9376535e+00
 -4.0294805e+00
 -1.6243184e+00
 -3.7933984e+00
 -3.5720332e+00
 -5.2851453e+00
  8.3623588e-01
 -7.7246680e+00
 -3.0554349e+00
 -5.3431230e+00
  5.0242548e+00
  9.3835151e-01
 -2.3931257e-01
 -2.7619917e+00
 -5.5818038e+00
 -9.4193113e-01
 -2.8739357e+00
 -3.2975142e+00
 -9.3482381e-01
 -5.9674277e+00
 -3.1843939e+00
  4.1053648e+00
 -3.9718587e+00
  5.0236878e+00
 -8.6744442e+00
  8.7852230e+00
 -4.0308342e+00
 -1.1080980e+00
  1.2754197e+01
 -1.3951952e+00
  3.4709640e+00
 -2.3118315e+00
  2.5136793e+00
 -4.5546765e+00
 -1.3044312e+00
  2.0029614e+00
  1.1696883e+00
  1.4149639e+01
  9.7463228e-02
 -4.3589497e+00
 -1.3182923e+00
 -3.0675821e+00
 -6.0124526e+00
  1.6009942e+00
 -6.4973578e-02
 -7.2019205e+00
  3.6700795e+00
  5.6743965e+00
 -4.4943047e+00
 -1.2916761e+01
  8.1681147e+00
  5.5886221e-01
 -1.3877420e+00
  7.6392972e-01
  3.3793702e+00
 -1.0849739e+01
 -2.3802302e+00
 -1.9633489e+00
  2.2761576e+00
  6.3909423e-01
  3.3299496e+00
  6.0624948e+00
 -7.5852507e-01
 -3.8657336e+00
  7.9362979e+00
 -5.7193823e+00
  4.1254821e+00
  4.3384486e-01
 -5.0695724e+00
 -5.5394263e+00
  3.4935582e+00
 -1.0079754e+01
  4.8648605e+00
 -4.2585177e+00
  4.5535583e+00
  8.5586414e+00
  4.6871843e+00
 -8.1937820e-01
 -5.8886847e+00
  9.3686879e-01
  5.6975794e+00
  1.1555528e+01
  1.5446057e+00
  9.4487661e-01
 -3.8812838e+00
 -1.6349937e+00
  6.3120246e+00
  6.3345284e+00
 -6.7039437e+00
  3.0392356e+00
 -5.8411300e-01
  1.5857291e+00
  2.0014341e+00
 -1.5360814e+00
 -4.7629147e+00
  4.0181031e+00
  2.3552833e-01
  1.2992164e+00
 -8.2721605e+00
 -4.4648147e-01
  7.7214575e-01
  4.5193868e+00
  1.3462121e+00
 -1.3321748e+00
  1.5911922e-01
 -8.7440310e+00
  4.5196943e+00
  8.7900364e-01
 -3.8283765e+00
 -2.7142453e+00
 -1.2969751e+00
 -1.0141153e+00
  1.3724959e-01
 -4.2402592e+00
 -4.9575424e+00
  2.3949535e+00
  6.4385758e-04
  1.4028388e+00
 -5.6563110e+00
  1.3450550e+00
  9.5159793e-01
 -4.7634106e+00
 -1.0403178e+01
  1.2730142e+00
  1.7796655e+00
  2.6758378e+00
  5.5119568e-01
  4.6985378e+00
  4.6898097e-01
  4.4312992e+00
 -5.3086710e+00
  1.6863880e+00
  2.4859127e-01
  2.6569059e-01
 -4.0961642e+00
 -2.1579716e+00
 -6.5423551e+00
 -5.9749007e-01
  2.3782604e+00
  1.3968540e+00
  1.1969624e+01
 -5.0594239e+00
 -9.7328739e+00
  1.2322190e+00
 -3.3241270e+00
  4.7993488e+00
 -5.8085303e+00
 -5.9980831e+00
 -2.6279241e-01
  5.5435719e+00
  3.7192953e+00
 -2.4587424e+00
  2.8826711e+00
 -2.1106124e+00
 -6.0029612e+00
  2.9390268e+00
  3.6397414e+00
  4.2281027e+00
  1.2576996e+00
  4.8801045e+00
  3.8087721e+00
 -9.2742109e-01
 -1.9173234e+00
  7.8736997e+00
 -3.2826722e+00
  1.8892819e+00
 -4.6430044e+00
  2.8714154e+00
  1.6451879e+00
 -5.5587602e-01
 -4.0972261e+00
  6.2544184e+00
 -4.9042568e+00
 -2.5838325e+00
  1.3774701e+00
 -7.1914893e-01
  8.6270206e-02
  4.1314154e+00
  8.8560305e+00
  8.1232816e-01
  4.6289539e-01
  3.7547193e+00
  9.6453911e-01
 -1.4250083e-01
  4.1446795e+00
 -8.3667979e-02
  1.0223142e+01
 -1.5077213e+00
  7.6723275e+00
  2.9556706e+00
 -9.8513454e-01
  2.2787526e+00
  1.1091582e+01
 -3.9977872e-01
  3.7570486e+00
 -9.4566507e+00
  6.1119518e+00
 -1.1582375e-01
  2.3535721e+00
 -9.7415024e-01
  5.1768641e+00
 -3.4288988e-01
 -2.7711604e+00
 -1.3850379e+00
  4.7410493e+00
  1.1480248e+00
 -8.2264252e+00
  2.2254910e+00
 -2.1461451e+00
  2.3753476e+00
 -4.3178487e+00
 -6.6181678e-01
 -7.7158862e-01
 -9.4988298e+00
 -2.0252149e-01
 -4.2345152e+00
 -4.3968573e+00
  6.2939644e+00
  3.8157184e+00
 -6.2113559e-01
 -2.9207000e-01
  5.6371508e+00
 -1.0266155e+00
 -2.7015164e+00
  8.4610575e-01
  6.5353351e+00
  9.6225824e+00
  4.8049974e+00
  7.8715119e+00
 -7.4466538e+00
 -1.4459292e+00
  6.2253361e+00
 -3.7822571e+00
 -2.2366127e-01
 -3.6382716e+00
  2.9335489e+00
  6.4992123e+00
 -3.8006520e-01
  1.9816444e+00
  8.2517040e-01
 -3.4484036e+00
 -1.6854273e+00
 -9.3698680e-01
  1.6145657e+00
 -5.8492131e+00
  2.0252049e+00
  5.9372840e+00
  5.7881336e+00
 -2.4300315e+00
  5.4062992e-01
 -2.4410429e+00
 -4.4271288e+00
 -3.4145195e+00
  3.2131079e-01
  8.5259237e+00
 -1.5998682e+00
 -5.4750257e+00
  2.4001546e+00
  4.1853461e+00
  5.1673923e+00
  2.1615763e+00
  8.0080003e-01
  3.7809968e+00
  7.5008887e-01
 -4.1796914e-01
  1.2312338e+00
  1.7274926e+00
  5.3674060e-01
 -4.6880245e+00
  6.5558535e-01
 -6.4884044e-02
 -8.2559884e-01
 -5.1045003e+00
 -3.5071609e+00
 -7.2189884e+00
  5.9792418e+00
 -6.6828136e+00
  1.0220492e+01
  6.1012697e-01
  6.3191857e+00
 -4.2843885e+00
 -9.6390247e-01
 -1.1750919e+00
  6.4395142e-01
 -1.5192429e+00
  3.1529993e-01
 -1.3657813e+00
  6.7584219e+00
 -3.2561657e+00
  2.7874010e+00
  2.2404988e+00
  1.7176949e+00
 -5.3015532e+00
 -5.8653946e+00
 -2.2949116e+00
 -1.2359130e+00
  7.3997891e-01
  4.6209826e+00
  3.9659543e+00
  5.5181402e-01
 -1.0644575e+00
  3.9463506e+00
  7.5725389e-01
  1.2612402e+00
 -2.9321724e-01
 -6.7303920e+00
 -3.1205234e-01
  5.2930036e+00
 -3.1693026e-01
 -3.2570670e+00
  4.7699423e+00
 -6.7530781e-01
  5.9286928e-01
 -5.3591814e+00
 -6.0325127e+00
 -6.1160979e+00
 -1.1779486e+00
  3.8854864e+00
  1.7154499e+00
 -3.5034606e-01
 -4.9008003e-01
 -6.0308609e+00
  3.2345934e+00
 -5.8465999e-01
  2.5290711e+00
 -9.9218708e-01
  9.5216745e-01
 -9.2784710e+00
  5.9230738e+00
  2.6028302e+00
 -9.8883524e+00
 -3.1489651e+00
  1.6008744e+00
  3.3069699e+00
  3.4074693e+00
 -2.4965180e-01
 -1.2745892e+00
  5.5241756e+00
  3.1792204e+00
 -5.0276589e-01
 -1.3282423e-01
  1.3835394e+00
 -1.0234038e+00
 -2.3764358e+00
 -8.6494219e-01
  1.3313475e+00
 -5.3090515e+00
 -4.4595046e+00
  2.9447837e+00
  1.3540456e+00
  7.6715512e+00
  7.5368514e+00
  2.4720402e+00
 -7.2177677e+00
  6.5614257e+00
 -3.0891922e+00
 -3.6507907e+00
 -3.7685962e+00
 -7.9660547e-01
  4.5659938e+00
 -1.1994799e+01
 -2.9751298e+00
 -5.2206969e+00
 -5.6015182e+00
  1.2557206e+00
 -9.3150978e+00
  1.2679800e+00
  2.8899734e+00
  2.3741770e+00
  2.0098727e+00
  4.3285017e+00
  2.5316255e+00
  2.4075086e+00
 -2.4040990e+00
  7.7376227e+00
 -8.0929559e-01
 -9.9008970e+00
 -4.9760585e+00
  5.4219198e+00
 -7.6014314e+00
  3.4664130e-01
  1.5859537e+00
 -3.1316798e+00
  8.1013548e-01
 -4.2179629e-01
 -9.6211443e+00
  2.3722923e+00
 -1.5261306e+00
  2.4389441e+00
 -4.9935594e+00
 -6.8562460e-01
 -2.2569606e+00
  1.4735954e+00
  1.6875175e+00
  4.7873363e+00
 -1.4985193e+00
 -1.3604202e+00
  6.9233131e-01
  7.1785202e+00
  1.1521069e+00
 -9.2548138e-01
  5.3148565e+00
  7.0934254e-01
  7.1262712e+00
  8.7800914e-01
 -1.7919760e+00
  5.8311853e+00
  1.0413547e+01
 -3.2679970e+00
 -2.8657923e+00
 -1.1868527e+00
  2.3356006e+00
 -1.2622180e+00
  4.6197531e-01
 -4.6724949e+00
  1.7429638e+00
  3.8782055e+00
 -7.5218134e+00
  3.0796096e+00
 -3.6463473e+00
 -3.6950114e+00
  5.7211375e+00
  8.9430323e+00
 -6.6318804e-01
  4.2562203e+00
 -6.5829504e-01
  4.1828532e+00
 -9.7012776e-01
  6.7760797e+00
 -7.6789360e+00
  1.3992662e+00
 -4.0024500e+00
  1.1261868e+00
  8.6662851e-02
 -2.7038352e+00
 -5.4993291e+00
 -2.2848670e+00
  3.0038106e+00
  1.3041569e+00
  6.7829227e-01
  2.5259569e+00
  3.3656321e+00
 -3.3477649e-01
  3.9664192e+00
  6.7933722e+00
  3.9050290e-01
 -8.4569397e+00
  4.0548372e+00
 -1.0982811e+01
  3.7086973e+00
 -1.6277220e+00
 -2.3342316e+00
  1.7566242e+00
  4.7798872e+00
  2.4759935e-01
 -7.1064177e+00
  7.0229812e+00
 -5.4251976e+00
 -1.7942942e+00
 -1.8416110e-01
 -7.1129951e+00
 -1.2632990e+00
 -5.6863656e+00
 -1.6924013e+00
 -9.0159047e-01
  6.7703214e+00
  3.0553100e+00
 -9.4151602e+00
 -3.4879084e+00
 -1.8537655e+00
  3.7457519e+00
  4.3643746e+00
  7.3980071e-02
 -2.9085298e+00
 -6.7461600e+00
  2.6076188e+00
 -2.8048582e+00
  5.0872226e+00
 -7.3746953e+00
  8.2358751e+00
 -3.5673192e-01
  7.4929152e+00
  4.3771968e+00
 -4.8267505e-01
 -3.0005898e+00
 -3.9870434e+00
  6.7155986e+00
 -3.0502006e-01
  7.7220231e-01
 -5.0603390e+00
  5.1949632e-01
 -2.3885291e+00
 -7.8194757e+00
  1.9283606e+00
  3.7040715e+00
 -3.0236831e+00
  7.4297447e+00
 -7.5168657e+00
 -2.7519085e+00
 -3.8031060e-01
 -8.8134918e+00
  3.0718789e+00
 -4.9779439e+00
 -2.7916584e+00
  6.0142293e+00
  3.5349543e+00
  2.3465972e+00
 -2.1786532e+00
 -2.9107790e+00
  1.7518874e+00
  6.2441778e+00
 -4.1041522e+00
  2.5338852e+00
  5.9770632e+00
 -4.4898820e+00
 -1.6482012e+01
 -3.4104809e-01
  2.7708671e+00
  2.0594311e+00
 -2.8217833e+00
 -7.0427713e+00
 -2.1862550e+00
 -9.3187630e-01
  3.6835201e+00
 -3.4412270e+00
 -3.5090818e+00
  1.8064672e+00
 -3.6096456e+00
  9.1210419e-01
 -3.9470201e+00
  5.5902600e+00
  1.5833415e-01
  1.8001866e+00
  8.8425167e-02
  1.0698766e+00
  4.2326421e-01
 -3.9093916e+00
 -6.7958474e-01
  1.1782722e+01
 -1.3262426e+00
  7.7551293e-01
 -2.0088972e-01
  4.0378845e-01
 -5.7972503e+00
 -2.1353624e+00
  5.0849605e-01
  4.5446901e+00
  2.3495510e-01
 -3.2867196e-01
  3.7281661e+00
  2.7807887e+00
  1.9791001e-01
  1.5522038e+01
  4.1908245e+00
  6.8707194e+00
  5.1072203e-02
 -1.5752034e+00
  1.8760134e+00
 -5.3101335e-02
 -4.2171189e-01
  6.7362726e-01
  5.8243008e+00
  3.0219209e+00
 -9.2529087e+00
 -3.2641180e+00
  3.1950316e+00
 -3.0424392e+00
  1.1628335e+01
 -4.2395553e-01
 -2.2742338e+00
  1.8792835e+00
 -1.3568739e+00
  5.7550950e+00
  3.6603067e+00
  1.2855653e+00
  1.2250742e+00
 -3.6385362e+00
  2.8868773e+00
  1.6161610e+01
  4.3177184e-01
 -7.5822835e+00
  2.3171759e-01
  8.8483820e+00
 -1.3289363e+00
  1.4613910e+00
 -4.1080885e+00
 -9.2754191e-01
  2.4072483e+00
 -7.4290137e+00
  4.1146584e+00
 -3.3219178e+00
 -1.6817981e+00
  8.2765951e+00
  5.1833117e-01
  7.6456422e-01
  5.0721560e+00
 -7.3011770e+00
  2.4002159e+00
  3.9156964e+00
 -4.5738192e+00
  3.6350791e+00
 -1.9200429e+00
 -1.9183720e+00
 -3.9730680e-01
 -5.7921195e+00
  8.4202510e-01
 -3.5120818e-01
  2.4099979e+00
 -3.2723403e-01
 -2.3438747e+00
 -2.2764928e+00
  3.9542840e+00
  6.6946115e+00
 -4.5069838e+00
  1.5925796e-01
 -5.8473582e+00
  1.6508936e+00
 -5.5324250e-01
 -4.3233666e+00
  5.4556451e+00
  1.3875389e+00
 -7.2767514e-01
  9.4583206e+00
 -5.3883352e+00
 -3.9704237e+00
  7.4971485e+00
 -8.4286451e+00
 -9.0109386e+00
  3.1212957e+00
 -2.6508462e+00
  6.5329390e+00
 -2.8652613e+00
 -4.0274467e+00
  1.1084728e+00
  2.4054143e+00
  2.1062784e+00
  3.7828336e+00
 -1.8389559e+00
  5.2126341e+00
 -4.5357246e+00
  1.7265714e+00
 -1.3103745e+01
 -4.4709091e+00
  4.7678237e+00
 -4.3990569e+00
  2.9245291e+00
  7.0555890e-01
 -1.4025071e+00
 -3.4060986e+00
 -6.5048428e+00
 -2.8626940e+00
  4.0562510e+00
 -2.2630761e+00
 -1.4643806e-01
 -8.0268803e+00
 -1.3094138e+00
 -8.6372185e-01
 -2.4111969e+00
 -1.5067388e+00
  4.7583763e-02
 -1.2964007e+01
 -9.1351919e+00
  4.3330684e+00
  4.1643496e+00
 -2.5510380e+00
  5.6281242e+00
 -1.2826470e-01
 -3.1030345e+00
 -4.4842257e+00
 -2.1258914e+00
  4.9630351e+00
 -2.1359689e+00
  1.9311053e+00
  9.1774988e+00
 -3.1888754e+00
  1.8369569e-01
  5.7361274e+00
  4.2622838e+00
 -1.5512571e+00
 -4.3532467e+00
  2.1337314e+00
  7.5101862e+00
 -1.8224504e+00
 -4.0808320e+00
  3.2110813e+00
  2.7914301e-01
  4.7791785e-01
 -2.6986151e+00
  5.2987823e+00
 -4.9719439e+00
 -3.9180715e+00
 -1.5172746e+00
 -1.6298990e+00
 -5.2896953e+00
  1.1157862e+00
 -5.9480011e-02
  1.6199137e+00
  4.5614805e-02
 -1.0524518e+00
 -1.0717280e+00
 -8.7886322e-01
 -8.4920242e-02
  2.7588706e-02
  7.0797807e-01
 -5.7171088e-01
 -4.1555347e+00
 -2.7830112e-01
  7.5905585e-01
 -9.4349885e-01
 -6.7035508e-01
 -3.0249512e-01
  4.3584738e+00
  4.7753601e+00
  1.1769748e+00
  8.7088662e-01
 -3.8764751e+00
 -6.7146546e-01
 -2.1882362e+00
  3.9220095e-02
  5.6517811e+00
 -9.7251326e-01
 -8.3784401e-01
  4.9465961e+00
  6.0893040e-02
 -1.0298868e+00
 -7.5309090e-02
  4.7075948e-01
 -3.8662802e-02
 -2.0381724e-02
 -7.1556509e-01
  4.0475491e-02
 -3.4947801e+00
  1.0725037e+00
  2.9596114e+00
  3.1811035e-01
 -3.7000144e+00
 -3.5908067e-01
 -2.4122396e+00
  3.5540383e+00
  4.8878083e-01
  7.6477480e+00
 -2.7326334e-01
 -5.9696347e-01
 -1.4224800e+00
  2.0411527e-02
  4.6152229e+00
  3.8250957e+00
 -2.2209466e+00
  1.1259077e+00
  9.9365395e-01
  1.2915809e+00
  9.2423379e-01
 -2.9309871e+00
  4.4775498e-01
 -6.1169314e-01
 -5.5030746e+00
 -1.6539641e-01
  6.4301066e+00
 -1.4720639e+00
  1.5051163e+00
 -2.0106020e+00
 -8.4299765e+00
 -1.9312263e+00
  5.2942495e+00
  1.4564360e+00
 -1.8383433e+00
 -6.9383562e-01
  1.7880293e+00
  2.2821192e-01
  2.2893560e+00
 -7.4374944e-01
 -3.9328861e-01
  9.0427047e-01
  8.3616006e-01
  6.0632217e-01
 -1.3254516e-02
 -4.5711303e+00
 -8.7897148e+00
 -5.0330539e+00
 -2.1002476e+00
 -1.7200834e-01
 -5.4777566e-02
  6.6569185e-01
 -2.6951724e-01
 -2.5255539e+00
 -2.5964127e+00
  5.6434345e-01
  3.5965748e+00
  2.4907713e+00
 -1.2952186e+00
 -2.7716818e+00
  4.4578210e-01
 -6.6219658e-01
  5.3239937e+00
  4.0549989e+00
 -5.5304710e-02
  3.2950995e+00
  4.2116628e+00
 -2.6666758e+00
  2.4678762e+00
  8.1938261e-01
  9.0624034e-01
 -8.1610650e-01
  3.7201486e+00
 -7.6728076e-01
  6.6192079e+00
  2.8418794e-01
 -7.5647956e-01
 -8.9972391e+00
 -8.2576972e-01
 -1.3305535e+00
 -6.2386847e+00
 -5.9188452e+00
 -1.2913224e+00
  7.6000366e+00
  7.7208424e+00
 -1.8699718e-01
  5.5868454e+00
  4.4140406e+00
  1.1468556e+00
 -6.0097108e+00
  1.3231635e+00
 -4.1828465e+00
  2.2536981e+00
 -7.1464477e+00
 -1.4784602e+00
 -8.8322407e-01
  2.2478957e+00
 -6.1766958e-01
 -1.6118309e+00
  2.9655356e+00
 -2.9711981e+00
  6.6082830e+00
 -1.1314856e+00
 -5.0863452e+00
 -5.1149230e+00
 -1.7536331e+00
  5.1563640e+00
 -8.8020128e-01
  6.6182656e+00
  1.2672246e-01
 -7.8068366e+00
  4.4105151e-01
 -2.5314119e+00
  3.2747325e-01
 -4.8874350e+00
 -1.4009393e+00
  4.9414768e+00
  6.4096951e-01
  1.2308092e+00
  2.1467502e+00
 -1.2341042e+00
  1.9864877e+00
  5.6399446e+00
 -2.7318919e+00
  2.1804652e-01
 -7.0798345e+00
  1.4336514e+00
  1.7667074e+00
  6.7668355e-01
 -3.6981816e+00
  7.4938768e-01
  4.4545434e-02
 -2.7551689e+00
 -5.5889034e+00
 -1.3622890e+00
  1.5225706e+00
 -4.3279362e+00
  4.0267448e+00
  1.4275701e+00
  1.7749871e+00
 -1.5399550e+00
  7.4537845e+00
  2.7056210e+00
 -7.8008324e-02
 -1.5860575e+00
 -9.1106033e+00
 -4.2661428e+00
 -1.5516049e-01
 -3.4477227e+00
  8.4671631e+00
 -8.6287670e+00
  3.9976232e+00
  1.0959185e+01
 -8.2425529e-01
  1.0159395e+00
 -2.0601915e-01
 -3.8415568e+00
 -5.0745592e+00
  2.2734201e+00
  1.3476831e+00
  4.4050164e+00
 -4.5644288e+00
  3.6333640e+00
 -4.5077891e+00
  1.9678872e+00
  9.5992827e-01
 -1.3560712e-01
  1.2696835e+00
 -6.9056511e+00
  1.7866562e-01
 -2.0221074e+00
  3.5203683e+00
 -1.3310498e+00
  2.8734130e-01
  9.2197806e-01
  3.7527580e+00
 -1.6649982e+00
 -4.5682483e+00
 -1.7199255e+00
  2.9977844e+00
  6.4090705e-01
  3.0507808e+00
 -4.6921434e+00
  3.8523657e+00
 -2.6999636e+00
 -5.6731381e+00
  3.6636889e+00
 -2.2403901e+00
 -5.3902278e+00
  9.1046733e-01
 -3.8349326e+00
 -2.3676703e+00
 -2.7975175e+00
  2.4344053e+00
  1.2357295e+00
  2.5896051e+00
 -6.4003267e+00
 -2.9179063e+00
 -2.8031901e-01
 -3.2678080e+00
  3.1537795e+00
  1.7718309e+00
  4.6017318e+00
 -3.9670882e+00
  3.3579128e+00
  2.1722012e+00
 -2.3229439e+00
  1.4523204e-01
  1.1607607e-01
 -7.2220235e+00
 -2.3018465e+00
  2.5468068e+00
  1.9001329e+00
  6.1990345e-01
 -4.3187714e+00
 -2.9817646e+00
 -1.3603922e+00
  2.4058414e+00
 -5.0872540e+00
  2.7166140e+00
  8.7993174e+00
 -2.0576911e+00
  6.1592507e+00
 -1.3260472e+00
 -4.5677357e+00
 -1.3622524e+00
 -1.8212497e+00
  4.8136473e+00
 -2.5883205e+00
  1.5774665e+00
 -5.3245697e+00
 -3.9567053e-01
 -3.3042254e+00
 -1.0811217e+00
 -3.2206712e+00
  2.4070237e+00
  4.4385200e+00
 -1.3694358e-01
 -5.5226798e+00
  3.1666646e+00
  1.0842010e+01
  1.1846288e+01
 -7.3274404e-01
  2.1542244e+00
 -2.8077164e-01
 -4.4612331e+00
  3.7748957e-01
  3.1442361e+00
  1.7157180e+00
  3.5055274e-01
 -2.1567955e+00
  8.0959120e+00
 -3.9502484e-01
 -2.1761734e+00
 -5.1280384e+00
 -1.1664929e+00
 -3.3562019e+00
  2.8692946e+00
 -3.4878583e+00
  3.8002949e+00
 -1.1848719e+00
 -2.4612627e+00
 -1.9138315e+00
 -5.2812189e-02
 -5.2337041e+00
 -6.7692447e+00
  1.4899998e+00
 -1.7459120e+00
 -3.5709825e+00
  4.1392951e+00
 -8.7242107e+00
 -5.7510953e+00
  5.5338178e+00
  5.5155449e+00
 -2.6043541e+00
 -6.4366460e-02
 -3.8152168e+00
 -3.3597913e+00
  3.7345829e+00
  1.8918687e+00
 -1.3356634e+00
 -7.7049155e+00
 -2.1475954e+00
  3.4941471e+00
 -1.1274506e+00
 -2.9128573e+00
  3.7851174e+00
  1.4901435e+01
  3.2258859e+00
  1.4064586e+00
 -1.7128786e+00
 -9.0826588e+00
  7.1661673e-02
 -1.2812443e-01
  7.7477269e+00
 -1.3753645e+00
 -1.0152264e+00
 -8.0747557e+00
 -1.3076272e+00
  1.9504263e+00
  4.7686529e+00
  6.0286183e+00
  4.5150727e-01
 -2.9382408e+00
 -1.4957595e+00
  3.6474004e+00
 -2.8637710e+00
  4.4208598e+00
  1.2231153e+00
  1.6337326e+00
 -7.4246697e+00
 -4.4635811e+00
 -1.5923804e-01
 -7.3132148e+00
 -1.1045525e+00
  1.4566424e+00
 -2.7137461e+00
 -2.9145673e-01
  1.7315385e+00
  4.0065918e+00
 -3.7814131e+00
 -7.0251899e+00
  7.4470633e-01
 -2.9628012e+00
 -4.6905046e+00
 -2.6017635e+00
 -3.4971580e-01
  3.1117556e+00
  3.5659909e-01
 -2.7338209e+00
 -6.6998138e+00
 -4.9208694e+00
  6.0016477e-01
 -9.8664439e-01
 -7.9737706e+00
 -5.1291811e-01
 -1.0277230e+01
  1.1786795e+00
  3.9920259e-01
 -5.7497072e+00
  8.0264397e+00
 -1.4498854e+00
  4.4172317e-01
  3.3708658e+00
 -1.4229803e+00
 -8.6248571e-01
  6.4796963e+00
  2.3185639e+00
 -2.6750389e-01
 -4.2151747e+00
  1.3603108e+00
 -4.4246473e+00
  7.1762404e+00
 -3.2222444e-01
 -6.0960907e-01
 -3.1508694e+00
 -4.5115471e+00
  3.0786791e+00
  9.4338923e+00
  3.8380675e+00
 -4.0076718e+00
  8.6682653e+00
 -3.3767192e+00
  1.0012389e+01
  4.4097738e+00
  2.5660675e+00
 -4.4418755e+00
  3.1559026e+00
  3.6597750e-01
  2.7515085e+00
 -9.2354494e-01
  1.4037020e-02
  1.6595693e+00
 -3.7555568e+00
  2.4513233e+00
 -3.6024687e+00
 -3.2763224e+00
 -4.1176910e+00
 -8.5535736e+00
 -1.9567256e+00
  2.4617551e-01
 -2.4935443e+00
  4.4919558e+00
 -1.9097071e+00
  4.5286379e+00
 -5.0659761e+00
  3.0719901e-02
  5.2639980e+00
 -1.1132435e+00
  5.4487052e+00
 -1.3860378e+00
  3.3497958e+00
  3.1254551e+00
  2.5679663e-01
  8.8893831e-01
 -3.9166039e-01
  2.4584392e-01
  6.3202971e-01
 -8.1242196e-02
  4.7061009e+00
 -4.0815520e+00
 -4.0220733e+00
 -1.4274008e+00
  5.9594088e+00
 -8.6608715e+00
 -4.6096578e+00
 -1.4984802e+00
 -5.0287375e+00
  5.2132688e+00
 -1.1650609e+00
 -4.4124393e+00
 -2.9089718e+00
 -3.7017941e+00
  1.1193408e+00
  4.4656634e+00
  1.3152952e+00
  2.3628964e+00
 -2.3256731e+00
 -1.5681229e+00
 -6.7327338e-01
  1.4605851e+00
  1.5310205e+00
  3.0710638e-01
  1.5348890e+00
  9.9075341e-01
 -5.8036250e-01
 -1.0003124e+00
  7.9793769e-01
 -6.4790387e+00
  5.0362848e-02
 -9.3414831e-01
 -6.4852715e-01
 -2.2506909e+00
 -5.9098077e+00
  1.6438547e+00
  5.6980267e+00
 -5.0786370e-01
  3.1931889e+00
 -8.7311382e+00
 -3.0604415e+00
  2.2355764e+00
 -1.7962383e-02
  2.4159881e-01
 -2.8931892e+00
 -4.9537358e+00
  6.0499396e+00
  4.1884980e+00
 -6.4349480e+00
 -4.0218210e+00
  3.1518966e-02
  3.9672194e+00
 -4.5787811e+00
  1.3249981e+00
  3.0584488e+00
 -5.0137300e+00
  3.7747414e+00
 -9.1178631e-03
  6.8421249e+00
 -8.0136824e+00
  5.4421121e-01
  1.6787080e+00
  1.8674881e+00
  2.1710958e+00
  2.3593714e+00
  1.1609813e+01
 -6.9908819e+00
  4.3341011e-01
 -7.0991220e+00
  2.5653547e-01
 -6.3462508e-01
  4.0496454e+00
  5.0344906e+00
 -3.1857622e+00
  3.9367573e+00
  1.5043290e+00
  3.2648072e+00
 -1.1926353e+01
 -8.0758410e+00
  2.0845652e+00
 -9.0374908e+00
  2.3853405e+00
  5.9524608e-01
 -6.5717322e-01
 -5.9378285e+00
  3.4921422e+00
  5.2193146e+00
  4.2824225e+00
 -5.4252291e+00
 -1.5975028e+00
  1.9293931e+00
 -1.1044232e+00
 -1.3738086e+01
  3.5594959e+00
  5.5219092e+00
  2.1395395e-02
  7.1492577e+00
 -3.9193861e+00
 -4.6395123e-01
  2.3499610e+00
 -1.9426322e+00
  2.8321999e-01
  3.6426917e-01
 -2.8996181e+00
  6.7589030e+00
 -3.8771734e+00
 -6.9745860e+00
  9.5906413e-01
 -2.3680089e+00
 -8.6918583e+00
 -1.5515969e+00
 -1.8496462e+00
  1.5030695e+00
  2.9662056e+00
  5.3318152e+00
 -4.4765172e+00
 -7.7546215e-01
  1.3187526e+00
  7.5494089e+00
  3.9873421e+00
 -1.2640035e+00
  4.4579287e+00
 -9.1508255e+00
  1.8556521e+00
 -2.2014210e+00
 -5.7406592e+00
  6.5356500e-02
 -1.5228431e+00
  1.0246079e+00
  4.3256717e+00
 -1.8872279e+00
 -2.2268414e+00
  5.3805733e+00
 -1.0379178e+01
  9.1771059e+00
 -2.1998627e-01
 -3.0000908e+00
  3.4384924e-01
  8.1662104e-02
 -3.8049194e-01
  7.9129624e+00
  3.9599812e+00
 -8.5846072e-01
  6.0094776e+00
 -4.5130854e+00
 -3.8049421e+00
  1.0305965e+01
 -4.2278150e-01
  5.1688462e-01
 -2.9439964e+00
  5.3356347e+00
  2.3281724e+00
  2.5544240e+00
  1.1845427e+00
  4.1733279e+00
 -6.7543001e+00
  2.1091151e+00
  1.2627745e+00
 -2.6348414e+00
 -3.6429501e+00
 -1.4078506e+00
  3.1247513e+00
  7.7091436e+00
  7.6667247e+00
 -3.6208940e+00
  1.6045418e+00
 -3.4108744e+00
  3.6478684e+00
  2.9034584e+00
  3.7622302e+00
 -7.8238034e+00
  7.1678066e+00
 -3.1286416e+00
  3.5546830e-01
  1.1188543e+00
 -1.8309226e+00
  2.9016571e+00
 -1.9503907e+00
 -9.3975220e+00
 -4.8236847e+00
 -6.3335028e+00
 -2.1298726e+00
  2.5384569e+00
 -6.0804815e+00
 -3.2602087e-01
  1.6989200e-01
 -1.7203794e+01
  2.2776790e+00
  3.1680341e+00
 -3.7402756e+00
  1.6267149e-01
 -7.9428139e+00
 -7.0599394e+00
  2.0624353e-01
  2.2906011e-01
  2.4743564e+00
  1.3464801e+01
  1.2132391e+00
 -2.5332286e+00
  4.8497683e-01
  2.2503979e+00
 -9.3228340e-01
 -1.6381669e+00
  6.3390559e-01
  6.5587883e+00
 -6.4238272e+00
  8.2254714e-01
  3.1423135e+00
 -3.4821081e+00
 -2.5291259e+00
  5.5356932e+00
  5.8272654e-01
 -7.8780782e-01
  8.5183156e-01
 -1.2019774e+00
  8.1464653e+00
  3.3770509e+00
  1.3550714e+00
  2.0124657e+00
  6.3590341e+00
  2.1634951e-01
 -5.4398513e-01
 -8.7350178e+00
 -3.7089024e+00
  3.5478890e+00
  1.3327541e+00
 -4.2150073e+00
 -1.3873318e+01
  5.0975924e+00
 -6.9581938e+00
 -1.1211721e+00
  8.8814735e+00
 -4.0402384e+00
 -2.1899726e+00
  8.3325368e-01
 -1.0943097e+00
 -1.0603899e+00
 -1.0255903e+00
  6.8533502e+00
  6.2986932e+00
 -6.8621573e+00
  5.9613943e+00
  8.1382599e+00
 -2.3307767e+00
  7.4567825e-01
 -4.5083418e+00
 -1.1300785e+01
  8.7911278e-01
 -8.3208866e+00
 -1.2270757e+00
 -3.3600883e+00
 -4.5980909e-01
  3.1939883e+00
 -3.5464828e+00
 -3.6896381e+00
  1.0757570e+00
  3.4642839e+00
  7.6590896e-01
  9.2782850e+00
 -9.0420842e-01
 -4.9338193e+00
  1.7064285e+00
  1.6730413e+00
 -2.4366686e+00
 -5.2333349e-01
 -9.7280055e-01
  1.9594061e+00
  7.4270620e+00
  2.2942088e+00
  2.3824947e+00
  2.3908527e+00
  3.1354160e+00
 -4.0003261e-01
  6.4507413e+00
 -1.5135134e+00
 -3.6567838e+00
  4.5325422e+00
 -1.7420576e+00
  6.9663092e-02
 -4.8527083e+00
  6.5256558e-02
 -1.4945443e+00
  7.6260767e+00
 -4.2255983e+00
  1.3326068e+00
 -3.5174766e-01
  2.4921696e+00
 -6.2041426e-01
 -5.3813398e-01
 -1.2016057e+00
 -5.4509950e+00
  1.2493743e+00
 -3.6309251e-01
  1.3180476e+01
  7.5393265e-01
  1.5564032e+00
  1.9057808e+00
  5.0774150e+00
 -3.1297269e+00
  6.1002731e+00
  6.5016418e+00
 -5.3194108e+00
  8.7194455e-01
  1.0346437e+01
 -2.9325995e+00
 -1.3064891e+01
 -3.6756094e+00
 -9.3960390e+00
  8.8864475e-02
 -7.2057485e-03
  4.3654065e+00
 -3.0165958e+00
 -1.5296426e-01
  6.6971272e-01
 -1.6909624e+00
  3.5061588e+00
  4.0650395e-01
 -2.3367064e-01
  5.9405494e+00
  2.8651893e+00
  1.2029663e+01
  4.7993517e+00
  2.7075236e+00
  5.8608208e+00
  3.1574583e+00
  4.1811194e+00
 -4.8326106e+00
 -3.4857652e+00
 -1.1010995e+00
 -1.9641107e+00
  5.5613732e-01
 -1.1666107e+00
 -1.8939735e+00
  6.6809111e+00
  2.9080445e-01
 -3.1257210e+00
