nep4 5 Ga O Si C H 
cutoff 9 6 338 103
n_max 10 8
basis_size 12 10
l_max 4 2 0
ANN 96 0
 -1.5505164e+00
 -9.4120562e-01
 -5.4824209e+00
  4.1467309e+00
 -4.8936024e+00
  1.4846342e+00
  8.7756522e-02
  1.2635444e+00
 -2.1674383e+00
  2.0119610e+00
 -3.2107050e+00
 -4.7780093e-02
  8.3297081e-02
  7.7310197e-02
 -3.5309814e-02
 -1.8872321e-01
 -7.7921742e-01
  5.3324497e-01
 -2.0357828e+00
  1.3213774e+00
 -1.9061464e-01
  1.0698687e+00
  2.2716707e-02
 -4.8182899e-01
 -1.0074741e+00
  1.6409743e+00
 -2.0305866e-02
  5.4509157e-01
  4.7806039e-01
 -2.5704709e-01
  3.1294397e-01
  7.2711098e-01
 -1.7528741e-01
  1.6144495e+00
 -2.1664786e+00
 -1.1626797e+00
 -1.7181581e+00
 -2.6600730e-01
 -1.1342626e+00
  1.9007280e+00
  1.1810998e+01
 -4.1365162e-01
  1.9903773e+00
  4.4224608e-01
  2.4362421e+00
 -2.6686878e+00
  2.7094444e-02
  2.1923962e+00
 -2.1552663e+00
 -2.7287295e-01
 -5.4012418e-01
  1.0517653e+00
  4.2060444e-01
 -5.9531226e+00
 -1.6527877e+00
 -6.8967423e+00
 -5.4211694e-01
  1.1411531e+00
 -2.0810533e-01
  1.4938524e+00
 -3.0868623e+00
 -5.8233853e-02
 -4.2371159e+00
  2.8961005e+00
  8.5349464e-01
 -1.2378646e+00
 -2.4325366e+00
 -1.7248341e+00
  3.0586207e-01
 -1.8601587e+00
 -1.5657772e+00
  5.8057857e+00
  5.3676939e-01
  5.7948246e+00
  2.0614388e+00
 -1.7900350e+00
 -3.4928790e-01
  5.5286512e-02
 -5.8931527e+00
 -1.6035056e+00
  3.9178774e-01
 -1.8136468e+00
  7.5188679e-01
  1.6421913e+00
 -7.2099328e-01
 -1.4264390e+00
 -9.0132970e-01
 -6.2319922e+00
  2.7350808e-02
  8.9435112e-01
 -4.2747926e-02
 -4.6405034e+00
  3.3823970e-01
  4.9407506e-01
  1.9329739e+00
 -9.2590857e-01
 -3.4032373e+00
  2.4455533e+00
 -1.3257806e+00
 -2.9391226e-01
 -5.4208298e+00
 -4.3451595e+00
 -1.7221919e+00
 -4.0495366e-01
  1.3572079e-01
 -8.2853341e-01
 -5.4474545e-01
 -3.5229754e+00
  1.9540577e+00
 -2.7105230e-01
  2.9381451e-01
 -6.2523633e-01
  1.4968768e-02
  4.1359255e-01
 -1.5965211e+00
  3.4177968e-01
  5.6444483e+00
  1.4890260e+00
  1.7486510e-01
 -1.4004014e+00
  5.4050536e+00
  1.1705950e-01
 -3.4851785e+00
 -7.3905796e-02
  1.6478283e-02
  4.1993275e+00
  7.8756928e-01
  1.6154749e+00
  8.4352130e-01
 -2.4626732e-01
 -2.0171058e+00
  1.4153574e+00
 -1.2084703e+00
  6.5947809e+00
 -4.9799523e-01
 -7.2628587e-01
 -1.2866395e+00
 -5.0643426e-01
 -9.3610430e-01
 -2.0641580e+00
 -1.5362325e+00
  2.0591691e-01
 -2.8932901e-02
  4.5325589e-01
 -8.3712530e+00
  1.1095488e-01
  7.8020535e+00
  7.2777905e-02
  1.3512295e+00
  4.1358018e-01
 -1.2602590e+00
 -2.5202692e+00
 -1.5729039e+00
 -8.3346534e-01
  1.8100771e-01
 -5.6962838e+00
  1.5602626e-01
 -1.9910991e+00
 -3.4182146e-01
 -5.0027552e+00
 -7.8653461e-01
  3.2770947e-01
 -4.0631160e-01
 -4.5756394e-01
 -6.7495003e-02
  1.9239342e-01
 -5.2975738e-01
  1.4687777e+00
 -9.6829920e+00
  1.9322108e+00
 -6.9898677e+00
  5.1130772e-01
  5.3017645e+00
 -2.4193518e+00
  4.6094699e+00
 -4.3657279e+00
 -5.9658785e+00
 -4.8797731e+00
  5.4292208e-01
 -6.9420228e+00
  2.6050889e+00
  2.9335750e-02
  4.3576951e+00
  7.4801224e-01
 -1.7445168e-01
 -3.1546462e-02
  1.7760146e+00
 -3.0939218e-01
 -3.4047338e-01
  1.3397512e+00
 -6.6202259e-01
 -1.6799912e+00
 -5.1796627e+00
  3.8166413e-01
  2.1395077e-01
  2.8905122e+00
  3.9338291e-01
  2.1249030e+00
 -8.7779087e-01
  1.6847101e+00
 -1.3768544e+00
 -1.0331923e+01
 -4.8588400e+00
  5.5913181e+00
  7.5937309e+00
 -9.0198934e-01
  2.3482695e-02
  2.9776320e+00
  1.0314502e+00
 -7.7436268e-01
 -6.9070375e-01
  2.1881375e+00
  4.0801921e+00
  4.3807249e+00
  5.1044097e+00
  2.2758630e-01
  1.7992905e+00
 -2.8148243e+00
  9.1157854e-02
  1.4197539e+00
 -2.8613713e+00
 -1.2678540e+00
  1.6500280e+00
  1.9335871e+00
 -1.6638632e-01
 -5.6716424e-01
  2.9021862e+00
 -7.3893476e+00
 -2.6464436e-02
  9.8068163e-02
 -6.1332493e+00
 -1.2810564e-01
 -2.2440809e-01
 -1.3069973e+00
  1.1466698e-01
 -4.8102823e-01
  8.9529091e-01
 -1.4089413e+01
 -3.0322325e+00
  5.6350148e-01
  7.3155545e-02
 -4.6913427e-01
  3.8537130e+00
 -1.0733498e+00
 -3.8344380e-01
 -7.3028326e-01
 -1.6697668e+00
  4.2399874e-01
  1.4323442e+00
  2.7399523e+00
  2.2448921e+00
  8.4225190e-01
  5.5384118e-02
  7.4993461e-01
 -7.3771012e-01
 -8.6028659e-01
  2.4888382e+00
  7.0131177e-01
  4.6831040e+00
  9.6401048e-01
 -9.9821454e-01
 -9.7425175e+00
 -3.5946660e+00
 -2.9609659e+00
 -2.4681082e-02
  1.9863986e+00
 -3.3279908e+00
 -3.3179554e-01
 -2.2876921e+00
  1.3530866e+00
  7.7565837e-01
 -4.9277115e+00
 -1.2474299e-01
  3.6438275e-02
 -1.1314277e-01
 -6.2700477e+00
 -1.0733258e+00
  1.2620999e+00
 -7.4493227e+00
 -6.2789816e-01
  1.3937911e+00
  5.3136623e-01
 -3.8170435e+00
 -6.1094785e-01
 -1.5921432e+00
 -2.4116893e+00
 -2.2681897e+00
 -1.8505713e+00
  9.8620290e-01
 -4.3070418e-01
  2.2985210e+00
  4.1483130e+00
 -3.9574523e-02
  6.0191643e-01
 -3.3910504e-01
  8.1457245e-01
 -1.4035772e-01
  1.2562222e+00
 -2.6420379e-01
  5.2911752e-01
  3.5987213e-02
 -4.5422509e-01
  5.9096260e+00
 -6.8992347e-01
  7.3233241e-01
 -1.0752765e+00
 -2.7095964e+00
 -6.8053520e-01
 -4.3950614e-01
 -5.0807637e-01
  3.7263446e+00
 -2.8511876e-01
  2.4390325e-01
  4.7990051e-01
  1.6837481e+00
 -2.9686999e+00
 -1.2793587e+00
 -2.3984809e+00
  1.2453442e+00
  2.3236370e+00
 -3.5164097e-01
 -1.4897338e-01
 -8.4203815e-01
 -5.7475213e-03
 -6.2239728e+00
  5.9237003e-01
 -2.1677201e+00
 -2.0145766e-01
  2.1342676e+00
 -2.7372660e-02
 -1.3654169e-01
  3.5454309e-01
 -1.4202180e+00
  2.7921188e-01
 -6.5797728e-01
 -1.3428777e+00
 -9.5117790e-01
 -2.0457759e-02
 -5.3089118e-01
  5.9335077e-01
  1.0890646e+00
  5.1019874e+00
 -1.9456595e-01
 -4.9966678e-01
 -2.6628089e-01
 -1.8581168e-01
 -4.5398292e-01
 -4.6051271e-02
  5.3566279e+00
  1.6627301e-01
  1.0116585e+00
 -4.7600308e-01
  5.2310133e-01
 -1.9155756e+00
  5.4693621e-01
  2.7492797e-01
  7.6075130e+00
 -1.1884310e+00
 -2.0335065e-01
  1.2556980e+00
  8.7223655e-01
  1.5919677e+00
  1.7104505e+00
 -2.2804842e+00
 -5.6633739e+00
  3.6566982e-01
 -1.1309977e+00
  8.1730741e-01
 -7.8790905e-03
 -1.8327709e+00
 -5.6088157e-02
 -2.3984683e-01
 -1.0974450e+00
  2.6509645e+00
 -1.0668807e+00
  7.1425736e-01
  8.8639480e-01
 -2.6140263e+00
 -4.8810287e+00
 -6.3299471e-01
  8.0597633e-01
 -1.3634834e+00
 -4.9136209e+00
  1.8159401e-01
 -4.0279799e+00
 -9.9608950e-02
  3.7881093e+00
  8.9506246e-02
  1.9029185e-01
  2.7600107e-01
  7.1824896e-01
 -3.8729215e-01
 -1.9877325e+00
  7.5648600e-01
  1.9213063e-01
 -9.5933205e-01
 -2.0570017e-02
  7.7167422e-01
 -1.0559746e+00
  2.4777122e+00
  9.1292065e-01
 -1.9976499e+00
  8.3162034e-01
  4.5846968e+00
 -6.4759797e-01
  4.2607895e-01
  6.8411875e-01
  6.0858107e-01
  4.8492737e+00
 -3.7825048e-01
 -6.2302518e-01
 -7.7884012e-01
 -3.6165903e+00
  1.2032644e+00
 -2.4722554e-01
 -1.7734150e+00
 -1.1796266e+00
 -6.5048236e-01
  1.7525017e+00
  8.3631039e+00
  3.3031082e-01
  1.4438308e+00
 -3.7757139e+00
  1.8959817e-01
  7.4738187e-01
  1.1816725e+00
  8.1559086e-01
  1.1057327e+01
 -5.7343882e-01
  6.5878224e+00
  1.6829736e+00
  1.0258525e-03
  3.6886758e-01
 -3.2781754e+00
  5.4756228e-02
 -8.9956465e+00
  1.0898187e+00
  2.5028032e-01
  6.7103547e-01
  5.2386865e-02
 -5.1319238e-02
 -1.8599534e-01
  9.1334903e-01
 -7.8755009e-01
 -1.6908748e+00
  4.6039641e-01
 -7.9650497e-01
 -6.9958526e-01
  1.3070837e+00
  7.2910833e-01
  9.4287336e-01
 -3.5496432e-02
 -1.0207444e+00
 -2.5962460e+00
 -1.0086653e+00
  2.3337653e+00
  3.6227262e-01
  5.7517867e+00
  8.2470292e-01
  2.3179135e+00
 -1.0469449e+00
 -5.9651965e-03
 -7.4013032e-02
  1.0983983e+00
  5.1809192e-01
 -1.4329784e-01
 -2.7601233e+00
 -1.5754831e+00
  2.5937417e-01
 -7.3205692e-01
 -2.0707835e-02
  1.7495867e+00
  3.0818360e+00
 -3.9322883e-01
 -1.3291869e+00
  5.9933662e-01
  3.8570744e-01
  6.1308324e-01
 -2.3976991e+00
 -7.6620212e+00
 -1.0932461e-01
 -1.6968142e+00
 -3.0327097e-01
  3.2847776e+00
 -1.5942588e-01
  9.3911705e+00
  5.5844612e+00
  4.7715020e-01
  8.8346869e-01
  4.8261933e+00
  4.3350834e-01
  5.2562934e-01
 -7.8019553e-01
  5.4182243e-01
 -8.1145775e-01
 -9.7907168e-01
 -2.1831695e-02
  1.0164034e+00
  1.1847134e+00
  6.9092423e-02
 -7.3244524e+00
 -7.4215925e-01
  2.0951703e+00
  6.6728586e-01
 -2.6930094e-01
  5.0926638e-01
 -5.1606214e-03
  3.7421823e+00
  2.2944643e-01
  4.1300526e+00
  4.8852667e-01
  8.7937748e-01
  4.3182554e+00
  2.4575112e+00
  5.2156429e+00
  1.8181021e+00
  5.8336131e-02
 -2.7733612e-01
 -2.6655364e+00
  7.0032781e-01
 -4.1663580e+00
  1.1967588e-01
 -1.2313249e+00
  2.9370461e+00
  8.6116141e-01
 -1.3090405e-01
 -7.2421075e-04
  5.8481890e-01
 -1.1971515e-01
  7.1260864e-01
  4.4889607e+00
  2.2538815e+00
  1.0511153e-01
 -5.0447088e-01
 -5.1775402e-01
 -2.7994909e+00
  6.6143310e-01
  7.0762177e+00
 -2.4616745e-01
 -1.9947420e-01
  3.9698327e+00
  1.0425699e+00
 -7.0118070e-01
 -1.8766041e+00
  4.1036801e+00
  3.1389391e+00
  1.3210002e+00
  6.4205664e-01
 -9.7513998e-01
 -3.3712026e-01
  5.8899298e-02
 -6.3153988e-01
 -1.4128692e+00
  1.5114455e-01
  1.5880567e+00
  6.8721193e-01
 -6.7664280e+00
 -3.7394807e+00
  1.0916881e-01
  5.3479505e+00
  7.8902143e-01
 -1.4912337e+00
  1.4900370e-01
  6.8018740e-01
 -5.1436753e+00
  2.7894691e-01
  6.0555058e+00
  8.2136691e-01
 -8.1229097e-01
  2.0852141e-01
 -8.3787233e-01
  1.0042567e+00
 -1.3443112e+00
  8.4738471e-02
 -3.5262948e-01
  7.8158927e-01
 -3.9261883e-01
  4.1497450e+00
  4.1895971e+00
 -6.4362884e-01
  1.7358931e+00
  8.7055779e-01
  2.3350616e-01
  1.8674234e+00
 -2.2090685e+00
 -6.7010611e-01
 -1.5848531e-01
  1.0805039e+00
  5.1082081e-01
 -9.3718535e-01
  5.7112497e-01
  1.1016347e+00
 -4.9115354e-01
  5.6693935e-01
  1.6495010e+00
 -2.5114825e-01
 -2.0465262e+00
 -2.2093842e+00
  1.4683014e-01
  3.1184068e-02
  1.6984676e+01
  2.1315172e+00
  5.6547537e-02
  9.7048491e-01
  2.5734823e+00
  4.3554196e+00
 -4.4450179e-01
 -8.3600837e-01
 -1.0223955e+00
 -1.2490469e+00
 -4.4133675e-01
  9.7379059e-01
  5.4166371e-01
  1.6330262e+00
  1.0475556e+00
 -5.2536406e-02
  1.0981458e+00
  3.0815008e+00
 -1.2519855e+00
 -2.5950248e+00
  2.9203529e+00
 -1.3661894e-01
  1.0463166e+00
  1.5553734e-01
  2.2358628e-01
  1.4033698e-01
  1.4950939e+00
  3.9517200e-01
 -1.7553204e+00
 -9.5319110e-01
  1.0113984e-01
  1.3950744e+00
 -2.0145535e-01
 -3.5859764e+00
 -3.6969717e+00
 -1.2375081e+00
 -4.6217081e-01
 -8.9508599e-01
  4.3650601e-02
 -2.5950015e+00
 -3.2758327e+00
 -4.7562560e-01
 -6.1070573e-01
  1.0233246e+00
  1.6428244e-01
 -1.5472661e+00
 -4.2624917e+00
  2.6392887e+00
  5.1285826e-02
 -4.2653127e+00
 -1.0925617e+01
  3.5207992e+00
 -6.6671282e-01
  4.2600737e+00
  6.2522179e-01
  7.0328325e-01
 -1.7647477e+00
  1.4441991e+00
 -1.9554071e+00
  3.1943169e-01
  5.9079286e-02
 -2.5982469e-01
  6.8902817e+00
  8.8653976e-01
 -1.0174056e+00
 -1.3060650e+00
 -6.6398755e-02
 -3.5628089e-01
  2.1872134e+00
 -4.0645676e+00
 -5.9695473e+00
 -3.0047319e+00
 -1.4677150e+01
 -5.7489479e-01
 -3.8528507e+00
  1.0448982e+00
  1.6932923e+00
 -1.1252812e+00
 -4.3449717e+00
  6.6858473e+00
 -1.0586984e+00
  3.0385334e+00
 -1.5098841e+00
 -6.2026095e-01
 -4.4262269e-01
  1.1908239e-01
  1.9000562e+00
 -3.1979203e+00
 -4.6176299e-01
 -1.1341901e+00
 -4.7977886e-01
  7.5434071e-01
 -2.4653624e-03
 -4.3507719e-01
  1.8948473e+00
  6.8441324e-02
  2.5853035e+00
 -1.0216431e-01
  1.1679280e-01
 -8.5970148e-02
 -3.3222176e-03
 -6.5570354e-01
  1.7618762e+00
  5.1934969e-02
  9.9022740e-01
 -1.2046569e-01
  1.2988983e+00
  1.1150726e+00
  1.8058429e+00
  3.7021825e-01
 -2.6031749e+00
  1.7654426e-01
 -4.2368665e+00
 -5.2410686e-01
 -4.4866130e-02
  5.2960858e+00
  1.0169666e+00
  1.4842099e-01
 -2.1841742e-01
 -1.6744569e-01
  4.0994185e-01
  4.7854277e-01
  3.9076073e+00
  5.7450795e+00
 -2.2349601e+00
  1.2247819e+00
  3.8905883e-01
 -1.7916827e+00
  4.9562237e-01
 -4.1168160e+00
  2.5544563e-01
 -6.5397114e-01
  3.3263743e+00
  9.0479958e-01
  3.9399136e-02
  6.3803095e-01
 -8.0457419e-01
  2.9187686e+00
 -1.0131436e-01
 -1.4828409e+00
  1.9369082e-01
 -2.0855992e+00
 -5.9382272e-01
 -1.5591378e+00
  3.3095172e-01
 -1.2841445e-01
  3.1698644e+00
 -1.1167316e+00
  1.8344562e-01
  6.4118522e-01
 -2.2979224e-01
  1.4282863e-01
  2.1126387e-01
 -2.9426122e-01
 -8.3597645e-02
 -4.4580236e-01
 -1.1320547e-01
  9.6139359e-01
 -8.6429976e-03
  2.8335294e-01
  2.2294950e-01
 -4.5459133e-01
 -8.1969500e+00
 -1.8383526e+00
 -8.3408409e-01
 -2.7941978e+00
  4.4139802e-02
 -6.7831367e-01
  2.0985811e+00
  7.1042287e-01
  1.5831285e+00
  1.4819558e-01
  2.0724967e+00
 -1.6727483e-01
 -9.2415816e-01
 -3.2834122e-01
  3.4465308e+00
 -9.7061884e-01
  1.8016356e+00
  4.6941987e-01
 -1.1531492e+00
 -8.4131606e-02
 -5.4415190e-01
 -8.9410849e-02
 -2.4405313e-01
  9.1747785e-01
 -4.6633120e+00
  1.9914893e+00
 -1.5922996e+00
 -7.2644228e-01
  2.6806605e-01
 -3.4970672e+00
  1.7911310e+00
  9.9826297e-03
  3.0566988e+00
  3.8850281e-01
 -4.6197867e+00
 -1.1283251e+00
  4.6166892e+00
 -2.2386219e-01
 -9.9621046e-01
  2.6092428e-01
 -1.3122933e+00
  8.7494147e-01
  6.5815663e+00
  1.0642972e+00
  4.7026879e-01
  2.2698773e-01
 -8.4867942e-01
 -1.5245056e-01
  1.0604135e-01
 -2.5169907e+00
 -2.2185104e-01
  2.8536895e-01
  2.6782590e-01
  2.3419132e+00
 -1.1185333e+00
  1.3228917e-02
  9.2882371e-01
  7.6576531e-01
  3.8863204e+00
  8.3041918e-01
 -4.3297002e-01
 -3.9405928e+00
 -3.4865603e-01
 -1.1913986e+00
  3.8742406e+00
  6.8767422e-01
 -3.8146441e+00
 -1.2463447e-01
  1.5902873e-02
  2.5936303e+00
  4.4810393e-01
  1.3515238e+00
  1.1805110e+00
 -6.2712425e-01
 -3.7877769e+00
 -7.4719489e-01
 -6.8124568e-01
  3.7525719e-01
  7.8270262e-01
 -7.8125346e-01
 -1.1770513e+00
  1.0522573e-01
  1.0415521e+00
 -3.2897420e+00
  3.6297530e-01
  1.2252687e+00
  3.8429580e+00
 -2.4878387e-01
 -1.2992714e-01
  2.2184631e-02
  1.3279341e+00
  9.7997928e-01
  7.5996977e-01
 -2.9196279e+00
  2.3419080e+00
 -9.4011748e-01
 -9.2367649e-01
 -1.3113142e+00
 -1.5766431e-01
  1.0734056e+00
  6.4644474e-01
  4.1688251e-01
 -3.4896187e-02
  8.7689884e-02
 -1.8663082e-01
  3.5068011e+00
  3.6880422e-01
 -4.0841846e+00
  5.0092020e+00
 -4.1121572e-02
 -1.1019764e+00
 -1.7273179e-01
  6.8975120e+00
  6.4254659e-01
  1.0967121e+00
 -9.4767714e-01
  2.2895570e+00
  2.5646526e-01
 -5.9916937e-01
 -4.7282286e+00
 -2.4118643e+00
 -7.5702623e-02
 -6.7821175e-01
  6.8809265e-01
 -3.2255030e+00
  4.7496694e-01
 -4.1379815e-01
  5.7519400e-01
 -2.1029051e-01
 -2.2194183e+00
  1.2046828e+00
  4.4597754e+00
  3.9561060e-01
 -1.2616102e+00
 -1.5138161e+00
 -1.7334701e-01
 -1.0722220e+00
  2.0555851e+00
  4.1443858e-01
 -4.5708160e+00
  4.9079105e-01
 -4.4595246e+00
  2.7971214e-01
  1.1167395e+00
  1.6391094e+00
  7.8904915e-01
  1.1597589e+00
  3.4531796e-01
 -4.1718394e-02
  2.3842987e-02
 -6.0425633e-01
  5.3951484e-01
  4.2039135e-01
 -7.9467893e-01
 -8.5688090e-01
  9.9770031e+00
 -1.5519458e+00
  2.2019660e-01
 -5.3320318e-01
 -1.8556824e+00
  3.2790664e-01
 -1.1604464e+00
 -4.9675131e+00
 -1.7447315e+00
  2.2548033e-01
  1.1896301e-01
 -7.0803314e-01
 -8.3029681e-01
 -3.2408586e-01
 -1.8589987e+00
 -1.0497618e+00
  5.1241195e-01
  6.5684199e+00
 -2.7848417e-02
 -2.5897488e-01
  3.0422809e+00
  2.8912833e-01
 -1.2013803e+00
  8.6727962e-02
 -8.4557348e-01
 -4.4066533e-01
  8.4807336e-01
 -8.3435342e-02
  3.8927998e-02
  1.9891111e+00
 -2.3285656e+00
 -1.8981722e-01
  1.1327074e+00
  1.3791603e-01
  1.1541337e-01
 -1.1489141e+00
 -4.9080727e-01
 -2.9281974e-01
  9.3919450e-01
 -3.0866155e-01
 -1.7930883e+00
 -2.6970819e-01
  1.4914992e+00
  2.3235002e-01
 -1.2736863e+00
  4.9083605e-01
  9.6092755e-01
  7.2345012e-01
  1.1960829e+00
 -4.4690683e-01
  4.9004831e+00
  2.0991173e+00
 -3.5876542e-01
  1.0096607e+00
  1.1823656e-01
 -6.6936558e-01
 -2.8854761e+00
 -9.5154440e-01
 -1.8230216e-01
  1.4309859e-01
 -1.5894644e+00
 -1.9327110e-01
 -1.5313601e+00
 -6.9648808e-01
  1.9116743e-02
  1.9608397e+00
  3.5425413e+00
 -1.8565819e+00
  1.0360888e+00
  2.6013114e+00
 -5.7445300e-01
  1.0152712e+00
  2.2483671e+00
 -2.9675477e+00
  8.1750080e-02
 -1.5380222e+00
 -1.5287319e+00
 -4.8604134e-01
  4.2557386e-01
 -1.3721058e+00
 -3.3542500e+00
 -7.7714694e-01
 -9.7364944e-01
 -4.7458917e-01
  2.8070788e+00
  3.5739326e+00
 -2.0774797e-01
 -5.2138352e-01
 -3.7800151e-01
  1.7543575e+00
 -2.9900224e+00
  2.3484979e+00
  2.9824639e-02
  3.7490192e-01
 -9.2078321e-02
  1.6372048e+00
  1.2015455e+00
 -1.1784693e+00
 -4.0182161e-01
 -1.6507307e-01
  1.0148915e+00
 -2.6538980e-01
  5.2371705e-01
 -5.1125109e-02
  1.7866695e-01
 -3.0166767e+00
 -2.2380557e+00
 -4.8076400e-01
  1.1692152e+00
 -3.5256395e+00
  1.1461393e+01
  2.8111139e-01
 -1.9906238e-01
 -8.8868159e-01
  6.4879155e-01
  3.6876209e+00
 -8.2917899e-01
  1.8677769e+00
  1.5929574e+00
 -2.9312921e+00
 -1.1916207e-01
  6.7070007e-01
 -6.7113125e-01
 -7.2579873e-01
 -3.3869874e-01
 -9.9498856e-01
 -3.2424729e+00
 -1.3692694e+00
  1.9554685e+00
  1.8920034e+00
  6.5838414e-01
  8.6503619e-01
  4.9203865e-02
 -4.4973569e+00
  3.1131642e+00
  4.5311114e-01
 -1.7370965e-01
  1.3119156e+00
 -1.6239300e+00
 -4.1991892e-01
  5.8300108e-01
  7.9739854e-02
  2.0024240e-01
 -8.0078727e-01
 -3.6719374e-02
  3.3290595e-01
  3.4958109e-01
  2.8578213e-03
 -9.1063768e-01
  6.4176798e-01
 -2.0200981e-01
  1.6242430e-01
 -1.6226353e+01
  6.4791638e-01
 -1.0153289e+00
  2.0408747e+00
 -5.1525986e-01
  7.6088357e-01
 -2.1701416e-02
 -4.0253845e-01
 -8.2897145e-01
  7.2113256e+00
 -4.3405470e-01
  5.1899486e+00
 -8.7974221e-01
  2.0268061e+00
  7.0267665e-01
  8.4746790e+00
  2.2091073e-01
 -6.6943355e-02
  6.4644456e-01
 -3.2995684e+00
  3.2430613e-01
  4.2496166e+00
 -3.3003150e-03
  4.5772856e-01
  3.7553060e-01
 -3.0633216e+00
  1.0190157e+00
  8.7697881e-01
  7.2877753e-01
  8.3918971e-01
  7.4352312e-01
  5.9126347e-01
 -1.0796416e+00
 -3.7427756e-01
 -1.4465621e+00
 -9.1483122e-01
 -7.1304744e-01
 -6.5132493e-01
 -6.3949723e+00
 -4.8756969e-01
 -8.6783355e-01
  1.1151295e+00
 -6.8111777e-01
  8.0126005e-01
 -1.0008390e+00
  2.3690689e-01
 -9.1008402e-02
  8.2495183e-01
 -5.0305861e-01
 -1.4130569e+00
 -1.0669395e+01
  1.0566328e+00
 -1.6911659e-01
  6.0384429e-01
 -9.5291358e-01
  1.4334584e+00
 -5.8582168e+00
  6.5699637e-01
  1.1689689e+01
 -2.2005801e+00
 -7.5718170e-01
 -1.0079895e+00
  2.6847308e+00
 -1.8095840e+00
 -4.1860121e-01
 -2.5074334e+00
  1.8739276e-01
 -6.1540373e-02
 -1.1423534e+00
  4.5602536e-01
 -1.5204663e+00
  1.6026063e+00
  8.0136770e-01
 -1.3053685e+00
  2.9251122e-01
  1.1890818e+00
 -1.4709060e+00
  1.9507504e+00
 -6.4417534e-02
 -7.4443097e+00
  4.8867932e-01
 -1.7293330e+00
 -6.0686952e-01
 -5.0926127e+00
  4.4957885e-01
 -7.7418280e-01
 -4.1038871e+00
  1.1773297e-01
 -6.1026669e-01
 -9.6320528e-01
  1.6669172e+00
 -4.8371270e-01
  3.2307863e+00
 -3.6280116e-01
  1.0056692e+00
  8.6783701e-01
 -1.5330015e-01
 -6.6804928e-01
 -2.8348007e+00
  1.1410378e-01
  1.3081785e+00
 -5.3095192e-01
  2.2205667e+00
 -2.3337193e+00
  8.1232089e-01
  1.2847126e-01
  6.8693978e-01
 -1.5168666e+00
  2.7540326e-01
 -7.9552794e-01
  6.7675555e-01
 -2.1078324e+00
  1.1716146e-01
 -6.1347079e-01
  2.8634742e-01
 -9.3599087e-01
 -3.4358147e-01
 -2.6358230e+00
 -5.1563805e-01
  6.2882477e-01
  5.8294334e+00
 -8.2371902e-01
  4.0121298e-02
  8.9518843e+00
  8.5062784e-01
  1.1129671e-02
 -1.0235104e-01
  7.5629973e-01
  8.7712958e-02
  1.6117306e+00
  4.6519451e+00
 -7.2934985e-01
 -1.6322107e+00
 -2.2906623e+00
 -2.0755174e-02
  1.2133320e-01
 -1.9933472e-03
  1.2374685e+00
  3.9100069e-01
 -6.5733600e-01
 -2.8180414e-01
 -1.7531425e+00
 -1.3734341e-01
  4.0941390e-01
  6.3114762e-01
  5.3910311e-02
 -7.5216532e-02
 -1.3679066e-01
 -1.9126741e+00
  1.2285784e+00
  2.3591658e-01
  9.7524554e-01
 -1.4836046e+00
  1.8988384e+00
 -5.8413541e-01
 -7.1380603e-01
 -1.0692741e+00
 -1.7787243e-01
 -2.8745779e-01
 -1.1872088e+00
 -1.4622308e-01
 -1.5349470e+00
 -3.0130484e+00
  2.6383245e-01
 -1.4574989e+00
 -3.0062175e+00
 -4.3190765e+00
  2.4791684e+00
 -1.2355254e-01
  2.6871887e-01
 -2.3445807e-01
  5.4280157e+00
  1.0915406e+00
 -4.6541243e+00
  2.4658234e+00
 -1.4984161e+00
 -4.2027392e+00
  1.1905686e+00
 -1.5095618e+00
  1.2425735e+00
 -1.4621023e+00
  1.8976864e-01
  1.1054115e+00
 -3.3795351e-01
 -1.1436356e+01
  4.3943620e-01
  8.2654560e-01
  5.3215843e-01
  4.0275103e-01
 -4.5017414e+00
 -1.5405002e-01
 -2.2984283e+00
  2.0040791e-01
  5.1344299e-01
  1.3396446e-01
 -1.0297538e-01
  1.5246956e-01
  1.1698198e+00
 -1.6711510e+00
 -1.0507463e+00
 -1.2129154e-01
  1.6432840e+00
  8.4231126e-01
 -4.9220487e-01
 -6.1851699e-02
  9.1980058e-01
 -7.2230738e-01
 -2.0106009e-01
  1.3074911e+00
  2.0471676e-01
 -3.6614358e-01
 -3.0369541e-02
  1.2043984e-01
  5.4455474e-02
 -7.0753455e-01
 -5.0414214e+00
 -3.5552397e-01
 -1.2007401e+00
 -3.1666648e-01
  1.5639946e+00
 -2.0382698e-01
  2.9759341e-01
 -3.5117989e+00
 -8.4835535e-01
 -2.4418758e-01
 -5.3150588e-01
  2.4873102e+00
 -1.2866763e+00
  5.3988469e-01
  1.9589596e+00
 -8.3653533e-01
 -1.4010098e+00
  2.8002675e+00
 -2.2122176e+00
 -1.4096850e+00
  3.1100242e+00
 -4.3091629e-02
 -3.2938004e-01
  2.1154477e-01
  6.5509699e-02
 -2.0513422e+00
  2.7235872e-01
 -8.4264708e-01
  3.2212594e+00
 -1.9958411e+00
  1.2818699e+00
  1.7060546e+00
  6.7952377e-01
 -1.2857010e+00
 -1.8467677e+00
  2.6015520e+00
  2.9248338e+00
 -4.3997521e+00
 -4.8224038e-01
  8.6129658e-02
 -6.5523992e+00
  1.5676282e-01
  3.4304738e-01
 -1.3415320e+00
 -3.2944810e-01
  7.1018809e-01
  2.8693658e-01
 -5.0273581e+00
  1.3818121e+00
 -8.9697665e-01
  2.7033329e-01
  2.5021734e+00
 -1.4241908e-01
 -1.2554239e-02
 -1.5120405e+00
  2.5284300e+00
  4.5698805e+00
  5.8927398e+00
  2.3880019e+00
  1.4469129e+00
 -7.2693151e-01
 -1.6496814e+00
 -2.7252248e-01
  3.4732687e+00
 -4.9014074e-01
  2.5543296e+00
  1.3692663e+00
  1.5201551e+00
  2.1142766e+00
 -1.2109895e+00
 -3.9496164e+00
 -3.0706227e-01
  8.8089603e-01
 -4.5109001e-01
 -1.6158708e+00
 -2.8999648e+00
 -8.1150401e-01
 -2.1206012e+00
  7.6694155e-01
  1.4733975e+00
 -3.6423714e+00
  7.7560596e-02
 -2.7114215e-01
 -2.8668672e-01
  6.3581576e+00
 -2.4009453e-01
 -2.3370421e+00
  1.1274277e-01
  6.2711535e+00
  1.0671486e+00
 -1.0415802e-01
  6.6593093e-01
 -8.2344735e-01
  1.9829307e+00
 -6.9520003e-01
 -5.9075379e-01
  3.8548172e+00
  8.6941773e-01
  4.0093503e+00
  1.8473216e+00
  5.7369620e-01
  5.1736742e-01
 -6.4456863e+00
  1.1470175e+00
 -1.2021858e+00
 -2.6140103e-01
  3.4238908e+00
 -1.0397366e+00
 -1.6216128e+00
  1.9136153e+00
  6.3187607e-02
 -6.8109679e-01
 -2.0430866e-01
 -7.0033282e-01
  3.1082126e-01
 -1.0546955e+00
  1.5121419e+00
 -1.3148525e+00
  2.7622049e+00
 -8.6097031e+00
  6.3318753e-01
 -6.3379169e-01
 -6.9014855e-02
 -4.3608525e-01
 -1.1436577e+00
 -1.1851672e-01
 -2.0904706e+00
 -2.6240520e+00
  1.9457623e+00
 -7.4241954e-01
  6.8827373e-01
  1.0290047e+00
 -1.6390100e-01
  1.4473279e+00
 -3.4610391e+00
  1.1524550e+00
 -1.9467697e+00
 -1.4799425e-01
 -3.7033185e-01
 -5.0906914e-01
  1.8798900e+00
 -1.5456405e+00
 -3.6460013e+00
  2.6495525e-01
  6.4074850e-01
 -7.2609437e-01
 -2.9359478e-01
 -6.3177836e-01
 -2.7558203e+00
  2.6179084e-01
 -2.6247525e-01
 -1.6903101e+00
  8.2514076e+00
 -9.1329300e-01
  2.1039741e+00
  9.1741270e-01
 -9.7356856e-01
  6.7988461e-01
 -4.6142933e-01
  5.7554698e-01
  1.5614911e+00
 -2.4825807e+00
 -9.5345563e-01
 -1.1636270e+00
 -5.2680761e-01
  7.5727528e-01
 -1.7911211e+00
 -2.7669138e-01
  7.5058448e-01
 -2.0925593e+00
  5.6901175e-01
 -3.4049171e-01
  1.7403889e+00
 -7.2031746e+00
  1.6511402e-01
  1.2627414e+00
  9.4371289e-01
  1.8023747e+00
  4.9973693e-01
  3.7488319e-02
 -9.4989640e-01
 -3.1001228e-01
  1.4941753e-01
  8.8886231e-01
 -1.2756954e+00
  2.7408352e+00
  3.8269961e-01
 -1.7383282e-01
  4.2811815e-02
 -1.9570879e+00
  3.6528769e-01
  1.0832772e+00
  5.6182390e-01
 -2.4799250e-01
 -1.1327022e-01
  1.5450199e+00
  6.6192526e-01
  5.9641248e-01
 -9.5283049e-01
 -7.3889142e-01
 -1.9693292e+00
  5.6650603e-01
  1.9758847e+00
  1.0839020e+00
 -1.7275424e+00
 -1.4359057e-01
  1.6154500e+00
  2.1219873e+00
 -1.1068501e+00
 -2.0283803e-01
 -4.9175844e+00
 -2.1271348e+00
  3.3830509e-01
 -5.5265045e-01
  6.3028038e-01
 -8.7182385e-01
 -4.2901549e+00
 -6.9308990e-01
  7.3340616e+00
  2.6559019e-01
 -3.9024231e+00
 -3.9089301e+00
 -4.5215800e-01
 -3.7717035e-01
  7.1140385e-01
 -8.0720371e-01
 -2.2165289e+00
  4.3751230e+00
 -9.4342834e-01
  6.6161156e-01
 -1.0664837e+00
  5.6690866e-01
  9.0647364e-01
  3.0264463e+00
  4.2152658e-01
  2.8519303e-02
 -3.1834302e+00
 -3.3464813e-01
  4.0492341e-01
 -1.1369629e+00
  5.2739072e+00
 -2.4964127e-01
 -3.6627296e-02
 -8.6217338e-01
 -3.3724257e-01
 -2.1193279e-01
 -5.3240075e+00
 -2.3390733e-01
 -1.2196936e-01
  8.6210465e-01
 -2.3394608e+00
 -4.2737117e+00
 -5.4326040e-01
 -9.6993297e-02
  5.9333693e-02
 -5.0243616e-01
 -2.3670043e-01
  1.9782155e+00
  2.0126662e+00
  6.9090146e-01
 -1.1431745e+00
  9.5938492e-01
  1.0020744e+00
 -1.9726175e-01
  1.2457135e+00
 -5.0927715e+00
  3.1835669e-01
  8.0361491e-01
  5.5842853e-01
 -2.2877746e+00
  1.4941651e+00
  4.6850781e+00
 -6.3616210e-01
  1.0525229e-01
 -4.3685699e-01
 -2.7779281e-01
  8.1421494e-01
  9.3378901e-01
 -5.5037344e-01
 -1.1620911e+00
 -6.7686677e-01
  4.7027290e-01
  3.0834571e-01
  6.5580297e-01
  4.8441526e-01
 -6.8934965e-01
  1.4939876e-01
 -1.3634703e-01
 -2.4379130e-02
 -4.7553787e+00
 -2.1620426e-01
 -1.8254726e+00
  8.8357288e-01
 -5.0177056e-01
  1.0463044e-02
  7.1581274e-01
 -3.1435871e-01
 -2.6470792e-01
  8.6566997e-01
 -6.3690491e-02
 -1.0325365e+00
 -3.8129079e+00
  2.3100276e-01
 -3.5212841e+00
  3.7632743e-01
  3.5537665e+00
  3.2833517e+00
 -6.1409521e-01
 -3.2085493e+00
 -1.3107752e+00
  4.9924263e-01
 -4.8959158e-02
 -6.4793730e-01
 -4.8198595e+00
 -3.8359922e-01
 -2.3243771e+00
 -1.3687769e-01
  1.5833923e+00
 -1.3296263e-02
 -8.2339114e-01
 -1.3952123e+00
  2.5555615e+00
 -3.1967926e-01
  4.9088370e-02
  7.2842817e+00
  4.4633484e-01
 -2.4142666e-01
 -7.0736909e-01
 -2.0172177e-01
 -3.2356074e-01
 -2.6869819e+00
  4.5698934e+00
  7.6014823e-01
 -2.3908702e-01
 -9.2590892e-01
  2.2958069e-01
  3.4596925e+00
  2.0496757e+00
 -4.6103463e+00
  2.6365569e+00
  9.5788664e-01
  2.7115056e-01
  1.1467799e+00
 -4.1905501e-01
 -6.5903792e+00
 -9.9685663e-01
 -4.1261206e+00
  1.2321318e+00
 -6.2286714e-04
 -6.3251823e-01
 -3.0235714e-01
 -6.4110589e+00
  4.5475730e-01
  1.8752693e-01
 -1.0627986e+00
  1.4251814e+00
 -3.6854091e+00
 -1.9743297e-01
  1.5884950e+00
  9.8210704e-01
  3.2504693e-01
  8.9706397e-01
 -7.5549394e-01
 -9.1099985e-02
 -1.3827405e+00
  5.5808157e-01
 -9.8692048e-01
 -2.5185711e+00
 -1.8601937e+00
 -2.5213299e+00
 -3.2866514e+00
  2.5337145e+00
 -5.3581862e+00
  3.7691402e-01
  1.6854611e-01
 -2.5296769e+00
 -2.4637482e+00
 -5.1772374e-01
  7.1089649e+00
 -1.7800643e-01
 -4.3201470e-01
  1.3591481e+00
  8.4486496e-01
  2.6996195e-01
  1.0315224e+00
  1.0717071e+00
 -9.2034990e-01
 -1.2302854e+00
  2.6664877e-01
 -1.0129951e+00
 -7.8502369e-01
  2.2570615e+00
  1.3614521e+00
  6.8155363e-02
  1.8185458e+00
  6.6552359e-01
 -5.8236319e-01
 -3.0454760e+00
 -1.7132502e+00
 -1.6927873e+00
  1.0347080e-01
 -2.9155305e-01
  8.7345444e-02
  9.9287138e+00
  2.3055784e-01
 -1.0578507e+00
 -1.4613914e+00
  6.0847521e-01
 -6.6769429e-02
  9.0117669e-01
 -4.5508489e-01
  8.8974833e-01
 -4.2137146e-01
 -8.8775289e-01
  5.0935245e+00
  5.8037901e-01
  9.6207160e-01
 -3.8974993e+00
  3.1059143e-01
  1.1115763e-01
 -6.4719117e-01
  2.4220538e+00
  7.5972819e+00
  7.6747804e+00
  2.6368654e-01
 -1.3342043e+00
 -1.7130077e+00
  2.3769236e-01
 -2.1601794e+00
 -4.8716950e+00
 -1.1058266e+00
  4.1646119e-02
  7.2044677e-01
  6.5267569e-01
 -1.7465341e+00
 -1.2486962e+00
 -4.5216757e-01
 -2.3048840e-01
  9.8815924e-01
 -6.9085822e+00
  7.3791975e-01
 -1.7199993e-01
  9.3967929e-02
 -2.1619811e+00
  3.6656616e+00
 -3.7473452e-01
 -2.4200368e+00
 -7.5294237e+00
  4.8444581e+00
 -1.2861507e-01
  9.1562760e-01
 -1.0206654e+00
 -6.5843167e+00
 -1.3205338e+00
  1.8416592e+00
 -4.6116266e-01
 -1.9482272e+00
 -5.5534906e+00
 -6.6312141e+00
 -2.1997745e+00
  5.8308270e-02
  2.6838326e+00
 -3.2592726e+00
 -8.4295046e-01
 -3.5079460e+00
  1.1559258e+00
 -1.0292252e+00
 -1.0579040e+00
  3.6656210e-01
 -2.1428916e+00
  5.5039428e-02
 -5.6173813e-01
 -4.0259762e+00
 -1.1702633e+01
  3.8665861e-01
 -4.9179909e-03
  1.4961666e+00
 -2.3247246e-02
  1.4941674e+00
  4.0378281e-01
 -2.4584122e-01
 -1.4374620e+00
  6.4045894e-01
  6.5948658e+00
 -4.0707307e+00
  7.6869142e-01
 -3.2408115e-01
  1.3330061e+00
 -1.9024969e+00
 -2.6053052e+00
 -5.1516777e-01
 -1.4357554e+00
 -2.7795935e+00
 -8.1106794e-01
  8.2866585e-01
 -2.4371350e+00
  1.3546866e+00
 -2.0409482e+00
  2.9815635e-01
  5.3240790e+00
 -5.8765678e+00
 -4.1137125e-02
 -4.4703475e-01
 -1.0450195e+00
 -5.7548213e-01
  1.3538547e+00
 -7.1155107e-01
 -8.8183117e-01
  1.1200168e+00
 -7.5221473e-01
 -2.1930256e+00
  1.6560956e+00
  6.9751102e-01
  7.7169174e-01
 -2.8311872e-01
 -3.6669202e-02
  3.8779104e-01
 -5.3783804e-01
  3.4692805e-02
  2.7636182e-01
 -9.1677904e-01
  1.3710378e+00
  5.0734669e-02
 -3.6557860e+00
  3.8772941e+00
 -6.9317660e+00
  3.9597945e+00
  4.5158033e+00
  1.3364555e+00
  7.7733927e+00
  6.3375888e+00
  2.8749436e-01
  4.9666162e+00
 -8.4052257e-02
  1.4644716e+00
  1.5580801e+00
 -1.0262747e+00
  3.3058593e+00
  7.0504874e-01
 -4.4026518e-01
 -9.0158075e-01
 -1.4786887e+00
 -2.0098364e-01
  1.0875288e-01
 -2.0150833e+00
  4.0442121e-01
 -3.7796984e+00
 -4.3337971e-01
  1.5388728e+00
 -1.0698400e+00
  4.3024149e+00
 -8.3395380e-01
  4.7825328e-01
 -1.8846373e-01
  1.6601540e-01
  2.0146632e+00
  6.1125129e-01
  1.2848431e-01
  1.6942633e+00
  3.8784170e+00
 -6.5263283e-01
  8.9923638e-01
  1.1749209e+00
  1.0507994e+00
 -6.4455434e-03
  2.7333805e-01
 -3.4347906e+00
  2.4702218e+00
 -4.7695475e+00
 -1.7442061e-02
 -4.1842946e-01
  5.5718393e+00
 -2.6783842e-01
  1.6345054e+00
 -8.2466029e-02
  2.0151137e-01
 -6.9816723e+00
 -1.2073916e-01
  1.3688352e+00
 -8.0170172e-01
 -7.5919396e-01
  7.2685891e-01
  4.0645161e+00
  8.5485566e-01
 -1.8135485e-01
  1.2882740e+00
  1.4821981e-01
 -1.0584794e+00
 -1.0362157e+00
  1.3765921e-01
 -1.2765770e-01
 -2.0661190e+00
 -4.8259223e-01
 -1.2087479e+00
 -1.0590950e+00
 -1.7802250e-01
 -1.9681110e+00
  9.5705217e-01
 -1.2284478e+00
 -6.3247681e-01
  1.4318210e-01
 -2.2277031e+00
 -3.2434640e+00
  7.6161367e-01
  1.0715198e-01
 -5.5297917e-01
 -2.9352623e-01
  7.4818805e-02
 -3.4939489e+00
 -4.0763831e+00
 -3.7839878e-01
  4.1664189e-01
 -1.3516338e-01
  1.2463573e+00
  4.9154183e-01
 -5.1325977e-01
  3.0267623e-01
  1.0708230e+00
  4.0338254e-01
 -1.5185694e-01
 -4.2762589e+00
 -2.3154624e+00
  1.4826109e+00
  6.3318706e-01
  8.6763537e-01
  3.8324560e-03
  6.7427874e+00
 -2.2701614e-01
  5.1469857e-01
 -1.2185507e+00
  3.3397813e+00
 -7.9261822e-01
 -1.3242697e+00
 -5.6153819e-02
  2.2070558e-01
  3.6305215e+00
  1.5761788e+00
  8.3995646e-01
  2.5118569e-01
 -1.0322744e+00
 -3.4274678e+00
 -3.8084800e+00
  2.9739299e+00
  1.3232386e+00
 -1.7553018e+00
 -1.3643070e+00
  1.8843362e+00
  6.2665617e-01
  4.5615575e-01
 -2.3837893e+00
 -3.8491789e-01
  1.1127582e+00
  1.0033057e+01
  2.1629717e+00
  5.1344192e-01
 -3.2485721e-01
  1.4087797e+00
  3.4789116e+00
 -1.0862774e+00
 -9.3957126e-01
  8.3588105e-01
 -1.3738590e+00
 -1.6909277e+00
 -4.0175211e-02
  6.8206385e-02
  3.2586330e-01
  1.3242728e+00
  1.8171991e+00
 -3.3816075e-01
 -9.4461089e-01
 -9.9357146e-01
 -2.3903160e+00
  3.7491200e+00
 -1.2002999e-01
 -6.7031723e-01
 -2.9300746e-01
  1.8236947e-01
 -3.0245144e+00
  8.8445807e+00
  5.7604611e-01
  6.3119383e+00
  3.0833828e+00
 -1.7287862e-01
 -9.6825816e-02
 -1.6822153e+00
  1.8366459e-01
 -3.6487088e+00
 -5.2365195e-02
 -2.5220898e-01
 -7.2831416e+00
  3.6298889e-01
 -1.8740215e+00
 -2.2974889e+00
  6.7125149e+00
  3.1894300e+00
 -3.2916791e+00
 -1.3532951e-02
 -5.7837063e-01
 -6.0132933e-03
 -1.6959703e+00
  1.6820947e+00
  1.2480912e+00
 -1.0085528e+00
  7.8160483e-01
  1.5325621e-01
 -3.0994725e+00
  7.7404566e-02
  4.1399417e+00
 -1.1143718e+00
  9.8054761e-01
 -3.5627633e-01
 -1.5868230e+00
  4.8047584e-02
 -1.4797359e+00
  2.5964441e+00
 -4.2325556e-01
 -6.9309396e-01
  6.1432593e-02
  1.2540994e+00
 -5.5696754e+00
 -4.3975195e-01
 -5.7791896e+00
 -4.2113297e-02
 -3.3343565e-01
 -1.7558531e+00
 -2.8198713e-01
  1.8910785e+00
  4.9742976e-01
 -6.7929828e-01
  2.9093331e-01
 -1.4711818e+00
  3.8072902e-01
 -2.1359506e-01
  5.6765091e-01
 -9.8772979e-01
 -1.3579247e+00
 -7.6856196e-01
  2.1287394e+00
  2.0548995e+00
 -1.4385641e+00
 -4.8648560e-01
 -1.0877792e+00
 -1.4444506e+00
 -5.7785505e-01
 -1.2369031e-01
  7.7238238e-01
 -3.7100024e+00
  2.0081537e+00
 -1.1949296e+00
  1.8455089e+00
  1.4182663e-01
  3.3765423e+00
 -8.4801757e-01
 -1.7227377e+00
 -2.6062471e-01
 -9.1564558e-02
  1.5346271e+00
  5.5405068e-01
 -9.7417301e-03
 -7.8500378e-01
  8.8362968e-01
 -1.6941316e+00
  6.6535568e-01
 -1.2719275e+00
  9.8326647e-01
 -1.9555496e-01
 -2.2400756e+00
  1.1444145e-01
  7.3025674e-01
  3.7183961e-01
  5.7759368e-01
 -4.1122136e+00
 -1.1560560e+00
  6.7926073e+00
  1.7917402e-01
  2.9762751e-01
  1.3258233e+00
 -4.4698200e+00
  5.3370524e-02
 -2.0452116e+00
 -1.3654668e+00
  3.3188528e-01
 -1.4366186e-01
  9.3422747e-01
  2.3586397e-01
 -1.2027569e+00
  3.5510322e-01
  5.1301606e-03
  3.4892851e-01
 -9.3592319e+00
  6.3870674e-01
  5.7321796e+00
  1.1355788e-01
 -5.4794903e+00
 -2.7008843e+00
 -9.6271032e-01
  7.8124434e-02
 -9.3240243e-01
 -1.8288215e+00
 -4.5601109e-01
  1.5069114e+00
  2.2507596e-01
  4.9481300e-01
 -2.7021651e+00
  2.1175145e-01
 -7.0931450e-02
  1.3434834e+00
 -1.5899025e+00
 -2.1404143e-01
 -3.2401991e-01
 -3.0242865e+00
 -4.8101580e-01
 -3.5280652e-02
  5.8215082e-02
  3.4084529e-01
 -5.6414527e-01
 -2.8114000e-01
  1.8220560e-01
  1.7051682e+00
  2.3626332e+00
 -4.1650242e-01
  8.2884640e-02
 -1.5259398e+00
 -9.1854894e-01
  1.1351956e+00
 -4.6072838e-01
 -1.0919425e-01
 -2.2103879e+00
  1.6330919e+00
  2.7209345e-01
  2.2424119e+00
  5.7708490e-01
 -1.7411789e-01
  3.0827039e-01
  5.5996889e-01
  7.5434551e-02
 -5.1879221e-01
 -2.7437465e+00
  1.7376684e-01
  1.0462823e+00
  2.5026068e-01
 -3.1906898e+00
  1.3104061e+00
  2.4109332e-01
  3.1329047e-02
  2.7489275e-01
  5.6738839e-02
  1.4398024e+00
  5.7720810e-02
 -8.7677434e-02
  1.9304599e-01
  1.2736149e-02
  2.4810998e-02
 -1.2506852e+00
  8.6404657e-01
 -1.2304776e+00
 -3.5603800e+00
 -2.6997687e-02
  1.1007113e+00
 -2.6459607e-01
 -1.4176144e-01
 -6.5182936e-01
  1.1669886e+00
 -5.6105588e-02
  3.4718242e-01
  1.4683547e+00
 -1.0515610e+01
  4.0811637e-01
 -8.7612498e-01
  3.2879736e-02
 -7.7562773e-01
 -1.5360430e+00
  1.1526607e+00
  5.2337658e-01
  1.2809284e+00
  5.7181710e-01
  8.2658368e-01
 -2.1491289e+00
 -1.8748853e+00
  4.2920837e+00
  5.8959413e-01
  1.6769992e+00
  3.3407992e-01
  3.3923275e+00
 -2.0836994e-01
 -6.0755628e-01
  1.9243133e+00
 -4.6225250e-01
  1.7069871e+00
  7.4989414e-01
  2.1013238e-01
 -4.6268061e-01
 -4.5828667e+00
 -4.8081532e-01
  4.5022401e-01
 -2.6054701e-01
  5.9032142e-01
 -1.2932789e+00
  4.8957565e-01
  1.6816947e+00
  3.7368724e-01
 -4.1761559e-02
 -3.1488374e-01
 -7.5957769e-01
 -1.7398608e-01
 -1.2837611e+00
  7.4047165e+00
 -2.1020987e+00
  6.4903088e+00
  4.2767569e-01
 -1.9043027e+00
 -4.2046374e-01
  1.2615405e+00
  2.3272376e-01
 -9.9659598e-01
 -7.6100171e-01
 -1.6078432e+00
  2.4472952e-01
  6.4291054e-01
 -2.4251397e+00
 -1.5611513e-01
  2.9657267e-02
 -1.8377680e-01
  5.1742959e-01
  5.8851904e-01
 -1.2218029e+00
 -1.1129342e+00
 -1.5660105e+00
 -1.3758978e-01
  3.5737193e-01
  2.6191947e+00
 -3.0269665e-01
  2.8868682e+00
 -1.3191750e+00
 -7.3210871e-01
 -5.1780353e+00
  2.2766019e-01
 -1.4053576e-01
  2.5790076e+00
 -1.5176208e-01
  9.0022786e-03
  4.4887266e+00
  6.1448526e-02
  8.9989245e-01
  5.7090127e-01
 -2.3320252e-01
 -2.9694235e+00
  2.5380456e+00
  9.1113716e-01
  5.5717655e-02
 -1.4801918e-01
  5.7202649e-01
 -9.9887311e-01
 -6.7342192e-02
 -1.2431213e+00
 -6.1966962e-01
 -3.1166020e-01
 -2.8280404e+00
 -7.7024233e-01
  1.5432818e-01
 -8.1144907e-02
  4.6934500e+00
 -4.3998890e+00
  1.4268091e-01
 -3.0193442e-02
 -5.6280178e-01
 -3.3611953e+00
  1.0750583e+00
  3.5833386e-01
 -2.4711714e+00
 -3.6028686e+00
 -1.5816778e+00
 -2.8211045e+00
 -2.5696930e-01
  1.0330011e+00
 -2.7051671e+00
  6.3206929e-01
 -1.6821263e+00
  8.0803323e-01
 -6.3991137e+00
 -1.2622400e-01
  2.1826483e-01
 -3.3988643e+00
  1.2549320e-01
 -1.1715259e-01
  9.9516428e-01
 -3.8258338e+00
  1.9483285e+00
  1.8452413e+00
  1.1069568e+00
  7.0128846e-01
 -2.9959657e+00
 -5.3625646e+00
 -2.7688199e-01
  4.9978516e-01
 -2.3286500e+00
  1.5572577e-02
 -1.2396862e-01
 -3.1772175e+00
 -1.7054965e+00
 -5.9111643e-01
  2.3359995e+00
 -5.1297207e+00
  7.0350542e+00
 -8.3436298e-01
 -1.3893558e-01
 -4.9688587e-01
  2.0411444e-01
 -1.0136639e-01
  2.8369379e+00
  9.1784990e-01
  5.3992147e+00
 -4.2332172e+00
  7.9209337e+00
 -1.7721532e-01
  2.1568957e-01
 -1.2274818e+00
  2.5341854e+00
 -8.9415622e-01
  2.1407480e+00
  3.2845719e+00
 -3.0251453e-02
 -3.3878863e-01
  1.6226448e+00
  1.0666164e+00
 -4.5722792e-01
 -1.3199389e+00
  2.1550807e-01
  1.7713878e-01
 -9.1468346e-01
  3.2724481e-02
 -7.2206366e-01
 -5.9434438e+00
  6.7081407e-02
  4.1699610e+00
 -4.2401978e-01
  7.8050011e-01
 -2.2173758e-01
 -6.6450012e-01
 -4.8024300e-01
 -3.2833880e-01
 -8.2894535e+00
  7.2027820e-01
 -2.0650346e+00
 -2.7729058e+00
 -7.9886609e-01
 -1.0098407e+00
  1.5224682e-01
 -8.1145525e-01
  1.5030599e+00
 -6.5110296e-01
  3.7628736e+00
  1.3674651e-01
 -7.4592628e-02
  2.3184876e+00
 -1.6961491e+00
 -4.7128507e-01
 -6.9330710e-01
  1.2428260e-01
 -6.4943123e-01
 -6.5773571e-01
  2.4562132e+00
 -1.3012505e+00
 -6.8606198e-01
  6.4239061e-01
 -3.1316817e-01
  7.1674722e-01
  3.9473072e-01
 -2.8863223e+00
  3.3965228e+00
 -1.3887336e+00
 -1.6634662e+00
 -4.3733945e+00
  6.2835608e+00
  1.7415293e+00
  9.8750907e-01
 -2.3305835e-01
  7.4297708e-01
  3.2683578e+00
 -3.4071743e-01
  8.4003997e-01
 -2.9280150e+00
 -1.2330262e+01
 -5.0450425e+00
  4.6281667e+00
 -1.2554330e-01
  6.1457157e-01
 -9.3901217e-01
  1.4041115e+00
 -1.1218128e+00
 -1.9667445e-01
 -1.4532143e+00
 -1.1421353e+00
 -6.3803120e+00
  2.9359443e+00
  7.1652323e-01
 -1.7868911e+00
 -4.6556225e-01
 -2.7026639e+00
 -2.2242417e+00
  3.9734107e-02
  1.6498247e+00
 -1.9381239e+00
  2.3908410e+00
  1.2256554e+00
 -2.9431930e+00
 -2.8097279e+00
 -2.2131047e+00
 -2.8756573e+00
  7.7649343e-01
  2.7502878e+00
  3.6246929e+00
  3.7061885e-01
  9.3507987e-01
 -4.4634132e+00
  1.6603386e+00
  8.1328130e-01
  1.3019956e+00
 -7.1444772e-02
 -7.0789433e-01
 -7.3276907e-01
  4.7530031e-01
 -1.1766440e+00
  8.0124307e-01
  8.4823817e-01
  4.2700875e-01
  1.8353628e+00
 -1.3963480e+00
 -1.5429406e+00
 -5.2227588e+00
  1.2429143e+00
 -2.6518414e+00
  2.2573445e-02
 -1.6664298e-02
  2.9625705e-01
 -9.5313466e-01
 -6.5597963e+00
  1.1233659e+00
  1.5800847e+00
  5.8266785e-02
  7.8155780e-01
 -5.0973886e-01
  9.9077009e-02
  5.2349317e-01
 -1.5368253e+00
 -3.0598297e+00
 -3.7106052e-01
 -1.8338980e-01
  8.9131892e-01
  9.7170973e-01
 -2.5358927e-01
  7.5614464e-01
 -4.4644899e+00
  7.0577741e-01
  2.7544127e+00
  4.9852967e-01
 -1.1051641e+01
 -1.3537008e-01
  5.8648831e-01
 -5.4636538e-01
 -3.2198545e-01
  3.7716298e+00
  9.5834059e-01
  9.6446872e-01
 -2.2965245e-01
  1.7250101e-01
  5.8265370e-01
  1.8915981e-01
 -3.8917077e-01
 -2.0806457e-01
  1.3982958e+00
 -3.6589148e+00
 -5.6279364e+00
  3.5024140e-02
  2.1995752e+00
  1.8064828e+00
 -3.5079589e-01
  3.5101271e-01
 -2.0697600e-01
  8.1298548e-01
  3.1632495e-01
  5.6579661e-02
 -8.1918687e-01
 -1.6679288e+00
 -2.3171705e-01
  5.9784341e-01
  6.2468755e-01
  9.0122551e-01
 -4.0196577e-01
 -7.8602419e+00
  4.2592207e-01
 -6.5508399e+00
  4.5164052e-01
  2.5596242e+00
 -7.9210952e-02
 -5.9574908e-01
  1.0590758e+00
 -1.0968099e+00
  8.5299969e-01
  3.7299830e-01
 -1.9111841e+00
  1.1397493e+00
  4.6456671e+00
 -1.9229281e+00
 -5.5233485e-01
  2.7983830e+00
 -4.6807224e-01
 -3.0418983e+00
  1.9623469e+00
  4.9515119e-01
 -1.7457905e+00
  2.8968866e+00
  4.4914436e-01
  6.0265458e-01
  2.7593991e-01
  9.9977839e-01
 -1.2179537e+00
  4.7788179e-01
  9.9105918e-01
  1.7858651e+00
  8.9575589e-02
  3.4223437e+00
  2.9698345e-01
  5.2166802e-01
 -2.2571101e+00
  2.1205981e+00
 -1.3002982e+00
 -6.7363851e-02
 -7.6520801e-01
  1.0455697e+00
 -1.7812008e-01
 -3.2558802e-01
 -1.6365325e+00
 -2.1290815e-01
 -1.1268535e+00
 -2.3032263e-01
 -6.0107356e-01
 -1.0535047e+00
 -5.9853211e-02
 -5.3576745e-02
  7.6149255e-02
  1.1588846e+00
 -1.0406816e+00
 -5.7219524e+00
  8.4460316e+00
 -4.8430449e-01
 -1.3718586e+00
  8.7776375e-01
  7.0105857e-01
  3.6863977e-01
  4.6206400e-01
 -2.4449500e-01
 -1.5429901e+00
 -5.8709335e-01
 -1.2464459e+00
 -9.3728745e-01
  1.4263161e-01
 -1.5800226e+00
 -6.6272609e-02
 -4.2419446e-01
 -2.4921863e+00
  1.6038432e+00
 -3.3307662e+00
  2.1706985e-01
 -4.4488320e-01
 -4.5175487e-01
 -2.8642437e+00
  4.8832944e-01
 -2.3560340e+00
 -2.3364677e+00
  2.5138566e+00
 -4.9842328e-01
 -2.7776879e-01
 -7.3289716e-01
 -8.6220092e-01
 -3.0404775e+00
 -5.3407669e+00
  7.0379101e-02
 -1.7677118e-01
  6.1572349e-01
  1.1319485e+00
  1.6567668e-01
 -2.5322711e+00
 -3.9111266e-01
  2.9626647e-01
 -2.7256141e+00
 -4.3041639e+00
 -9.6584898e-01
  1.7982075e-02
 -1.2370096e-01
  6.2287178e+00
 -1.3794283e+00
  1.8644379e+00
 -2.8674579e-01
 -2.8837991e-01
 -1.9083658e+00
 -5.7786638e-01
 -1.3769672e+00
 -7.7155381e-02
 -2.3405485e-01
  8.0432856e-01
  1.4607164e-01
  6.9308269e-01
  1.8861634e+00
  1.5441221e+00
 -5.1954927e+00
  1.8930823e-01
 -4.4004631e+00
  8.5073197e-01
  1.0923223e+00
 -1.0467118e-01
  1.4887053e+00
 -1.1682886e+00
  5.5107188e-01
  1.4951286e+00
  2.1913995e-01
  1.1348898e+00
  7.2857678e-01
 -4.0148035e-01
 -1.3548927e-01
 -8.5497828e+00
  2.6100445e+00
 -7.6416206e-01
  4.6255890e-01
 -9.3313032e-01
 -2.2665350e+00
 -1.6472280e-01
  2.1557930e+00
 -7.3865831e-01
 -2.2301064e-01
 -9.5672831e-02
  7.9844499e-01
  8.7017322e-01
 -1.6234685e+00
  1.8021165e-01
 -1.0278871e-01
 -7.7543998e-01
  1.0556985e+00
  1.5158109e-01
 -4.5161338e+00
 -1.6511503e-01
  2.3958824e+00
 -1.4380439e-01
  1.0944453e-01
  8.6345381e-01
  4.3494782e-01
 -4.9907336e+00
 -5.8369102e+00
 -3.4441936e-01
 -1.9595416e+00
  5.3047252e-01
  2.4051692e+00
 -8.7643892e-01
  6.5262783e-01
 -8.6976653e-01
 -7.3778766e-01
  3.0587082e+00
  2.7749863e+00
  2.9810557e-01
  2.2756228e+00
 -5.2308655e-01
  3.9176938e-01
 -1.6095891e+00
  3.0338520e-01
 -2.2101128e+00
  1.7819393e-01
  1.5149908e+00
  6.0797870e-01
 -3.2602131e+00
 -1.3018376e+00
 -3.2740912e-01
 -8.3690679e-01
  2.1748345e-01
 -5.3498268e-01
 -7.9908907e-01
  2.4584550e-01
  4.1739693e-01
  1.4584595e+00
  2.2805007e-01
  1.2498690e+01
  2.3099582e+00
 -1.9302514e+00
  5.3673711e+00
 -2.1819658e+00
 -1.5533415e+00
 -5.4938257e-01
  8.4830329e-02
  6.3016601e-02
 -4.0551991e+00
  1.1622012e+00
 -8.5690451e-01
 -2.9340093e+00
 -6.0726303e-01
  8.9844555e-01
 -6.5877285e+00
 -1.3298621e+00
 -1.2595229e+01
  1.2452143e+00
 -4.4957310e-01
  1.0600505e+00
  1.5750572e-02
  3.2732787e+00
 -5.7635075e-01
  6.9345295e-02
 -2.7812472e-01
 -2.5850415e+00
  6.2492651e-01
  5.0102210e+00
  9.0097111e-01
  1.0999732e+00
  1.8746413e+00
 -8.7862253e-01
 -3.5446620e-01
  1.3261871e-02
 -4.8056245e-02
  9.5801574e-01
  7.3018169e+00
 -3.1467006e-01
 -1.8000032e+00
  6.5997028e-01
 -3.0448380e-01
 -6.8781471e-01
  1.5632859e+00
  1.3546504e+00
  2.5009265e+00
 -4.2488147e-02
 -3.6848867e+00
 -2.1203895e+00
 -2.5501537e-01
  6.0592946e-02
 -1.5133132e+00
 -9.2810470e-01
 -1.5446776e+00
 -2.9716730e-01
  2.4402285e-01
  7.6408982e-01
  1.1936713e+00
  1.5650156e+00
 -2.1162441e+00
 -7.0910540e+00
  2.1190898e-01
 -9.4703592e-02
 -2.4064358e-02
  6.1150048e-02
 -1.0069712e+00
 -5.6024537e+00
  3.7512484e-01
  1.1859484e+00
  3.7411898e-01
  6.6826695e-01
  1.8883946e+00
  6.5371007e-01
 -1.4648350e+00
  1.4415460e+00
 -1.4343962e-01
  1.9333407e+00
 -5.1018519e+00
  5.2832252e-01
  6.7613548e-01
 -1.5898962e+00
 -1.1662114e+00
 -6.2099922e-01
  1.6198068e+00
 -7.9472378e-02
  5.4854816e-01
 -5.2975309e-01
  8.4180617e-01
 -2.9536036e-01
  3.3561313e+00
 -1.9822861e-01
  6.8566775e-01
 -3.2746917e-01
 -3.2705598e+00
  1.5435510e+00
 -7.1605498e-01
  1.2927984e-01
 -1.5144248e+00
 -1.2482809e+00
  4.0237129e-01
  2.9214424e-01
  1.8382576e+00
  1.3038534e+00
 -1.7869709e-01
  4.5999214e-01
 -4.9286523e-01
 -1.7376770e+00
 -4.7778890e-01
  1.1723182e+00
 -1.6444212e-01
 -5.4336980e-02
 -1.6588169e-01
 -1.9149241e+00
  9.0409130e-01
 -1.1138083e+00
  9.4629830e-01
 -1.2061020e+00
  3.2280266e-02
 -9.8803687e-01
  1.8062980e-01
 -1.5627375e+00
  2.1616023e+00
 -3.2635263e-01
  1.9762565e-01
  1.2079258e-01
 -8.9174235e-01
  2.2442477e+00
  3.3866599e-01
 -1.8467518e+00
  9.1953611e+00
 -2.0096433e-01
 -2.5717788e+00
  1.0918823e+00
 -4.0652318e+00
  1.1654555e+00
 -4.5953202e+00
  3.1284533e-02
 -2.6948686e+00
 -1.5759424e+00
 -1.8588020e+00
  2.1093392e+00
 -9.0967101e-01
 -5.4728422e+00
  1.7787400e+00
  7.7791274e-01
 -5.3390020e-01
  4.3711610e+00
 -3.0531261e+00
 -2.1677980e+00
  1.3538675e+00
 -6.2632132e-01
  1.4577743e-01
 -1.7128078e+00
 -6.1544013e+00
  5.3103077e-01
 -4.1310205e+00
 -9.0286674e+00
 -3.1582507e-01
 -9.2667598e-01
 -3.6554199e-01
  1.0231335e+00
 -3.3315873e+00
 -2.6609137e+00
 -2.4008965e+00
 -1.5714531e-01
 -2.1260879e+00
 -3.7152274e+00
 -2.0833340e+00
  1.7895002e-02
 -4.0970415e-01
  2.4781282e-01
  6.7652124e-01
  8.6127913e-01
 -1.7305218e+00
  2.1830261e+00
 -3.1609325e+00
 -7.4021703e-01
 -1.2328401e+00
  1.4221205e+00
  3.4048603e+00
 -1.7314214e+00
 -2.2099595e+00
 -3.4882412e+00
 -1.4913427e+00
  8.1124687e+00
  3.4219322e-01
 -9.8434728e-01
  4.4354481e-01
  5.9014249e-01
  1.0018785e-01
 -2.1912096e-02
  2.1576168e-01
 -2.1436362e+00
 -3.9888331e-01
 -4.6047168e+00
  2.3684294e+00
 -1.4802922e+00
  6.9568247e-01
 -9.7847986e-01
  1.3433127e-01
  1.2608536e+00
 -1.2817055e-01
 -2.8542641e-01
 -1.4243598e-01
 -7.4811902e+00
  3.6723298e-01
  6.2437940e+00
 -1.4321618e+00
  6.7404991e-01
  6.3377804e-01
  2.2379121e-01
  2.9077601e-02
 -1.0841653e+00
  3.2513386e-01
 -2.1073057e-01
 -8.4416717e-01
 -5.1353335e-01
 -1.4728682e+00
 -5.9727043e-01
 -8.8019073e-01
  6.5803903e-01
  7.0346624e-01
 -1.2589320e+00
 -6.1638957e-01
 -1.4422191e+00
  3.4969294e+00
 -1.6972946e+00
  1.1097544e+00
  1.1021323e+00
 -3.0262465e+00
  4.6617794e-01
  2.0293326e+00
  4.4527704e-01
  2.3870271e-01
 -2.0654838e+00
 -1.1683338e-01
 -1.1049668e+00
  1.4765333e-02
  1.8053482e-01
 -4.1839085e+00
  2.4304061e-01
  1.2570059e+00
  1.7345905e-01
 -3.6939093e-01
 -3.4506738e-01
 -1.4284885e+00
 -6.8478000e-01
  1.9170581e-01
  5.9089923e-01
 -1.5334730e-01
 -8.7466121e-02
 -1.9053423e+00
  1.8871124e+00
  1.6828338e+00
 -7.1022779e-01
 -1.2561493e+00
 -1.5518432e+00
  1.6364933e+00
 -1.1739953e+00
 -6.8255877e-01
 -5.7166204e+00
  9.5840085e-01
 -9.6610475e-01
  2.6342409e+00
 -1.7390078e-01
 -1.0042965e+00
  1.3906176e-01
  2.3414204e+00
 -3.6566973e+00
  1.1777583e+00
  6.3925071e+00
  5.9578128e-02
 -4.4565892e+00
  1.4041694e+00
 -2.8356597e+00
  6.7055124e-01
  6.6434085e-01
 -1.6252629e+00
  1.8180995e-01
 -2.1701283e+00
 -2.2817180e-01
 -2.3188324e-01
 -2.1527946e+00
  6.6163093e-01
 -6.4084573e+00
 -1.2588685e+00
 -9.8855507e-01
  1.3165748e-01
 -1.6306974e-01
 -2.4963930e+00
 -5.8384109e-01
 -3.2659343e-01
  1.0786552e+00
  5.6860340e-01
  1.5410099e+00
  1.3512245e+00
 -8.2081896e-01
 -3.1500225e+00
  7.2455966e-01
  1.0959154e+00
  4.2443928e-01
 -4.9568591e-01
 -1.1557130e-01
  3.1562362e-02
  6.4667863e-01
 -8.1418216e-01
  1.7205350e+00
 -1.7559589e-01
  4.9953869e-01
  1.3385320e+00
  1.1455088e+00
 -6.3127029e-01
  2.3732016e+00
  7.0356441e+00
  3.7506311e+00
  5.3757629e+00
  6.4499414e-01
  9.9556200e-02
  2.3593895e-01
  2.0916219e+00
 -5.1419812e-01
 -2.0473936e+00
  4.5209545e-01
 -7.5761384e-01
 -1.6694753e-01
 -1.9303395e-01
  7.4795800e-01
  3.9860075e+00
  3.7843621e-01
  8.5901809e-01
  1.6629285e+00
  6.3704914e-01
 -4.1228801e-01
 -1.4125636e-01
  3.5929391e-01
 -8.7039834e-01
 -7.3336816e+00
 -2.4488546e-01
  7.9703897e-02
  1.3905933e-01
  3.4074727e-01
  1.3138591e+00
  1.8138224e+00
 -1.3030292e-01
 -5.3990698e-01
 -5.4662234e-01
 -4.6633017e-01
 -1.3217704e+00
 -3.9544523e-01
 -5.5313182e-01
 -7.3240322e-01
 -1.6639453e+00
  2.7679851e+00
  3.1971356e-01
 -9.8980457e-01
  3.4426007e-01
 -1.7063804e-01
 -2.5725687e-01
  7.6350272e-01
  1.2913989e+00
  8.5929662e-01
  5.6076324e-01
 -5.5401559e+00
 -2.9039744e-01
  5.3446126e+00
  1.0265103e+01
  1.9845692e+00
  4.9079764e-01
 -7.8273904e-01
  1.3186951e-01
 -1.7440894e+00
 -7.0256239e-01
  1.4407893e-01
  3.0676299e-01
  1.2284633e-01
  8.3449984e-01
 -5.4076681e+00
  9.0416682e-01
  6.8169272e-01
 -9.0383254e-03
 -4.4728794e+00
  3.3853423e-02
  2.3645887e-01
 -1.0218114e+00
  4.1844344e+00
 -6.8255224e+00
 -5.1170748e-01
 -1.1177411e+00
  1.9480308e+00
 -3.7735841e-01
  2.4311848e-01
  8.2925951e-01
  3.0082583e-01
 -1.6488117e+00
 -2.7651958e+00
  2.4751754e-01
  3.5550945e+00
 -4.8248675e-02
 -5.8673893e-04
  5.5706912e-01
 -6.6365176e-01
 -4.0218866e-01
  3.1117151e+00
 -2.5563972e+00
  1.1497581e-01
 -1.6706936e+00
  5.0166059e-01
  4.8184724e+00
  6.6826308e-01
 -7.9943973e-01
  2.7654418e-01
 -8.9728677e-01
  6.5342844e-01
 -1.2285378e+00
 -7.0814513e-02
 -4.9311652e+00
 -1.2400795e+00
  5.0419235e+00
 -1.7910001e+00
 -5.2055985e-01
  1.3565516e+00
  1.0565059e+00
  4.4392180e+00
 -2.4938965e-01
  4.2188616e+00
 -5.1380867e-01
 -5.2823515e+00
  2.8192787e+00
 -2.5069451e+00
  8.9558914e-02
  9.5174265e-01
  2.4657660e+00
  5.6812615e+00
 -3.1018894e+00
 -2.8820282e-01
 -1.1624947e-01
 -6.2228180e-02
  2.5452915e-01
  2.9846674e-02
  2.1164825e+00
 -2.2058591e-01
  1.9089081e+00
 -9.0753287e-02
 -1.7056581e+00
  6.1084495e+00
  2.3129958e-01
  6.7088568e-01
 -5.2333851e+00
 -8.7812161e-03
  1.7390139e-01
  3.6481819e-01
  3.8603790e+00
  1.2278771e+01
 -4.4693831e-02
 -4.8105943e-01
 -2.4896133e+00
  2.5099962e+00
  3.3764550e-01
  5.1233113e-01
 -6.2991232e-02
 -1.1450203e-01
  2.1752417e+00
  8.6786431e-01
  3.4251720e-01
 -2.4289207e+00
 -5.9915268e-01
 -4.9401999e-01
  8.3672923e-01
  5.0352235e+00
 -6.8222874e-01
  4.0252182e-01
  8.1296581e-01
 -4.1088015e-01
  1.5059128e+00
  5.6192493e+00
 -3.8866189e+00
 -7.0502394e-01
  1.0363683e+00
  1.2898254e+00
 -1.5789531e-01
  7.6828562e-02
  5.8363390e-01
 -1.2475458e+00
 -6.2266523e-01
  8.9110428e-01
  9.4349265e-01
  3.6338508e-02
 -4.6249327e-01
  2.0499425e-01
  9.8496666e+00
  9.8214900e-01
  3.0281789e+00
 -1.7356578e+00
 -2.1470013e-01
 -7.5019866e-01
 -7.5632882e-01
 -3.7211332e+00
  7.0702863e-01
 -1.2733271e+00
  7.0812502e+00
  2.2712803e+00
  1.1651593e+00
  1.5492759e+00
  7.8423631e-01
  6.2441599e-01
 -2.3238580e+00
  3.4068363e+00
 -2.1602554e+00
 -6.0923912e-02
  3.1851870e-01
  6.9599372e-01
  7.8577054e-01
 -7.9622394e-01
  9.6920097e-01
 -8.1639491e-02
 -6.5296376e-01
 -2.5840404e+00
  9.5311195e-02
  1.5837921e-01
 -4.5896909e-01
  3.9024363e+00
 -1.2807316e+00
  3.2773235e+00
  5.9684048e+00
  2.5221794e+00
  2.3441370e+00
 -3.8882093e+00
  2.0650945e+00
 -5.5465782e-01
 -1.5279266e-01
  1.2106568e-01
 -1.8145435e+00
  4.3666440e-01
  4.5919231e-01
  9.8427898e-01
 -2.1215389e+00
 -7.4867404e-01
  1.8763828e+00
  9.5286041e-01
 -5.0446367e-01
 -1.8363925e+00
 -3.0311108e-02
  8.1530219e-01
  5.3774470e-01
  2.4331120e-01
 -5.6289226e-01
 -7.5677669e-01
 -9.3657452e-01
  4.2558044e-01
  6.8351847e-01
 -1.4800394e-01
  8.1609564e+00
 -3.4195876e+00
  2.0235480e-01
  8.5716206e-01
 -1.8925334e+00
 -4.4141597e-01
  8.2586873e-01
 -8.1120104e-01
  6.2058945e+00
  6.7954190e-02
 -1.1945217e+00
  1.4479668e+00
 -6.5719080e-01
 -8.3338654e-01
 -4.3652448e-01
  7.5656343e-01
  8.2256597e-01
 -2.8151033e+00
  2.1876949e-01
  6.2741950e-02
 -4.4529971e-01
  2.9092947e-01
  9.6122676e-01
 -8.2371956e-01
 -8.6364806e-01
 -2.9742920e-01
  8.3119497e-02
 -6.0660857e-01
 -1.0012106e+00
  9.5744617e-02
  4.8400232e-01
  7.5396132e-01
 -8.4613699e-01
  8.6702567e-01
 -3.9986520e+00
 -4.1242671e+00
 -1.9235089e+00
 -3.2696786e+00
  4.5038424e+00
 -7.6617658e-01
  1.1274695e+00
  4.3511176e-01
  1.9698015e-01
 -4.2574561e-01
 -2.9200026e-01
 -2.4136496e-01
 -6.5138888e+00
 -1.1610991e+00
 -6.0760793e-03
 -2.6194801e+00
  2.3789637e+00
 -2.6702647e+00
  5.0374508e-01
  2.1251003e-01
 -7.7231169e+00
  3.3266339e-02
  1.8219836e+00
 -1.3123406e-01
  5.4114409e-02
 -5.7798915e+00
  4.1089180e-01
 -1.9070736e-01
  2.4131768e+00
  3.7757716e-01
 -2.9505773e+00
 -1.4473803e+00
  5.7221867e-02
 -1.0524879e+00
 -8.0261999e-01
  4.6917958e+00
 -4.6597582e-01
  1.0698390e+00
  5.5664939e-01
  5.6420583e-01
 -1.1941158e+00
  5.0715166e-01
 -3.4646341e-01
 -2.2518196e+00
  4.3737159e+00
 -1.9222556e+00
  2.3270948e-01
  2.4355347e-01
  1.0146327e+00
  7.4390668e-01
 -2.7956754e-01
  3.4290203e-01
 -1.7390163e+00
 -1.9048321e+00
 -1.3569638e+00
  2.4237893e+00
 -1.0281274e+00
  1.4396647e+00
  6.0081726e-01
 -2.5502509e-01
  2.8435609e+00
  5.6321816e+00
 -2.3886664e+00
  2.9598722e+00
 -3.3952591e+00
 -1.6728170e+00
  2.9036239e-01
 -3.3293390e-01
 -5.8154297e-01
 -3.2619360e-01
  2.7627470e+00
 -2.8202853e+00
 -1.3133669e-01
  4.2595950e-01
  3.2636304e+00
  1.4079488e-02
 -6.4087248e-01
 -3.3315626e-01
  6.2442088e-01
 -8.1927627e-01
 -1.3715508e+00
 -5.9768572e+00
  1.4198782e+00
  3.4007128e-02
  5.3125439e+00
  8.8617998e-01
 -7.5621877e+00
 -1.6573539e-01
 -1.0507733e+00
 -2.6235960e+00
 -6.5711153e-01
  3.5015018e+00
  2.3529840e+00
  4.9748856e-01
 -3.0466979e+00
  9.4220012e-01
 -5.0206047e-01
 -1.3703433e+00
 -4.9254460e+00
 -1.4375685e+00
  2.8841391e-01
  9.3417816e+00
  2.6731670e-01
  1.8044823e+00
 -1.4790858e+00
 -9.2588818e-01
  3.6808005e-01
  2.0206189e-01
 -9.8800617e-01
 -1.4809164e+00
  3.7272412e-01
  2.9524305e-01
  6.1756725e+00
 -6.7300719e-01
 -1.8405491e+00
 -5.5712247e+00
 -1.2970459e-01
  6.2956527e-02
 -4.3590773e-02
 -4.5781162e-02
  7.8420693e-01
 -5.0982434e-01
  1.2379004e+00
 -1.3893247e-01
  3.7482667e+00
  1.6063505e-01
 -8.1744444e-01
  6.9944102e-01
 -1.1846937e+00
 -4.7493515e+00
 -6.0048127e-01
  4.6311321e+00
  9.1137619e+00
  1.1107382e+00
  1.9623737e-01
 -7.0151508e-01
  5.1042593e-01
  5.9947538e-01
  1.0148774e+00
 -9.1326123e-01
  4.4932446e+00
 -2.1909027e+00
  5.7003098e+00
  3.4051237e+00
  1.2674136e+00
  4.6618280e-01
 -2.1409984e+00
 -6.7957938e-01
  1.4519291e+00
 -7.1504223e-01
  5.9123576e-01
 -7.5389874e-01
 -4.6334410e-01
 -1.1655515e-01
 -1.1756970e+00
  3.3691251e-01
  4.1880393e+00
  6.0414594e-01
  8.3465320e-01
 -1.0122504e+00
  3.6373287e-01
  2.2068533e-01
  4.4769871e-01
 -3.5335543e+00
  6.6231054e-01
  1.8307917e-01
 -3.8171685e-01
 -3.6235347e-01
  3.1993234e+00
  2.9084520e+00
 -4.1604421e-01
  2.9736292e+00
  1.2375096e+00
  2.0938311e+00
 -4.9755600e-01
  1.7689298e-01
 -3.5436311e+00
  6.8519747e-01
 -7.7434786e-02
  6.8291297e+00
 -3.5332343e-01
  2.0359844e-01
 -2.1355605e+00
  1.1559056e-01
  1.4189550e+00
 -1.0165142e+00
 -1.0595911e+00
  9.3190736e-01
 -1.2392069e-01
  2.7516429e+00
 -1.5299124e+00
  2.1105547e+00
 -4.0956979e+00
  4.7308281e-01
  1.4662896e+00
 -1.2255180e-02
 -3.4194422e+00
  3.5399961e+00
 -1.0652651e+00
  3.9879879e-01
 -1.8183570e+00
 -1.1691300e+00
  2.2065639e-01
  2.0252314e-01
  4.8416454e-01
  8.1287807e-01
 -4.8539062e+00
  1.6839505e+00
 -1.2004943e+00
  4.9025071e-01
 -9.7652149e-01
  1.0191307e+00
  3.5804084e-01
  1.3441571e-02
 -1.7015053e-01
 -1.3851217e+00
  4.3275028e-01
 -1.4942328e+00
  6.7445922e+00
 -8.3695946e+00
 -1.5812864e+00
  1.9663775e-01
  5.1042664e-01
  1.1433896e+00
  3.6110587e+00
 -6.7489260e-01
 -4.7283828e-01
 -1.6812401e-01
  1.2664639e+00
 -1.3062730e+00
 -1.1352807e+00
 -8.9169043e-01
  2.7384728e-01
  5.5806261e-01
  1.6641971e+00
  9.3895257e-01
  1.4844056e+00
  6.7528853e+00
 -7.3012686e-01
  1.0959545e-01
 -8.6392087e-01
 -7.9550595e+00
  2.0138099e+00
 -1.3598394e+00
 -3.4412820e+00
  3.5479015e-01
  4.4306226e+00
  1.0306518e+00
 -2.0332263e+00
  8.0116568e+00
  1.2653522e-01
  5.5119152e+00
 -8.0016637e-01
  3.0607814e-01
  1.2227373e+00
 -1.4688008e+00
 -4.7110658e-02
 -4.8283873e+00
 -3.6676526e-01
  3.8881233e-01
  4.7181109e-01
 -4.7129536e-01
  1.2840838e+00
 -2.7635661e-01
 -8.0686957e-01
 -2.3988481e-01
  8.7113631e-01
  1.7921238e-01
 -8.1076813e+00
  6.2050474e-01
  1.5413128e+00
 -9.2650360e-01
 -3.8641301e-01
  7.7925867e-01
  1.8373535e+00
 -3.7467062e-01
 -6.7928262e-02
  5.8049989e-01
 -9.5225149e-01
  6.6661543e-01
 -9.3831950e-01
 -9.2080081e-01
  1.2797153e+00
 -3.8044745e-01
 -1.6584239e+00
 -2.6154792e-01
  2.7489272e-01
  3.7719727e+00
  1.6058289e+00
 -2.2905927e+00
 -3.2194093e-01
 -2.0446048e+00
  2.7702415e-01
 -1.1005054e-01
 -7.4722999e-01
 -3.4388119e-01
 -5.7589862e-02
 -1.2363032e+00
 -3.6654267e-01
  3.8857204e-01
  3.6315053e+00
  9.1052017e+00
 -1.0495609e+00
 -6.4797831e-01
 -2.0867646e+00
  1.4910980e-01
 -4.1004543e+00
  7.4288583e-01
  2.4452662e+00
  8.2839257e-01
 -1.9677724e+00
  8.5507587e-02
 -2.0191743e+00
  1.9507487e-01
  1.1987554e+00
  1.4285401e-01
 -8.2508743e-01
  7.9649057e+00
 -3.6228678e+00
 -8.7954623e-01
  4.4493753e-01
  1.1328801e-01
  2.6298983e+00
  2.6707921e+00
  2.7316216e-02
  1.8392500e+00
 -3.0925167e+00
  6.6660969e-03
  5.1289660e-01
 -3.2329997e-01
  3.8889744e+00
 -1.7737852e+00
 -1.5426056e+00
 -1.0687565e+00
 -4.2907777e+00
  6.6589576e-01
 -1.7479982e+00
  5.9451327e+00
 -3.9237055e-01
  3.2267668e+00
  8.9116472e-01
 -1.0741786e+00
 -6.2804860e-01
 -2.4586357e-01
 -1.5804375e+00
  1.6160259e-01
  1.4514017e-01
 -2.3166738e+00
  5.6478691e-01
 -1.1240941e-02
 -5.2433070e-03
  2.4451022e+00
  7.2929901e-01
  9.6474880e-01
  4.6341354e-01
  3.5820028e-01
  2.0231924e+00
  3.8436040e-01
  6.6059983e-01
 -1.5450462e+00
  3.8776906e+00
  2.9915776e-03
 -2.9293251e+00
 -3.5051858e-01
 -4.4704798e-01
 -1.8873733e+00
 -1.0957367e+00
  7.9420164e-02
 -7.6356232e-01
 -1.5351211e+00
 -3.3972158e+00
 -1.0230383e+00
 -1.2828019e+00
 -4.9685729e-01
  9.3849623e-01
 -4.7155654e-01
  2.5354447e+00
  6.1360970e+00
 -4.3460429e-01
 -2.6317365e+00
  3.0957217e+00
  3.9042926e-01
  3.9258033e-02
 -1.5747581e-01
 -7.4727364e-02
 -1.5585387e-01
  2.0468357e+00
  1.0068018e-01
 -1.2669984e-01
 -3.7642562e+00
  2.1867285e+00
 -1.6311964e+00
  1.2691428e-01
  7.2039205e-01
  2.9534674e-01
 -2.8058574e-01
 -1.6818660e+00
  6.9171205e-02
  3.6309760e+00
 -1.1414152e-01
 -3.3616647e-02
 -2.4500306e+00
  4.0144238e+00
  6.3061881e-01
  1.5999434e+00
 -1.8736095e+00
 -1.2939148e+00
  1.3790379e+00
  1.0694178e+00
  8.4035177e+00
  2.3639734e+00
  2.8434163e-01
  6.8913853e-01
 -1.6899868e+00
  1.0495222e+00
  4.4281524e-01
  4.0868127e-01
  5.4695970e-01
 -3.0982527e-01
  6.1620200e-01
  1.5095562e+00
  5.9703743e-01
 -6.3045783e+00
  3.2567129e-01
  6.0178428e+00
  5.3950602e-01
 -6.1957054e-02
  1.4424902e+00
  3.7228274e+00
 -1.0630118e+00
 -7.8321978e-02
 -1.2482247e+00
 -7.8535142e+00
  1.0540594e+00
  2.4987833e+00
  8.2319778e-01
  9.7653128e-02
  1.1131173e+00
  4.6943202e+00
 -1.6680394e+00
 -6.9539911e-01
  2.2221916e+00
  1.0915102e+00
  1.0587890e+00
  8.5182738e-04
 -1.2170143e+00
 -5.0266943e+00
  2.1810021e+00
  1.7853599e+00
  5.3485125e-02
  1.5184984e-01
 -1.6211981e+00
 -6.5268564e-01
 -7.8967676e-02
  4.6866903e+00
  4.9005723e-01
 -8.4293485e-01
 -1.9815674e+00
  2.0393593e-02
 -2.8394642e+00
 -2.0345491e-01
  1.8835082e+00
 -2.4857235e+00
  2.9953954e+00
 -2.9189248e+00
  1.1082156e+00
  5.7423818e-01
  6.6170204e-01
 -6.1690578e+00
  1.5382004e+00
  7.3471344e-01
  1.0978237e+00
  9.4373333e-01
 -9.6644467e-01
 -5.7264643e+00
 -2.2320080e-01
  1.1549654e+00
 -2.3490870e+00
 -2.6636198e+00
  8.4186041e-01
 -2.9178208e-01
 -3.7535729e+00
  1.1936008e+00
  1.5245754e-01
  1.9145325e+00
 -4.7461925e+00
 -2.6858637e+00
 -5.4450160e-01
  5.6255545e-02
 -2.6180202e-01
  2.4980415e-01
  2.4568488e-01
  1.1239023e+00
  7.4742204e-01
  5.3217202e-01
  4.4618446e-01
  2.3691140e-01
 -1.6654931e+00
 -1.8236002e+00
  4.0934870e-01
  2.5782445e-01
  6.6948511e-02
 -5.8954722e-01
 -3.5522316e-02
  5.8528538e+00
  2.3834807e-01
 -3.1357372e-01
  2.4481575e+00
  1.3251176e+00
  3.2978259e-02
  2.1988069e-01
 -1.0827397e+00
  5.4348779e-01
  2.3160071e+00
 -6.5059268e-01
  3.2115659e-01
  1.0597107e+00
 -1.4016547e+00
  2.4479160e-01
 -1.6495527e-01
  1.0336456e+00
 -4.7807282e-01
  3.7060797e+00
 -1.0398482e+00
  1.6306473e+00
 -1.6247463e-01
  1.2881359e+00
 -5.2416724e-01
  3.6065629e-01
 -3.4934900e+00
 -1.3087699e-01
  1.6866855e-02
  1.5877490e-01
  2.4393053e+00
  2.2299701e-02
  1.0682014e+00
  1.4450815e+00
  4.0752363e+00
  6.0338622e-01
 -2.2892272e+00
  1.1919726e+00
  1.5357511e-01
 -1.3191070e-01
 -7.6182586e-01
 -5.5491066e-01
  1.1269552e+00
 -5.6004226e-01
 -5.2360344e-01
  8.9911336e-01
  1.1579642e-01
 -2.0985363e+00
 -2.1451077e+00
  2.3752302e-01
 -8.1350541e-01
 -7.1678382e-01
 -2.5768759e+00
 -2.4567667e-01
  1.8644521e+00
 -7.9802793e-01
  7.5643313e-01
 -3.1154547e+00
  2.8512948e+00
 -9.1786498e-01
  1.9992876e+00
  1.1520516e+00
  3.4095755e-01
 -6.3980632e+00
  1.8497421e-01
  2.9463272e+00
  8.1198364e-01
 -3.3066466e-02
 -7.8664172e-01
 -1.7835535e-01
 -1.0671400e+00
 -5.9511520e-02
  8.8149816e-01
  9.5323777e-01
  1.2697195e+01
  4.6941045e-01
 -3.2904298e+00
  8.0955975e-02
 -4.6126628e+00
 -1.6186340e-01
 -1.9744679e+00
 -1.2829262e+00
  4.7827385e-02
 -2.4205353e+00
  1.0494955e+00
  2.4914048e+00
 -2.6330342e+00
 -2.6756184e+00
  1.0578393e+00
  1.0806531e+00
 -6.1827011e+00
  1.5901925e-01
  5.7107806e-01
 -1.7286333e+00
 -8.3850604e-01
 -9.0288675e-01
 -3.2340946e+00
  7.7394664e-02
  1.0828381e+00
  4.9938485e-01
 -1.3200028e+00
  2.2485536e-01
  1.0830928e+00
 -2.2092867e-01
 -1.3363750e+00
  3.5323173e-02
  1.2010641e+00
  1.7494422e+00
 -2.0397113e-01
  4.9909410e-01
 -7.6898687e-02
 -1.5862210e+00
  1.7033073e+00
 -8.5031903e-01
  1.7407699e-01
 -2.2076135e+00
  2.6763621e-01
 -8.0101109e+00
 -8.0647779e-01
 -1.3676175e-01
  5.3944576e-01
 -4.3554068e-01
 -5.8472261e+00
  6.2150145e-01
 -2.8618068e-02
 -5.9719342e-01
  1.5785588e-01
 -1.2307792e-01
  1.0461333e-01
  5.9022868e-01
 -3.1108499e-01
 -8.7318306e+00
  2.7470985e-01
 -5.9819394e-01
  1.8046283e+00
 -5.2586188e+00
  6.6225894e-02
 -1.2997305e+00
  5.6370598e-01
 -4.4133019e-01
  3.3531046e-01
 -4.7111564e+00
  9.8380469e-02
  4.1488609e-01
  1.8667679e-01
  2.5441414e-01
 -4.9721456e-01
  1.9885113e+00
  4.4923503e-02
 -5.7714599e-01
  3.3407929e+00
  5.9306633e-01
  1.0818470e+00
 -1.6918842e-01
  1.0913919e-01
 -3.4803078e-01
 -1.5213863e+00
 -8.5995996e-01
  2.2693791e+00
 -1.0203304e+00
 -1.3073386e+00
  5.0508195e-01
  2.2208443e-01
 -6.6465030e+00
  6.4107842e+00
  1.4317394e+00
 -8.3389664e-01
 -6.7657644e-01
 -4.2493743e-01
 -1.1558574e+00
 -3.4119515e+00
  3.8125885e-01
  7.3862976e-01
 -2.4734221e-01
 -7.5883317e-01
  6.8091887e-01
 -1.8452280e+00
  1.5931168e-01
 -3.5137060e+00
  7.0035976e-01
  2.2144744e+00
 -2.3377645e+00
 -1.0896371e-01
  1.2687277e+00
 -3.5415137e-01
 -5.3717556e+00
 -6.6275746e-01
  9.4655752e-01
 -6.9233465e-01
  1.6885785e+00
  4.3437858e+00
 -2.1105006e+00
 -1.5536228e-01
 -8.7202293e-01
  4.7925803e-01
  3.8830717e+00
  1.3653421e+00
  7.0996892e-01
  2.2876463e+00
 -1.1529689e-01
  5.4492649e-02
 -8.2605362e-01
 -3.3948941e+00
 -7.5856930e-01
 -1.8401355e+00
 -1.7657182e+00
 -1.6243644e-01
 -7.0123696e-01
  1.1777400e+00
  6.3783115e-01
 -7.7629648e-02
 -4.0007353e+00
 -2.1392419e+00
  4.6892271e+00
 -9.5096219e-01
  1.2715852e+00
 -3.8141499e+00
  2.0167997e-02
 -1.5975775e+00
 -1.7902626e+00
 -2.4163501e-01
  2.3448224e+00
 -4.3519530e-01
  2.7820513e-01
  8.2404214e-01
  6.0421723e-01
  1.2890869e+00
  5.4854512e-01
 -8.8904256e-01
  6.6843951e-01
  1.4132411e+01
  1.2126904e+00
  1.5882703e+00
 -1.0043206e+00
  1.1820195e+00
 -7.1380275e-01
 -6.1873841e+00
  6.0614705e-01
 -1.0749285e+00
  7.5046904e-03
  4.6608713e-01
 -8.9665627e-01
  1.8253970e+00
 -4.7201033e+00
 -7.8289449e-02
 -2.2000196e+00
 -8.9822316e-01
  8.9831305e-01
  6.2003183e-01
  3.4733455e+00
  8.1364244e-01
  9.6323800e-01
 -1.2191529e+00
  1.3170189e-02
 -3.5717475e+00
 -2.1288079e-01
 -9.8345572e-01
 -2.1743965e-01
  4.9103233e-01
  1.7306839e+00
  1.5016035e+00
 -1.9300847e+00
 -9.8670745e-01
  2.2803006e+00
 -2.2787564e+00
  2.3192096e+00
  9.3766391e-01
 -2.9310243e+00
  2.4812621e-01
 -7.7312779e-01
 -1.3908340e+00
 -6.2350678e+00
 -4.4960370e+00
  2.5947967e-01
  7.8057684e-02
  6.8959618e-01
 -2.0067191e+00
  8.5597181e-01
 -1.9934604e-01
 -4.4537967e-01
  1.5532711e+00
 -2.3707857e+00
 -5.9054937e+00
 -7.5700271e-01
  9.2445123e-01
  9.5088226e-01
 -3.0214133e+00
 -1.2604232e+00
 -2.2677796e+00
  5.1895380e+00
 -3.4713960e-01
 -4.5789617e-01
 -9.6643865e-01
  8.5520244e-01
  7.7378976e-01
  1.7826750e+00
 -1.7963454e+00
 -1.9651221e-01
 -1.3957824e+00
 -6.9605947e-01
 -2.4591885e+00
 -9.9756086e-01
  2.5827875e+00
 -2.8540280e-01
 -9.2628068e-01
 -8.2540743e-02
  4.9645767e-01
  7.2443381e-02
 -2.2463064e+00
 -2.9826835e-01
  1.3887488e+00
 -1.6045462e-01
 -7.7178911e-03
  1.5371121e+00
 -2.0224917e+00
 -1.1223652e+00
 -5.2346426e-01
  1.1012594e+00
 -6.2319726e-01
 -8.6991647e-03
 -3.7236612e+00
 -4.1758938e+00
  2.2411911e+00
  1.5777211e+00
  8.0769025e-02
  5.1727939e-01
  4.0819684e-01
 -3.7391331e+00
 -9.8332798e-01
 -1.9793397e-01
 -1.7000222e+00
 -6.0122365e-01
  6.0822821e-01
  5.8543277e-01
  5.6606758e-01
  5.6229031e-01
 -3.6520550e+00
 -4.3015757e-01
  2.2570724e+00
  1.3281627e+00
 -9.5448238e-01
 -1.0095384e+00
 -6.4644706e-01
  9.3736553e-01
  9.9630702e-01
  4.5094792e-02
  6.1639607e-02
  1.1902785e-01
  5.0070226e-01
 -1.1918046e+00
  6.0394158e+00
  8.2878545e-03
 -8.3334513e+00
  4.9800238e-01
  1.0393639e+00
  7.6239748e+00
 -4.0539217e-01
 -5.7665028e-02
  1.8276156e-01
 -1.2118877e+00
  4.4332218e-01
  8.9881741e-02
  2.4944223e-01
 -2.7979822e+00
 -3.0153579e-01
 -8.2920229e-01
  2.7908415e-01
  8.4864694e-01
 -7.7396029e-01
 -8.1086612e-01
 -6.7636847e-02
  8.0253154e-01
 -1.6572125e+00
 -2.3288625e-01
  7.2932839e-01
  5.3874117e-01
 -2.8587522e-02
  4.9817228e+00
  7.8578275e-01
 -3.6141160e+00
  8.4764357e+00
 -3.8229281e-01
 -2.0181274e+00
  9.1593677e-01
  3.0204551e+00
  1.7999765e+00
 -3.5728967e+00
 -6.5130693e-01
 -5.3054094e-01
  6.3568115e-02
 -4.4365640e+00
  5.8192949e+00
 -1.6054788e+00
 -1.0600234e+00
  5.6944733e+00
  1.0563033e+00
 -3.8320324e+00
  6.1894529e-02
  5.3155476e-01
  4.4383812e+00
 -8.3447618e+00
 -1.4834194e+00
 -6.9059008e-01
 -1.9655011e+00
 -1.5050313e+00
  9.7662067e-01
  3.5428348e+00
 -3.4900329e+00
 -9.0053946e-01
  4.1322365e+00
 -5.1875725e+00
  1.8223006e+00
  2.5308373e+00
  4.2181244e+00
  3.2260260e-01
 -9.2736799e-01
 -1.5765250e+00
  2.7444935e+00
  1.1110051e+00
  4.9006028e+00
  2.7728879e-01
  2.4340677e+00
  1.5721892e-01
 -4.3908410e+00
 -1.9502430e+00
 -1.2471938e-02
  1.7705364e+00
  1.7615235e+00
  1.3454483e+00
  3.1174562e+00
 -1.9480781e-01
  2.1679120e+00
 -1.0169723e-01
 -2.7635360e+00
  2.5681344e-01
  1.4708284e-01
  2.6897295e+00
  2.3041873e+00
 -8.7459248e-01
 -4.3572783e+00
 -8.7225127e-01
 -1.6649656e+00
  2.3040755e+00
  2.6905484e-02
  3.4377990e+00
 -2.7851994e+00
 -4.2185101e-01
 -6.7958884e-02
  9.8482484e-01
 -1.0370830e-01
  1.3636655e+00
  1.1447874e+00
  6.0781565e+00
 -2.6986301e-01
 -1.2399505e+00
 -3.6286220e-01
  1.1861571e+00
  4.0279141e-01
 -1.5120319e+00
 -1.1481462e-01
 -4.6492839e-01
 -1.0474706e+00
 -1.5508151e-01
 -3.6334326e+00
 -1.3572887e+00
  4.1972965e-01
 -3.9512596e-01
  6.5146965e-01
  2.8230074e-01
 -6.9842972e-02
  2.1157739e+00
  1.1356397e+00
 -1.6761352e+00
 -1.0543164e+00
 -1.2151799e-01
  5.0286067e-01
  6.6627884e-01
 -5.6748545e-01
 -5.1885945e-01
 -1.6361779e+00
  4.3115253e+00
 -4.5346311e-01
 -1.3798707e-02
  8.6741608e-01
  8.9358187e-01
 -1.6507827e+00
  3.9471316e-01
  2.1571682e-01
  3.8662035e+00
  5.1709992e-01
  2.4321110e+00
 -3.4873328e+00
  6.0583963e+00
  2.1427653e+00
  3.6216605e-01
 -8.1385434e-02
  1.2053744e+00
  1.2740190e+00
 -1.8092138e-01
  5.5249009e+00
 -1.5014037e-03
  4.8637983e-01
 -5.8708381e-02
 -2.7926707e-01
  5.8022076e-01
  9.1889754e-02
 -1.2828272e+01
  5.5532110e-01
 -2.1870112e+00
  4.0020221e-01
 -2.7465723e+00
 -3.2748431e-01
 -1.4775109e+00
 -1.3824430e+00
  7.6475561e-02
  1.3742173e-01
 -1.4222723e+00
 -4.8438081e-01
 -3.7187043e-01
  5.5270948e+00
 -2.2110096e-01
  5.1697841e+00
  9.3676090e-01
  1.1845590e+00
  3.5585666e+00
 -3.2832643e-01
 -7.0965209e+00
  1.6234048e-01
 -1.5159130e-01
 -1.3916658e+00
 -4.0784356e-01
  4.3851810e+00
  2.1778405e+00
  1.1614532e+00
  3.2447621e-01
 -2.6501696e+00
  2.1330898e-01
 -4.4944773e+00
 -7.1097851e-02
  6.6696181e+00
  1.4034828e+00
  1.7034154e-01
 -3.9449403e-01
  5.5256432e-01
 -8.3405012e-01
 -1.5497218e-01
 -2.6802382e+00
 -6.2311453e-01
  3.6406777e+00
  6.1868787e-01
 -4.1868055e-01
 -2.7869973e+00
 -7.6153010e-01
 -7.6581130e+00
 -1.4851038e+00
 -3.3479318e-01
 -2.2781456e-01
  3.0555844e-01
 -1.6137899e+00
  1.4149411e+00
 -4.0176228e-01
  5.2858686e-01
 -1.5538850e+00
 -2.8611515e+00
 -1.5351106e-01
  3.1583636e+00
 -2.5737834e+00
 -2.7516022e-02
 -3.8428586e+00
  2.4898693e-01
 -2.1276985e-01
  6.0192909e+00
  3.0099986e+00
  3.4431164e+00
  6.5579802e-01
 -1.5146294e+00
 -1.5217316e+00
  8.6471504e-01
 -2.4074032e+00
  1.6400192e+00
  4.2142302e-02
 -3.0903733e-01
  3.8373342e-01
 -1.6396060e+00
 -1.4824413e-02
 -3.4338862e-01
 -9.9111176e-01
 -1.5448481e+00
  1.8181527e+00
 -1.3613608e+00
  3.5230744e-01
 -7.3433235e-02
  7.2856992e-01
 -2.0865630e-02
 -7.8641760e-01
  4.7408283e-01
 -1.7562687e+00
  5.7122737e-01
  6.2447105e-02
 -2.2648332e+00
 -1.5386335e+00
  4.7182088e+00
  1.1258788e-01
 -1.4833176e-01
 -1.9656945e+00
 -6.8753815e+00
  7.0076007e-01
 -7.7130847e+00
  1.2006385e-01
  3.1130370e-01
 -2.8599745e-01
 -2.7806628e+00
  7.0226531e+00
  5.5580908e-01
  3.9710534e+00
 -9.4282025e-01
  1.0760577e+01
 -8.0909383e-01
  1.4489442e+00
 -4.6073136e-01
  7.0008886e-01
 -1.5353419e+00
  9.7065540e-03
 -6.1871344e-01
  2.8979263e+00
 -1.7687149e-01
  9.6405417e-01
 -1.2054020e+00
  8.4860677e-01
  2.2870561e-01
  3.2860560e+00
  9.3308276e-01
 -5.3254896e-01
 -1.1978199e-01
  6.0670418e-01
  7.6992387e-01
 -1.5536332e+00
  5.6541550e-01
  4.9210772e-01
 -1.4525872e+00
 -2.4974865e-01
  2.1647792e+00
  2.3854060e+00
  1.6158082e+00
  1.6178508e+00
 -1.8784763e+00
  6.4417785e-01
  8.6550519e-02
  2.1340835e+00
 -3.5199252e-01
 -7.8770351e+00
  2.7146250e-01
  4.2528839e+00
  5.8403009e-01
 -8.1519794e-01
 -3.0340118e+00
  7.6411825e-01
 -4.7335535e-01
  3.3760816e-01
 -1.6118343e+00
 -1.7061990e+00
 -9.6769792e-01
 -5.1971936e-01
  2.5697722e+00
 -1.8927830e-01
  1.9584745e-01
  1.0692178e+00
  5.9993845e-01
 -4.6967673e-01
 -6.9783288e-01
  1.4817840e+00
  1.1017258e+00
  2.1493758e-01
  8.7736934e-01
 -3.3609264e+00
 -1.0519067e+00
  2.6334817e+00
  7.8592628e-01
 -5.8649484e-02
  7.5356454e-01
 -1.0607135e+00
  5.9966260e-01
  7.0515674e-01
 -6.7183018e-02
  1.6441488e-01
 -5.4182655e-01
  1.0923409e-01
 -7.0595694e-01
  4.0019345e-01
 -1.4550953e+00
 -1.1438750e+00
 -8.1104240e+00
  8.9900309e-01
  1.1023963e-01
 -1.0886867e+00
 -2.8611939e-02
  5.4906148e-01
 -7.9672486e-01
 -1.0148478e+00
  1.2341291e+00
  2.3111793e-01
  1.3248477e+00
  4.5464167e-01
 -5.5323963e+00
  4.2835674e-01
  9.6794710e-02
 -8.1643593e-01
  2.3073320e-01
  5.0235200e-01
  1.8762572e-01
 -7.4895287e-01
 -8.7626022e-01
 -3.7672061e-01
 -8.7473905e-01
  5.5053604e-01
  1.1791086e+00
  1.2101479e-01
  6.3649160e-01
 -1.1132486e-01
 -1.0422369e+00
  1.0289057e+00
  2.0750816e+00
 -4.6626356e-01
 -4.4584757e-01
 -1.0319024e+00
  2.3272150e+00
  4.2878710e-02
  1.3022566e+00
 -7.2537988e-01
 -4.2645556e-01
 -6.2564635e-01
  2.6925921e-01
 -4.2636198e-01
 -6.5146250e-01
 -5.2301788e-01
  4.3614430e+00
 -6.1720159e-02
  4.4619703e-01
 -1.6149452e+00
 -1.8035878e-01
 -2.7880728e-01
  8.6156404e-01
 -4.4587573e-01
  3.8458943e+00
  1.3814363e+00
 -2.4820473e+00
 -4.4135354e-02
 -7.6837170e-01
  6.1330807e-01
 -1.5166584e-02
 -3.4972668e+00
 -4.4113371e-01
  1.2264670e-03
 -7.5858158e-01
 -2.9224619e-01
  1.6171158e-03
  1.5122248e+00
 -1.3439572e+00
 -1.8434182e-01
  8.6600485e+00
 -2.0741764e-02
  3.1083963e+00
  1.0120140e-01
  2.2736295e-01
 -2.9251451e+00
  8.8665116e-01
  9.7424853e-01
  6.2923867e-01
  1.9652199e+00
 -1.4691188e+00
  1.6548997e-01
  3.7189177e-01
 -3.8199845e-01
 -1.4148020e+00
 -1.6040810e+00
 -4.8629147e-01
 -5.1609194e-01
  1.1604248e+00
  1.9855663e-02
  2.0354262e-01
 -5.5296254e-01
  5.4260564e+00
  4.4546130e-01
  2.4672812e-01
  2.0576514e-01
  1.0542550e+00
 -3.2612879e+00
 -1.6832377e+00
  9.5936495e-01
  3.4063933e+00
 -1.0855126e+00
 -2.4339423e+00
 -1.3547598e+00
  1.4837296e-02
  1.2203072e+00
 -2.3588511e-01
  5.2010879e-02
 -3.1149991e+00
 -1.0348397e+00
  1.5784542e-01
  8.5710615e-01
  3.8087875e-01
 -1.6564366e+00
 -2.4548459e-01
 -1.0964137e-01
  8.9009613e-01
  4.3388567e+00
  1.1350367e+00
  3.5238054e-02
 -1.4564266e+00
  1.2105324e-01
 -7.2445869e+00
 -2.2469985e+00
 -2.8062036e+00
  2.8501704e-01
  1.2434053e+00
 -2.5497848e-01
 -6.1635766e+00
  5.3858299e-02
 -3.2942742e-01
 -6.6054058e-01
 -2.7966321e+00
  2.2860181e-01
  2.5438553e-01
  4.8693448e-01
  2.1021442e+00
  1.3142866e+00
  1.2319161e+00
  1.0475689e+00
  5.0772387e-01
  2.6326358e+00
 -3.2537311e-01
  6.9608247e-01
  2.3108390e-01
  7.8519435e+00
 -1.9917734e+00
 -4.1407982e-01
  9.6937346e-01
 -8.9097671e-02
  5.4469210e-01
 -2.7592103e+00
  2.0621450e-01
  3.4111860e-01
 -7.6710737e-01
 -9.6743822e-01
  7.3115188e-01
 -1.6024232e+00
 -2.3688766e-01
  2.1670822e-02
 -3.3936796e+00
 -2.7416573e+00
 -9.7615278e-01
  2.9168311e-01
 -3.2243496e-01
  1.1448234e-01
 -3.9899477e-01
 -1.3254325e-01
 -1.1078519e+00
  1.1839603e-01
  4.5397663e+00
  7.7373661e-02
 -6.0286169e+00
  7.9497385e-01
 -1.3358226e+00
 -2.9792979e+00
 -1.8460222e+00
 -2.9473581e+00
 -5.3928870e-01
  2.3883373e-01
  4.0837181e-01
  5.2480358e-01
  3.7757778e-01
 -4.3970248e-01
  1.1025672e+00
 -1.8824156e-02
 -9.3814301e-01
 -1.3366294e+00
  1.6074032e+00
  3.8932333e+00
 -6.7730623e-01
 -1.9270346e-01
  2.0105667e+00
  2.0693312e+00
 -4.3889923e+00
  5.8681649e-01
  4.6932521e-01
 -3.1736109e-01
 -1.8229785e+00
  3.0575428e+00
  2.4939446e+00
  6.4253932e-01
  1.2090338e+00
 -3.4344983e+00
  1.0375521e+00
  3.4057953e+00
 -2.8120866e-01
 -2.8864142e-01
  1.0709996e+00
  6.0250144e+00
  1.0607517e-01
  4.0001850e+00
 -1.4256076e+00
  4.3867832e-01
 -1.5010564e+00
 -1.9109963e+00
 -2.0536008e+00
 -1.1720459e+00
 -4.8367643e+00
 -1.8532743e+00
  2.2699029e+00
 -2.4651415e+00
 -1.5200891e+00
 -2.3679345e+00
 -9.9085265e-01
  6.4017087e-02
 -3.5592696e-01
 -2.7648628e-01
  1.3508440e+00
  5.7388407e-01
  1.1883365e+00
  2.6132870e-01
 -6.6393107e-01
  1.1508304e+00
 -6.9099516e-01
 -4.3145066e-01
  2.8951705e-01
 -7.6320994e-01
  2.1302710e+00
 -2.0598680e-02
 -9.9847130e-03
  6.3126725e-01
 -1.3478333e+00
  1.1934022e+00
  2.6274575e-02
 -4.2442513e-01
  3.5233358e-01
 -5.2436409e+00
  1.0379247e-02
 -6.1546826e-01
  5.5073123e-02
 -1.9720387e+00
 -8.4952440e+00
  4.9198470e-01
 -1.1661937e-02
  7.4348412e+00
 -1.1551740e+00
  1.5097666e-01
 -6.1131215e-01
  4.4380489e-01
 -1.2964597e+00
 -4.1613701e-01
  9.4436681e-01
 -6.6851777e-01
  3.3954427e+00
  1.1355714e-01
 -1.5111585e-01
  1.0628973e+00
 -9.1343045e-01
  4.3011659e-01
  4.5939870e+00
  1.9319307e+00
 -1.6548692e-01
 -1.6649948e+00
  6.6005969e-01
  8.4820861e-01
  1.0383918e+00
 -5.6226179e-02
 -2.5650641e-01
  1.0359409e+00
  2.2072762e-01
 -4.7023356e-01
  2.6963267e-01
  4.9301827e-01
 -6.7771405e-02
 -1.3180960e+00
 -8.0662675e-02
 -1.4342238e+00
  1.8491199e+00
  3.9401728e-01
  6.3703054e-01
  2.5683270e+00
  2.8524539e+00
  1.0287595e+00
  1.8061740e+00
 -1.8818127e-01
  8.2042062e-01
 -2.0668221e+00
 -1.1681051e+00
  9.3877405e-01
  1.9875042e-01
 -4.4635972e-01
  7.1557981e-01
  1.0995326e+00
  3.0575765e-02
 -3.6378685e-01
  1.9854685e+00
 -6.4494127e-01
  2.5124794e-02
 -6.9205618e-01
  3.9212739e-01
 -1.5649799e+00
 -6.6686368e-01
 -3.1987333e-01
  2.3002968e+00
  2.2801588e+00
 -9.6724230e-01
 -1.4888910e+00
 -1.3935220e-01
  8.7427741e-01
 -1.7050301e+00
 -3.3547902e+00
 -4.7624385e-01
 -5.5621958e+00
 -8.2648706e-01
  2.4111466e+00
 -1.5067396e+00
 -1.1728542e+00
 -1.3092513e+00
 -8.7873918e-01
 -1.4074469e+00
 -8.0128002e+00
  1.8043928e+00
  5.6662929e-01
  1.5199879e+00
  1.8363943e+00
 -4.7485209e+00
  2.4074616e+00
 -7.6286823e-01
  1.3108133e-01
 -1.6703074e+00
 -4.0320201e+00
  7.7735260e-02
  5.8696526e-01
 -2.2946744e-01
  2.5148451e-01
 -1.9716339e+00
 -4.1808891e-01
 -1.9774844e-01
  1.8070694e+00
  4.7130695e-01
  7.4104971e-01
 -4.6886001e+00
 -7.2294855e-01
 -4.3117137e+00
 -4.6453306e-01
 -9.8942399e-01
 -9.5677686e-01
  1.9504479e-01
  2.2660632e-02
 -4.3565109e-02
  4.6853652e+00
 -6.0364652e+00
 -1.4911311e+00
  1.5902340e+00
 -3.3564037e-01
 -1.1529217e+00
  1.0167143e+00
 -3.1475885e+00
 -7.1750003e-01
 -2.7126269e-02
 -2.6763821e+00
  6.1198550e-01
 -5.1133621e-01
  9.3566030e-02
  3.9175880e-01
 -2.8181371e-01
  3.1165861e-02
 -5.5983508e-01
  4.2082596e-01
 -2.2095205e-01
 -3.9165992e-01
  1.4598693e+00
 -1.5657701e-01
  1.1269057e+00
  1.2083201e+00
  6.6060382e-01
 -1.3196138e+01
  1.0638848e-01
 -5.7603236e-02
  9.1427453e-02
 -3.8782430e-01
  2.5599688e-01
  3.7025914e+00
  9.4977832e-01
 -2.2719710e+00
  2.8223789e+00
  1.2562566e-02
  1.4564846e+00
  1.3889216e+00
  2.1511969e-01
 -3.7777457e+00
  2.0785126e-01
  4.0695840e-01
  1.2910016e+00
  3.3468300e-01
 -1.6596061e-01
 -7.5544985e-03
  1.5492387e-01
  1.9268405e+00
  6.0269771e+00
 -6.8797630e-01
  1.8560896e+00
  2.6971195e+00
  4.5075645e+00
  4.8485914e-01
 -4.5243845e+00
  9.0994626e-01
  3.3058424e+00
  5.2899998e-01
 -1.3856330e+00
  1.3466914e+00
  3.3624649e+00
 -3.6104950e-01
  6.0172691e+00
  2.0091116e+00
 -2.7478999e-01
 -1.0611675e+00
 -4.7543657e-01
 -3.8384032e-01
  2.0541339e+00
 -6.7954898e-02
 -4.5544362e+00
  4.5525012e+00
  2.1365091e-01
  2.1481233e+00
 -5.1553359e+00
 -6.7180896e-01
  7.1427006e-01
  3.1434462e+00
  1.5055319e+00
 -8.3555520e-01
 -1.2685416e+00
 -1.8637662e-01
  4.5191536e+00
  1.9198241e+00
 -2.6856411e-01
 -4.7628775e-02
  3.2059077e-02
 -8.1069702e-01
  8.8796720e-02
 -3.3485574e-01
 -1.6358361e+00
 -9.2969835e-01
 -4.0547531e-02
  3.6898483e-02
  2.7223426e-01
 -1.1714720e+00
 -1.8549863e+00
 -8.9736587e-01
  3.4528497e-01
 -3.9982157e+00
  3.4873247e-01
  2.5077715e+00
 -1.6370837e-01
  4.6781101e+00
 -2.3182209e+00
 -3.6115940e+00
 -1.5429844e+00
 -6.1291623e-01
  3.9283732e-01
 -4.3522593e-01
  7.4004245e-01
 -7.7278209e-01
  8.6667228e-01
  4.1325825e-01
 -2.0982897e+00
 -3.0592351e+00
 -1.5253101e-01
  1.2967075e+00
 -7.2839999e+00
 -2.0097040e-01
 -1.5974165e+00
  2.4800758e+00
 -4.1253495e+00
 -1.4870632e+00
 -5.2883631e-01
  4.9572229e+00
  1.0640627e+00
 -1.1389555e+00
  1.0226899e+00
 -3.5564413e+00
  7.5056843e-02
  2.2868605e+00
 -7.9745406e-01
  7.1440911e-01
  2.7107456e-01
  4.8373008e+00
  1.2440572e+00
  1.0698079e+00
 -1.8620408e-01
  7.0573683e+00
 -9.8897952e-01
  7.9506433e-01
  2.2595371e-01
  2.4250617e+00
  1.0199610e-02
 -5.3249240e-01
 -1.1802378e+00
  2.8359258e-01
  2.0119555e+00
  1.2177050e+00
  2.5093167e+00
 -6.9360346e-01
 -8.2852489e-01
  3.5536082e-03
  1.0291738e-01
 -2.3588674e-01
 -4.8809639e-01
  2.3199666e+00
  7.6241955e-02
 -1.5181456e-02
 -3.4903243e-02
  8.9791751e-01
  7.2857513e+00
  2.3944630e-01
  8.2136583e+00
  3.6472228e+00
  1.7676817e+00
  3.4828678e-01
  4.6767392e+00
  2.7273944e-01
 -1.6562048e+00
  8.1570834e-01
  4.7426787e-01
  1.0112932e+00
  1.9321975e+00
 -4.4821188e-01
 -4.2311105e-01
  4.2949632e-02
 -1.3212943e-01
 -5.3975332e-01
  5.3864193e+00
 -1.0999219e+00
  1.1427491e+00
  2.2321987e+00
  2.6877112e+00
  2.9409258e+00
 -6.9912207e-01
 -2.5024396e-01
 -4.3332753e-01
 -1.6642575e+00
  4.3801534e-01
 -7.1360451e-01
 -7.4289811e-01
  2.2604080e-01
  2.0064378e+00
 -1.4761213e+00
  3.1012467e-01
 -1.4819005e-01
 -1.1679845e+00
 -9.5203049e-02
  1.9384900e-01
 -2.3196218e+00
 -8.9767969e-01
  8.6764388e-02
 -1.3376406e-01
  1.1368666e+00
 -1.1513377e+00
  5.7307494e-01
 -3.8948381e+00
 -7.4718511e-01
 -3.2554362e+00
  1.7895739e+00
  1.9778582e+00
  5.0541908e-01
 -4.9459821e-01
 -2.9720977e-01
 -6.1292535e-01
 -1.1767832e+00
  3.1903797e-01
  1.2969029e+00
  8.3819818e-01
 -8.1240594e-01
 -1.1643239e+00
 -1.7040339e-01
 -1.0336701e-01
  8.4429818e-01
 -2.2052133e-01
  6.6618314e-03
  9.3404210e-01
  2.6069126e-01
  1.2392955e-01
  1.2150102e+00
 -2.4704878e-01
  2.4591330e-01
 -8.7745422e-01
  5.0366421e+00
 -3.6007938e-01
  1.2252908e-01
  1.0403199e+00
 -6.7249313e-02
 -2.0441315e-01
 -9.6007496e-02
  2.3929589e+00
  1.4977481e+00
  1.1465030e+00
  2.0486956e+00
 -4.9412258e-02
 -9.6872574e-01
 -8.0304384e+00
 -4.2912209e-01
 -6.5509200e-01
  5.1363093e-01
  1.4566338e-01
 -2.3623078e-01
 -4.7362778e-02
  2.9729909e-01
  5.5611497e-01
 -4.3183982e-01
 -1.7180149e-01
 -3.7998714e+00
  1.5271012e-01
  8.2767308e-01
  8.0990888e-02
  4.7350582e-01
 -2.1813367e-01
  1.8558672e-01
  4.6711448e-01
  1.6470416e-01
 -4.4618688e+00
  5.6836891e-01
 -2.2465606e+00
 -2.2582457e+00
 -4.9275875e-01
 -4.1171873e-01
 -2.6903591e+00
  2.8985518e-01
 -8.5945898e-01
  8.5077101e-01
 -1.9850801e-01
  8.0322140e-01
  1.5465307e-01
 -5.8295269e+00
  2.7961382e-01
 -4.3393224e-02
 -9.8177761e-01
 -6.4691567e-01
  5.3941321e+00
  1.4252039e+00
 -8.4934793e-02
 -4.3000426e+00
 -2.8590400e+00
  3.4635618e-01
 -1.2973012e+00
  3.0397582e-01
  7.9824197e-01
 -1.0250057e-01
  2.4368463e-01
 -9.6490421e+00
  2.6483443e+00
  2.3613756e+00
  1.8804744e+00
 -4.0985751e-01
  2.7614579e-01
  1.0443809e-01
 -4.5690976e-02
 -4.8022468e-02
  1.0834769e+00
 -7.3217618e-01
 -7.7086908e-01
  3.1718431e+00
  2.7664175e+00
 -1.6683944e-01
  1.1269365e-01
  1.7910589e-02
 -1.4665194e-01
 -2.4853843e-01
 -1.9430475e-01
  1.1316483e+00
  5.6316817e-01
 -1.5976530e-01
 -9.5172757e-03
  9.3573296e-01
  7.3304260e-01
  3.6369991e-01
  1.6349381e+00
 -5.0920045e-01
 -1.0563130e-01
 -1.0206605e-01
  5.5016249e-01
 -3.5443371e-03
  3.4739971e+00
  1.9267231e+00
  1.8978014e+00
 -4.1101332e+00
  1.8329254e+00
  9.6740626e-02
 -8.4132481e+00
  1.1525329e-01
 -3.7293881e-01
  1.2155718e+00
 -8.7582839e-01
 -2.8557354e-01
  1.1875595e+00
  1.4120075e+00
 -1.6235991e-01
 -3.1458524e-01
 -5.3541061e-02
 -4.9722812e-01
  7.1743429e-01
 -2.0035942e+00
 -1.1083876e+00
 -6.2728423e-01
 -1.0240799e+01
 -2.6363459e+00
 -7.8332782e-01
 -2.2336779e+00
  1.0253845e-01
  1.2300280e+00
  1.2343678e+00
  8.9143467e-01
 -5.1915228e-02
  3.7000969e-01
  1.7620596e+00
  4.8542193e-01
  1.6105078e+00
 -6.0744390e+00
  2.4190868e-01
 -2.8403575e+00
 -7.8989053e-01
  7.4695420e-01
  4.5184102e+00
 -1.3623316e+00
  1.0025318e-01
 -5.6436068e-01
  5.2263546e-01
 -1.3820522e+00
 -4.7373933e-01
  6.6705832e+00
  8.9426136e-01
  3.2155943e+00
  6.8184888e-01
 -4.7594821e-01
 -1.4857908e+00
  6.6569343e+00
  7.8417784e-01
 -2.0438104e+00
  1.3882948e+00
 -8.5084701e-01
  9.8008788e-01
 -6.8983912e-01
  1.7477791e+00
  8.8437166e+00
 -1.2521536e+00
  3.2780588e-01
 -1.0373504e-01
 -3.6306614e-01
 -3.3101511e-01
  1.3164142e+00
  3.3778863e+00
 -1.3102969e+00
 -1.6255777e-01
  1.6169381e-01
  1.3093588e+00
  1.5296131e-01
 -8.6474098e-02
 -3.6402800e+00
  2.4975382e-01
  1.0832089e+00
  3.6931664e-01
  5.7906806e-01
  2.8274798e-01
 -1.5160239e+00
  9.2996752e-01
 -1.2307029e+00
 -2.4501052e-02
  8.7288395e-02
  4.8390293e-01
  3.2161863e+00
  6.6015768e-01
  2.5548151e+00
  5.1951799e+00
  5.7625320e-02
  2.0264609e+00
 -3.0177218e-01
 -8.3166542e+00
 -9.1449834e-02
 -9.9191082e-01
 -6.7765778e-01
  1.5807055e+00
  1.9066473e+00
 -8.1216848e-01
  7.8110939e-01
  6.2613640e+00
 -1.6757460e+00
  1.5903996e-01
 -1.8778209e-01
 -1.4676110e-01
 -2.4943766e-01
 -3.9736140e-01
 -9.8892488e-04
 -3.7067333e-01
  4.0377584e+00
  1.9634160e+00
  1.5248601e+00
 -1.5073533e-01
  3.2997120e-02
 -1.8580350e+00
  3.3465323e+00
 -2.3497891e-01
 -3.3266172e+00
  2.1533734e-01
 -3.9975904e-02
 -1.1828928e+00
 -1.0055995e+00
 -5.3394017e+00
  1.5422651e-01
  8.9369345e-01
 -4.1854957e-01
 -1.9876884e+00
  1.8660941e+00
 -3.0139058e+00
 -3.2142847e+00
  2.6242709e+00
 -5.8165276e-01
  2.1127896e-01
 -1.3344359e+00
  5.0916189e-01
 -1.8795848e+00
 -2.0197721e-01
  3.1481547e+00
  3.7583363e+00
 -3.1673334e+00
  5.6903968e+00
  2.1978809e-01
  1.2478602e+00
  2.0274408e+00
  6.2180102e-01
  9.8498076e-01
 -5.3981167e-01
  1.6095580e-01
 -2.5201145e-01
 -2.8314648e+00
 -1.0534499e+00
 -1.6681406e+00
  2.4273763e+00
  9.9098897e-01
  1.2293298e+00
 -2.1791549e+00
  2.0884662e+00
 -6.8278533e-01
  1.6586533e+00
 -6.3264066e-01
 -5.4329461e-01
 -2.1464589e-01
  9.4817388e-01
 -3.3991921e+00
 -1.0942429e+01
 -5.6564707e-01
  3.1794608e-02
  2.9661133e+00
 -4.4245362e-01
 -1.7442997e-01
  3.9581461e+00
 -1.5229223e+00
 -3.4956273e-01
 -5.2382784e+00
  2.1835503e-01
  3.6166990e-01
  4.5844337e-01
  1.7455854e+00
 -1.5175198e+00
 -3.2775208e-01
 -1.5837662e+00
  3.4805275e-03
  4.1333408e+00
 -1.0675249e+00
  2.1949987e+00
 -3.0606022e+00
  2.0046091e+00
 -5.7125001e+00
 -4.8751509e-01
 -8.2657856e-01
 -1.3385718e+00
  4.0217125e-01
  1.1910069e+00
  2.7566311e+00
  8.4841591e-01
 -2.6369852e-01
  1.5571407e+00
 -2.1896704e-01
 -2.9053481e+00
 -3.8238221e-01
 -1.8528084e+00
 -4.1658770e-02
  7.9890186e-01
  9.4966248e-02
  2.1735876e+00
  5.2892613e+00
  2.3695564e+00
 -7.3117745e-01
  1.1990198e+00
  2.0907678e-01
  1.0492920e+00
  1.0354939e+01
 -2.1500264e-01
 -6.0764748e-01
 -2.4585456e-01
 -2.7171283e+00
 -7.4711400e-01
  2.5202253e+00
  1.1858739e+00
 -1.3116306e+00
 -4.4418973e-01
  3.3144519e+00
  1.0963307e+01
  1.0569075e+00
 -4.1327868e+00
 -1.0980800e-01
  2.5133603e+00
 -1.8496321e+00
  2.7909970e-01
  1.4356432e+00
  1.4434980e+00
 -1.2774402e+00
  3.0374196e-01
 -2.4856749e+00
 -1.3846262e+00
  2.3501256e-01
  2.6787086e+00
  7.7714986e-01
  2.2405522e+00
  1.2257432e+00
 -7.2747960e+00
 -5.9397560e-01
  1.9212809e-01
 -2.0843863e-02
  5.0518423e-01
 -8.5470712e-01
  5.6318052e-02
 -2.6871119e+00
  5.8686680e-01
  2.1387765e-01
 -8.4813488e-01
  2.4482591e+00
 -8.8962056e-02
 -9.4959468e-01
  1.6868981e+00
 -4.1755669e-02
 -1.0452507e-01
 -4.0545169e-01
 -1.4739752e-01
 -3.1748977e+00
  1.9584260e+00
 -8.6550343e-01
 -5.3029537e+00
  5.2487397e+00
 -6.9195527e-01
 -8.4422773e-01
  1.1108102e+01
 -8.7469697e-02
  2.7711698e-01
 -2.8690197e+00
 -1.2884340e+00
 -2.6097617e+00
  3.1484549e+00
 -7.4619487e-02
  3.0375948e+00
 -3.0716953e+00
  1.0351497e+00
  3.6043759e-02
  3.1241241e-01
 -2.1776011e-02
  3.8689897e+00
  1.2479815e-02
 -6.7736574e-02
  2.1806908e+00
  9.0223038e-01
 -1.0815046e+00
 -6.8638879e-01
  8.1107950e-01
  7.4348703e-02
  1.3643827e-01
  1.5451744e+00
 -1.0873970e+00
 -3.7136919e+00
 -4.8953161e+00
 -1.2388999e+00
  3.8186820e+00
 -2.3269491e+00
 -1.0950011e+00
 -4.6713295e+00
 -7.6705325e-01
 -1.7526239e+00
 -2.4340074e+00
  4.8108006e+00
  5.3249259e-02
 -7.9519672e+00
 -9.3260117e-02
  1.1231614e+00
 -5.3948843e-01
  6.7370236e-01
  1.1189942e+00
 -5.9107840e-01
 -2.9881771e+00
 -4.2595725e+00
 -1.5356784e+00
  9.2330694e-01
 -1.4657604e+00
  1.7415766e+00
  1.6799752e-01
 -2.2097833e+00
  1.0786781e+00
  4.0887470e+00
 -1.0677156e+00
 -1.5498829e+00
 -4.5015287e+00
 -3.9140078e-01
  5.6284032e+00
 -2.8319335e+00
 -5.1433249e+00
  1.3872533e+00
  2.7371061e-01
 -1.2030019e+00
 -7.0286739e-01
  2.9548557e+00
  6.2045176e-02
 -2.6954770e+00
 -2.8479011e+00
 -1.2543808e-01
  1.0647838e+00
  1.0436373e+00
 -3.8791010e-01
  1.5438130e+00
  7.0826538e-02
 -1.0592858e+00
 -1.0862055e+00
 -9.6549618e-01
 -3.1716564e-01
 -8.1260420e-02
  5.5773431e-01
 -4.1055271e-01
 -4.1199131e+00
 -3.3090153e-01
  1.0550058e+00
 -9.9920118e-01
 -5.2147394e-01
 -3.8745654e-01
  4.3458257e+00
  4.7149720e+00
  1.1397928e+00
  8.2340932e-01
 -3.9068987e+00
 -3.9510486e-01
 -2.0286524e+00
  1.7277820e-02
  5.7260456e+00
 -1.0337709e+00
 -8.2359928e-01
  5.0436673e+00
  1.4288132e-01
 -1.1548729e+00
 -1.4811003e-01
  4.3439189e-01
 -6.7836620e-02
 -5.1150993e-02
 -1.0091807e+00
 -3.8849176e-03
 -3.5407765e+00
  1.0801538e+00
  2.9669294e+00
  3.3597186e-01
 -3.5136528e+00
 -6.1923140e-01
 -2.3051796e+00
  3.5705464e+00
  3.7012598e-01
  8.1625261e+00
 -6.0134220e-01
 -7.5021350e-01
 -1.4500476e+00
 -2.0186247e-01
  5.1473985e+00
  3.9633431e+00
 -2.0118761e+00
  1.1099560e+00
  1.1404115e+00
  1.2662605e+00
  9.1562432e-01
 -2.6213984e+00
  3.9415193e-01
 -5.4070812e-01
 -5.3744264e+00
 -3.3713302e-01
  6.7689595e+00
 -1.5059024e+00
  1.7016511e+00
 -1.9413171e+00
 -8.5028343e+00
 -1.8888397e+00
  5.3064690e+00
  1.7408828e+00
 -1.9899185e+00
 -6.7815953e-01
  1.9752020e+00
  2.7083388e-01
  2.3682604e+00
 -7.0078498e-01
 -1.4421545e-01
  7.4048775e-01
  7.8990752e-01
  4.5463341e-01
  1.0165395e-01
 -4.5795770e+00
 -8.8442822e+00
 -4.8378077e+00
 -2.0342908e+00
  1.2842637e-01
 -1.2196430e-01
  5.6226945e-01
 -2.9710284e-01
 -2.6658788e+00
 -2.5024228e+00
  8.7470889e-01
  3.4831569e+00
  2.7853270e+00
 -9.2257899e-01
 -2.8579264e+00
  5.3692561e-01
 -6.5739191e-01
  5.5720930e+00
  4.1190643e+00
  4.4038881e-02
  3.3789093e+00
  3.1353111e+00
 -2.5753813e+00
  2.2330379e+00
 -8.3553225e-01
 -1.0872290e+00
 -5.7298630e-01
 -2.1415715e+00
 -1.2146426e+00
  9.1544542e+00
  1.7245622e-01
 -4.0394947e-01
 -4.4581537e+00
 -1.9602776e+00
 -5.1023684e+00
 -1.5133505e+00
 -2.4423200e-01
 -3.1950501e-01
  9.4057026e+00
  1.9575186e+00
 -6.6644305e-01
  5.4093246e+00
  3.2717052e+00
 -1.8437161e+00
 -4.1149507e+00
 -3.2484722e-01
 -2.3870759e+00
  8.0195868e-01
  4.6648768e-01
  7.1392220e-01
 -1.8554096e+00
  2.0300012e+00
 -2.8869408e-01
  7.3024768e-01
 -1.5853059e+00
 -1.4358526e+00
  4.9314780e+00
 -2.9494202e+00
 -4.4886165e+00
 -5.4482503e+00
 -1.8832225e+00
  2.8437085e+00
  1.5227634e-01
 -7.8720830e-02
  3.1043026e-01
  1.2020608e+00
 -2.3283522e+00
 -2.3874031e-01
  6.3760406e-01
 -1.2477193e+00
 -1.5853066e+00
  5.2488127e+00
  9.7681254e-01
  9.7018790e-01
 -4.8556119e-01
 -1.2902632e+00
  2.4545093e+00
  9.0500548e-02
  8.2304424e-01
  5.2385974e-01
 -3.1899283e+00
  4.1866189e-01
  4.6275315e-01
  5.5844333e-02
 -1.8382438e+00
 -5.7399666e-01
 -2.3625572e+00
 -1.9730473e+00
 -1.8274470e-01
 -3.3828866e-01
  1.7963661e-01
  1.0861905e+00
  4.4809365e+00
 -1.0132560e-01
  1.5207560e+00
 -2.1413262e-01
 -1.3598511e+00
  2.7265756e+00
 -4.0811157e+00
 -1.1025763e+00
  8.3914596e-01
 -1.9697881e+00
 -2.5534412e-01
  6.3519037e-01
  8.7169914e+00
  8.0547363e-01
  9.5626718e-01
 -1.9862115e+00
 -7.9764295e-01
 -1.5726161e+00
 -3.3709216e-01
  8.4087396e-01
 -4.1781135e+00
  2.4747982e+00
  1.3050237e+00
  6.2353849e-01
 -2.5250976e+00
  3.9972446e+00
 -6.7456591e-01
  2.6174137e-01
  2.2327564e+00
  5.7301480e-01
  1.6638728e+00
  5.7295371e-02
  1.4384190e+00
 -2.3563619e+00
  3.3589523e+00
 -3.9285809e-01
  4.8243895e-01
  1.0084831e+00
  3.1387923e+00
 -1.4794457e+00
 -4.3516889e+00
 -1.1042095e+00
  3.0399408e+00
  1.1962129e+00
  3.5231850e+00
 -6.6729389e-02
 -9.2888480e-01
 -8.2293528e-01
 -5.6790357e+00
  2.1087191e+00
 -1.3886341e+00
 -4.7075739e+00
 -7.7630275e-01
  1.3033663e+00
  4.0049157e-01
 -1.8054322e+00
  2.1496998e-01
  1.0189469e+00
  2.1770828e+00
 -4.4780807e+00
 -4.0109873e+00
 -3.1299005e+00
 -2.8662488e+00
 -3.0957100e-01
  2.5993640e-02
 -4.0981121e-02
 -3.2212574e+00
  1.0977618e+00
  5.5834100e-02
 -3.1801467e+00
  1.8524480e+00
 -2.9785070e+00
 -3.0555074e+00
 -2.3073599e+00
 -4.4828858e+00
  1.5935289e+00
  9.8666662e-01
  5.4980129e-01
 -2.7197919e+00
 -1.8092208e+00
 -2.6051062e-01
  1.2080381e+00
  1.2640402e-01
 -1.6290018e-01
  5.1036429e-01
 -4.8797435e-01
 -2.0605044e+00
 -3.2233772e+00
  1.4215534e+00
 -2.1108627e-01
  3.0617690e+00
 -1.0205840e+00
  1.5886110e+00
 -2.0141475e+00
  3.1593406e+00
  2.7052179e-01
 -1.0052273e+00
  1.3701080e+00
  2.5597064e+00
 -6.2633216e-01
 -1.0953907e-01
  3.9681154e-01
  2.5622511e+00
  1.1282681e+00
  1.0767544e+01
  2.1508807e-01
  1.8351477e+00
  1.5550103e+00
 -1.6724167e+00
 -7.1953380e-01
  2.7111161e+00
  1.6068234e+00
 -1.7669740e+00
 -1.0149239e+00
  5.5744720e-01
  1.4516611e+00
  2.2667315e+00
 -3.8302842e-01
 -2.1550529e+00
 -1.5656073e+00
  2.3549950e+00
 -1.0596072e-02
 -2.1727228e+00
 -8.0660075e-01
 -9.3245631e-01
  3.9209536e-01
  7.5247276e-01
  1.8059136e-01
 -6.7808218e+00
  8.4192592e-01
 -7.8257494e+00
  1.3604531e+00
  5.8051090e+00
  9.8552173e-01
  8.7666661e-01
 -7.9429460e-01
  2.6126115e+00
 -1.8492177e+00
  2.6413555e+00
  6.1261046e-01
 -1.5011040e+00
  4.4741349e+00
 -1.2579719e+00
 -7.6855823e-02
 -7.5158030e-01
 -2.5628984e-01
 -4.2414761e+00
  2.5806284e+00
 -2.9308865e+00
  6.3196921e+00
  1.2152878e+01
  1.8692197e+00
  1.4740443e+00
  1.8892152e+00
 -2.3525405e+00
  2.2974310e+00
 -4.6206479e+00
  7.8545446e+00
 -1.0126163e+00
 -9.4323146e-01
 -8.8451443e+00
 -5.0208592e-01
  1.8333033e+00
  4.9831307e-01
 -1.2812710e+00
 -1.6359434e+00
 -1.3879714e+00
 -2.6930749e+00
  2.0886881e+00
 -1.3613595e+00
  2.6420915e+00
 -1.3705027e+00
  6.6000722e-02
  5.6327409e-01
  4.0558261e-01
 -5.8085713e+00
 -6.2281294e+00
 -1.4941189e-01
  5.4284739e-01
 -7.1200050e-02
 -1.4965138e+00
  3.9447744e+00
  4.4835334e+00
 -5.1175890e+00
 -2.0369558e+00
 -4.8228517e-02
  8.7563759e-01
 -1.2631143e+00
 -3.5806851e+00
 -7.6342750e-01
  3.1935498e-01
 -3.7431586e-01
 -5.3080554e+00
  5.4032940e-01
  1.1380970e-02
  1.3647289e+00
  1.4394403e+00
  4.8992198e-02
 -1.0455018e-01
  1.3145386e-01
 -7.6493794e-01
  4.5846421e-01
 -4.8445871e-01
  2.4847329e+00
 -1.8869378e-02
  7.7851504e-02
  1.4025302e+00
 -8.9462411e-01
 -7.3431015e-01
 -8.6239547e-02
  1.0366405e+00
 -1.6961840e-01
 -3.6670709e-01
 -7.0976877e-01
  1.3132013e-01
 -4.7390181e-01
 -9.9596852e-01
  5.1012510e-01
 -2.0890343e+00
 -3.9355147e+00
  7.0826966e-01
  2.8680956e+00
 -3.3221021e-02
 -4.6384400e-01
  1.1557355e-01
 -1.3524797e+00
  5.1262939e-01
  5.2424455e+00
  1.0434787e+00
 -1.5793160e+00
 -9.9538574e-03
 -9.2404789e-01
  2.2331541e+00
  8.1406170e-01
  2.7778756e-02
  6.7626733e-01
 -3.3908420e+00
  2.1792839e+00
 -1.6791548e+00
 -2.9136024e+00
  6.2499573e-03
  9.2358347e-03
  1.7458991e+00
  1.4335943e+00
  2.2647104e-01
 -3.6684710e-01
  5.5607671e-01
  2.5006935e-01
 -4.4671621e+00
 -1.3936159e-01
 -6.9158643e-02
  2.1416273e+00
  4.5351167e+00
  7.8424537e-01
  7.0734107e-01
  4.8060217e-01
  2.9103395e-01
 -8.7727946e-01
  4.3476170e-01
 -4.7935158e-01
  4.1737944e-01
 -1.8560042e+00
  4.0573549e+00
 -2.9451399e+00
 -3.4761531e+00
 -4.3068987e-01
  5.7420783e+00
 -7.3886514e+00
 -6.2988276e+00
  2.9973626e-01
 -5.0401478e+00
  6.7245263e-01
  5.9610862e-02
 -3.1971514e+00
 -1.3023750e+00
 -3.8199494e+00
  2.7541491e-01
  4.3608155e+00
  5.2190363e-01
  2.4142103e+00
  7.6478250e-02
  8.8650003e-02
  8.2243091e-01
 -1.9307855e+00
 -7.5537163e-01
 -4.6731481e-01
 -6.8660223e-01
  1.2077401e+00
  1.0609623e+00
 -1.9101976e+00
  6.0307634e-01
 -3.9161787e+00
 -9.4670624e-01
 -9.5161408e-01
  2.7706569e-01
 -2.6452734e+00
 -7.5423992e-01
 -4.4892675e-01
  7.8721547e-01
 -5.5639893e-01
 -1.3995472e-01
 -3.0879416e+00
 -1.2912473e-01
  2.1826417e+00
  8.8076317e-01
  8.7607270e-01
 -2.7079217e+00
 -3.4728022e+00
  5.9629087e+00
  1.9376765e-01
  1.4040687e+00
 -3.6487532e+00
  4.7188248e-02
 -4.8791343e-01
 -5.1504567e-02
 -1.5424433e+00
  7.1714467e-01
  5.6449008e-01
 -3.4184258e+00
  1.6189782e-01
  3.8265340e+00
 -1.7270374e-01
 -2.9359663e-01
 -2.1856802e+00
  1.2339742e+00
 -2.5126586e+00
  2.8166280e+00
 -1.3068675e-01
  3.1683251e-01
 -4.1446245e-01
 -4.4388061e+00
  9.3789971e-01
 -1.2877705e+00
 -5.2941400e-01
  1.1010755e+00
 -5.2264404e-02
 -1.7049321e+00
  5.6131029e-01
  9.7007078e-01
 -2.1790692e-01
 -5.2130085e-01
  1.7756211e+00
 -1.0684010e+00
  1.5999091e-01
 -6.4223599e-01
 -1.0462641e+00
  9.0530351e-02
  3.7278855e-01
  1.2441298e+00
  4.0555302e-02
  6.6041040e-01
 -1.9345344e+00
 -4.3419799e-01
 -4.6936306e-01
 -7.9695272e-01
  3.7377200e+00
  4.8434772e+00
 -9.6166599e-01
  9.3901575e-02
 -3.6843381e+00
  2.1497267e-01
  2.5394163e+00
 -3.4242427e-01
  9.1902369e-01
 -6.3972485e-01
  7.5457144e-01
  3.0493834e+00
  1.0781901e-01
 -6.8717271e-01
 -1.1879168e-01
 -2.8457894e+00
 -3.5371225e+00
  3.6491070e-02
  2.7009490e-01
  9.6541703e-01
  2.0023707e-01
  3.6924243e+00
  1.0126033e+00
  8.4447455e-01
  6.6076916e-01
  9.0361633e+00
  7.5271845e-01
 -1.6806750e-01
 -6.9580823e-01
 -8.8234472e+00
 -1.4626881e+00
 -4.3856716e-01
  2.4964347e+00
 -6.2959112e-02
 -1.1452665e+00
 -4.6144131e-01
  4.6310430e+00
 -2.0383549e+00
  7.7033865e-01
  5.2178705e-01
  2.6101342e-01
  1.7386873e-01
 -4.9301609e-01
  1.2758335e+00
  1.1283951e+00
  5.3736436e-01
  2.2721870e+00
  7.1157818e+00
  1.0537469e-01
  1.1744217e+00
 -2.5416574e-01
  1.8104181e+00
 -9.2226565e-01
  3.8029906e-01
 -6.2218827e-01
 -6.2247998e-01
 -3.1763296e+00
  7.5792395e-02
 -1.0137330e+00
 -5.8473355e-01
  9.0548027e-01
 -1.4329526e-01
 -5.2072530e+00
  1.0679659e+00
  6.4861280e-01
 -2.7643731e+00
 -1.0433506e+00
  6.5513062e-03
  2.9711044e+00
  2.5178164e-01
 -1.6821994e+00
  3.9821142e-01
  7.1577257e-01
 -4.3234029e+00
 -3.1461245e-01
  7.8533433e-02
 -1.2077836e+00
  1.2517324e-01
 -1.5018952e+00
  1.4409105e+00
 -4.8163009e+00
 -6.6149515e-01
  1.9961767e+00
  1.8002452e+00
  6.2357897e-01
 -6.5428412e-01
 -5.5205946e+00
  8.8827258e-01
 -5.0285143e-01
  1.5813532e+00
 -4.8351792e-01
 -3.1692150e-01
  3.6893811e+00
 -1.5362882e+01
 -4.5600557e-01
  8.1347334e-01
 -7.2661996e-01
 -2.3881893e+00
  2.7734849e-01
 -4.8716581e-01
  2.1009701e-01
  1.1481986e+00
  2.4845691e+00
 -1.5949947e+00
  1.9639742e-01
  1.7126005e+00
  1.1795887e+00
  9.3823546e-01
  2.1934507e+00
  1.0968580e+00
  2.3392253e+00
  9.8666787e-02
 -7.0295806e+00
 -8.9703637e-01
 -1.2796171e+00
 -1.3960025e+00
  3.1091704e+00
  5.9669223e+00
 -3.2981357e-01
  7.9946183e-02
 -3.1932995e-01
 -3.1608939e-01
  5.1052850e-01
  3.4597187e+00
  1.5861371e+00
  3.7185022e-01
  1.8742058e-01
  4.2586241e+00
 -1.8065264e+00
 -6.0993606e-01
 -3.5148451e+00
  3.5380025e+00
  3.4424744e+00
 -1.5666354e+00
 -6.6365458e-02
 -4.3425374e+00
 -6.0970473e-01
  4.7816318e-02
  1.0875091e-01
 -3.4510612e-01
 -5.5011833e-01
 -1.0850466e-01
  1.4361616e+00
  1.3584748e-01
  8.1727439e-01
  1.1286364e+00
  9.3095493e+00
 -6.6792138e-02
 -1.9573203e-01
  5.7464609e+00
 -2.3853920e+00
 -7.2056301e-02
 -4.5975485e+00
 -2.1666417e+00
  8.9972150e-01
 -5.7653685e+00
 -6.9907969e-01
 -2.6968372e-01
  6.6355786e+00
 -9.2355889e-01
 -3.0988472e+00
 -3.1528108e+00
  1.7615843e-01
  5.1114883e-02
  2.3073614e+00
 -5.5671835e-01
 -8.0034852e-01
  6.8767214e-01
  1.3189779e-01
  5.8841383e-01
 -1.0760224e+00
 -1.5326643e+00
 -1.0383828e+00
  4.9327806e-01
  5.9419453e-01
 -1.6235702e+00
 -9.4465449e-02
  7.5229071e-02
  1.0848694e+00
 -3.4124751e+00
  6.4820976e+00
 -1.2237294e+00
  1.0059352e+00
  4.4508080e+00
  2.5639328e-01
  2.2306399e-01
 -2.2683990e+00
  8.0239393e-02
 -1.7396327e+00
 -5.1337421e-01
  3.1356657e-01
  6.0284048e-01
  7.6364064e-01
 -5.4412872e-01
 -7.7693838e-01
 -8.2817906e-01
 -1.4888303e+00
 -4.9652529e+00
  1.1970409e+00
  3.6992435e+00
  1.3888806e+00
 -2.8897834e-01
  1.3822469e+00
 -8.2029825e-01
 -1.0071579e+00
 -8.9902675e-01
  1.6659077e+00
  1.1029313e+00
 -6.2719220e-01
 -1.6374352e+00
  6.0707884e+00
 -7.8117001e-01
 -7.5118876e+00
 -3.9018333e+00
  7.7983534e-01
 -4.6096778e-01
 -4.0868765e-01
 -9.7256118e-01
  2.3389672e-01
 -1.8387016e+00
 -1.4448767e+00
 -4.9612187e-02
  5.4314489e+00
  7.1470177e-01
 -3.1574357e-01
  4.2403644e-01
  5.8859223e-01
  9.7410321e-01
  1.3737174e+00
  3.1897563e-01
  1.0336448e-01
  2.3200014e+00
  5.6379277e-01
 -4.6803112e+00
 -4.1161599e+00
  1.1718613e+00
 -7.0218921e-01
 -1.7198093e+00
 -7.9486364e-01
 -3.3606058e-01
 -3.7205476e-01
 -1.7191534e+00
  3.3758605e+00
