nep4 5 Ga O Si C H 
cutoff 9 6 338 103
n_max 10 8
basis_size 12 10
l_max 4 2 0
ANN 96 0
 -1.1648233e+00
 -1.0059147e+00
 -5.4622440e+00
  4.9509864e+00
 -5.3791485e+00
  1.0208386e+00
  1.6100171e-01
  2.2449121e+00
 -6.0963597e+00
  1.7552029e+00
  2.0516558e+00
 -4.9732194e+00
 -9.3137097e-01
 -4.1854401e+00
 -3.1452723e+00
 -3.3298540e+00
 -6.4810543e+00
  1.4475176e+00
 -2.5020423e+00
  1.0874934e+00
  1.2880402e+00
  1.0597750e+00
  2.9130206e-01
  1.8287977e+00
 -1.0271286e+00
 -5.4182720e-01
 -8.2283729e-01
 -3.2285559e+00
  1.3442488e+00
  1.2036623e+00
 -8.1720996e-01
  1.3230765e+00
 -1.2995718e+00
  8.1649929e-01
  8.8043654e-01
 -5.0696168e+00
 -3.0479567e+00
  2.2956212e-01
  6.7696339e-01
 -5.8567009e+00
  1.4367818e+01
 -3.0692589e-02
  2.8184693e+00
 -1.9960220e+00
  2.4419456e+00
 -3.1429484e+00
  1.3637303e-01
  4.9525719e-02
 -1.9714211e+00
 -3.6318376e+00
  2.6334043e+00
 -5.7935324e+00
  3.1599531e+00
 -6.1814890e+00
 -1.2870638e+00
 -6.9579835e+00
 -1.6924257e+00
 -6.3944541e-02
 -1.8597775e+00
  1.2328243e+00
 -3.1099901e+00
  1.1974972e+00
 -3.4225199e+00
  2.4746275e+00
  2.5713858e-01
 -9.2665005e-01
 -5.5651420e-01
 -1.8916605e+00
  3.0713612e-01
  8.6430383e-01
  7.0660967e-01
  1.1840250e+01
  3.5056012e+00
  5.0292478e+00
 -2.2431560e+00
 -1.3143851e-01
 -3.1861159e-01
  4.1556454e-01
 -5.3780303e+00
 -1.8165910e+00
  4.3904337e-01
 -5.9280545e-01
  3.0572641e+00
  1.3493841e+00
 -2.5795569e+00
 -1.7454461e+00
  2.3204262e+00
 -4.8892918e+00
  1.7686021e+00
  2.6035765e-01
  1.0788476e+00
 -5.2447662e+00
 -2.0643625e+00
 -8.1002527e-01
  1.6141802e+00
 -4.2914734e+00
 -3.3944666e+00
  3.0916913e+00
 -2.5157323e+00
 -2.7389309e-01
 -3.1488128e+00
 -4.9338341e+00
 -5.8853936e+00
  3.0579460e-01
  6.2996525e-01
  3.3064110e+00
  1.3589235e-01
 -4.9418888e+00
  1.9389060e+00
  5.9317893e-01
 -5.9993234e+00
  8.5298735e-01
 -6.0217917e-01
  1.5471475e-01
  2.5002363e+00
  6.8528756e-02
  9.5805626e+00
  8.2814989e+00
 -1.4046227e+00
 -1.1244297e+00
  5.8077326e+00
 -5.7099981e+00
 -3.1118476e+00
  1.7812905e+00
  3.5009711e+00
  4.1703043e+00
  3.6302645e+00
  5.4350123e+00
  7.4294370e-01
 -2.1201095e-01
 -2.2354512e+00
 -3.2498339e-01
 -2.6958694e+00
  6.6531425e+00
 -3.1602716e+00
 -9.6308604e-02
 -6.8633966e+00
 -1.0184007e+00
 -6.7255743e-02
  2.9139373e+00
  1.8477175e+00
  1.5145264e+00
 -4.4221134e+00
 -8.0951757e+00
 -8.7385263e+00
 -2.5481186e+00
  7.7727079e+00
  1.9633489e+00
 -3.0739257e+00
 -1.6034123e+00
  7.2057933e-01
 -2.4940612e+00
 -1.1744269e+00
  8.0717058e+00
 -2.1397014e+00
 -6.5669675e+00
  1.7969794e+00
 -1.5872526e+00
 -7.0022674e+00
 -5.0963922e+00
  2.0566540e-02
 -8.4293985e-01
 -3.4811645e+00
 -2.8869691e+00
 -2.3458177e-01
  3.4715977e-01
 -7.4713343e-01
  1.7808341e+00
 -8.7240343e+00
  6.8612695e-01
 -7.5869656e+00
  5.1898330e-01
  6.2280450e+00
 -2.2152679e+00
  4.8502712e+00
 -4.4143486e+00
 -5.7289414e+00
 -5.1740589e+00
  7.8901315e-01
 -8.4978456e+00
  4.5290384e+00
 -1.9788657e+00
  5.7572093e+00
  4.3883225e-01
  4.1821113e+00
 -8.4794700e-02
  1.9410996e+00
 -7.8402534e+00
  5.0833817e+00
  3.1559763e+00
 -6.6633487e-01
 -4.6126204e+00
 -3.8065550e+00
  4.5691326e-01
  5.7001209e-01
  2.7761426e+00
  7.3213017e-01
  4.1439662e+00
 -3.7629740e+00
  5.4193020e+00
  7.3782176e-01
 -1.0912406e+01
 -4.5257034e+00
  4.2040329e+00
  9.0784273e+00
  1.2923157e+00
  4.0650887e+00
  3.0188668e+00
 -1.3265593e+00
 -6.5764540e-01
  2.7555518e+00
  2.6213190e-01
  3.7191362e+00
  4.2512507e+00
  5.0128779e+00
  6.7414826e-01
  1.5370107e+00
 -6.3969140e+00
  6.2972462e-01
  2.5708714e+00
 -2.9889889e+00
  7.0435816e-01
  3.7375069e+00
  6.1403173e-01
 -2.2254348e+00
 -9.0850788e-01
  2.9754169e+00
 -8.1372366e+00
  3.4504566e+00
  1.0712675e-01
 -6.1996703e+00
 -2.5049496e-01
 -1.7599860e-01
 -1.5681545e+00
  2.4442720e-01
  4.5454674e+00
  1.2033445e+00
 -1.5209782e+01
 -7.5278707e+00
  5.4612970e-01
  8.7596017e-01
 -3.3240283e+00
  4.2389994e+00
 -6.0068369e-01
 -3.1453735e-01
 -1.6995571e+00
 -1.2981699e+00
 -7.4046284e-02
  1.4042016e+00
  1.5812795e+00
  2.2120550e+00
  1.2745749e+00
  1.7035147e+00
 -1.1698803e+00
 -4.1643171e+00
  2.4808900e+00
  8.8410455e-01
  6.2079674e-01
  6.5275121e+00
 -5.3600556e-01
 -1.3293341e+00
 -9.7101221e+00
 -9.2117834e-01
 -3.3292546e+00
 -4.3890241e-01
  3.1628487e+00
 -5.4128346e+00
 -3.0974689e+00
 -2.5945458e+00
  2.0105240e+00
  7.2626501e-01
 -4.2086887e+00
 -1.1295036e-01
 -1.1641772e-02
 -1.7664521e+00
 -6.7497654e+00
 -9.2099088e-01
  2.9347436e+00
 -8.8894491e+00
 -3.4617484e-01
  1.3780061e+00
  1.4289014e-01
 -4.3222818e+00
 -8.1121337e-01
 -1.6063994e+00
 -4.3617582e+00
 -2.2773428e+00
 -3.9304695e+00
  2.8848622e+00
 -1.6356151e-01
  2.9488399e+00
  4.7170887e+00
  2.3589060e+00
  1.1108059e+00
 -1.4990911e+00
  1.6551675e+00
 -8.0637431e-01
  9.3338281e-01
  1.4186407e+00
  8.6019957e-01
  1.5226780e+00
  1.1709863e+00
  8.6309385e+00
  5.1266080e-01
 -7.5407460e-02
 -9.1188425e-01
 -2.6758251e+00
 -2.5137341e-01
  1.2913505e+00
  7.9305267e-01
  4.5372543e+00
 -2.7496164e+00
  2.2328815e+00
  2.4443216e+00
  1.5945865e+00
 -3.8270931e+00
 -2.7063873e+00
  8.7654555e-01
 -1.1977530e+00
 -2.2210371e+00
 -4.8197037e-01
 -5.7198656e-01
  7.9912186e-01
  1.4321187e+00
 -6.2494278e+00
  1.8928345e+00
 -8.2077998e-01
  5.5336231e-01
  1.6306180e+00
 -3.8527787e+00
  2.7861655e+00
  2.9169984e+00
  2.9857397e+00
 -5.3177528e+00
  1.8756868e-01
 -1.1455469e+00
  1.6513939e+00
 -2.1036373e-01
 -1.4670839e+00
  7.1066213e+00
 -2.5601218e+00
  3.6363230e+00
  1.9662979e+00
 -1.3037896e+00
 -4.9345164e+00
 -6.0219473e-01
 -1.6442972e+00
  2.7617952e-01
  5.3081489e+00
 -1.9440461e+00
  3.8283777e+00
 -1.7556589e+00
  7.2763908e-01
 -2.3487508e+00
 -7.3012030e-01
  2.4024925e+00
  7.6444178e+00
 -1.2076042e+00
  1.9791766e-01
  1.3441190e+00
 -2.2271228e+00
  3.2477174e+00
  1.0629351e+00
 -1.2549951e+00
 -7.6716065e+00
 -1.9129845e+00
 -3.9176993e+00
 -3.4942839e-01
  5.4691935e-01
  6.3438253e+00
  1.3055562e+00
  1.0350814e+00
  9.8192921e+00
  2.6910541e+00
 -1.3367345e+00
  9.5952475e-01
 -5.2760595e-01
 -2.7445409e+00
 -5.1162000e+00
 -3.3864496e+00
 -8.6029482e-01
 -7.6741123e+00
 -4.0173430e+00
 -3.8815765e+00
 -4.0283313e+00
  2.0017326e+00
  2.1749380e+00
  1.3399445e+00
 -6.1686552e-01
 -1.8738149e+00
  2.1110716e+00
 -2.2982881e+00
 -2.1431766e+00
 -2.6256695e+00
 -2.2473736e+00
 -1.1869787e+00
 -1.5036879e+00
  1.1500963e+00
  2.4990699e+00
  2.1766121e+00
 -4.3552761e+00
 -1.9808154e+00
  6.5699774e-01
  4.8482800e+00
 -4.8303959e-01
 -1.0852488e+00
 -1.6734750e+00
 -1.5925561e+00
  4.8513279e+00
 -1.2376175e+00
  1.0819860e+00
 -6.3464117e-01
 -3.9987748e+00
  2.8843370e-01
 -7.1408308e-01
 -1.7759794e+00
 -1.4030342e+00
  1.0666738e+00
 -1.1019052e+00
  9.3890200e+00
  6.3089889e-01
 -1.3343605e+00
 -3.7467458e+00
 -3.9249358e-01
  9.1370230e+00
  4.9449153e+00
  4.7864059e-01
  1.1111205e+01
 -4.1287966e+00
  6.5818729e+00
  9.8989892e-01
  1.6024013e+00
 -2.8846962e+00
 -3.9106369e+00
  1.4626966e+00
 -9.0371618e+00
  5.6998056e-01
  2.6780859e-01
  2.2172637e+00
 -4.2474058e-01
 -3.4930591e-02
  1.4513845e+00
 -2.7080932e+00
 -2.0059164e+00
 -1.3004361e+00
 -1.2979631e+00
 -2.6528199e+00
  1.3893372e+00
  4.4580361e-01
 -1.9417863e+00
  3.1220436e+00
 -2.8938773e+00
  1.7166863e-01
 -1.4135873e+00
  3.3199430e+00
  3.1706052e+00
  2.8007314e+00
  5.7496500e+00
 -1.8833755e+00
  4.0998378e+00
 -6.7068422e-01
  2.3732734e+00
 -1.9691862e+00
  2.1090233e+00
 -2.4104736e+00
 -1.0986882e+00
 -2.8627119e+00
 -2.0301008e+00
  1.6786686e+00
 -2.6555047e+00
 -3.8878784e+00
  9.6598637e-01
  3.8899903e+00
 -1.8756843e+00
 -1.5274345e+00
  2.3723137e+00
  4.2263904e-01
 -1.2034688e-01
 -1.1118667e+00
 -7.6415009e+00
  2.6269749e-01
 -7.3175459e+00
 -7.5499192e-02
 -2.9940214e+00
 -3.2054033e+00
  9.4994116e+00
  6.7244797e+00
 -1.5563761e+00
  4.9502106e+00
  4.7513237e+00
 -7.3458886e-01
 -1.1527816e+01
 -1.5547312e+00
  5.0611264e-01
  1.9933511e-01
 -2.1211276e+00
 -6.6741550e-01
  6.9030392e-01
  8.7282908e-01
  3.5335073e-01
 -7.4524803e+00
  4.1490965e+00
  3.1951330e+00
  2.3956275e+00
 -7.6688546e-01
  9.3538028e-01
  1.0331635e-01
  3.1671507e+00
  1.1859789e+00
  6.2702494e+00
 -4.3775237e-01
 -3.7568346e-01
  3.5383811e+00
  2.4414279e+00
  5.2399244e+00
  1.8085372e+00
  1.1410908e+00
  2.2767828e+00
 -6.9522071e+00
  2.5501065e+00
 -5.4239249e+00
  1.1144385e+00
 -1.8954574e+00
  5.0567107e+00
  4.5940747e+00
 -3.7214012e+00
  4.2405134e-01
  3.0857158e+00
 -2.9028606e+00
 -7.5943112e-01
  5.8069410e+00
  6.1799827e+00
  9.2106056e-01
 -4.0668720e-01
 -2.6813052e+00
 -2.8044429e+00
  2.9136450e+00
  7.0296488e+00
  4.8957378e-01
  4.3803892e-01
  4.8351932e+00
 -8.8791335e-01
 -4.9001911e-01
 -1.8630935e+00
  4.3968344e+00
  3.0625892e+00
  3.1577328e-01
  4.5316963e+00
 -8.6128658e-01
  1.3825140e+00
 -2.6003811e+00
 -1.8818746e+00
 -9.5888722e-01
 -3.5270119e-01
  1.6165477e+00
 -2.5318439e+00
 -6.7700896e+00
 -4.3834491e+00
  2.2248497e+00
  5.2914133e+00
  5.2128720e+00
  7.7348022e+00
  2.3980277e+00
 -1.9657306e-01
 -5.7376428e+00
  1.4832152e+00
  6.1241841e+00
  2.6282203e-01
  1.1446927e-02
  9.0617510e-03
 -2.5750856e+00
 -2.6663563e-01
  1.3042963e-01
 -5.0830421e+00
 -4.6628764e-01
 -1.0894230e-01
  2.1915831e-01
  3.3458364e+00
  5.8948936e+00
 -5.6888777e-01
  1.7769392e+00
 -7.6603193e+00
  1.8797027e+00
  1.4294538e+00
 -2.2073975e+00
 -1.4784461e+00
 -4.8634395e-01
  2.5230145e+00
 -2.1141298e+00
  2.2060440e+00
  4.3877169e-01
 -1.2563916e+00
  1.3841459e-01
 -4.5129519e+00
  1.4906228e+00
 -5.8188379e-02
 -1.7337940e+00
 -6.2922177e+00
  1.1037821e+00
  6.2159963e+00
  1.8245243e+01
 -1.2437296e+00
 -4.9642959e+00
  7.0863485e-01
  3.5676014e+00
  4.3162870e+00
 -1.1246169e+01
 -1.2168164e+00
  1.3888119e+00
 -2.8317277e+00
  4.8575822e-01
  1.5375334e+00
  7.7107084e-01
  1.5482100e+00
 -1.3917971e-01
  9.2845526e+00
  2.0338390e+00
  4.0768185e+00
 -1.1384190e+00
 -1.4733756e+00
 -9.4410104e-01
 -2.1213903e-01
  1.1024169e+00
  6.6763467e-01
  2.4008018e-01
 -2.9048115e-01
  1.1287912e+00
 -5.6805878e+00
 -2.9188159e-01
 -1.4787624e+00
  2.9584572e+00
  2.7120612e+00
 -1.8083615e+00
 -3.6232402e+00
 -3.7491863e+00
 -1.2648139e+00
 -4.9543691e-01
 -8.4281123e-01
  2.9452438e+00
 -2.5408740e+00
 -3.2163734e+00
  2.0422659e+00
  2.9042456e-02
 -2.2581680e+00
 -3.2651536e+00
 -1.5052447e+00
 -3.4886026e+00
  2.6695824e+00
 -4.3406925e+00
 -3.3675704e+00
 -1.0981106e+01
  4.1537261e+00
  2.7604656e+00
  4.3646421e+00
 -1.6501676e+00
  1.4714333e+00
 -1.7600619e+00
  4.8497210e+00
 -1.9519744e+00
  2.4284694e+00
  4.3008065e+00
  1.3095738e-01
  6.9318461e+00
  8.1443042e-01
 -1.2782245e+00
 -1.2591522e+00
 -1.2311555e+00
 -2.8146400e+00
 -7.4579036e-01
 -4.0696063e+00
 -6.2733507e+00
 -3.5291247e+00
 -1.4895741e+01
 -8.0594528e-01
 -4.6126351e+00
  4.0734873e+00
  3.5582116e+00
 -1.1203979e+00
 -4.9078903e+00
  6.8648977e+00
  3.4381623e+00
  1.3451570e-01
  1.0399570e+00
  3.7917729e-02
 -9.1650289e-01
 -7.4360865e-01
  1.7546633e+00
 -5.2776752e+00
  2.8829774e-01
 -1.3507521e+00
 -6.3998896e-01
  7.2044468e+00
 -6.1826591e+00
 -4.3473718e-01
  1.3858037e+00
  1.7545671e+00
  2.5557096e+00
 -5.5471721e+00
  6.9233680e+00
  5.2961636e+00
 -2.5188926e-01
 -1.0397694e+00
 -1.1835742e+00
 -6.5790458e+00
  7.0882864e+00
  4.6731448e+00
  2.2886608e+00
 -4.3257608e+00
 -3.3040199e-01
  5.9056711e-01
 -2.5024345e+00
 -2.2757329e-01
 -4.3781228e+00
  8.3730258e-02
 -7.9372246e-03
  5.2927475e+00
 -7.9437070e+00
 -6.8737990e-01
 -8.9670032e-01
 -6.7629099e-02
 -3.0382168e+00
 -2.1535141e+00
  3.4151344e+00
  5.6288614e+00
 -3.3541677e+00
  9.5332479e-01
 -5.6721848e-01
 -2.4049902e+00
  9.9812537e-01
 -3.5642428e+00
  4.0825624e+00
 -1.9332713e+00
  5.2569184e+00
  5.1239973e-01
  5.4809326e-01
 -1.7099830e+00
 -3.2215557e+00
  2.9145002e+00
  1.8951722e+00
 -2.2126033e+00
  3.4431858e+00
 -2.1756940e+00
  3.1218300e+00
 -7.3564059e-01
  3.0391490e-01
 -3.8014176e-01
  3.5345585e+00
 -4.9025174e-02
 -1.2433697e-01
 -3.2226241e+00
  5.3013477e+00
 -1.3490683e+00
 -1.9595206e+00
  2.1498158e+00
  1.8773904e+00
  3.7113223e+00
 -4.3761981e-01
 -1.5178813e+00
  1.0884494e-01
  2.7723068e-01
 -4.1056137e+00
  2.2274171e-01
 -8.1559687e+00
 -3.6041300e+00
 -8.5232151e-01
 -6.2491703e+00
  1.0175305e+01
 -1.3733253e+00
  2.0456362e+00
 -1.1430278e+00
  2.6204164e+00
 -5.8265839e+00
  1.7850353e-01
  1.6295922e+00
 -5.4607183e-01
 -1.1638706e+00
  4.5731406e+00
 -2.7514371e-01
  2.2523978e+00
 -3.0956192e+00
 -3.2316363e-01
  1.6045955e+00
 -7.6657259e-01
 -2.2930009e+00
 -1.1797490e+00
  7.6818144e-01
 -4.4995170e+00
  1.8720216e+00
  4.8055708e-01
 -2.1756959e+00
 -2.1000181e-01
 -5.4687576e+00
  3.2823694e+00
  6.6165895e+00
  7.3418355e-01
  2.3927412e+00
 -4.3181243e+00
  6.6278028e-01
  4.6143889e+00
 -2.6113200e+00
 -2.3408771e+00
 -6.6152662e-01
  3.3027921e+00
 -4.3122432e-01
  6.9605722e+00
  8.4518784e-01
  8.1343764e-01
 -1.8827994e+00
 -6.8988028e+00
 -8.5798961e-01
  3.3698887e-01
 -1.1137220e+00
 -2.4437621e+00
  6.8406671e-01
  9.6457571e-01
  2.0017688e+00
 -1.3019785e+00
  7.3854971e-01
  4.3665990e-01
 -2.9421289e+00
  4.3779879e+00
  4.1181722e+00
  2.5535755e-02
 -4.6073098e+00
 -3.1164978e+00
  1.9359758e+00
  2.8110363e+00
  5.6782734e-01
 -3.8151274e+00
 -3.7299377e-01
 -1.3755647e+00
  2.5550973e+00
  1.7064041e-01
  9.2988199e-01
  1.0581549e+00
  5.6055779e+00
 -3.8849580e+00
  4.6418452e+00
 -3.2946570e+00
  4.1812149e-01
  5.4778332e-01
 -3.4535486e-01
  1.5825048e-01
 -3.9492798e+00
  2.9658360e+00
 -3.8861139e+00
  1.4985960e+00
  3.7778192e-03
  3.5603693e+00
 -5.6910044e-01
  4.0876824e-02
  4.0880785e+00
  1.0056503e+00
 -2.6225524e+00
  7.6690489e-01
 -1.0462639e+00
  2.2657256e+00
 -2.2461364e+00
 -6.3349991e+00
 -1.2455225e+00
  5.7874817e-01
 -2.7846849e-01
  4.5482726e+00
  1.5960022e+00
 -1.2408168e+00
  1.4101948e-01
 -1.8040745e-01
  2.7897823e-01
  3.4777731e-01
 -3.9687018e+00
  5.7896485e+00
  9.0445542e-01
 -1.2511762e+00
  5.3283817e-01
  6.7623138e+00
 -2.1411104e+00
 -7.6341481e+00
  2.2067094e+00
  2.5776556e+00
  4.5242043e+00
 -3.8784871e+00
 -5.6961575e+00
 -2.6172433e+00
 -1.2002577e+00
  9.6666729e-01
 -6.4463174e-01
 -3.2051923e+00
 -3.6066349e+00
 -4.8059406e+00
 -2.8837237e+00
 -1.0565789e+00
 -1.9771149e+00
  7.7873129e-01
  6.1843090e+00
 -3.0724030e+00
  5.2528696e+00
 -4.3556542e+00
  5.9575248e-01
 -1.0824649e+01
 -7.4467069e-01
  1.2831254e+00
 -3.9484079e+00
  5.0815582e-01
 -1.3227737e+01
  6.4405475e+00
  2.1317430e+00
  9.6690977e-01
 -1.0887305e+00
 -1.3101707e+00
 -7.5885224e-01
 -2.8329530e+00
  2.2278407e+00
 -5.9815305e-01
 -3.5552442e-01
 -3.1395390e+00
 -1.7031715e+00
  7.5130105e-01
  9.8541346e+00
 -1.9345542e+00
 -4.9288015e+00
  1.1014950e-01
 -7.8906924e-01
 -2.3662488e+00
 -3.1452250e+00
 -4.7279601e+00
 -6.9869441e-01
  1.1008888e-01
  1.2950206e+00
 -1.3226874e+00
 -5.3239932e+00
  1.7637151e+00
 -7.0297700e-01
  4.5971209e-01
  3.3066463e+00
  7.0117884e+00
  3.5553675e+00
  6.4117627e+00
  3.1403434e+00
 -1.0459723e+00
  1.9497815e+00
 -5.3577824e+00
  3.6142683e+00
 -2.1688206e+00
 -4.1625965e-01
  9.8658049e-01
  4.6160084e-01
 -7.3705636e-02
 -4.8052239e+00
  1.5188246e+00
  1.2080891e+00
  8.9332873e-01
 -1.8982495e+00
 -5.4409003e-01
 -1.6636567e+00
 -4.0958494e-01
  2.3318818e+00
  1.6105286e+00
 -2.1087761e+00
  1.9642298e+00
  5.8342987e-01
  8.8584131e-01
 -3.0112991e+00
  4.9692178e+00
  9.9595910e-01
 -2.5492101e+00
 -1.4457886e+00
  4.8469430e-01
  4.6517100e+00
 -2.6861777e+00
  8.2114202e-01
  3.9678452e+00
  1.0826468e+00
  1.2787080e+00
 -6.4898729e-02
 -9.0858203e-01
 -2.1110773e-01
  2.3737786e+00
  1.5959194e-01
 -1.6546134e+00
 -1.6388584e+00
 -1.3330771e+00
  1.5909115e+00
 -6.4783235e+00
  3.5431430e+00
 -1.2983546e+00
  1.4442066e+00
  8.6256113e+00
 -9.7102486e-02
  1.1101702e+00
  2.2144148e+00
 -2.5512109e+00
  6.3279085e+00
 -4.9343600e+00
 -1.5039088e+00
 -2.7489719e+00
  1.3134124e+00
 -2.8214633e+00
 -3.9611073e+00
 -7.7231854e-01
  1.0531582e+00
  1.8604670e+00
  2.7718639e+00
  3.5772715e+00
 -4.4059870e-01
  4.9119678e+00
  5.1877308e-01
  7.4168783e-01
 -3.2001963e+00
 -2.0872376e+00
  6.4644103e+00
  6.8773967e-03
  1.9486713e+00
  1.4118505e+00
  4.2884536e+00
  3.8352662e-01
 -2.0851675e-01
  1.2521888e+00
  1.2807759e+00
  1.0972077e+00
  5.5796945e-01
  5.6607738e+00
  1.5894840e-02
 -3.0691364e+00
 -2.1902978e+00
 -4.6160361e-01
 -1.1116289e+00
 -3.5161188e+00
  1.1423928e+01
  1.3135360e+00
  6.3124287e-01
 -8.0998963e-01
  7.0856369e-01
  3.6619661e+00
  1.5230604e-01
 -7.0297689e+00
  1.5181079e+00
 -1.2803000e+00
  1.8241688e+00
 -4.5050827e-01
 -8.3734566e-01
  2.2898309e+00
 -1.0563283e+00
 -2.6734736e+00
 -7.5864321e-01
 -4.6222687e+00
 -3.5905382e-01
  2.0002413e+00
 -1.2722537e-01
 -6.4662051e-01
 -7.0155555e-01
 -5.5544424e+00
  2.8739748e+00
  4.1828575e+00
  2.5741601e-01
  1.4076656e+00
 -1.4818664e+00
  2.1763048e+00
  1.6431858e-01
  8.1671631e-01
 -1.0047458e+00
 -1.9992255e+00
  6.4636970e-01
 -9.1264755e-01
 -3.0458503e+00
 -7.9388866e+00
 -4.2002311e+00
 -5.0477255e-02
 -5.4741001e-01
  2.6582177e+00
 -1.6264206e+01
  2.0782781e+00
 -3.6852401e-01
 -3.3202685e-02
 -5.1128358e-02
 -3.7886322e+00
  1.2533956e+00
 -2.1271613e+00
  1.7102779e+00
  7.2036986e+00
 -2.6441934e+00
  5.1854458e+00
 -7.2830665e-01
  2.2968483e+00
  7.3850507e-01
  8.4865131e+00
  8.3983284e-01
 -2.2042341e+00
  6.7456609e-01
 -3.3931739e+00
 -9.8108253e+00
  4.6914840e+00
 -1.0885545e+00
 -2.1668410e+00
  4.7865524e+00
 -3.7391143e+00
  2.8448531e-01
  3.3038709e-02
 -1.6427858e-01
  1.1253936e+00
 -2.7607539e-01
 -5.4178661e-01
 -1.9464989e+00
  3.2625005e+00
  1.5758425e+00
 -6.0941917e-01
  1.3004918e+00
  3.4162843e+00
 -6.3584375e+00
 -1.1622798e-01
  2.3093879e+00
 -1.7148280e-01
  1.6403270e+00
  1.8399535e+00
 -9.4041091e-01
 -2.7155015e+00
 -3.4626288e+00
 -1.9365832e+00
 -1.1635028e+00
  1.0340521e+00
 -1.0628789e+01
 -9.8728389e-02
 -2.5409338e-01
 -3.9073360e-01
 -3.3623877e-01
  1.1525170e+00
 -5.8759780e+00
 -6.7547667e-01
  1.1671529e+01
  9.1522908e-01
 -3.9375250e+00
 -1.6504656e+00
  3.9237719e+00
 -4.6095663e-01
  2.0740948e+00
  7.5371242e-01
 -1.2772001e-01
 -1.3439823e+00
 -2.3082013e+00
  2.0401933e+00
 -2.5207143e+00
  8.4243125e-01
 -4.9143207e-01
 -1.3054950e+00
  2.8828466e-01
  1.5444554e+00
  2.7114677e-01
 -3.2065746e-01
 -3.8474870e+00
 -7.4412770e+00
  8.5147506e-01
 -1.9843098e+00
 -5.2752334e-01
 -6.5804362e+00
 -5.4320946e+00
  8.2940000e-01
 -3.9672551e+00
  2.9409990e+00
 -2.0881851e+00
 -3.7479796e+00
 -1.2505403e+00
  3.5833421e+00
  4.6423888e+00
  8.7406224e-01
  1.1745638e+01
  1.0631394e+00
 -1.5476354e+00
 -5.9506409e-02
 -2.9654274e+00
 -2.0252554e+00
 -2.4093273e+00
 -1.3880311e+00
  2.2998223e+00
 -3.0376990e+00
  4.4984264e+00
  6.1883926e+00
 -1.4324780e+00
 -3.1132267e+00
  1.7804295e-01
 -2.3657007e+00
  2.1712472e+00
 -2.3227890e+00
  1.9589266e+00
  2.8403308e+00
 -2.3796470e+00
  1.1640081e+00
  5.2823395e-01
 -4.1459632e+00
  8.1491315e-01
  3.0080314e+00
  5.1222954e+00
  2.5011632e+00
 -2.3087733e+00
  9.0317287e+00
 -4.0954332e+00
  6.5982491e-01
 -1.0184265e+00
  3.2940659e-01
  1.2042640e+00
  8.9379482e+00
  5.1496758e+00
  3.1381159e+00
 -1.4000355e+00
 -1.5986992e+00
 -6.0373908e-01
  4.6003904e+00
  1.7919494e+00
  2.9020879e+00
 -8.4272432e-01
 -1.0180222e+00
 -5.0565898e-01
 -1.7567898e+00
 -4.0633459e+00
  1.6544150e+00
  4.6660438e+00
 -1.6172130e+00
 -6.1422558e+00
 -2.6690209e-01
  2.8444173e+00
  1.0706216e+00
  3.7850657e-01
  1.0401317e+00
  4.4746843e-01
  2.8750319e+00
 -3.0450635e+00
 -2.0889728e+00
  1.0294132e+00
 -1.0888058e+01
 -3.0668372e-01
  2.8141966e+00
 -8.0183387e-01
 -8.9794359e+00
 -9.9923315e+00
  3.6083524e+00
  3.2517582e-01
 -3.0205469e+00
 -6.2504792e+00
 -2.6644726e+00
 -9.0432072e-01
  7.0973021e-01
 -1.1314623e+00
  5.3878770e+00
 -2.9578233e+00
 -4.9042006e+00
  3.8136163e+00
 -1.5362194e-01
 -7.8564548e+00
  4.3970823e+00
 -1.1298683e+00
  1.2416024e+00
 -9.4530016e-01
  3.3867383e-01
  4.1794968e+00
 -3.9185870e+00
 -1.1365378e+01
  1.2763691e+00
  8.9774156e-01
  6.6559839e-01
 -6.3447933e+00
 -5.3088002e+00
 -5.1898444e-01
 -2.4203427e+00
  2.2851565e-01
  2.8445256e+00
 -1.7734717e+00
  2.2120051e+00
 -1.0041400e+00
  1.0765295e+00
 -2.4726353e+00
 -2.4345288e+00
  2.0010738e+00
 -7.1209335e+00
  7.0931721e-01
 -4.2538753e-01
  2.9558582e+00
 -3.7511961e+00
 -9.4643843e-01
  3.4147599e+00
  5.3240709e+00
  2.4967904e+00
 -1.7608360e+00
  1.2899797e-01
 -3.0710265e-02
  2.6384753e-01
  8.5296810e-02
 -5.0132194e+00
  1.8725306e+00
 -1.5813570e+00
 -7.2459877e-01
  4.4640436e+00
 -1.1606300e+00
  2.6468346e-01
 -3.5374746e+00
 -8.6374217e-01
  3.4215510e-02
  1.9033754e+00
  2.5960062e+00
 -1.6473060e+00
 -2.3237338e+00
  1.9595624e+00
 -1.0159595e+00
 -1.4945979e+00
  2.8188627e+00
 -6.7309064e-01
  3.0654013e+00
 -5.6213880e+00
 -1.7654362e+00
  2.2351456e+00
  3.0385492e+00
  3.8621488e+00
 -2.1692083e+00
  2.7553797e+00
 -7.1203792e-01
  2.6156244e+00
 -2.5941377e+00
  9.9044394e-01
  5.8938189e+00
 -2.0285351e+00
  2.7782254e+00
 -3.6488805e+00
  1.0486963e+00
  2.3348582e+00
 -3.2512631e+00
 -4.7594333e+00
 -7.1357660e-02
 -6.4916863e+00
 -2.6365870e-01
 -3.8262115e+00
 -1.2686665e+00
 -4.2380753e+00
  1.0516328e+00
  3.0233514e-01
 -4.9699931e+00
  1.4373950e+00
  5.3930345e+00
  1.8466036e-01
 -1.2158074e+00
 -5.9861135e+00
  3.6537180e+00
 -2.6938226e+00
  2.8275123e+00
  3.7016168e+00
  5.9385309e+00
  2.3486352e+00
 -4.0992846e+00
 -6.8255043e-01
 -2.7167861e+00
 -3.6589810e-01
  4.0979390e+00
 -2.4062428e+00
  2.7947278e+00
  1.8757061e+00
  1.2963679e+00
  6.8393250e+00
  8.0891019e-01
 -3.9522192e+00
  2.6921921e+00
 -9.9386609e-01
  3.5600326e+00
 -6.1467826e-01
 -2.8749661e+00
 -2.1872232e+00
 -2.1188807e+00
 -7.3854101e-01
  2.2238786e+00
 -3.3560579e+00
  1.6272973e+00
 -1.7058620e-01
  1.3458344e-01
  6.3976355e+00
  4.7701475e-01
 -2.3591785e+00
  1.3550669e-01
  5.9230180e+00
 -2.0701375e+00
 -3.2144156e+00
 -6.0190833e-01
 -1.4453982e+00
 -2.2092889e-01
  4.9473351e-01
  1.3314211e+00
  3.5514071e+00
 -1.9555541e+00
  4.1304469e+00
  6.3983588e+00
 -7.8434247e-01
 -2.6539292e+00
 -6.3905015e+00
  1.1295542e+00
 -2.6817293e+00
 -6.6557842e-01
  4.4022169e+00
  1.7942255e+00
 -1.6329722e+00
  6.7137547e+00
  1.5068542e+00
 -7.8017986e-01
 -4.7278330e-01
 -9.2521089e-01
 -3.0960860e+00
 -1.6521757e+00
  1.5211656e+00
 -7.6310034e+00
  2.3756485e+00
 -8.6056385e+00
  6.0132194e+00
  3.8273227e+00
 -1.2437642e-01
 -3.0754834e-01
 -1.1354480e+00
 -1.0287783e+00
  1.9317899e+00
 -2.6173670e+00
  3.7338305e-01
 -8.0640239e-01
  5.5345511e-01
 -3.5900848e+00
  4.2909500e-01
  1.4469774e+00
 -4.4224992e+00
  1.1825134e+00
  2.6842135e-01
  6.5438743e+00
  1.6206962e+00
  1.2445495e+00
  1.5897973e+00
 -1.5185241e+00
 -4.1385841e+00
  7.9025185e-01
  1.5656006e+00
 -2.5218761e+00
 -1.5453293e+00
  1.3392583e+00
 -7.7718377e-01
  4.7799003e-01
 -3.5830501e-02
  7.2191477e-01
  8.2484856e+00
  3.5027298e-01
  2.4109490e+00
 -4.1980538e+00
  1.2260414e+00
  1.1723268e-02
 -9.4646788e-01
 -2.1302848e-01
  1.8327563e+00
 -2.6793156e+00
  4.0313153e+00
 -2.0204685e+00
 -2.6061683e+00
  7.0604008e-01
 -2.0674129e+00
  6.5828931e-01
  5.8479553e-01
 -2.0274320e+00
 -2.5052097e+00
 -4.6755174e-01
  1.9847099e+00
 -6.6797147e+00
  1.7981558e+00
  4.2270404e-01
  8.8255197e-01
  1.8782767e+00
  5.1503684e-02
 -2.6718605e+00
 -4.3536105e+00
  8.5208309e-01
 -4.4847813e+00
 -1.2762322e+00
 -1.4846802e+00
  2.8873410e+00
  1.1169064e+00
 -2.4102652e+00
  1.1160527e+00
 -2.1343479e+00
  1.3512729e+00
  6.7625540e-01
 -1.0536715e+00
  2.5962088e+00
 -2.7450165e-01
  2.3402178e+00
  2.5083325e+00
 -2.5598720e-01
 -2.5854797e+00
 -4.8817313e-01
  1.5192364e+00
 -1.9955519e+00
  2.4338181e+00
  6.9297643e+00
  1.7532045e+00
 -2.1124389e+00
  1.6521358e+00
  4.8191743e+00
 -3.2336092e+00
  3.4121987e-01
 -4.9898896e+00
 -5.4820542e+00
  4.8199959e+00
 -1.1128633e+00
  1.2665528e-01
  1.3392609e+00
 -7.5249181e+00
 -6.7852098e-01
  7.3300982e+00
 -4.3027792e+00
 -3.7932029e+00
 -1.6769367e+00
  3.1862888e-01
 -1.2590163e+00
  2.7725906e+00
  1.8629358e+00
 -2.0886335e+00
  1.2754945e+00
 -9.2074066e-01
 -2.0839124e+00
  3.2957819e-01
  6.1526299e-01
 -1.9373806e+00
  2.0371375e+00
 -6.3381422e-01
 -2.6647518e+00
 -3.4915590e+00
  1.0464168e+00
  6.2110257e+00
  2.9638779e+00
  5.2666793e+00
 -1.5623021e-01
  9.4374740e-01
  4.6488428e-01
  1.3732992e+00
 -8.3546644e-01
 -6.9149199e+00
 -2.2646766e+00
  5.9877224e-02
  6.7833084e-01
 -3.6803429e+00
 -1.0560280e+01
  8.2263857e-01
  2.3708627e+00
 -5.1285715e+00
 -8.7052715e-01
  3.9024901e-02
  7.0687122e+00
  6.9241971e-01
 -2.5249891e+00
  2.2666223e+00
  2.6094949e+00
 -3.0949779e-02
 -5.1100283e+00
  1.7417929e+00
 -4.4249334e+00
 -3.6737325e+00
  4.3386337e-01
  5.8490634e-01
 -4.5023074e+00
  1.2948412e+00
  4.3844428e+00
  9.5133048e-01
  6.6680360e+00
  2.8244631e+00
  2.0681951e+00
  1.3540299e-01
 -3.1424075e-01
 -1.2265328e+00
 -1.1027006e+00
  2.9832596e-01
  8.3440691e-01
  1.3265167e+00
 -4.1138625e-01
  8.0254602e-01
  1.4220941e+00
  4.1415304e-01
 -4.0531790e-01
 -2.6359966e+00
 -5.0376401e+00
  4.8249662e-01
 -7.8804541e-01
 -1.7953271e+00
 -2.1583848e+00
 -5.6221914e-01
  2.6612809e+00
 -7.9746097e-02
  1.4758579e-01
  1.0519894e+00
 -1.7882527e+00
 -1.1352648e+00
 -3.8699245e+00
 -1.8311110e-01
 -3.8076477e+00
  4.4882077e-01
  3.5579844e+00
  3.3973129e+00
  9.4747400e-01
 -3.1969793e+00
 -2.4089279e+00
 -1.7895052e+00
  1.4904925e+00
 -2.5322480e+00
 -6.1487679e+00
 -1.6375000e+00
 -2.3424914e+00
 -3.3466580e+00
  5.3796473e+00
  8.1046686e-02
 -1.6900449e+00
  2.4033892e+00
  1.8274026e+00
 -3.1526133e-01
 -2.1015670e+00
  8.1734142e+00
  8.9884657e-01
  2.4962786e-01
 -2.6127143e+00
 -1.4372896e-01
 -8.7414557e-01
 -3.1774204e+00
  5.8794489e+00
 -9.4660863e-02
 -2.4972944e+00
  7.3210484e-01
 -5.9506607e-01
  2.6914230e-01
  3.0512519e+00
 -4.5228233e+00
  3.2614799e+00
  9.3824673e-01
  5.9056914e-01
 -7.1519864e-01
 -9.0903682e-01
 -6.5447655e+00
  8.9618415e-01
 -4.1391997e+00
  8.7325191e-01
  3.0426294e-01
 -1.2735121e+00
  3.3969808e+00
 -6.4533224e+00
 -3.3230600e-01
  1.0596130e+00
 -1.8406116e+00
  2.0073357e+00
 -3.6347225e+00
 -5.5427486e-01
  2.7696328e+00
 -2.9066679e-01
  1.8124681e+00
 -2.8541625e+00
  3.7442107e-02
  4.5579827e-01
 -5.8050170e+00
 -5.4044037e+00
  2.0538392e+00
 -2.5315127e+00
  1.4458301e+00
 -2.8272192e+00
 -2.7989516e+00
 -1.6164254e+00
 -6.2684312e+00
  1.2522055e+00
 -8.3840084e-01
 -2.8827531e+00
 -2.2787597e+00
  4.3080807e+00
  7.2853265e+00
 -1.8033725e+00
 -9.5112867e+00
 -1.1151413e+00
  3.8618903e+00
 -5.5329478e-01
  1.4579830e+00
  7.3813474e-01
  5.5223107e+00
 -2.1990864e+00
  5.6015956e-01
 -9.4136730e-02
 -9.2481101e-01
 -2.8862860e+00
  4.1015819e-01
 -6.7473555e-01
  5.6146197e+00
  3.1697183e+00
  5.6962543e+00
 -3.0090125e+00
 -1.5729249e+00
 -1.9386209e+00
  3.0289888e+00
 -4.6852784e+00
 -2.2613011e-01
  1.0007429e+01
  1.0710497e+00
  5.1360101e-01
 -7.7211088e-01
  6.5465170e-01
 -4.9946666e+00
  1.0477779e+00
 -1.3772371e+00
 -1.8436680e+00
 -1.5561274e+00
  2.5916133e+00
  5.5165796e+00
  5.4233730e-01
  8.4244154e-02
 -5.2335315e+00
  2.7284429e+00
 -1.0310363e+00
 -2.0928836e+00
 -3.5966527e-01
  7.6491313e+00
  8.1171045e+00
 -8.3599794e-01
 -7.8582960e-01
 -1.6032615e+00
  9.2933333e-01
 -2.7779846e+00
 -4.7178760e+00
 -1.3468384e+00
 -4.7865882e+00
 -6.4747196e-01
  1.3250477e+00
 -2.0966687e+00
 -1.2306328e+00
 -1.4062917e+00
 -6.4106474e+00
 -1.8153282e+00
 -8.1021004e+00
  2.1655197e+00
 -8.6877191e-01
 -1.3323911e+00
 -2.2778914e+00
  3.7105975e+00
 -2.4091259e-01
 -6.2855692e+00
 -9.3415489e+00
  4.5940285e+00
  5.7283539e-01
  2.3611917e+00
 -2.4131844e+00
 -6.7940245e+00
 -1.2283897e+00
  1.6969469e+00
 -5.4958695e-01
 -2.3005269e+00
 -5.7246618e+00
 -6.8137155e+00
 -1.8789837e+00
 -2.3689896e-02
  2.6450465e+00
 -3.8567920e+00
 -8.6896069e-02
 -2.2209034e+00
 -8.2660580e+00
 -3.5364223e-01
 -1.1227289e+00
 -8.6723059e-01
 -8.4128791e-01
  2.6301855e-02
  4.2563835e-01
 -4.0300856e+00
 -1.1438361e+01
  5.1570070e-01
  1.7395949e-01
  9.2989016e-01
 -8.0420828e-01
  2.3557501e+00
  4.1509548e-01
  3.0276217e+00
 -1.1636264e+00
  5.5643559e-01
  6.9231992e+00
 -5.9853864e+00
  3.1048864e-01
  3.3551786e+00
  1.6928439e+00
 -4.0820327e+00
  2.2755082e+00
 -3.3618040e+00
 -2.9893100e+00
 -6.9432373e+00
 -1.0597404e+00
  2.0619340e+00
  4.5117860e+00
  1.5435731e+00
  3.4525791e-01
  2.1259119e-01
  5.3932238e+00
 -6.0796685e+00
 -3.3618870e+00
  8.0865151e-01
 -7.9747337e-01
 -2.2071409e+00
  8.2363158e-02
 -9.2084628e-01
 -9.8111004e-01
  6.1525030e+00
 -1.5082403e+00
 -2.2037566e+00
  6.1248738e-01
 -1.8289218e+00
  8.2614881e-01
 -7.5058341e-01
 -5.7829828e+00
  6.9390674e+00
  4.3082228e+00
  7.3570466e-01
 -3.9584286e+00
  1.2935764e+00
  1.1694016e+00
 -1.1267083e+00
 -3.5497272e+00
  4.2476778e+00
 -6.9706068e+00
  4.0201612e+00
  4.5047727e+00
  1.6230454e+00
  8.4637690e+00
  6.1716928e+00
 -6.2017769e-01
  4.9678931e+00
  1.0278389e+00
 -6.9164281e+00
  9.5216423e-01
 -4.8212618e-01
  2.4778719e+00
 -1.3026239e+00
  1.5391926e+00
 -1.0633479e+00
  3.1821997e+00
  2.0467546e+00
 -1.3685206e+00
 -1.9726474e+00
 -5.1674504e+00
 -3.3465569e+00
  1.0009654e+00
 -1.1988629e+00
  5.0381351e-01
  4.4811759e+00
 -4.0053039e+00
 -3.1748283e+00
  1.1834946e+00
 -2.2918238e-01
 -3.6535435e+00
 -4.3069449e-01
 -2.1772258e-01
  1.4059211e+00
  3.9089384e+00
 -4.5889297e+00
 -2.0191872e+00
  7.7368659e-01
  2.2298818e+00
  2.1896297e-01
  5.2651300e+00
 -3.5632358e+00
  2.3049748e+00
 -7.6976761e-02
 -1.7887191e+00
  7.0195061e-01
  5.2430358e+00
 -1.3704328e-01
  2.2421942e+00
  8.1214434e-01
 -2.1134984e-01
 -7.6815052e+00
 -5.4238814e-01
  2.8152294e+00
 -1.3712671e-01
  3.8569300e+00
 -1.5756415e+00
  4.2287936e+00
  1.4789824e+00
 -2.4507253e+00
  1.4584625e+00
  3.1792831e+00
 -4.1607666e+00
  2.8423200e+00
 -5.5325009e-02
  1.3464444e+00
 -6.0021788e-01
 -1.0251172e+01
  3.8831431e-01
  3.0545397e+00
 -2.1030672e+00
 -2.8977053e+00
 -7.8508925e-01
 -2.3930333e+00
  2.9216841e-01
  3.1038463e-01
 -1.7649765e+00
 -4.6661820e+00
  2.5163896e+00
 -4.5834810e-02
  8.9500117e-01
  8.2931459e-01
  3.9314590e+00
 -3.9429517e+00
 -9.5417862e+00
 -3.4605358e+00
 -1.9571590e+00
  2.2741835e+00
  7.5599784e-01
  2.0482216e+00
  2.8973672e-01
 -3.9107275e+00
 -1.1988405e+00
 -1.1980235e+01
 -2.4346605e-01
 -3.4807973e+00
 -1.3825200e+00
  1.8022710e+00
 -1.5544329e+00
  3.8198972e-01
 -3.9491613e+00
  7.3289890e+00
  5.8429174e-02
 -1.2630963e+00
 -4.5016017e+00
 -5.2659905e-01
 -1.0362745e-01
 -1.8404923e-01
  8.9296335e-01
  1.3639060e+00
  5.8186994e+00
 -8.9710414e-01
  7.6900816e-01
  6.0566649e+00
  3.9130936e+00
 -3.3887689e+00
 -4.0961599e+00
 -3.2049268e-01
 -4.2692151e+00
 -7.8671998e-01
  4.0041900e+00
 -8.3277687e-02
 -1.8799485e-01
 -6.6330475e-01
 -1.9391849e+00
 -2.6355028e+00
  1.0028716e+00
  1.0860784e+01
  2.4563801e+00
  4.0895483e-01
  4.7686338e-02
  1.9284188e+00
  4.5993967e+00
 -2.6934526e+00
  1.1991445e+00
  1.6881613e+00
  8.9483994e-01
 -2.3961473e+00
  8.8260164e+00
  1.4914075e+00
 -2.2654206e-01
  8.5715570e+00
  1.5522987e-01
 -4.5767954e-01
  6.1762106e-01
 -1.6563857e+00
 -1.0212088e+00
  3.6968627e+00
 -7.3081821e-02
  4.9410632e-01
  9.1961575e-01
 -9.4734274e-02
 -3.0551846e+00
  8.8438101e+00
  1.6810355e+00
  6.3945737e+00
  8.3182186e-01
  6.1056390e+00
  6.5682352e-01
 -5.7413087e+00
  6.2079496e+00
 -4.8462486e+00
 -3.3817172e+00
  2.0315418e-01
 -7.3020992e+00
  4.8082164e-01
 -1.2111149e+00
 -2.6023142e+00
  6.6245270e+00
  8.2096930e+00
 -5.8413939e+00
  7.8999293e-01
  1.1417360e+00
  3.5622087e-01
  2.3573818e+00
  1.7116070e+00
  1.9468862e+00
 -6.8850813e+00
  7.8343034e-01
  2.5915241e+00
 -3.0743756e+00
  4.2427011e+00
  3.7987270e+00
 -2.7492055e-01
  4.2925978e+00
  1.6423658e+00
 -2.6781421e+00
  1.9424527e+00
 -1.8147150e+00
  4.3064423e+00
 -2.7111387e-01
 -8.1826180e-01
 -1.8529816e+00
  4.2864028e-01
 -5.5170689e+00
 -5.2343159e+00
 -5.7766743e+00
  2.4581206e+00
 -6.5185559e-01
 -6.2136827e+00
 -1.0943294e-01
  2.1886635e+00
 -4.4945577e-01
 -1.1973802e+00
  9.7624201e-01
 -3.7281150e-01
  3.9978862e-01
  1.0215712e-01
 -1.1300238e+00
  5.4585948e+00
 -6.8781242e+00
 -2.0814178e+00
 -1.5685198e+00
 -1.2949749e+00
 -2.4352365e+00
 -5.4528773e-01
  1.0485926e-01
 -2.9357283e+00
  7.1361232e+00
  1.0401024e+00
 -2.8570876e+00
 -4.1104522e+00
 -3.5928533e+00
  3.0886505e+00
  1.7426505e+00
 -3.4542055e+00
  3.3231926e+00
  1.4406585e+00
 -1.7584745e+00
  7.5810295e-01
  2.8225563e+00
  2.4151993e+00
  9.2960089e-01
  1.6118981e+00
  1.3443815e+00
 -1.8391862e+00
 -2.0823879e+00
 -1.2679510e+00
 -1.2001289e+00
 -8.4178460e-01
  1.2885555e+00
 -2.2437298e+00
  6.7994580e+00
  4.0358562e+00
 -1.7580420e+00
 -9.5883298e-01
 -4.5760183e+00
  1.0778296e+00
  8.3994761e+00
 -6.1201465e-01
 -1.3341079e+00
  6.4750490e+00
 -4.2804489e+00
  7.0600075e-01
  6.5086621e-01
 -1.2920939e+00
  4.6386042e+00
 -3.6376431e+00
 -6.1382484e-01
  6.0920835e-02
  1.5828990e+00
  3.2602925e+00
 -9.1714630e+00
 -2.5370464e+00
 -1.0336007e+01
 -1.9980421e+00
  7.3445816e+00
 -1.8454981e+00
 -6.3564224e+00
 -2.8039596e+00
 -4.6838322e+00
  2.1662894e-01
 -5.8461614e+00
 -2.2838244e+00
 -5.6267059e-01
 -3.6357176e+00
  3.1637728e-02
 -1.3832062e+00
 -2.8664718e+00
 -2.3923941e-01
 -7.9924852e-01
  1.4959098e+00
  2.2459173e+00
 -2.5992408e+00
  1.2450351e+00
 -4.1692033e+00
  2.7312856e+00
 -3.7915595e+00
 -6.5890546e+00
  7.0532477e-01
 -2.8868580e-01
  1.9948280e+00
 -7.1494732e+00
  1.0694079e+00
  1.7003078e+00
  1.0282555e+00
  2.4091415e-01
  2.7563186e+00
  2.2552349e-01
  6.1304483e+00
 -4.5481881e-01
 -2.6581547e+00
 -6.4876289e+00
  1.6081498e+00
  8.0635157e+00
  2.3427703e+00
  5.4463639e+00
 -4.2001250e-01
 -5.5068254e-01
  3.6864128e+00
 -4.3636066e-01
  1.8555859e+00
 -2.9957628e+00
  2.1708057e+00
 -5.3331041e-01
  9.6652383e-01
 -3.5101295e+00
  7.6039106e-01
 -1.1077744e+00
  5.9770060e+00
  1.0189236e+00
  1.4333780e+00
 -2.5100657e-01
  3.1058593e+00
  3.7912817e+00
 -3.5685480e-01
  1.4498595e+00
 -9.9805622e+00
  4.9873438e-01
  2.8146069e+00
 -1.1128913e+00
 -3.7647402e+00
  3.6105201e-01
  4.2316532e+00
  1.5922955e+00
 -1.3197759e+00
 -1.2201729e+00
  2.2762153e+00
 -1.3542709e+00
  2.2184257e-01
  1.3266240e+00
 -1.3768716e+01
  9.1358459e-01
  2.2403383e+00
  1.7855343e-01
 -7.7969617e-01
 -4.0171261e+00
 -1.6053034e+00
 -2.5069032e+00
 -1.9958888e+00
 -1.2471017e+00
 -2.3254645e+00
 -1.3611554e-01
 -2.1251059e+00
  5.6706886e+00
  1.7824490e+00
 -1.1928390e+00
  3.4996238e-01
  3.4126348e+00
 -6.7376435e-01
 -4.4189110e+00
  4.6439815e+00
  1.4332387e-02
 -1.7423354e-02
  1.9304919e-01
  6.5896730e+00
  9.0223879e-01
 -4.8005967e+00
  3.3112198e-02
 -4.1227993e-01
 -3.1895294e+00
  2.6006401e-01
  8.0612761e-01
  4.0840906e-01
  1.6768858e+00
 -1.8439694e-01
 -1.2919262e-01
 -3.9848297e+00
 -1.8592904e+00
 -1.7797785e-01
  2.3754409e-01
  7.7721610e+00
 -2.1604633e+00
  6.4956002e+00
  3.9679164e-01
  3.1604605e+00
 -9.4846678e-01
  3.3266002e-01
  2.9214158e+00
  2.8190587e+00
  1.7729656e-01
 -2.2785420e+00
  1.8813370e+00
 -5.8349085e-01
 -2.6544561e+00
  5.4114380e+00
  3.9184968e+00
 -4.0300007e+00
 -2.2875621e+00
  6.7458862e-01
  9.8257170e+00
 -1.1591415e+00
 -1.8504035e+00
 -2.0179106e-01
  9.8830193e-01
  2.6268787e+00
  2.2058673e+00
  2.6445689e+00
 -1.3966224e+00
  2.7467566e+00
 -4.8772082e+00
 -5.4956698e-01
  3.2385370e-01
  3.1506565e+00
 -3.3241272e+00
  5.3386068e-01
  4.5238805e+00
  1.3411906e+00
  7.2794926e-01
 -1.2998374e+00
 -2.5115530e+00
 -2.4409320e+00
  1.3919502e+00
  8.7033844e-01
 -1.6239309e-03
  2.9138339e+00
 -3.9077216e-01
 -9.5239270e-01
  9.3473740e-02
 -1.9571220e+00
  1.8811641e+00
  5.6047392e-01
 -3.0700698e+00
 -1.5023611e+00
  2.1674141e-01
  2.3516455e+00
  4.5405641e+00
 -4.1421943e+00
  5.8548617e-01
 -8.6467648e-01
  2.6881690e+00
 -4.4118733e+00
 -3.4212089e+00
  1.7492561e+00
 -2.7984605e+00
 -3.6151252e+00
 -1.3486115e+00
 -2.9592597e+00
  2.8532553e-01
  1.5331289e+00
 -3.1098289e+00
 -1.4711471e+00
 -4.6783339e-02
 -2.5117776e+00
 -6.6181841e+00
  2.8182964e+00
 -3.5072508e+00
 -2.8966436e+00
  1.2719271e-01
  1.0140890e+00
 -3.8961983e-01
 -4.1950545e+00
  2.2874546e+00
  2.7196474e+00
  9.0656722e-01
 -2.2453468e+00
 -7.1392584e+00
 -5.4893651e+00
 -2.9319911e+00
 -7.9855614e+00
 -2.5899305e+00
  5.8342423e-02
  3.6454942e+00
 -3.1749866e+00
 -1.4689655e+00
 -3.7115724e+00
  2.5824594e+00
 -5.1110191e+00
  6.9789491e+00
 -1.2504264e+00
 -2.1170158e+00
 -1.2921469e+00
 -7.1243334e-01
  1.1014655e-01
  2.1306565e+00
  4.0418558e+00
  5.4123044e+00
 -4.8053794e+00
  8.1181917e+00
 -8.5434586e-01
  4.4895024e+00
  1.3319703e+00
  3.7381532e+00
 -6.7379123e-01
  1.7706460e+00
  4.4384756e+00
 -3.9065608e-01
  9.3968314e-01
 -1.7631567e+00
  1.0941467e+00
  2.1532016e+00
  1.7493990e-01
  2.4850125e+00
 -9.2949849e-03
 -5.9875226e-01
  3.4094794e+00
 -6.9261491e-01
 -1.0001101e+01
 -1.1960849e+00
  4.2254391e+00
 -1.1617298e+00
 -8.7076515e-01
  4.4318156e+00
 -7.2117406e-01
 -3.0235107e+00
 -2.5055466e+00
 -9.4227371e+00
  8.4129977e-01
  1.2665455e+00
 -1.2696009e+00
 -1.0921975e+00
  2.0115478e+00
  2.3332125e-01
 -3.6759529e+00
  9.4511762e-02
  2.0227814e+00
  2.5955963e+00
  4.8882318e-01
 -4.6553059e+00
  3.2521744e+00
 -1.2991992e+00
  2.4785707e+00
 -5.5770636e-01
 -2.1815505e+00
 -6.5860558e-01
  4.0351284e-01
  1.0454127e+00
  6.9053090e-01
 -3.4571599e-02
  1.0699089e+00
  1.1468444e+00
 -1.1448849e+00
 -2.5388360e+00
 -2.8334255e+00
  2.7732642e+00
 -1.3935328e+00
 -1.6739585e+00
 -4.3825760e+00
  6.2808781e+00
  1.6757697e+00
  9.7314990e-01
  1.2532881e-01
  6.8498009e-01
  3.1212316e+00
  2.1592727e+00
 -5.4583490e-01
 -5.0944939e+00
 -1.4229281e+01
 -1.9730289e+00
  4.8940659e+00
 -1.9926675e-01
 -1.0909095e-01
  5.2998763e-02
  2.7918792e+00
 -1.0824852e+00
 -1.1490024e+00
 -2.0930071e+00
 -1.0410244e+00
 -7.0015316e+00
  2.9648478e+00
  7.9802960e-01
 -1.7880585e+00
  5.8378518e-01
 -2.7326851e+00
 -1.4427927e+00
 -2.5537813e-01
  1.6391468e+00
 -2.2490029e+00
  2.2278278e+00
  3.2217172e-01
 -2.8645542e+00
 -2.6335475e+00
 -2.1398869e+00
 -4.9234190e+00
  1.1731430e+00
  2.7533824e+00
  4.2122102e+00
  3.5961282e-01
  1.6741639e+00
 -3.1703718e+00
  1.5817156e+00
  1.2253281e+00
  4.3278104e-01
 -1.4998525e+00
 -5.2947479e-01
  3.9971631e+00
  7.4450988e-01
  6.6440380e-01
  6.6080627e+00
  1.9473300e+00
  1.3909042e+00
  6.9063854e+00
 -1.3617470e+00
 -1.6696754e+00
 -3.3210328e+00
  5.4058725e-01
 -2.9322405e+00
 -8.5303581e-01
 -7.7418454e-02
 -2.7725294e+00
 -6.8777046e+00
 -7.6828303e+00
  2.7255502e+00
 -2.8124340e-02
 -5.7360178e-01
  3.8785501e+00
  2.0499637e+00
  4.7832566e-01
  1.6613808e+00
 -1.0264791e+00
 -3.0637689e+00
 -4.0572848e+00
 -2.0068038e-01
  2.0832875e+00
 -1.2655718e+00
 -2.4552536e+00
  9.0212071e-01
 -4.5103035e+00
  2.1730113e+00
  2.7411222e+00
 -8.0389160e-01
 -1.1975265e+01
 -7.4615186e-01
 -1.5011113e+00
 -6.0563046e-01
 -2.1940939e+00
  4.1096148e+00
 -8.0979276e-01
  3.9058709e-01
 -6.3703752e-01
 -2.3426355e-01
  7.3231804e-01
  8.5171566e+00
  4.2620626e-01
 -2.7141817e-02
 -3.7710116e+00
 -4.3356323e+00
 -1.5633727e+01
  8.9535688e-04
  1.5981386e+00
 -7.8127730e-01
 -1.5979736e+00
  5.0985205e-01
  3.5992834e-01
  1.2162694e+00
  7.9679704e+00
  2.7647285e+00
 -8.7053007e-01
 -1.8770031e+00
  1.5489063e+00
  7.1757430e-01
 -1.1867606e-01
  1.9280729e+00
  5.2630677e+00
 -7.8329120e+00
  3.9988098e+00
 -7.7252555e+00
 -4.4126687e+00
  2.5195889e+00
  1.8374331e+00
  6.7353940e-01
  1.3624222e+00
 -1.7727258e+00
  1.1108000e+00
 -3.3782594e+00
  7.0181507e-01
  1.2206954e+00
  4.8418641e+00
  7.9905458e-02
  1.8307155e+00
  2.9938452e+00
 -1.1836310e-01
 -3.6322262e+00
  1.7893438e+00
 -2.1833389e+00
 -6.9768113e-01
  3.2242465e+00
 -1.8656632e-01
  5.9486204e-01
  8.9116091e-01
  4.1147542e+00
 -2.8558984e+00
  3.4590793e+00
 -1.2698767e+00
  3.1614232e+00
  9.9911076e-01
  3.6387513e+00
 -3.7214866e-01
 -9.5020658e-01
  1.8488803e+00
  2.2496212e+00
 -1.3075284e+00
  2.6734023e+00
 -3.0522263e+00
 -2.4429529e+00
  3.5356358e-01
  6.0321360e+00
  2.3696373e+00
 -3.0259080e+00
  1.6779385e+00
 -1.6208019e+00
  2.2230797e+00
  3.1252792e-01
  5.7713097e-01
 -1.1894833e-01
 -4.0735054e+00
  1.7898170e+00
 -5.7214594e-01
 -4.1081586e+00
  1.0984240e+01
 -5.2070177e-01
 -1.6029458e+00
 -2.0046816e+00
 -3.5964839e+00
  4.5129925e-01
 -4.3232384e+00
  4.5191419e-01
  4.4336207e-02
  5.0553042e-01
 -3.1763980e+00
  1.5213386e+00
  1.0401431e-01
 -4.4199748e+00
  3.7542221e-01
 -5.7039624e-01
 -2.4294958e+00
  2.3656037e+00
 -4.7330203e+00
 -5.4741206e+00
 -4.0467626e-01
 -4.8520046e-01
  1.7358550e+00
  2.4367552e+00
 -2.3617492e+00
  6.2037128e-01
  2.6475725e+00
 -1.2020131e+00
 -4.8435516e+00
 -3.6018219e+00
 -6.9071561e-01
 -3.2620625e+00
 -5.7064934e+00
 -3.4863811e+00
 -8.1891984e-01
 -1.9915531e+00
 -5.2492702e-01
 -5.4035509e-01
 -8.7793475e-01
  2.0277421e+00
  3.3554103e+00
 -2.1443648e+00
 -4.3141980e+00
  1.7893894e-01
  3.4889853e+00
 -6.4935058e-02
  7.6540027e+00
 -1.6890262e+00
  2.3388023e+00
  2.4793930e+00
 -9.1826034e-01
 -7.8551583e+00
  9.4101918e-01
 -2.1561017e+00
  1.5681718e-01
 -9.4649363e-01
  1.1045403e+00
  2.9523832e-01
  1.2683712e+00
  2.6692278e+00
  1.6352332e+00
 -4.8319626e+00
  2.9131675e+00
 -2.7436047e+00
  7.9640347e-01
  1.2106936e+00
  2.3965104e+00
  3.1842933e+00
 -8.9299113e-01
  6.9891653e+00
  1.4944649e+00
 -2.5005238e+00
  4.2726851e-01
 -2.3223786e+00
 -4.5460764e-01
 -1.0440701e+00
 -8.5899858e+00
  2.5969837e+00
 -5.1845098e-01
  3.1536761e-01
 -7.8442258e-01
  2.3584266e-01
  7.6656227e+00
  4.6313086e+00
 -1.7838809e-01
 -2.9982324e+00
 -5.3094882e-01
 -5.7052839e-01
 -3.4957025e-03
 -7.6386654e-01
  5.5424720e-02
  1.8494773e+00
 -1.3586414e+00
  5.4757237e-01
  7.0980525e-01
 -4.5980287e+00
  5.3977108e-01
  2.0688663e+00
 -4.2816081e+00
 -2.9544718e+00
 -1.9838414e+00
  1.0492123e+00
 -5.1282954e+00
 -6.0679235e+00
 -2.5294259e+00
 -1.5269550e+00
  4.1423243e-02
  5.3746943e+00
  2.5104191e+00
  4.0830845e-01
 -9.6458107e-01
  1.3704787e+00
  2.9763532e+00
  4.5356803e+00
  9.4179058e-01
  1.1952113e+00
  2.0622633e+00
 -3.0112355e+00
 -3.2202342e-01
  2.2573943e+00
 -2.2724071e+00
  8.1645137e-01
  8.9685116e+00
 -2.3878109e+00
 -2.1156566e+00
 -6.7275286e-01
 -2.5998726e+00
  1.4729406e-01
  4.5185924e-01
 -8.8676578e-01
  2.6414473e+00
  1.1321472e+00
 -4.7370529e-01
  4.8789501e-01
  5.9606880e-01
  1.3425952e+01
 -7.0957214e-01
 -2.6409191e-01
  5.6782751e+00
 -2.7492504e+00
 -1.1904209e+00
 -2.4272907e+00
  3.5607927e-02
 -5.0075240e+00
 -3.9433904e+00
  1.1364638e+00
 -4.1758852e+00
 -2.8922896e+00
  7.5658929e-01
 -1.7542647e+00
 -6.6477628e+00
 -1.4122176e+00
 -1.2763541e+01
  8.2079643e-01
  8.0475166e-02
  1.1166708e+00
 -4.4521046e+00
  2.6834867e+00
 -1.6822183e+00
 -3.8555423e-03
  2.2426405e+00
  5.1845660e+00
  3.9808645e+00
  5.7989621e+00
  1.2988380e+00
  2.6311276e+00
  1.8984400e+00
 -8.8331515e-01
  2.0867116e+00
  2.2217932e+00
  1.4295402e+00
  1.0033463e+00
  7.5730171e+00
 -2.6070108e+00
 -4.8689632e+00
  4.8957139e-01
 -4.5875578e+00
  1.0377978e+00
  2.5838372e-01
  4.5780973e+00
  1.8102146e+00
  7.1448050e+00
 -4.1682911e+00
 -2.1115389e+00
  5.0484285e+00
  1.4083455e+00
 -1.9648949e+00
  5.6173909e-01
 -9.1013008e-01
  1.7007346e-01
 -1.2230836e+00
  1.6776286e-01
  1.2643412e+00
  1.5812501e+00
  1.5629711e+00
 -7.2022805e+00
 -5.4591805e-01
  2.8906918e-01
 -3.5289559e+00
  4.0886970e+00
 -6.8515849e-01
 -5.6990867e+00
 -3.0662435e-01
  1.1576337e-01
 -2.3290390e-01
 -8.9431089e-01
  8.9627093e-01
  1.2941559e-01
 -3.0808024e+00
 -4.2951832e+00
  3.7323234e+00
  1.7818997e+00
 -4.5984120e+00
 -1.9208877e+00
  8.7950850e-01
  1.0187103e+01
 -1.7378393e+00
 -1.9756560e-01
  1.5805528e+00
  2.5130542e-02
  1.0512516e+00
 -8.4550029e-01
  9.3687773e-01
  1.0564718e-01
  2.1601615e+00
 -1.5003520e-01
  2.0885100e+00
 -8.9951384e-01
 -1.7112151e+00
  2.9433270e+00
 -2.6636264e+00
  9.2291635e-01
 -3.0601603e-01
  9.1167231e+00
 -9.3703729e-01
 -2.7908000e-01
  2.4972830e+00
  2.2553852e+00
 -4.0772188e-01
  5.8126760e-01
 -9.6321046e-01
  1.1371218e+00
 -1.3568386e+00
  2.1113153e+00
  1.6124806e+00
 -1.5812646e+00
 -2.4670942e+00
 -9.4341449e-02
  4.3527322e+00
 -3.0730393e+00
 -2.9131095e+00
 -1.2830789e+00
  3.1881623e+00
  1.1244205e-01
  4.1400652e-02
 -2.7071340e+00
  4.6988635e+00
 -1.6516612e+00
 -3.3040349e+00
  9.1606909e-01
 -8.6138189e-01
  3.8133960e+00
 -1.0184424e+00
 -1.5276248e+00
  9.3751831e+00
  5.4716067e+00
 -1.4696185e-01
  3.4572148e+00
 -9.4213991e+00
  7.6378837e-02
 -4.5660844e+00
 -2.2510444e-01
 -3.0887976e+00
 -2.2341344e+00
  3.1641512e+00
  1.9134327e+00
 -7.7720159e-01
 -5.5944934e+00
  3.1666353e+00
  1.7041743e-01
 -1.4610749e-01
  4.1806622e+00
 -2.2850671e+00
 -4.1597967e+00
  1.6235100e+00
 -5.5360812e-01
 -1.0681960e-01
  3.9204783e+00
 -8.2316618e+00
 -1.4294909e+00
 -4.3657060e+00
 -9.8186626e+00
 -3.5018485e+00
 -1.1799728e+00
  3.7986994e-02
  2.3332241e+00
  1.7230591e+00
 -3.2959356e+00
 -5.5073981e+00
 -3.3297021e+00
  5.2317721e-01
 -3.8956947e+00
 -9.6175671e-01
  1.2115974e-01
  3.1494708e+00
  2.3496149e-01
  2.6391356e+00
  8.5359347e-01
 -1.4056934e+00
  2.2286487e+00
 -3.5558133e+00
 -1.7079921e+00
  9.4013917e-01
  1.6155457e+00
  1.9110309e+00
 -1.8159983e+00
 -3.0541098e+00
 -2.8149776e+00
 -1.4830143e+00
  8.4187841e+00
  5.4600024e+00
 -1.9422700e+00
 -7.5175159e-02
  4.4351622e-01
 -6.8165714e-01
  1.9648023e-01
  1.0823112e+00
 -3.7434947e+00
  1.9696985e+00
 -6.6961198e+00
  5.5324783e+00
 -1.1016925e+01
  1.1661578e+00
 -2.2727036e-01
 -7.9944575e-01
  1.3334991e+00
 -2.1460418e-01
 -5.9705049e-01
 -2.5572714e-01
 -7.4474268e+00
  2.3039751e+00
  7.1165328e+00
 -1.6893114e+00
 -1.3335069e+00
 -1.4407994e+00
 -4.7115941e+00
  8.3968949e-01
 -2.7109602e-01
 -3.0832455e-01
 -3.3554983e+00
  5.6153626e+00
 -1.0283836e+00
  3.8936384e-02
 -3.4103925e+00
 -1.0262191e+00
  1.3815442e+00
  2.4909422e-01
 -5.1634599e-02
 -8.2961404e-01
 -4.1895437e+00
  3.2093639e+00
 -1.8248420e+00
 -3.3505781e+00
 -4.1281220e-02
 -3.8380141e+00
 -1.5109059e+00
  8.6525398e-01
 -8.9492661e-01
 -1.0331736e+00
 -4.6618309e+00
 -1.3435459e-01
  5.2553159e-01
 -1.0565357e+00
 -3.0859764e+00
 -3.4459045e+00
 -2.2312441e+00
  9.4048119e-01
  2.9171324e+00
  8.9318287e-01
  3.6305749e-01
  7.9971499e+00
 -2.3750049e-01
 -1.5012319e+00
  1.6365503e+00
 -4.5069697e-01
  4.0945745e-01
 -2.0780790e+00
  2.3265855e+00
  4.4753513e+00
 -2.6257977e+00
 -1.2511148e+00
 -5.1477748e-01
 -1.0571368e+00
 -1.4371129e+00
 -1.5701840e+00
 -6.1791930e+00
 -2.9423349e+00
  1.1015902e+00
  1.8526200e+00
  8.9805907e-01
 -2.9156737e+00
  4.8903015e-01
  2.9372003e+00
 -4.9184260e+00
  9.3666744e-01
  6.2533460e+00
 -6.7064780e-01
 -6.0104241e+00
  1.6307418e+00
 -2.8786769e+00
 -9.9706419e-02
  6.4490128e-01
 -2.1970025e-01
 -3.8382690e-02
 -2.2111571e+00
 -1.9892578e+00
 -1.0955594e-02
 -2.5680416e+00
 -8.3440485e+00
 -6.4330616e+00
 -1.0230609e+00
  3.7633723e-01
  2.8067229e+00
  2.3894143e+00
 -2.4531803e+00
 -5.6332296e-01
 -7.1961939e-01
 -2.5549977e+00
 -4.5044799e+00
  4.6045117e+00
 -8.6128765e-01
 -2.4001775e+00
 -2.3005881e+00
  3.4595132e+00
  1.3322846e+00
  2.7697027e+00
 -6.4258099e-01
  4.9211092e+00
  2.4480420e-01
 -1.9550279e+00
 -4.0402842e+00
  3.3863530e-01
  1.7252698e+00
  3.0548984e-01
  7.3399262e+00
  9.5945418e-01
  1.2784611e+00
 -3.6335368e+00
  7.0388203e+00
 -1.3959411e+00
  5.4691310e+00
  4.6190286e+00
  5.1781285e-01
  1.7166231e+00
  2.2585673e+00
 -4.3686211e-01
  3.6221519e+00
  4.4953570e-01
 -2.7465177e+00
  4.1829233e+00
 -2.5254302e-02
 -2.1214659e+00
  3.1574187e+00
  5.4163253e-01
  8.9810157e-01
  1.0352286e+00
  1.8225062e-01
  4.3123454e-01
  3.4156861e+00
  1.3755782e-01
 -3.4449623e+00
 -1.0848201e+01
  4.7953132e-01
  2.1366018e-01
 -5.3935242e-01
  3.0369094e-01
  1.0146273e-01
 -2.3228655e+00
  4.0333319e+00
 -1.1051921e-01
 -1.9619659e-01
  4.2614446e+00
 -8.8968766e-01
 -2.1296861e+00
 -7.0984328e-01
 -1.0557554e-01
  1.3752925e+00
  4.6066813e+00
 -3.1091931e+00
  3.5984659e+00
 -9.8694239e+00
 -4.2567997e+00
 -2.6378977e+00
 -3.6841699e-01
  1.2936549e+00
  6.9954854e-01
 -5.2672821e-01
 -5.6636281e+00
  9.4252748e+00
  5.4043703e+00
  1.1151164e+01
  4.4192986e+00
  4.3153462e-01
  6.6895700e-01
 -2.4375062e+00
 -6.1818308e-01
 -5.2383727e-01
  2.6132133e+00
  5.4326091e+00
 -4.0124556e-01
  6.4711720e-01
 -7.2434192e+00
  3.4445379e+00
  6.8541765e-01
 -1.0413221e-01
 -4.4772501e+00
  4.7981572e+00
  2.6005526e+00
  3.9469576e-01
  4.2749090e+00
 -6.9801340e+00
 -7.4568410e+00
  3.2996425e-01
 -4.7434497e+00
 -2.8013730e-01
 -2.1849601e+00
 -3.1461742e+00
  3.6246979e-01
 -2.9661999e+00
 -2.0028646e+00
 -9.7458698e-02
  3.8047273e+00
 -1.8748415e+00
  6.3924346e+00
  4.0471039e+00
  2.7722874e+00
  1.7219881e+00
  3.0900185e+00
 -3.4110098e+00
 -7.0269265e+00
 -1.9794686e+00
 -4.9556658e-04
  4.9841943e+00
  1.8228643e+00
 -9.6737695e-01
  1.8829520e+00
 -1.4377973e+00
  2.1806474e+00
 -1.4892304e+00
 -4.2932755e-01
 -4.6442146e+00
 -1.2931560e+00
  5.0204926e+00
 -2.0470083e+00
  6.9450456e-01
 -1.8733475e-01
 -1.4712285e+00
  5.9429445e+00
 -4.2167351e-01
  4.0652943e+00
 -4.7197677e-02
 -8.0012503e+00
  5.3369712e-02
  9.7178078e-01
 -8.2529163e+00
  2.1930124e-01
 -1.0519125e+00
  5.8468413e+00
 -3.2340894e+00
 -2.9571471e-01
 -6.5338721e+00
  6.9371170e-01
  2.8350003e+00
 -1.6863394e+00
 -1.5218491e-02
  1.6572226e+00
  1.9344318e+00
 -3.6108279e-01
 -5.7520825e-01
  6.1082554e+00
 -9.9876392e-01
  9.0055323e-01
 -5.1883044e+00
 -3.7876543e-01
  8.3733314e-01
 -7.4130851e-01
  2.6324494e+00
  1.2138858e+01
  2.7858975e+00
 -2.9302301e+00
 -7.1040756e-01
 -3.1201324e-01
  3.6512485e-01
 -3.7647755e+00
 -1.4730172e+00
  3.3937566e-02
  7.8036588e-01
  4.6505734e-01
  4.6733958e-01
 -2.4411514e+00
 -1.7584523e+00
 -1.1216563e+00
  1.9988180e+00
  5.5334654e+00
 -6.8748438e-01
  5.3582287e-01
  4.1514621e+00
  7.3173493e-01
  1.8058829e+00
  5.8868890e+00
 -3.8337193e+00
 -4.8862801e+00
  3.7030582e+00
  1.2801076e+00
  2.4411261e+00
 -1.4438412e-01
  2.9401205e+00
 -4.3172493e+00
  1.3467462e-01
  2.1262212e+00
  1.9877238e+00
  2.6539934e+00
  4.3130126e+00
  1.5103956e+00
  1.1644783e+01
 -2.6938751e+00
 -4.3134708e+00
 -2.0600390e+00
 -1.1715582e-01
  3.8415594e+00
 -7.5638998e-01
 -3.8379273e+00
 -2.7436872e+00
 -1.2917900e+00
  1.1274983e+01
  2.3013055e+00
  1.7550437e-01
  1.6129706e+00
  7.8723687e-01
  1.5826077e+00
 -2.2806218e+00
  3.7475882e+00
 -2.0883243e+00
 -1.0654098e+00
 -4.0787182e+00
  1.0192063e+00
  4.8057127e-01
  2.4895203e+00
  2.4422374e+00
 -2.9761806e+00
  1.0410833e-01
 -2.6419857e+00
 -3.5367177e+00
  6.3531779e-02
  1.8273063e+00
  4.1708708e+00
 -9.3573737e-01
  5.5281396e+00
  6.2420869e+00
  3.9847946e+00
  2.3784506e+00
 -4.0628047e+00
  2.0747683e+00
  2.2257875e-01
 -2.4275467e+00
  5.9151322e-01
 -2.4610837e+00
  2.9770592e-01
  1.6808896e+00
  3.6154683e+00
 -5.7587414e+00
 -1.2703239e+01
 -2.5955021e-01
 -1.4956986e+00
 -4.9649053e+00
 -7.9775233e+00
  2.8515938e-01
  8.0608451e-01
 -1.2446982e+00
 -1.9676304e+00
 -1.9811797e-01
 -1.9917661e+00
  1.5557343e+00
  5.4432040e-01
  3.1936586e-01
 -2.5162144e+00
  1.1582013e+01
 -3.8032351e+00
  8.4596801e-01
  7.2732896e-01
  8.2679266e-01
 -7.5674802e-01
  8.4462708e-01
 -7.8052932e-01
  6.2275386e+00
  2.6388493e+00
 -1.3833870e+00
 -7.0590172e+00
 -3.4856850e-01
 -6.2092912e-01
  1.8920070e+00
  9.2529362e-01
  5.8607268e+00
 -2.7788064e+00
 -1.5323487e-01
  2.6714847e+00
  6.5799289e+00
  3.2059464e-01
  8.2524574e-01
  8.8258123e+00
  4.8044839e+00
 -2.8531096e+00
 -7.5779164e-01
 -6.6089183e-01
  2.4658762e-01
  3.0921111e-01
  1.6959110e+00
 -2.6027840e-01
 -2.8221161e+00
  1.2238531e+00
 -3.3851564e+00
 -3.1462920e+00
 -3.0615904e+00
 -4.4899244e+00
  7.4196267e+00
 -1.8009880e+00
  1.9745702e+00
 -7.1851170e-01
 -9.2494771e-02
  4.4167575e-01
  8.4163040e-01
 -1.2469977e+00
 -6.3908653e+00
 -3.2053488e-01
 -8.7769020e-01
 -2.6015456e+00
  2.3205941e+00
 -2.6953259e+00
  1.7344286e+00
 -4.0422583e+00
 -8.0931559e+00
 -3.8352249e+00
 -1.9900272e+00
  4.2193265e+00
 -1.1295280e+00
 -5.2925048e+00
 -6.8949562e-01
 -8.4769845e-01
  3.5124427e-01
 -8.3454161e+00
 -2.8874197e+00
 -3.6528068e+00
 -6.4147890e-01
  4.8532887e+00
  5.1069045e-01
  6.1960716e+00
 -1.2962951e-01
 -2.6992440e+00
 -1.5620401e+00
 -3.4757435e+00
 -1.2339123e+00
  1.0524331e+00
 -4.2074285e-02
 -2.2673552e+00
  6.0054955e+00
 -2.0013013e+00
  1.0348220e+01
  2.5967807e-01
  1.6624606e+00
  1.3472105e+00
 -4.5166650e+00
  4.5055382e-02
 -2.6972184e+00
 -1.6874449e+00
 -8.2666731e-01
  3.0753183e+00
 -6.4993389e-02
  1.3658301e+00
  1.2511333e+00
  4.7928295e-01
  1.2872019e+00
  6.6650338e+00
 -2.2948537e+00
  2.1704390e+00
  8.9206509e-02
 -2.4709249e+00
  3.7621200e+00
 -1.3063892e+00
 -2.1464357e+00
 -1.9511126e+00
 -1.4276001e+00
 -3.1757939e+00
 -2.4914105e+00
  6.5116086e+00
  3.6882842e+00
 -6.9473066e+00
 -4.9896920e-01
 -2.8423114e+00
 -2.5183089e+00
 -9.7237211e-01
 -5.4000487e+00
 -6.0941978e+00
 -4.1693497e+00
  1.6351585e+00
  7.3378716e+00
  3.1869939e-01
 -7.5127745e+00
 -5.9540421e-01
 -6.0703058e+00
  8.3810866e-01
 -5.8399850e-01
  3.1752725e+00
  3.4698052e+00
 -2.8800049e+00
 -4.0621586e+00
 -3.0113058e+00
 -2.0735338e+00
 -3.0797355e+00
 -5.4774374e-01
 -1.6394364e+00
  2.8644553e-01
  9.4685478e+00
  3.1562442e-01
  1.0104737e+00
  4.2909913e+00
 -2.4559486e+00
  2.1935368e+00
  1.0796062e+00
 -1.9337282e+00
 -1.9447254e+00
  1.4228662e+00
  6.9219351e-02
  6.3217807e+00
 -2.3688224e-01
 -3.6371121e-01
 -5.5867181e+00
  1.1099615e+00
 -2.0768456e-01
 -3.3471398e+00
 -2.2178223e+00
  7.3983467e-01
 -3.3726382e+00
 -4.3373045e-01
  5.2825279e+00
  3.6541221e+00
 -1.6527247e+00
  6.9617823e-02
 -8.6043829e-01
  3.1727710e+00
 -4.6319094e+00
  4.1534467e+00
  4.6069255e+00
  9.2131052e+00
  1.1069367e+00
  6.9631672e-01
 -3.3317494e-01
  8.9442749e+00
  9.5225996e-01
 -4.0957502e-01
 -3.5358603e+00
  4.6950274e+00
 -1.2785300e+00
  5.6672549e+00
  5.4010377e+00
  2.5086100e+00
  7.0036392e+00
 -2.7365870e+00
 -6.6051364e-01
 -1.8654804e+00
  1.9699256e+00
 -2.7854037e+00
 -5.9045839e-01
 -2.5179613e-01
 -1.9260538e-01
  4.0695734e+00
 -3.0400844e+00
  4.6254230e+00
 -1.8715234e-01
  1.0964549e-01
  4.6422279e-01
 -1.6943927e+00
 -4.6386981e+00
  1.3377758e+00
 -3.7593124e+00
  4.1365952e+00
 -7.2648913e-02
  4.4286501e-01
  1.9513642e+00
  4.2720633e+00
  5.1456366e+00
 -6.1569934e+00
  2.4131427e+00
  1.2909232e+00
  1.0623462e+00
  3.9674885e+00
  3.5092914e-01
 -3.3392205e+00
  1.2808670e+00
 -4.7551942e+00
  6.0933127e+00
 -3.4602588e-01
  5.1376951e-01
  3.6562374e-01
 -5.8810467e-01
  1.4141254e+00
 -4.1074333e+00
 -1.1021084e+00
 -1.6600912e+00
  3.2477245e-01
  3.0308144e+00
 -1.9011480e+00
 -1.5986322e-01
 -4.0295730e+00
 -2.0896511e+00
 -6.4913732e-01
  8.2425636e-01
 -4.5767674e+00
  3.2584641e+00
 -1.0882396e+00
  4.7568161e-02
  3.5941711e-01
  2.4569929e+00
  2.6017308e+00
 -9.0513110e-01
  4.3649569e-01
 -7.9329076e+00
 -4.9773951e+00
  5.4870659e-01
 -1.1903609e+00
 -1.8555990e+00
  2.2782514e+00
 -1.8350570e+00
 -1.6548762e+00
  3.5094348e-01
 -9.0517867e-01
  1.6606449e-01
  6.0730207e-01
 -1.6778138e+00
  6.7380376e+00
 -8.9265709e+00
 -1.6331539e+00
  2.1210913e-01
  1.9427288e+00
  2.3819582e+00
  4.2111464e+00
 -3.1190345e+00
  2.8326708e-01
  1.2580032e+00
 -8.9421576e-01
 -2.3778927e+00
  7.5652826e-01
 -8.9703733e-01
 -5.2442092e-01
 -2.7069807e+00
  1.7542703e+00
 -3.8430412e+00
  9.0231740e-01
  8.4112015e+00
  2.6477861e+00
 -6.8273026e-01
  1.6582568e+00
 -7.7565517e+00
  1.8804941e+00
  2.1668971e+00
 -2.9485528e+00
  5.7266397e+00
  4.1027503e+00
  2.1901722e+00
 -1.7958177e+00
  8.2593479e+00
 -1.0350969e+00
  5.4402757e+00
 -7.2525620e-01
 -2.3411865e+00
  2.7610770e-01
  6.8433080e+00
  2.2828763e+00
 -4.8424144e+00
 -1.0570649e+00
 -1.6558615e+00
  5.2083695e-01
 -7.1707067e+00
  1.7398800e-01
 -1.9363116e+00
  9.1857880e-01
  2.6345527e-01
 -3.5541544e+00
  3.2184598e+00
 -8.0678625e+00
  1.0502485e+00
  1.7112161e+00
 -3.6402254e+00
 -1.2091762e+00
  9.1088936e-02
 -1.7307034e+00
 -5.5496353e-01
 -1.9679191e+00
  3.6983421e-01
 -1.9219860e+00
  4.8241171e-01
  6.5835643e-01
  1.5167233e+00
 -6.8817103e-01
  7.1643077e-02
 -3.5705072e-01
  1.0003399e+00
 -1.4112999e+00
  2.1937165e+00
 -2.0384221e+00
 -2.2463870e+00
  9.8622006e-01
 -2.7875030e+00
 -3.5726079e-01
 -2.5232787e+00
  3.2112844e+00
 -3.6645749e+00
  2.6972461e+00
 -5.6535082e+00
  2.5256448e+00
 -2.2667110e+00
  1.8862069e+00
  9.3980608e+00
 -1.7593341e+00
 -7.8440267e-01
 -2.0376904e+00
  1.0871261e+00
 -4.1283751e+00
  5.5238929e+00
  1.9593067e-01
  4.9929868e-02
 -1.0614008e+01
  1.1483891e-01
 -1.8335859e+00
 -5.6067486e+00
 -5.6081718e-01
  1.2586629e+00
  8.2811123e-01
  1.0257078e+01
 -3.5923893e+00
 -3.4964404e+00
 -1.1172416e+00
  3.7778580e-01
  2.9229987e+00
  2.6326835e+00
 -3.5205121e+00
  8.2897511e+00
 -3.8171868e+00
  5.1372400e-03
 -3.9770470e+00
  1.1139586e+00
  4.3909144e+00
 -3.5569084e+00
  1.8705909e+00
  4.3784781e+00
 -4.0177984e+00
  6.8988383e-01
 -4.8993874e+00
  6.2202549e+00
 -9.4429737e-01
  4.5673742e+00
  4.1431287e-01
 -1.1685370e+00
 -2.5131419e+00
  1.3337641e+00
 -1.1100904e+00
 -1.6940365e+00
 -2.9551973e+00
  2.0301971e+00
 -1.1408831e+00
  3.0426514e+00
  3.2756159e-01
  3.6803634e+00
 -2.9981074e+00
  9.0037626e-01
  2.4315875e+00
 -1.4564614e+00
  2.0325642e+00
 -1.4707325e+00
 -4.2016034e+00
 -1.5741483e+00
  3.8471470e+00
 -1.5562280e-02
 -2.9909406e+00
  2.6529256e-01
 -1.3493656e-01
 -8.6037916e-01
 -9.3985248e-01
 -9.2541838e+00
  4.5771389e+00
 -1.7050122e+00
 -3.3971455e+00
  1.2303408e+00
 -2.3991350e-02
  1.0751202e+00
  1.5444505e+00
 -6.6270244e-01
  2.5250154e+00
  6.6445689e+00
 -4.3520024e-01
 -2.6981990e+00
  3.0763147e+00
  3.4940920e+00
 -3.4925253e+00
  2.4688325e+00
  9.0263075e-01
  1.5244900e+00
  6.9510260e+00
  1.0871327e+01
 -3.1608157e+00
 -3.9010336e+00
 -9.4712228e-01
 -2.6079490e+00
 -3.2959774e-01
 -5.5267663e+00
 -3.1414146e+00
 -3.6395864e+00
 -3.2088938e-01
 -4.5178843e+00
  3.6028395e+00
  1.0140182e-01
 -2.7470772e+00
 -2.2716668e+00
  3.8976939e+00
  1.7933878e-01
  1.5575435e+00
  6.6030711e-01
  1.2390250e+00
  2.2154877e+00
 -9.2584219e+00
  8.4077892e+00
  2.9139965e+00
 -7.0406693e-01
  4.1374087e+00
  6.5071855e+00
  3.1708567e+00
  3.8019297e-01
  2.3362941e-01
  3.8216522e-01
 -8.7645429e-01
 -1.4907433e-01
  4.8369303e+00
  4.1473385e-02
 -6.0755782e+00
  1.8136212e+00
  6.0693865e+00
 -2.7483296e+00
  1.1584268e+00
  1.6323910e+00
  3.6592033e+00
  1.9065604e+00
 -8.7102242e-02
 -1.3064481e+00
 -7.7699342e+00
 -1.4323752e+00
  5.8296270e+00
 -1.0493721e+00
 -2.1063752e+00
  5.4914637e+00
  5.1382179e+00
  4.1918489e-01
 -8.7080306e-01
  2.2121871e+00
  6.8196735e+00
  2.1605687e+00
 -2.9069521e+00
 -1.2549719e+00
 -5.2684832e+00
  2.1307707e+00
  2.1526563e+00
  7.7409136e-01
 -5.8785737e-02
 -1.5858990e+00
 -1.6745117e+00
  2.1334367e-01
  5.0668263e+00
  9.0893775e-01
 -7.5178689e-01
  2.3038141e-01
  1.4293826e+00
 -2.7768786e+00
 -1.7208855e+00
 -1.1702712e+00
 -1.4232705e+00
  2.5642216e+00
 -2.4638481e+00
  3.0924067e+00
  5.0741467e+00
 -4.1796722e+00
 -6.4527116e+00
 -5.9676991e+00
  7.7822536e-01
 -2.3655713e+00
  1.1532878e+00
  4.5946326e+00
 -6.3039784e+00
 -1.3989582e+00
  7.0274943e-01
 -3.8587542e+00
 -2.9824142e+00
  5.8862462e+00
 -5.7308483e-01
 -5.9613934e+00
  1.2644526e+00
  1.4092032e+00
  2.1321976e+00
 -4.5038366e+00
  3.5397251e+00
 -1.7510208e-01
  8.3266902e-01
  6.2399101e-02
  2.5318229e-01
 -2.6910412e-01
  2.3777664e+00
  4.9907613e-01
  7.6181922e+00
  2.0588674e-01
 -4.4751334e+00
 -1.7128881e+00
 -2.9458992e+00
 -4.0990537e-01
 -1.8727812e+00
 -4.9666303e-01
  1.0951886e-01
 -9.6834910e-01
  5.6220584e+00
 -1.4615935e+00
 -6.4583266e-01
  7.4291974e-01
 -5.7203156e-01
  3.1019688e+00
  1.2712008e+00
 -6.0572952e-01
 -1.6995989e+00
  4.0873432e+00
  1.1682011e+00
 -7.3629146e+00
  1.0579337e+00
  4.2549628e-01
  2.7860835e-01
  5.6450982e+00
 -3.9669440e+00
 -6.9199711e-01
  8.3399534e+00
 -2.9321105e+00
  2.7661932e+00
 -9.1558844e-02
  2.4942845e-01
  8.3789289e-01
 -4.0589106e-01
 -7.4246616e+00
  4.4155207e+00
  3.8009534e+00
 -2.3869650e+00
  3.9312060e+00
  2.4586580e+00
 -7.2737112e+00
 -5.0563484e-02
  4.0821290e+00
  3.7637157e+00
 -2.6688128e+00
  1.9816810e-02
 -2.8270326e+00
  1.6593177e+00
 -4.4743130e-01
  3.0244853e+00
  2.6671577e-02
 -2.1349027e+00
 -1.0543051e+00
 -5.4199123e-01
 -2.6657705e+00
 -2.0840871e+00
 -2.0372417e+00
 -6.7095399e-01
 -5.7127726e-01
  5.5924387e+00
 -5.5984612e+00
  3.0921755e+00
  3.2459881e+00
 -1.6752086e+00
  4.3193088e+00
 -2.8652589e+00
  2.7361424e+00
 -1.1729466e+00
  7.0121956e-01
  4.3019929e+00
 -2.0785807e-01
 -6.6927857e+00
  1.2023170e+00
  2.8331542e-02
  7.6557791e-01
 -2.6467650e+00
  6.0869044e-01
 -3.1820908e+00
  1.7460774e+00
 -7.8488100e-01
  3.4238977e+00
  4.0727744e+00
  1.3474535e+01
  3.8834276e+00
 -3.2448063e+00
 -2.0520525e+00
 -4.5903611e+00
  2.4186535e+00
 -2.1092579e+00
 -5.3444380e-01
  4.2652014e-01
 -4.0226169e+00
 -5.0644416e-01
  1.6534115e+00
 -3.2186368e+00
 -4.3104496e+00
 -3.5885086e+00
 -8.0556370e-02
 -6.2738910e+00
 -7.1778172e-01
 -1.0974243e+00
 -2.2468610e+00
 -1.0265181e+00
  4.9912918e-01
 -3.3395488e+00
 -8.2771480e-01
 -8.8457954e-01
 -2.1631405e+00
 -1.9219582e+00
  4.2240834e+00
  1.5812054e+00
  1.2393687e+00
 -1.6158310e+00
  8.4974712e-01
  6.2397963e-01
  1.4468396e+00
  5.1247996e-01
  2.9371173e+00
  2.8045011e-01
 -2.2649648e+00
  1.4511497e+00
  1.4117600e+00
  1.0466751e+00
 -2.2065001e+00
 -6.5534538e-01
 -7.5934558e+00
 -9.3078232e-01
  5.7526100e-02
 -4.4606864e-01
  3.1856206e-01
 -5.7911596e+00
  6.7632407e-01
  3.1767688e+00
  3.9825618e+00
 -7.0602846e-01
  8.1609166e-01
 -4.4159568e-03
  3.7964032e+00
 -2.8151815e+00
 -8.7287731e+00
 -3.0005157e+00
  2.1350920e+00
  1.6614372e+00
 -5.2303777e+00
  3.7620478e+00
 -9.9102515e-01
  4.1836914e-02
 -5.3576703e+00
 -2.3034251e+00
 -4.5061221e+00
 -2.3026969e-01
 -1.2842181e-01
 -1.4717982e+00
  5.9456551e-01
 -1.3071868e+00
 -6.7802912e-01
  3.3050364e-01
 -5.1419318e-01
  3.2886417e+00
  6.3875459e-02
 -7.6816559e-01
 -1.4890610e+00
 -1.3075116e+00
 -1.3357253e+00
  2.3666968e+00
 -8.1228405e-01
  2.2696569e+00
 -2.4017955e-01
 -1.4075397e+00
 -4.4668731e-01
  5.5837727e-01
 -7.5793386e+00
  6.4879241e+00
  5.7635260e-01
 -8.5374713e-01
  1.1720843e+00
 -2.6041365e-01
  3.3115249e+00
 -3.3016481e+00
 -2.2470319e-01
 -2.7748162e-01
  7.8876239e-01
 -4.4595829e-01
 -9.5190918e-01
 -1.8113126e+00
  5.5888033e+00
 -7.6324954e+00
  6.9786444e+00
 -8.5592359e-01
 -2.3831480e+00
 -4.5213082e-01
  1.7805728e+00
 -3.8514891e+00
 -5.1982794e+00
  1.3132459e+00
  1.2856939e+00
 -5.5084091e-01
  1.4439163e+00
  4.1813574e+00
 -1.0955891e+01
 -1.3647252e-01
 -2.2460194e+00
  1.1107262e-01
  3.9156339e+00
 -1.4847078e+00
  9.9156475e-01
  2.2393923e+00
 -5.4859662e+00
  5.0545039e+00
  6.7028089e+00
 -3.1187403e+00
 -5.5377418e-01
 -3.4973030e+00
 -1.7710295e+00
 -8.5322940e-01
 -3.1596012e+00
  2.8723222e-01
  8.4117442e-01
 -6.2526708e+00
 -4.5596910e+00
 -2.1251514e+00
  4.8878493e+00
  3.1158590e+00
  5.6499195e-01
 -3.9731805e+00
  6.3824421e-01
 -1.5033756e+00
 -4.1167746e+00
  7.2547597e-01
  4.9382272e-01
 -2.5413629e-01
 -6.7870826e-01
 -3.3901267e+00
 -1.3548628e+00
  1.3987830e+00
 -6.5158219e+00
 -1.0068855e+00
 -3.5305119e-01
  1.4024219e+01
  4.3648963e+00
  1.5759169e+00
  6.7435861e-01
 -1.8046373e+00
  1.5640368e-01
 -6.1994658e+00
  2.1990485e+00
 -9.3686384e-01
  5.9201103e-01
  2.5628643e+00
  1.1746033e+00
  7.2743130e-01
 -4.7228079e+00
  1.9922667e+00
 -2.0000885e+00
  2.1707971e+00
  1.3714675e+00
 -4.2112741e+00
  3.5180416e+00
 -1.5865883e-01
  1.0509646e+00
  7.6371424e-02
 -3.1427054e+00
 -3.6402154e+00
  9.2428312e+00
  5.3987049e-02
 -1.3324089e+00
  7.9626936e-01
  2.1242042e+00
  4.2427087e+00
 -2.0405869e+00
 -1.8191922e+00
  1.6167831e+00
 -6.6883558e-01
  1.9799844e+00
  4.7232866e+00
 -2.6889284e+00
  2.2598983e-01
 -2.8119626e+00
 -2.9488478e+00
 -6.1199241e+00
 -4.4335351e+00
  8.0339205e-01
 -7.9814367e-02
  3.6276981e-01
 -1.2464110e-01
 -8.6493236e-01
  5.5098052e+00
  4.8193560e+00
  7.3356295e+00
 -2.3343318e+00
 -5.5247746e+00
 -2.0921902e-01
  4.3669486e+00
  9.0217316e-01
 -2.8222487e+00
 -2.1850739e+00
 -2.2384634e+00
  5.2467051e+00
  1.6010948e+00
  4.4909582e+00
 -2.1089699e+00
  3.4299872e+00
 -4.0659675e-01
  1.8798032e+00
 -1.8056792e+00
 -1.0341961e-03
  1.0574166e+00
 -3.4169030e+00
 -2.4180920e+00
  2.3256638e+00
  2.5054796e+00
  1.1177369e+00
 -1.9220870e+00
  4.1976580e-01
  1.3708200e+00
  2.1141660e+00
 -2.1129901e+00
  5.4441911e-01
  1.2824523e-01
  2.8723016e-01
  4.8659844e+00
  1.3825117e+00
 -5.3802752e+00
 -1.1088971e+00
 -1.0695851e+00
  9.2714858e-01
 -1.0998434e+00
 -1.0804331e+00
 -3.7424552e+00
 -2.6709661e+00
  2.2322302e+00
  1.0638769e+00
  2.0819588e+00
 -2.6721482e+00
  1.0936252e+00
  1.7783287e+00
 -1.1224165e+00
  5.3383169e+00
 -1.4234920e+00
 -3.0060446e-01
  3.1221545e+00
  1.6200515e+00
  5.8375673e+00
 -6.9282651e-01
 -3.8818398e+00
  8.6210543e-01
  2.1484473e+00
 -6.5450184e-02
 -3.6663241e+00
  1.0746627e+00
  5.9517109e-01
  9.0450901e-01
  3.3683696e+00
  8.7089759e-01
  1.6765386e-01
  2.7562186e-01
 -1.5377222e+00
 -2.1108160e+00
  5.8812490e+00
  3.8560146e-01
 -8.4570322e+00
 -1.3745625e+00
  4.6058869e+00
  7.6355138e+00
 -4.6063790e-01
  1.8341153e+00
  7.8190857e-01
 -1.1180137e+00
 -2.6141770e+00
  9.4775194e-01
 -4.4158509e-01
 -2.9293425e+00
  2.3114331e+00
 -1.4647059e+00
 -1.5596734e+00
  1.5854768e+00
  3.9899805e+00
  4.1831803e-01
  7.4388438e-01
  2.8057972e-01
 -1.3530508e+00
 -3.7641473e+00
 -4.6755543e-01
  1.1902609e+00
  3.9799056e+00
  4.9127259e+00
  9.0284264e-01
 -3.7083259e+00
  8.1917343e+00
 -3.0642834e+00
 -1.6805540e+00
  1.8774172e+00
  4.8135819e+00
 -5.0507480e-01
 -3.5552256e+00
  2.9937563e+00
  2.0167358e+00
  9.6070755e-01
 -4.4429369e+00
  6.0938048e+00
 -1.2868057e+00
 -8.4606206e-01
  5.3746328e+00
  1.3858653e+00
 -3.8258448e+00
 -5.2862734e-01
  4.7259504e-01
  4.0683398e+00
 -8.2514696e+00
 -1.4330435e+00
 -7.8140581e-01
 -5.9409672e-01
 -3.6104159e+00
  3.9027278e+00
  3.1813600e+00
 -3.4397929e+00
 -4.3208356e+00
  4.1228385e+00
 -6.9038639e+00
  2.2930601e+00
  2.5093346e+00
  8.4360800e+00
 -2.1668887e+00
  3.6997506e-01
  1.1814095e-01
  7.1586685e+00
  7.0957214e-01
  4.8655071e+00
  1.7793921e+00
  1.5413616e+00
  3.6328065e+00
 -4.3809762e+00
 -9.2447746e-01
 -3.7565640e-01
  1.8515822e+00
  2.0351191e+00
  1.6259482e+00
  3.0930927e+00
  1.3015555e+00
  1.9604888e+00
 -2.4835272e+00
 -3.3997056e+00
  2.4603453e-01
  1.7524859e-01
  3.0775239e+00
  3.4368179e+00
 -8.8736838e-01
 -2.0324998e+00
  1.2632492e-01
 -1.1399698e+00
 -2.3255813e+00
  2.1316249e+00
  3.4573689e+00
 -3.6151116e+00
  1.3492694e+00
 -1.8849453e+00
  2.8295878e-01
  6.1400300e-01
  1.3224921e+00
 -2.5549481e+00
  6.0480442e+00
 -1.1451943e+00
  4.9038872e-01
  2.9791918e+00
  2.0303938e+00
  5.6227124e-01
  5.7504416e-01
 -1.2867394e-01
  1.9837723e+00
  4.5580773e+00
  1.5574297e-01
 -3.6221533e+00
  1.1163087e+00
 -2.5613406e+00
 -4.7571425e+00
  7.6282972e-01
  5.7085824e-01
 -1.3693140e+00
  7.0644212e-01
  1.8637222e+00
  2.2694271e+00
  9.3256813e-01
  3.0084375e-01
 -3.4353251e+00
  6.1485472e+00
 -1.9261413e+00
 -6.3343172e+00
  9.5270258e-01
  4.0244570e+00
 -3.9629731e-02
  2.8444648e-01
  9.0316927e-01
 -3.4815013e-01
 -1.6628805e+00
 -3.0463848e-01
 -3.8120010e+00
  6.1570516e+00
 -2.5615454e-01
  9.4785643e-01
 -3.4161248e+00
  8.9095840e+00
  1.2401918e+00
 -7.1779788e-01
 -2.5470439e-01
  2.9807751e+00
  1.3751853e+00
  8.7120306e-01
  6.2585363e+00
  9.0366144e+00
 -7.3404880e-03
 -1.1741207e+00
  8.9812250e+00
  2.5959361e-01
  4.7915262e-01
 -1.4432196e+01
  1.4916840e+00
  7.5870603e-01
 -3.9130828e-01
 -1.3798255e+01
 -5.8142772e+00
 -3.3119902e-01
 -1.7689478e-01
 -1.6578439e-01
  1.4898262e+00
  4.6436435e-01
  6.0816894e+00
 -5.0387657e-01
  6.0921822e+00
 -8.3240193e-01
  5.2643275e+00
  5.7890224e-01
  1.5263500e+00
  3.6563168e+00
  3.4701841e+00
 -7.0615420e+00
 -5.2070737e+00
 -1.3270110e+00
  2.2658410e+00
 -3.7661085e-01
  4.2657285e+00
  2.1927447e+00
 -4.7967556e-01
  3.2441944e-01
 -1.7577127e+00
 -4.2454693e-01
 -5.0225186e+00
  2.1019526e+00
  6.7048135e+00
 -6.0513258e-01
  1.3696451e+00
  3.8379836e-01
  3.3889375e+00
 -2.1063871e+00
 -1.3325464e+00
 -7.2850145e-02
 -9.3760556e-01
  4.2437143e+00
  1.4809526e+00
  5.4925823e+00
 -5.2686496e+00
  5.6159627e-01
 -7.6039062e+00
 -2.7974238e+00
  1.9850006e+00
  2.4613190e+00
 -9.6799833e-01
 -1.6195786e+00
 -3.3645170e+00
 -4.2291334e-01
  7.2485250e-01
  4.6913064e-01
 -3.8272816e-01
 -3.2737124e-01
  3.0987420e+00
 -2.5761046e+00
 -4.0670400e+00
 -6.3514266e+00
 -4.3814629e-01
  1.9850497e+00
  9.7055531e+00
  7.9914560e+00
  3.3381324e+00
  2.5553694e+00
 -1.4533832e+00
 -3.6173670e+00
  7.8100854e-01
 -3.2926524e+00
  1.8906821e+00
 -2.4816198e+00
  1.4405093e-01
  5.6666298e+00
 -6.0060918e-01
  3.9683190e-01
 -4.2741183e-02
  3.5544984e+00
  2.1647091e+00
 -3.7074146e+00
  9.0743765e-02
 -2.8157942e+00
 -4.7455677e-01
 -2.7013519e-01
 -3.8295189e-01
  1.4461222e+00
  3.4168977e-01
 -2.1874614e+00
  1.0697408e+00
  1.6844615e-01
 -3.2848194e+00
 -2.2704363e+00
  4.7274089e+00
 -1.3191046e-02
 -1.4386723e+00
 -1.9821478e+00
 -6.9149261e+00
  1.2529523e+00
 -8.0136909e+00
  1.2595623e+00
 -5.0877762e+00
 -1.5602340e+00
 -2.9057374e+00
  7.0320168e+00
 -1.2735463e+00
  4.7539330e+00
  4.0341219e-01
  1.0785270e+01
 -1.7174377e+00
  1.2483562e+00
  3.3482645e+00
  6.4259797e-02
 -3.4040997e+00
  3.0179923e+00
  8.7736517e-01
  2.4253216e+00
 -1.8592874e+00
  9.9861777e-01
 -1.8496152e+00
  2.9833970e+00
  6.0420632e-01
  3.6828718e+00
 -2.7127907e-01
 -3.8997159e+00
 -7.2940558e-01
  2.2754858e+00
 -6.2138981e-01
 -1.9237647e+00
 -3.4409626e+00
  9.2759788e-01
 -1.7835176e+00
  5.1822361e-02
  3.6210721e+00
 -2.9898691e+00
 -3.5016315e+00
 -3.8568270e-01
 -1.1234885e+00
 -1.2386752e+00
  5.1875744e-02
  2.1297400e+00
 -5.9455568e-01
 -8.0529213e+00
 -3.1466184e+00
  8.3651710e-01
  1.8562211e+00
 -3.0260808e+00
 -5.7479234e+00
 -3.7004534e-02
  9.4807510e+00
  2.3888929e-01
  4.3603215e-01
  4.2109652e+00
 -3.1128173e+00
 -1.0909033e+00
 -1.8383703e-01
 -4.2237973e-01
  1.6692109e+00
  6.6762428e+00
 -1.7802929e+00
 -1.7957706e+00
 -2.5721519e+00
  3.5862894e+00
 -7.6639754e-01
 -1.4499096e+00
 -1.6237023e+00
 -4.5940137e+00
 -1.3290011e+00
  9.9547660e-01
  6.8922293e-01
  2.3001235e+00
  4.4601674e+00
 -4.1767392e+00
  1.0211601e+00
  4.2854500e+00
 -1.7808869e-03
 -9.3283880e-01
  1.4390671e+00
  2.2440486e+00
  9.0056382e-02
 -2.3273735e+00
 -6.7688746e+00
  6.2907758e+00
 -8.5243578e+00
 -4.5389891e-01
  5.4033360e+00
 -1.1339240e+00
 -1.6449254e+00
  6.8885607e-01
  3.2340891e+00
  4.2137938e+00
  2.9184363e+00
 -5.0266248e-01
  5.1659145e+00
  3.7444395e-01
 -6.1304317e+00
  5.7179790e+00
 -1.2798520e+00
 -2.3948160e-01
  1.7604648e-01
 -2.6178983e-01
 -3.1691918e+00
 -7.4531549e-01
  2.4855213e+00
 -2.1212636e-01
  4.0797710e+00
  2.9438834e+00
  1.0251455e+00
  6.1068791e-01
  5.0847328e-01
 -4.8262897e-01
  3.2573209e+00
 -3.4017639e+00
  2.0327890e+00
 -2.6399039e-02
  5.6037450e+00
 -3.0726948e-01
  2.4148927e+00
 -1.4414059e+00
  4.2160487e+00
 -1.9215770e+00
  2.6943478e-01
 -4.5305905e-01
  5.9161639e-01
 -2.9769778e+00
 -3.1963554e-03
  1.9047440e+00
  6.1762047e+00
 -1.6302364e-01
 -1.6795564e+00
 -1.5639986e+00
  2.5639334e+00
 -8.8366385e+00
  3.4901419e-01
  5.7897720e+00
  5.0035343e+00
  4.4245639e+00
  2.2067013e+00
  3.9488549e+00
  5.4943907e-01
 -2.3692882e+00
  1.7153544e+00
 -3.4515090e+00
  4.3188682e+00
  1.0350055e-01
 -1.4102753e+00
  9.7773308e-01
 -2.6092088e-01
 -2.2712369e+00
 -1.7853563e+00
 -1.2549654e+00
  9.1205788e+00
  1.6105576e+00
  6.7252951e+00
  1.8001752e+00
 -7.7706604e+00
 -2.2268074e+00
  2.8473749e+00
  1.2597755e+00
 -5.0670934e-01
 -1.4352190e+00
 -1.6134182e+00
 -2.2486477e+00
  1.2867719e+00
  1.5017886e-01
 -3.1980927e+00
 -1.8829579e+00
  1.5946487e+00
  1.9024910e+00
 -2.3613259e-01
  1.3518124e+00
  8.4842768e+00
 -5.3781289e-01
  6.0772839e+00
 -7.5070179e-01
  4.5310873e-01
  4.9260139e+00
  4.6661501e+00
 -3.1818602e+00
 -1.7691708e+00
  1.4053725e+00
  3.7422941e+00
 -8.6558598e-01
 -2.3201895e+00
 -1.4940985e+00
  3.8699141e-01
  2.1251023e+00
 -1.5233216e+00
  1.0837889e+00
 -3.2148557e+00
  8.9756548e-01
  7.8933591e-01
 -7.7618666e-02
 -4.2473974e+00
  3.6512345e-01
 -2.5248106e+00
  9.8029122e-02
  2.4554154e-01
  3.5935285e+00
  2.0962222e+00
 -5.3003645e-01
 -1.5238929e+00
  3.4958053e+00
 -9.1284599e+00
 -2.0730305e+00
 -1.7618802e+00
  2.7286199e-01
 -7.0006886e+00
 -1.2970482e+00
 -6.1865306e+00
 -3.8560650e+00
 -5.0446975e-01
  7.2262180e-01
 -5.4908209e+00
 -4.5978985e+00
 -4.8091598e+00
  1.5648119e+00
 -2.1487920e+00
 -4.7402793e-01
  3.4831161e+00
  2.1020629e+00
 -1.2435579e+00
 -1.6574952e-01
  5.2868479e-01
  6.1718816e-01
 -4.2911129e+00
  7.8647985e+00
 -1.7159548e+00
  1.9693506e+00
  3.5703611e-01
  5.0415492e+00
  8.7633651e-01
 -2.6818767e+00
  7.0116735e+00
 -3.9898030e-02
 -7.7419374e-03
 -2.5493217e+00
  9.6241754e-01
 -4.7173176e+00
 -4.7380913e-02
  1.1175672e+00
 -3.4536889e+00
  4.9010342e-01
 -2.8458199e-01
  4.0537591e+00
 -1.1036482e+00
 -2.6370230e+00
 -3.9657184e-01
  9.7208500e-01
  3.3676207e+00
 -1.5011823e+00
  1.8552197e+01
 -3.8323659e-01
 -5.9983902e+00
  1.0464475e-01
 -1.1062489e+00
 -3.1072748e+00
  1.1153054e+00
 -9.1087496e-01
  1.5894172e+00
  7.7408421e-01
  5.5464258e+00
  7.7209818e-01
 -1.8736942e+00
 -3.1609507e+00
  1.7347682e+00
 -9.0516478e-01
 -7.1800846e-01
 -7.8899801e-01
  1.7277042e+00
  3.8366632e+00
  8.1702173e-01
  1.9307429e+00
  1.1715533e+00
  2.4081767e+00
 -2.6766763e+00
 -1.4769440e+00
  5.1302832e-01
 -7.0730395e+00
  1.4464490e+00
  2.9635229e+00
  3.0071108e+00
  6.9187325e-01
 -2.3766197e-01
  1.4351734e+00
  1.0735161e+00
  3.5122375e+00
 -8.8933855e-01
  1.3033350e+01
  2.0974083e+00
  6.6893172e+00
  1.0742344e+00
  4.0360489e+00
 -9.3010086e-01
 -1.4028476e+00
 -5.8649230e+00
 -1.8755043e+00
 -1.9338324e+00
  7.4541035e+00
 -1.2075346e+00
 -1.8498899e+00
  2.2101519e+00
 -2.3648312e+00
  4.5787299e-01
 -3.1921666e+00
 -1.0032195e+00
 -2.5222057e-01
 -1.5637777e+00
 -2.6957827e+00
  1.2290291e+00
  9.5280093e-01
 -3.3468881e-01
 -2.3474131e+00
 -8.6347602e-02
  1.0125004e+01
 -1.3311774e+00
 -2.7728722e+00
  5.1920187e-01
  1.3912866e-01
 -5.9561453e+00
 -1.9542377e+00
  3.2709706e+00
  3.8977141e+00
 -3.4704659e+00
 -6.1423391e-01
  1.5915958e+00
 -5.0305390e+00
  2.2602689e+00
 -5.1892767e+00
  2.4821353e+00
  1.9031030e+00
  7.1993655e-01
 -1.9495871e+00
 -9.0782385e+00
 -3.3640535e+00
  2.3511348e+00
  8.4972458e+00
  2.0265801e-01
 -2.8498626e+00
 -1.5951657e+00
 -7.6182693e-02
 -9.7458762e-01
 -2.6318748e+00
 -4.4194779e-01
 -1.1916697e+00
  5.7408996e+00
 -3.3051231e+00
 -2.7760649e-01
  3.5502367e+00
  1.4587249e-01
 -2.8851600e+00
  6.4360785e+00
  1.8777026e+00
 -4.9445120e-01
 -3.5374715e+00
  1.6461363e+00
 -1.8731769e+00
  1.3866529e+00
 -1.8003047e-01
 -4.2819318e-01
  6.3278751e+00
  1.2593846e+00
 -3.3109643e+00
  3.1139038e+00
  1.6400948e-01
 -1.7139053e+00
  1.4260153e+00
 -6.5410870e-01
 -1.5456197e-01
  1.3124545e-01
  2.1971695e+00
  3.9116597e-01
 -2.5715500e-01
  2.5998533e+00
  1.7726861e+00
 -1.5669780e+00
  2.8334262e+00
 -4.4778427e-01
 -3.3554931e+00
 -1.8200037e+00
  2.3848121e+00
 -4.3698125e+00
 -1.9066331e+00
  5.7100987e-01
  1.7687992e+00
 -3.0022457e-01
 -2.3281148e-01
 -1.6959616e+00
  1.6925485e+00
 -1.3123747e+00
  4.8755836e+00
  3.1741419e-01
 -2.1858554e+00
 -9.8696041e-01
 -4.7252550e+00
  1.9359649e+00
  2.3889530e+00
 -5.0305068e-01
  3.5632834e+00
  1.2566602e+00
  2.1258912e+00
 -9.8534352e-01
 -3.3311534e+00
 -4.6793935e-01
 -5.5632482e+00
 -5.6918793e+00
  2.1313853e+00
 -1.6344031e+00
  2.5930624e+00
 -1.2862095e+00
 -4.2995081e+00
 -1.3512914e+00
 -8.1307011e+00
  1.3996277e+00
 -6.6624743e-01
 -4.7607026e+00
  2.9537681e-01
 -4.3928905e+00
  3.2862597e+00
 -1.5457836e+00
  7.0154160e-01
 -1.5834090e+00
 -3.8118017e+00
 -4.9533123e-01
 -2.2679980e+00
  4.3913472e-01
 -4.7474236e+00
 -2.7477911e+00
  3.1770060e-03
  6.2161765e+00
  1.4292136e+00
  3.0049961e+00
  1.6811351e-01
 -4.7628622e+00
 -7.1416837e-01
 -4.3707395e+00
  4.3251821e-01
 -1.0776814e+00
 -7.0857406e-01
  7.4026543e-01
 -1.7347684e+00
  2.4328246e+00
  5.0364804e+00
 -8.1467409e+00
  2.4047763e+00
 -4.0460782e+00
  1.0861417e+00
  6.5532475e+00
  2.3536941e-02
  2.5233736e+00
 -6.3190997e-01
  2.1466136e+00
 -2.7978182e+00
  1.5868974e+00
  1.3792251e+00
 -1.1591678e+00
  1.1352337e+01
  4.9339976e+00
  5.7065827e-01
 -5.2689643e+00
 -6.9251128e-02
 -2.1870897e+00
 -3.8995871e-01
 -2.7695693e-02
 -7.6321120e+00
  2.7362318e+00
  5.1734238e+00
  4.8421159e-01
 -1.3072080e+01
  3.0472279e-01
  4.6917360e-02
 -2.0064507e+00
  3.0268595e-01
 -1.6291149e-01
  4.1286957e-01
  3.8270307e-01
 -1.4065051e+00
  2.8219631e+00
  3.2229936e-01
  4.2632489e+00
  4.3029876e+00
  9.4766423e-02
 -3.7845128e+00
  1.0023195e+00
  1.7932856e+00
  3.0081241e+00
  7.2514325e-01
 -2.4810238e-01
 -5.7611790e+00
  8.0208874e-01
  2.0953712e+00
  6.1157651e+00
 -3.9718261e+00
  4.4552469e+00
  3.8779788e+00
  5.3834553e+00
 -1.8828619e+00
 -5.0920339e+00
  9.1583610e-01
  3.7869301e+00
 -6.2362760e-01
 -1.4534588e+00
  1.3653774e+00
 -2.9645262e+00
 -3.8213279e+00
  6.0260196e+00
 -1.3501680e-01
 -2.8881893e+00
  2.7718592e+00
 -4.2362043e-01
 -3.1010702e-01
  3.2527077e+00
 -1.5519147e-01
 -5.1248293e+00
  3.8915632e+00
 -9.3029523e-03
  1.8921379e+00
 -7.7676215e+00
 -3.9888883e-01
  7.4545264e-01
  3.9319105e+00
  1.5485095e+00
 -5.0845689e-01
 -1.7794146e-01
 -9.4105425e+00
  4.5175295e+00
  6.2824148e-01
 -9.6483225e-01
  7.2987509e-01
  1.3446487e+00
  8.8173654e-03
  8.9945793e-02
 -7.9691863e-01
 -3.1964347e-01
  2.9541428e+00
  3.1794760e-02
  1.2477667e+00
  1.6726062e-01
  1.3729129e+00
 -1.8678316e+00
 -1.3658493e+00
 -8.4946299e-01
 -2.9697914e+00
  1.6456016e+00
  4.8436422e+00
 -1.2037590e+00
  4.6707683e+00
 -1.2788217e+00
 -5.2941728e+00
 -5.5884080e+00
  1.3205212e-01
 -2.6188122e-02
 -2.1627308e-01
  1.7547792e-01
 -2.4428182e+00
 -2.1778102e+00
 -2.0410526e+00
 -1.9766614e+00
 -2.4910419e+00
  9.6083552e-01
 -6.8951783e+00
 -7.2576318e+00
 -1.0820043e+00
 -1.4377431e+00
  4.7927003e+00
 -4.0575314e+00
 -3.4372318e+00
  5.8624323e-02
  5.6090941e+00
  5.4083563e-02
 -3.4826114e+00
  2.7215734e+00
 -4.3495178e+00
 -3.2172024e+00
  2.3205500e+00
  2.6186636e-02
  1.2458215e+00
  8.9398082e-03
  5.0522032e+00
  4.5314970e+00
  4.2600921e-01
 -3.4650466e-01
  6.7735958e+00
 -2.7290726e+00
  9.1982400e-01
  7.5627863e-01
  2.9167328e+00
  2.0194650e+00
  9.1073316e-01
  1.6927654e+00
  4.7884992e-01
 -3.9095511e+00
 -1.9162203e+00
  2.4980683e+00
 -8.5842031e-01
 -5.4381180e-01
  3.7834363e+00
  6.6953260e-01
  2.1749222e+00
 -1.1196134e+00
  3.5076516e+00
  2.3401642e+00
 -9.1749316e-01
 -2.9336069e+00
 -2.9358423e-01
  7.6447859e+00
 -1.6035359e+00
  8.1589689e+00
  3.0604374e+00
  5.9613806e-01
  2.1256151e+00
  9.3145790e+00
  5.3113401e-01
  1.4013888e+00
 -1.6463677e+00
  3.8812504e+00
 -3.1944254e-01
  2.7329941e+00
 -1.7826197e+00
 -3.6007273e-01
 -7.0889518e-02
 -3.6512806e+00
 -7.1950579e-01
  7.9704289e+00
 -1.8508869e+00
 -3.9536970e+00
  2.3936718e+00
 -4.8909721e-01
  2.7166729e+00
 -1.7422198e+00
  2.6098078e-01
  4.7254816e-01
 -8.3436718e+00
  5.3852898e-01
 -6.3520664e-01
 -1.0806880e+00
  6.6751013e+00
  1.5947990e+00
  1.4722167e-01
 -5.0160867e-01
  4.9998107e+00
 -1.1049213e+00
 -2.5313981e+00
  1.3918991e-01
  9.3103666e+00
  3.5286059e+00
 -4.8639989e-01
  3.8552055e+00
 -6.0177469e+00
 -6.8937093e-01
 -6.0117707e+00
 -3.9410334e+00
 -8.5737431e-01
 -4.0003667e+00
 -1.4251530e+00
  5.0070920e+00
  7.4337703e-01
  2.1374214e+00
  1.7447299e+00
 -9.1221446e-01
 -1.2945188e+00
  2.8214216e+00
 -8.0035961e-01
 -3.3762252e+00
  2.1125851e+00
 -8.6689115e-02
  2.3988061e+00
 -1.2730341e-01
  9.1579777e-01
  5.7750237e-01
 -4.3825178e+00
 -2.0517248e-01
  2.6922408e-01
  1.5155275e+00
 -2.3201103e+00
 -1.1822740e+00
 -5.8173740e-01
  4.1137013e+00
  4.9592643e+00
 -1.2787820e+00
  1.6937225e+00
  1.0399394e+00
 -2.9837947e+00
 -3.7250391e-01
  5.6176740e-01
 -3.5529361e+00
  8.3356887e-01
  2.2858678e-01
  1.9464570e+00
 -2.2544746e+00
  1.3212839e+00
 -7.8996501e+00
 -3.2656665e+00
 -1.8536305e+00
  1.6421845e+00
 -2.4998400e+00
  9.1028194e+00
  1.2814290e-02
  1.2046643e+00
  8.7645525e-01
  2.5065290e-02
  2.1892083e+00
 -5.7623258e+00
 -1.7017154e+00
  1.2365574e-01
 -3.2265621e-01
  7.8344178e+00
 -5.4711523e+00
  3.2192578e+00
  6.8599290e-01
  9.2745310e-01
 -5.4193048e+00
 -2.6275969e+00
 -2.2329857e+00
 -2.4667997e+00
  2.4029088e+00
  4.4973130e+00
 -2.8852618e+00
  1.9966186e+00
 -7.1860766e-01
  1.2839501e+00
 -8.1524521e-02
  7.3576123e-01
 -3.0712458e-01
 -5.8769269e+00
 -1.6753969e-01
  4.3389010e+00
  1.0259521e-01
 -1.8643341e+00
  5.3184147e+00
  6.5426660e-01
  2.0558782e+00
 -4.8575311e+00
 -3.5970621e+00
  1.7937709e+00
 -1.3188431e+00
  9.5701659e-01
 -3.4183443e-02
  1.0586441e+00
 -1.8403078e+00
 -9.6868067e+00
  3.6425054e+00
  2.0185122e+00
  1.3904020e+00
  4.1639809e-02
  6.1969566e-01
 -9.0323992e+00
  3.7371445e-01
 -2.3978448e+00
 -5.9321661e+00
  1.4748424e+00
 -1.5378726e+00
  3.3213031e+00
 -1.9054329e+00
 -2.5383386e-01
 -9.5927280e-01
  4.5540924e+00
 -5.6333530e-01
 -1.0058521e+00
  1.0175825e+00
  5.5007386e-01
 -5.5764580e-01
  8.4061164e-01
 -6.4920872e-01
  9.4632494e-01
 -4.9918323e+00
 -4.0315447e+00
  2.7105432e+00
 -2.6370332e-01
  2.8274632e+00
  1.5956388e+00
  9.1951710e-01
 -3.1492488e+00
  7.2554970e+00
  1.6495380e+00
 -1.9820704e-01
 -4.0894308e+00
  2.0754201e+00
 -1.9544803e+00
 -1.1166637e+01
 -4.2628202e+00
 -5.0985904e+00
  1.6492152e+00
  1.0513747e+00
 -7.5885973e+00
  1.2981937e+00
  1.2758870e+00
  2.7660618e+00
  2.4989021e+00
  8.5527658e-01
  3.3453205e-01
  1.1280329e+00
 -2.3718021e+00
 -3.2569916e+00
 -4.2709913e+00
 -1.0249526e+01
 -3.3042188e+00
  1.8867296e+00
 -6.9784999e+00
  1.8801665e+00
  1.0719330e+00
  3.5846494e-02
  8.5600644e-01
  2.6439216e+00
  7.4695013e-02
  1.7701839e+00
  2.2609040e-01
  9.5295250e-01
 -7.1339712e+00
 -4.5267919e-01
 -2.9286451e+00
 -1.4629909e+00
 -2.1529233e+00
  5.8719039e+00
 -5.7201517e-01
 -9.1101152e-01
  3.6891788e-02
  3.3711593e+00
 -1.9303435e-01
 -2.9197356e-01
  6.8506970e+00
  8.8041979e-01
  4.6258025e+00
  8.3953547e-01
 -2.4896045e-01
 -1.0170090e+00
  1.0375423e+01
 -2.1886024e-01
 -2.1569982e+00
  7.2782058e-01
  2.4457481e+00
 -1.7678066e+00
 -2.7260809e+00
  2.3503118e+00
  8.5152416e+00
  2.5316281e+00
 -2.0300176e+00
 -1.3594959e+00
  2.0778787e+00
  3.5053024e+00
  8.2020324e-01
  1.0182315e+01
 -8.2880849e-01
 -1.2821606e+00
  1.9724925e-01
  2.1239901e+00
 -5.6183499e-01
  4.6674447e+00
 -6.0442104e+00
 -1.9850484e+00
 -9.5168823e-01
  8.2580757e-01
  5.6770229e-01
  1.0874220e+00
 -3.4194074e+00
  6.9826621e-01
 -1.7676178e-01
  7.6677513e-01
 -8.1475019e-01
 -7.8764400e-03
  3.6072009e+00
 -3.2108238e+00
  3.8616726e+00
  5.5479202e+00
 -4.7843727e-01
  1.3330114e+00
 -3.5766578e-01
 -8.4362364e+00
 -5.0855416e-01
 -2.4502451e+00
 -2.5062196e+00
  1.5785819e+00
  4.8254280e+00
 -6.0079259e-01
  8.2054085e-01
  6.2632260e+00
 -1.3396417e+00
 -1.8458987e+00
 -1.4347725e+00
 -5.7494360e-01
 -3.7882047e+00
 -1.3714161e+00
 -1.8018290e-01
  1.3982861e+00
  4.0606556e+00
  1.5564964e+00
  3.2596784e+00
 -3.0595238e+00
 -2.2300456e+00
  9.0886845e-04
  4.2632934e-01
 -2.6523337e-01
 -3.6609430e+00
  1.4665155e+00
 -3.7291052e+00
 -2.2515495e+00
  2.6853864e+00
 -5.2435994e+00
 -8.6373544e-01
  1.2347883e+00
  1.3607323e+00
  2.4398328e-01
  1.9826090e+00
 -2.9990911e+00
 -3.2442989e+00
  2.4322977e+00
 -2.0319553e-01
 -9.5992106e-01
 -4.8167171e+00
  5.0885367e-01
 -1.9820385e+00
  6.7591512e-01
  2.3775713e+00
  3.5509322e+00
 -3.1055660e+00
  7.4722171e+00
 -2.6189237e+00
 -3.7867045e+00
  1.2814655e+00
 -7.2388089e-01
  3.4647181e+00
  7.9648787e-01
 -3.7169220e+00
  6.0237107e+00
 -3.6549995e+00
  8.8000949e-04
 -1.7802755e+00
 -3.7691810e+00
  1.8234260e+00
  5.7585254e+00
 -2.6921840e+00
  3.2748851e-01
  5.7154446e+00
 -4.4151335e+00
  1.1422055e+00
 -5.4588318e-01
 -9.6741921e-01
  2.4537237e+00
 -3.3510475e+00
 -1.0553133e+01
  3.5522628e-01
 -2.3643656e+00
  1.5644529e+00
  1.2500985e-01
 -2.4378901e+00
  2.6003380e+00
 -3.3209362e+00
  7.6748675e-01
 -5.5423732e+00
  1.5324814e+00
  8.7303436e-01
  1.2904456e+00
  1.0794351e+00
  2.0692191e+00
 -8.3316483e-02
 -3.1232319e+00
  1.1139745e+00
  4.9163051e+00
 -2.3369968e+00
  2.1874378e+00
 -2.8354714e+00
  2.4923091e+00
 -5.8647819e+00
 -3.9102948e+00
 -1.0432472e+00
  2.8470583e+00
  7.8942664e-02
  3.3199196e+00
  2.0623583e-01
  3.4852648e-01
  1.0337889e+00
  5.9487562e+00
  2.2948747e+00
  1.0657499e+00
 -4.2636603e-01
 -1.4854201e+00
  1.8937984e+00
  8.1501389e-01
  1.0293317e-01
  3.3471947e+00
  5.8483553e+00
  3.8393826e+00
 -1.8006053e+00
 -2.6310048e+00
  6.3366833e+00
 -1.2782123e+00
  1.2127991e+01
  3.6301407e-01
 -2.2091341e+00
  1.8239368e+00
 -3.3333831e+00
  3.7014763e+00
 -1.4329977e+00
  1.2559035e+00
  1.1037847e+00
 -2.5440741e+00
  2.8795512e+00
  1.1101366e+01
  1.4281690e+00
 -4.1380897e+00
 -5.6943542e-01
  2.8673267e+00
 -2.3161769e+00
  5.5228502e-01
 -2.1145020e+00
  2.7812588e+00
  5.9517336e-01
 -7.0154077e-01
  4.1797142e-02
 -2.1625657e+00
 -1.2549849e-02
  3.7770557e+00
 -1.6680781e+00
  4.5867763e+00
  3.4489589e+00
 -7.1625977e+00
  1.7981727e+00
  7.3995334e-01
 -1.0591272e+00
 -1.2633356e+00
 -7.1345568e-01
 -4.1726017e+00
 -3.8600917e+00
  3.1730166e-01
 -3.4657073e+00
 -3.8506880e-01
  2.4214733e+00
 -8.1706029e-01
  5.1152563e-01
 -2.6531138e+00
  4.3955140e+00
 -2.5711200e+00
 -1.5627475e+00
  9.8837537e-01
 -6.2682128e+00
  1.7752503e+00
 -1.3420748e-03
 -5.4070654e+00
  5.9442220e+00
  3.1257954e+00
 -1.6840695e+00
  1.0910906e+01
  4.4659105e-01
  9.6052206e-01
 -3.1156723e+00
 -1.7752401e+00
 -6.5822926e+00
  3.1487200e+00
 -9.6913561e-02
  2.5684276e+00
 -3.0458784e+00
  1.5153190e-01
 -2.8961017e+00
  4.9555521e+00
  2.3582599e+00
  3.5302014e+00
 -1.2243211e+00
  5.6996784e+00
 -1.0063246e+00
  9.3484092e-01
 -8.5525198e+00
 -1.3508065e+00
  4.1162291e+00
  1.1041096e-02
  6.5370166e-01
  1.8323526e+00
 -1.5514176e+00
 -3.5666337e+00
 -5.8185048e+00
 -1.9007192e+00
  8.5174160e+00
 -2.2936540e+00
 -1.1945362e+00
 -6.6376104e+00
 -7.4319023e-01
 -1.7533882e+00
 -2.4409978e+00
  5.1490397e+00
  1.7215657e-01
 -8.6482630e+00
 -4.3538570e+00
  4.8620858e+00
 -1.0674418e-01
 -2.5909808e-01
  1.7131971e+00
 -8.6781740e-02
 -2.9671695e+00
 -2.8647015e+00
 -1.3141130e+00
  2.8673007e+00
 -1.2966521e+00
  1.8828356e+00
  9.0264482e+00
 -1.8232185e+00
  9.4847053e-01
  5.0535464e+00
  1.4748409e+00
 -1.5531608e+00
 -5.6080256e+00
 -2.2053443e-01
  6.6441736e+00
 -2.1708591e+00
 -5.0664821e+00
  9.0299749e-01
  2.8642556e-01
  8.3538097e-01
 -2.0880349e+00
  4.5827923e+00
 -6.3530636e+00
 -2.9016621e+00
 -2.8684201e+00
 -1.4425124e+00
 -1.1196072e+00
  1.0979782e+00
 -2.6061130e-01
  1.5655720e+00
  5.6323472e-02
 -1.0838505e+00
 -1.2656168e+00
 -9.5354408e-01
 -3.1906435e-01
 -9.2837490e-02
  5.8844417e-01
 -5.2038443e-01
 -4.1946559e+00
 -3.4264287e-01
  1.0146407e+00
 -9.6588320e-01
 -5.7081556e-01
 -3.8781318e-01
  4.3642068e+00
  4.8188353e+00
  1.1274289e+00
  7.7470702e-01
 -3.7888989e+00
 -5.2369583e-01
 -2.0894499e+00
 -4.8683807e-03
  5.6202092e+00
 -9.1184908e-01
 -8.0764169e-01
  4.9610891e+00
  1.4677975e-01
 -1.1543248e+00
 -1.1016612e-01
  4.5809349e-01
 -3.9103512e-02
 -8.6837880e-02
 -9.8769045e-01
 -5.9561715e-02
 -3.5395072e+00
  1.1040623e+00
  2.9280219e+00
  4.0111929e-01
 -3.4642494e+00
 -5.2335179e-01
 -2.4246025e+00
  3.5678520e+00
  3.7842497e-01
  7.7970252e+00
 -4.1230169e-01
 -5.7592648e-01
 -1.4768034e+00
 -1.4721905e-01
  5.0508194e+00
  3.9552972e+00
 -2.0106328e+00
  1.1384859e+00
  1.1341531e+00
  1.2919432e+00
  9.2459714e-01
 -2.8484161e+00
  5.2208334e-01
 -6.1369449e-01
 -5.4221373e+00
 -3.6230654e-01
  6.7576571e+00
 -1.4727366e+00
  1.6885744e+00
 -2.0497508e+00
 -8.4229479e+00
 -1.7826022e+00
  5.2773218e+00
  1.7336341e+00
 -1.9296654e+00
 -6.7007065e-01
  1.8835454e+00
  2.7002910e-01
  2.4069152e+00
 -9.5504248e-01
 -1.1450111e-01
  7.9867536e-01
  8.4918022e-01
  4.4135475e-01
  1.5038416e-01
 -4.6047897e+00
 -8.7469950e+00
 -4.8444638e+00
 -2.0430269e+00
  1.7232257e-01
 -1.1297037e-01
  5.6960160e-01
 -2.5157118e-01
 -2.5426054e+00
 -2.5281432e+00
  5.9979701e-01
  3.5065198e+00
  2.5400014e+00
 -1.1610442e+00
 -2.8489141e+00
  5.2677757e-01
 -6.3413548e-01
  5.4598169e+00
  4.1268263e+00
  4.2229440e-02
  3.3633077e+00
  3.0745993e+00
 -2.6385403e+00
  2.2191391e+00
 -2.6566517e-01
 -4.0502424e+00
  2.5588405e+00
 -3.8863108e+00
 -1.1534458e+00
  9.3067741e+00
  1.7092875e-01
 -4.8281905e-01
 -6.3107758e+00
 -2.4091337e+00
 -4.9832120e+00
 -1.9807302e+00
 -2.2182555e+00
 -8.9726740e-01
  9.7903423e+00
  6.0134416e+00
 -1.5257980e+00
  5.5132380e+00
  4.2555037e+00
 -1.2209795e+00
 -5.4059396e+00
 -3.8982570e-02
 -2.6217206e+00
  1.7313420e+00
 -4.3064532e+00
 -1.8175463e-01
 -1.7928060e+00
  1.7830739e+00
 -9.0149581e-01
 -8.2321775e-01
  6.4498186e-01
 -1.7809823e+00
  6.5150571e+00
 -2.8560259e+00
 -3.5381181e+00
 -4.7958446e+00
 -2.4588194e+00
  4.5543561e+00
 -2.6077101e+00
 -1.0774094e+00
 -3.1498015e+00
 -5.5031595e+00
 -2.2334383e+00
  5.4796910e-01
  6.7115837e-01
 -1.4412519e+00
 -1.6333480e+00
  5.7662306e+00
 -2.2708681e-01
  1.2630260e+00
  2.9608190e+00
 -1.2234893e+00
  2.1877511e+00
 -1.0619187e+00
  9.8519069e-01
  2.0305264e-01
 -3.2212949e+00
 -2.0673287e+00
 -6.4117241e-01
  8.6036950e-01
 -1.9745026e+00
  4.6557722e+00
  3.1547803e-01
  4.9117061e-01
  1.2018895e+00
 -2.9544389e-01
  1.4699204e+00
 -1.1329958e+00
  3.9837711e+00
 -1.2799487e+00
  2.0198884e+00
 -2.0340164e+00
  5.8422294e+00
  2.7390001e+00
 -3.6804945e+00
 -2.7144092e-01
  8.5171455e-01
 -3.9465632e+00
 -2.3137882e+00
  3.9065893e+00
  9.4039221e+00
 -3.9892004e+00
  1.1884477e+00
  2.7477140e+00
 -7.5894976e-01
 -1.5601017e+00
 -3.2330140e-01
 -2.0396025e+00
 -4.3124185e+00
  1.5791465e+00
  1.3282053e+00
  3.0085328e+00
 -3.1393495e+00
  3.6042223e+00
  1.5448844e+00
  1.5307461e+00
  1.4517452e+00
  8.4131479e-01
  1.6414751e+00
 -1.9472215e+00
  5.5964565e-01
 -2.1734123e+00
  3.4290271e+00
 -6.9207567e-01
  1.6576172e-01
  1.0407860e+00
  3.0218825e+00
 -1.5831289e+00
 -4.3613949e+00
 -9.2810053e-01
  3.0470765e+00
  1.2477534e+00
  3.1347408e+00
 -2.2629879e+00
 -1.3028882e-01
 -3.2076602e+00
 -5.6620135e+00
  5.1865995e-01
 -1.4022076e+00
 -7.4352140e+00
 -6.2377852e-01
  3.4134689e-01
  3.9858276e-01
 -1.7329873e+00
  1.1726763e+00
  1.2812394e+00
  2.1376991e+00
 -4.6887369e+00
 -2.6347218e+00
 -2.3487396e+00
 -5.8372521e+00
 -3.2551566e-01
  2.6034269e-01
  3.2316053e-01
 -3.5384629e+00
  3.2044795e+00
 -3.5160512e-01
 -2.9799507e+00
  2.0928481e+00
 -2.0876000e+00
 -3.2296612e+00
 -2.3100610e+00
  8.3879358e-01
  1.8209784e+00
  5.8865190e-01
 -5.3401130e-01
 -3.1914735e+00
 -3.5322106e+00
  2.1198490e+00
  2.7791381e-02
  1.1782120e+00
  4.8238125e+00
  2.5668228e-01
  1.6172417e+00
 -9.4609505e-01
 -4.2792439e+00
 -2.0640206e+00
 -9.9902982e-01
  2.1470151e+00
 -2.0107570e+00
  1.5849485e+00
 -2.9006622e+00
  2.8454256e+00
 -4.4508133e+00
 -7.3703337e-01
 -3.8841018e-01
  1.8505743e+00
  2.0222638e+00
 -3.2755531e-02
 -1.4821682e+00
  3.1692097e+00
  8.7137718e+00
  1.1426914e+01
 -6.8742001e-01
  1.9033953e+00
 -7.0855975e-01
 -7.3980406e-02
 -4.3453512e+00
  1.2681898e+00
  1.0038654e+00
 -4.8632881e-01
 -4.9735909e+00
  4.6236544e+00
 -3.3834326e-01
  2.9155402e+00
  7.2740883e-01
 -2.5729556e+00
 -2.4784601e+00
  2.4539835e+00
 -2.1406283e+00
 -1.2395082e+00
 -3.2273836e+00
 -1.3438954e+00
 -1.4156976e+00
  9.8998713e-01
 -4.2559843e+00
 -7.0131254e+00
  1.2476768e+00
 -8.0011749e+00
 -8.6955863e-01
  5.5306683e+00
 -5.0631695e+00
 -5.6101441e+00
  4.8544259e+00
  5.4051385e+00
 -2.0848360e+00
  2.7494950e+00
 -4.7822542e+00
  2.1964877e+00
  4.4152942e+00
  2.0629430e+00
  4.0503225e-01
 -2.6645076e+00
 -6.2131900e-01
 -3.6407709e+00
  2.8437042e+00
 -2.8577912e+00
  6.3295307e+00
  1.3240030e+01
  2.3154275e+00
  1.4218878e+00
  1.0331527e-01
 -2.2349730e+00
  2.4262311e+00
 -4.1444001e+00
  8.0836754e+00
 -5.3607631e-01
 -9.6511853e-01
 -8.4373827e+00
 -2.0189257e+00
  1.9118677e+00
  7.0170951e-01
 -3.2478073e-01
  4.7650161e-01
  4.7348887e-01
 -8.3729511e-01
  2.8276816e-01
 -1.0957390e+00
  4.4223199e+00
  5.7989335e+00
 -1.8348250e+00
  6.1037314e-01
 -2.6412413e+00
 -5.1647601e+00
 -5.8267126e+00
 -2.0413895e+00
  1.9783261e+00
  6.8903279e-01
  8.6341403e-02
  4.3344417e+00
  4.4558482e+00
 -5.3054166e+00
 -2.5028341e+00
 -6.1268204e-01
 -1.1622150e+00
 -5.5627213e+00
 -3.4855454e+00
 -4.8984516e-01
  6.4053732e-01
  5.9717172e-01
 -4.2154393e+00
  3.9209175e+00
 -3.5369787e+00
  8.3055723e-01
  1.6610252e+00
  9.4533920e-01
 -4.0043309e-02
 -2.4354157e+00
  4.1959462e-01
  5.5882072e-01
 -3.8372669e+00
  6.6355413e-01
 -2.4266407e-01
  2.5559023e-01
  9.9644196e-01
 -1.2350210e+00
 -8.2995278e-01
 -1.6028886e+00
 -8.8371241e-01
 -1.9659269e-01
  2.2903438e+00
 -1.3102074e+00
  4.0696338e-01
  6.5221400e+00
  8.6898053e-01
  4.1337943e-01
 -2.0945327e+00
 -4.0103416e+00
  3.2763100e+00
  7.1442719e+00
 -4.6939558e-01
 -3.3609822e+00
  4.0554592e-01
 -1.9222658e+00
  9.9379072e+00
  5.4940047e+00
 -1.2544606e+00
 -9.1704488e-01
  3.9142790e+00
 -6.1831969e-01
  9.5823324e-01
  6.3695836e-01
  1.9399737e+00
 -3.1753230e-01
 -3.4489384e+00
  3.3935299e+00
 -3.9358335e+00
 -3.0475130e+00
  5.0078446e-01
  2.2420595e+00
  4.1184470e-01
 -3.8760102e-01
  8.3545649e-01
  5.9872403e+00
 -6.6765304e+00
  4.3877535e+00
 -3.8350496e+00
 -1.4790818e-01
 -1.1196194e+00
  1.7598354e+00
  5.0521269e+00
 -9.9207145e-01
 -4.0161896e-01
  3.2280197e+00
  2.9198807e-01
 -4.2872661e-01
 -2.0205803e+00
  8.1091273e-01
  6.8708748e-01
 -2.7462056e-01
  3.9899375e+00
 -2.9390194e+00
 -3.5561681e+00
 -1.7973750e+00
  6.2791896e+00
 -8.9046240e+00
 -6.3620825e+00
 -6.9298261e-01
 -5.0824823e+00
  3.7658980e+00
 -5.8821118e-01
 -4.8064942e+00
  2.8004911e+00
 -3.6568010e+00
  7.8338325e-01
  4.3971930e+00
  1.5212786e+00
  2.3509583e+00
  2.0380695e+00
 -7.8215003e-01
  2.3295705e+00
  8.1028098e-01
  8.2846135e-01
  2.2436926e-01
  1.3698294e+00
  8.4630245e-01
  8.6380947e-01
  1.9534827e+00
  4.9819314e-01
 -4.3067784e+00
 -6.5196276e-01
  2.7775598e+00
 -1.8559340e-01
 -3.1079381e+00
  1.4896762e+00
  1.3015695e+00
  4.5814662e+00
 -1.0846089e+00
  4.6032290e+00
 -2.7571201e+00
 -2.9852338e+00
  2.2271979e+00
 -9.8583776e-01
  1.1934308e+00
 -2.8695967e+00
 -3.6503639e+00
  5.8711853e+00
 -1.7866836e+00
 -6.9037944e-01
 -3.6885300e+00
  2.0283942e-01
 -5.3337951e+00
 -2.3762398e+00
  3.6884502e-01
  8.8389695e-01
 -2.6431828e+00
 -1.7284690e+00
 -2.9405460e-01
  6.0362101e+00
 -1.6948682e+00
  2.3604999e+00
  1.6160232e+00
  7.7806848e-01
 -2.9797134e+00
  4.0383329e+00
 -2.2706397e-01
  2.3551404e+00
 -1.2221383e-01
 -4.4350772e+00
 -1.7958519e+00
 -3.5815212e-01
  1.8480804e+00
  1.2975760e+00
 -1.2584313e+00
 -1.7926250e+00
 -1.1576875e+00
  4.2418804e+00
 -6.2887650e+00
  1.4475830e+00
  1.9690627e+00
 -3.3486352e+00
  2.7300489e-01
  1.3865625e+00
  8.5469550e-01
 -8.8081807e-01
 -3.7743601e-01
  2.6477608e-01
  3.4233062e+00
 -6.7213702e+00
 -2.0077815e+00
 -2.6395822e+00
  4.3871331e-01
 -2.3955858e+00
  3.5677652e+00
  4.8213973e+00
  3.8613465e-02
  6.3588867e+00
 -3.2400100e+00
  4.3334609e-01
  2.0670021e+00
 -1.6264700e+00
  1.0349255e+00
 -2.0035823e-01
 -3.0447767e+00
  3.6891794e+00
 -3.4239836e+00
 -6.7035942e+00
 -8.9739196e-02
 -3.1786959e+00
 -4.8587556e+00
 -1.0678823e+00
 -2.7266386e-01
  8.8420647e-01
 -1.1112655e+00
  3.1326423e+00
 -1.9538154e-01
 -6.7502010e-01
  7.5382954e-01
  9.1014700e+00
  1.8691660e+00
  2.7090251e+00
  1.1794927e+00
 -8.8187275e+00
  4.2462277e+00
 -2.1944716e+00
 -5.3386288e+00
  2.0251245e+00
 -1.1757455e+00
 -3.6172494e-01
  4.7887406e+00
 -2.3747549e+00
 -4.9414411e-01
 -5.0355345e-01
 -7.4057384e+00
  6.3504887e+00
 -9.9505496e-01
 -5.1814556e-01
 -3.6812258e+00
  3.2499826e-01
  8.0317205e-01
  8.5497694e+00
 -1.5668106e-01
 -1.6347042e+00
 -6.9402292e-02
 -4.9620848e+00
  2.6984732e+00
  1.3456085e+00
 -6.3357157e-01
  1.0855658e+00
 -3.4613945e+00
 -3.8074923e-01
  1.2593499e+00
 -8.1764603e-01
 -1.2662882e+00
 -5.9699976e-01
 -5.4968863e+00
  2.5981033e+00
  6.5025264e-01
 -2.7862921e+00
 -1.1948895e+00
 -2.0802314e+00
  2.7739429e+00
  3.0138373e+00
  7.6386595e+00
  1.6702962e+00
  6.0557979e-01
 -4.2784100e+00
  1.5216022e+00
  4.7669091e+00
  3.2186356e+00
  1.9960930e+00
 -1.7633351e+00
  2.3506156e-01
 -4.7434874e+00
  6.8442428e-01
  1.7347997e+00
  2.2906103e+00
 -1.7863733e+00
 -2.1132153e-01
 -5.7690792e+00
  2.5509381e-01
 -1.3975006e+00
  1.4659656e+00
  1.4867876e-01
 -3.2056725e-01
 -7.4041706e-01
 -1.6672197e+01
  1.3370599e+00
  7.0657986e-01
 -1.9847859e-01
 -3.1331372e+00
 -1.1275529e+00
  5.0295442e-01
  2.1609686e-01
  7.0829040e-01
  2.4680448e+00
  6.7151797e-01
  1.2586753e+00
 -1.5802072e+00
  1.6280761e+00
  2.2717576e+00
  1.2504725e+00
  1.6820903e+00
  1.7990924e+00
  3.1274006e+00
 -9.9186583e+00
 -2.4077013e-01
 -1.4661242e-01
 -1.5621710e+00
  1.6449310e+00
  5.9000597e+00
 -1.0906887e+00
 -8.4417701e-01
 -7.0760325e-02
 -9.0689337e-01
 -4.5851380e-01
  3.4532290e+00
  3.8528318e+00
  2.0962818e+00
  5.4069692e-01
  4.6142864e+00
 -2.9839277e+00
 -4.5169611e+00
 -3.6149004e+00
  3.5345700e+00
  1.9958148e+00
 -1.5354185e-01
 -1.7398777e+01
 -1.5646749e+00
 -2.2151008e+00
 -2.1445408e+00
  7.3249307e+00
 -8.1218559e-01
  3.1344790e+00
  1.0135444e+00
 -4.2799911e+00
 -1.0473808e+00
 -1.9868510e+00
  3.0703495e+00
  8.8619518e+00
 -6.6860102e-02
 -1.9703133e+00
  9.1324635e+00
 -2.0572252e+00
  1.1760160e+00
 -4.1763916e+00
 -3.3641772e+00
  4.7947189e-01
 -6.9345770e+00
  6.8109423e-01
 -1.7425718e+00
  6.6097898e+00
  3.2099707e+00
 -3.5203574e+00
  5.7431310e-01
  1.0010312e+00
 -2.4024329e+00
  4.8848015e-01
 -2.4448295e+00
 -1.1044731e-01
 -2.6016605e-01
  3.4997349e+00
 -2.7097046e+00
  7.8386289e-01
 -1.1963310e+00
 -1.0354967e+00
 -6.9218814e-02
  4.9284120e+00
 -1.6902129e-01
  1.7118094e+00
 -1.0556295e+00
  2.7018914e+00
 -1.8312478e-01
  6.5794344e+00
 -1.1630347e+00
 -3.3205168e+00
  2.9301720e+00
 -2.1337209e+00
  2.1512090e-01
 -4.4411035e+00
 -5.0335497e-02
 -1.6753699e+00
  9.3423474e-01
  2.1476129e-01
  4.9861073e-02
  5.0943834e-01
  1.7534453e+00
 -1.0797553e+00
 -7.6203597e-01
 -1.5324095e+00
 -4.9088159e+00
  2.0369480e+00
 -1.8561070e-01
  2.6743300e+00
 -1.9515829e+00
  1.2858177e+00
 -8.9153570e-01
  4.6197548e+00
 -3.3579116e+00
  5.4838915e+00
  7.5563021e+00
 -5.1750817e+00
 -1.3233359e-01
  8.5652256e+00
 -3.8821893e+00
 -7.5577455e+00
 -3.8395832e+00
 -8.7987928e+00
  3.6807373e-01
  3.6125591e-01
  2.3309920e+00
 -5.4612908e+00
  7.6455581e-01
  3.2290680e+00
  1.6673708e+00
  5.5635262e+00
  3.5755786e-01
 -3.1273839e-01
  8.7253287e-02
  2.5334413e+00
  8.5612431e+00
  2.7199516e-01
  2.5600159e+00
  3.0498037e-01
  2.5081098e+00
  6.4198241e+00
 -4.6892710e+00
 -3.7407973e+00
  4.3687501e+00
 -1.3666369e+00
  1.6638605e-01
 -1.2115152e-01
 -5.2538309e-02
  9.5247447e-01
  8.6417967e-01
  4.1795044e+00
