nep4 5 Ga O Si C H 
cutoff 9 6 338 103
n_max 10 8
basis_size 12 10
l_max 4 2 0
ANN 96 0
 -1.3342009e+00
 -9.4715023e-01
 -5.4538388e+00
  4.5679203e-01
 -4.8166671e+00
 -7.9901826e-01
 -1.3913374e-01
 -5.1440346e-01
 -2.1858850e+00
  1.9600822e+00
 -3.2368956e+00
  5.4253155e-01
 -2.9185314e-02
  3.4240624e-01
 -1.5604617e-01
 -8.1656694e-01
 -8.1043500e-01
 -1.4692260e+00
 -2.3258636e+00
  1.2761855e+00
 -9.9330384e-01
  1.0209160e+00
  6.7922287e-02
 -4.8116848e-01
 -1.0078121e+00
  1.0362852e+00
  1.4435904e+00
  4.7880003e-01
  1.1533084e+00
 -1.3697584e-01
 -6.3039899e-01
  1.0737562e+00
 -1.7434856e-01
  1.6408719e+00
 -1.0097461e+00
 -3.2688046e-01
 -1.6818757e+00
 -3.8980212e-02
  2.2903486e-01
  6.7690328e-02
  2.0251124e-01
 -3.2863507e-01
 -6.1654752e-01
  1.6839059e-02
  2.4347048e+00
 -2.4418426e+00
 -8.7852907e-01
  2.5388834e+00
 -2.2728345e+00
  5.5903154e-03
 -7.0329285e-01
  9.9469060e-01
 -6.4886039e-01
 -5.9728546e+00
 -1.6527709e+00
 -6.8945379e+00
 -4.3890411e-01
  1.1884804e+00
 -2.8121602e-02
  1.4963175e+00
 -2.5357814e+00
 -1.9313928e-01
 -4.5460730e+00
  2.8981357e+00
 -4.1302094e-01
 -1.1622008e+00
 -2.2148497e+00
 -1.6712497e+00
  3.0016282e-01
 -2.0782087e+00
 -3.8516424e+00
  5.5086565e+00
 -1.0268794e+00
  5.8172450e+00
  3.9131815e+00
 -1.7844366e+00
 -3.4922305e-01
  2.0498553e-01
 -6.2397003e+00
 -1.5935860e+00
  4.3496743e-01
 -1.3435364e+00
  6.6281176e-01
  1.6398249e+00
 -7.3246080e-01
 -1.4147255e+00
 -2.3641951e+00
 -4.9344506e+00
 -1.1201608e-01
  1.6248176e+00
  3.0996946e-01
 -5.5110278e+00
  1.9409154e-01
  5.6079276e-02
  1.8687485e+00
 -8.0724847e-01
 -3.4269226e+00
  1.9290975e+00
 -1.2931886e+00
 -2.9376519e-01
 -5.5676937e+00
 -4.1006479e+00
  1.1194462e-01
  4.2435655e-01
  2.8740668e+00
 -7.2726423e-01
 -3.8647094e-01
 -1.5133984e+00
  1.9475410e+00
 -5.2297220e-02
 -4.3760076e-01
 -1.1460387e+00
  1.4877202e-01
  4.1238296e-01
 -7.6307911e-01
  3.0008278e+00
  3.2277033e-01
  8.8174187e-02
  2.4940440e-01
 -6.2577270e-02
  4.5530572e+00
  1.6647162e-01
  2.8184962e-01
  9.4371557e-02
 -1.7048164e-01
  4.1584511e+00
  1.1586171e-01
  8.3105654e-01
  8.3967125e-01
  3.6597604e-01
 -2.0279238e+00
  1.4501864e-01
 -1.9527537e+00
  4.0914311e+00
 -1.4812390e-02
 -6.5216893e-01
  6.4767158e-01
  9.2342085e-01
  6.2060040e-01
 -1.7207464e+00
 -1.0064930e+00
 -5.0312549e-01
 -1.9172164e-02
 -1.0603357e-01
 -8.2202072e+00
  1.1440825e+00
  7.7846303e+00
 -2.0922367e-01
  2.1900587e+00
  8.8163175e-02
 -8.5344672e-01
 -2.5388274e+00
 -1.5000243e-01
 -5.2776664e-01
 -1.2179068e-01
 -2.0126019e-01
 -1.1560319e-01
 -1.3890294e+00
 -1.2768212e-01
 -4.9945192e+00
  4.9102992e-01
  2.1250252e-01
 -5.4035705e-01
 -2.8678402e-02
 -1.5378110e-01
  1.8558240e-01
 -7.0221657e-01
  3.4374958e-01
 -9.7319193e+00
  2.0320890e+00
 -7.0947657e+00
  5.5679071e-01
  5.3273821e+00
 -2.4450033e+00
  4.5881305e+00
 -4.3414707e+00
 -5.7962556e+00
 -4.8549757e+00
  1.0588919e+00
 -4.1362166e+00
  2.6350985e+00
  5.2631892e-02
  4.3574219e+00
 -2.8283799e-01
  1.4328033e-01
 -1.5707924e+00
  1.8845472e+00
  3.6526582e-01
  1.4478193e-02
  4.3783203e-01
 -6.5806299e-01
  2.8466538e-01
 -6.0924406e+00
  7.6492387e-01
  2.3566516e-02
  3.4869645e+00
 -5.2516466e-01
  2.1742091e+00
 -2.4319327e+00
  2.2972319e+00
 -1.5550364e+00
 -1.0479968e+01
 -4.7280960e+00
  5.8046217e+00
  6.6870990e+00
  9.8378107e-02
 -1.0991958e-01
  2.9461720e+00
  1.0539042e+00
 -1.0670037e+00
 -9.0528774e-01
  2.2093589e+00
  3.5794969e+00
  4.5617548e-01
  4.5962539e+00
  1.8425894e-01
  1.8013719e+00
 -1.0628626e-01
  1.0506231e-01
  1.3763067e+00
 -8.2586443e-01
 -1.4315447e+00
  3.2851219e-01
 -3.0569437e-01
 -4.2619009e-02
 -7.4028355e-01
  2.8766224e+00
 -5.5101438e+00
  6.6939718e-01
  1.0277627e-01
 -6.1122546e+00
 -8.1228405e-01
 -1.9470628e-01
 -1.3570174e+00
 -3.5252252e-01
 -1.0737700e+00
 -1.4724472e-01
 -1.2853620e+01
 -1.6356093e+00
  6.5451866e-01
  2.4141143e-01
 -5.2628040e-01
  3.7155252e+00
 -1.1068137e+00
 -4.7881335e-01
  1.8051291e-01
 -1.6245915e+00
  5.8020931e-01
 -1.6409285e-01
  2.3341744e+00
  2.2418096e+00
  1.5298207e-01
  2.8005573e-01
  7.4596179e-01
  6.4949322e-01
  1.1845345e+00
  2.0519197e+00
  7.8543323e-01
  4.9977202e+00
  3.0188477e-01
  8.4657110e-02
 -9.6621752e+00
 -3.4494789e+00
  2.8221318e-01
  9.9267340e-01
  1.9254820e+00
 -3.4594817e+00
  9.7806521e-02
 -2.2453699e+00
  2.0317622e-01
 -3.0034977e-01
 -4.9433541e+00
 -2.5680462e-01
  2.7986573e-02
  8.7070292e-01
 -6.2141447e+00
 -1.1281421e+00
 -4.8517582e-01
 -7.2448292e+00
  5.7509851e-01
  5.0055796e-01
  6.9382107e-01
 -3.6708686e+00
 -7.2103709e-01
 -1.5887184e+00
 -2.4261496e+00
 -2.2370956e+00
 -1.5083115e+00
  1.0171980e+00
 -6.5632713e-01
 -9.9773502e-01
  3.1843102e+00
  5.9379637e-02
 -1.7962033e-01
  4.4950104e-01
  1.0517445e-01
  3.8540924e-01
  2.6365224e-01
 -1.8996466e+00
 -9.8685890e-01
 -2.5807154e-01
  4.1273746e-01
  5.4863706e+00
 -7.1759784e-01
  7.6863056e-01
 -1.6481421e+00
 -2.7113733e+00
 -6.8508893e-01
  2.0657346e-01
 -5.5984384e-01
  2.3439779e+00
  2.2507402e-01
  1.4253765e-01
  5.9220761e-01
  1.6985824e+00
 -3.0223320e+00
 -1.6657069e+00
 -1.9629270e+00
 -2.2889006e-01
  4.9515024e-02
  5.5913252e-01
 -3.4031007e-01
  1.8653840e-02
  1.2755838e-01
 -5.6874828e+00
 -1.2106119e+00
 -4.7696270e-02
  3.2725558e-01
  2.1281767e+00
  1.1754599e+00
  3.1074873e-01
 -7.1159267e-01
 -9.6958572e-01
  4.6403536e-01
 -3.6258656e-01
 -1.3230941e+00
 -3.2192882e-02
  2.1406189e-01
  1.0147307e+00
  5.1213172e-03
 -8.8655466e-01
  3.5355902e+00
 -1.1623665e-01
 -3.6941189e-01
  4.9638593e-01
  9.7624905e-02
  1.9088054e+00
 -7.7328205e-01
  5.3811879e+00
  2.9658768e-02
  5.2661061e-01
  5.8215755e-01
  6.6476792e-01
  3.1073268e-03
  3.5917753e-01
 -1.7496683e-01
  7.6295071e+00
 -1.1934674e+00
 -6.2784636e-01
  1.8328284e+00
  5.4835021e-01
  2.7837092e-02
  1.7208205e+00
 -2.2353370e+00
 -5.0873733e+00
  3.7241516e-01
 -1.2251658e+00
  9.1937464e-01
  1.6188895e+00
 -1.8342638e+00
  9.7393095e-03
 -7.3077458e-01
  2.4779890e-01
  1.6153353e+00
  4.3153383e-02
  4.9233016e-01
  1.0432869e+00
 -1.7803816e+00
 -4.8883653e+00
 -4.7781938e-01
  5.5662170e-02
 -1.6566759e+00
 -4.8984365e+00
  6.2286691e-03
 -4.1785712e+00
 -2.7398968e-01
  3.7699621e+00
 -1.5740308e+00
 -5.0391894e-02
 -3.5053439e-02
 -3.0622101e-01
 -1.0504246e-01
 -8.8936186e-01
 -7.4522126e-01
  5.9018266e-01
 -1.5876315e+00
  4.1582289e-01
  7.5913137e-01
 -9.8324603e-01
  2.7402065e+00
  5.6406349e-02
 -1.9287827e+00
  1.9228154e+00
  4.6231661e+00
 -8.1180066e-01
 -8.0028042e-02
  4.3420315e-01
  8.5597759e-01
  4.8490314e+00
  1.8297577e-01
 -4.8433995e-01
 -8.1182343e-01
 -3.6271679e+00
 -6.7603326e-01
  6.1391383e-01
 -1.7338086e+00
 -5.3889173e-01
 -1.7258489e-01
  2.1865726e+00
  3.2490996e-01
  3.3228514e-01
  1.5407202e+00
 -3.7754357e+00
 -1.2981789e+00
  4.0988761e-01
  1.1664318e+00
  7.6390237e-01
  1.1029092e+01
 -2.3853002e-01
  6.5878310e+00
  1.3982521e+00
 -1.8722850e+00
  6.0933924e-01
 -3.1321211e+00
 -5.2563113e-01
 -8.9863853e+00
  1.6709054e+00
  1.5213828e-01
  7.3273018e-02
 -1.7119147e-01
 -9.0249166e-02
  3.9542246e-01
  7.6541466e-01
 -1.2878511e+00
 -1.6057270e+00
 -6.4927876e-01
  3.2348832e-01
  1.6066213e+00
  5.3344999e-02
  7.3112059e-01
 -6.0632324e-01
 -1.0365778e+00
 -1.2301863e+00
 -2.3825495e+00
  6.3381660e-01
 -6.7091715e-03
 -3.9833954e-01
  5.2593079e+00
  1.6381024e-01
  2.2500625e+00
 -6.0520101e-01
  1.6981441e-01
 -7.5825620e-01
  9.2611915e-01
  2.0306113e-01
  1.4831372e-01
 -2.7246666e+00
  1.7142008e-01
  1.0140479e-01
  6.6549027e-01
  6.7481095e-01
  1.7502830e+00
  2.6332921e-01
 -8.2038200e-01
 -1.3476751e+00
  8.8465977e-01
  3.2044181e-01
  7.2239637e-01
 -2.6269999e+00
 -7.7328830e+00
  2.9336147e-02
  7.9519916e-01
  5.2691322e-02
  3.3576846e+00
 -1.3073681e-01
  9.5178671e+00
  5.5754342e+00
 -6.3107145e-01
  2.8798240e-01
  4.8037648e+00
 -1.2539494e-01
  8.7906706e-01
 -7.7654970e-01
  3.5441524e-01
 -5.3565216e-01
  3.1632316e-01
 -1.4577804e-02
 -2.5516677e-01
 -4.4977197e-01
 -6.0267287e-01
 -7.1468668e+00
 -2.8005108e-04
  2.8777363e+00
  4.2728189e-01
 -1.1137241e+00
  3.2598999e-01
 -6.4514351e-01
 -7.4714786e-01
  2.8684203e-02
  4.4275193e+00
 -4.8026273e-01
 -1.3586986e-01
  4.0673962e+00
  2.4595277e+00
  5.2125559e+00
  1.8986889e+00
  5.0303388e-01
 -1.4577615e-01
 -2.5270715e+00
  2.6051968e-01
 -4.1664739e+00
  1.3611943e-01
 -5.9257913e-02
  7.5548118e-01
  1.3386496e+00
 -1.0226781e+00
  9.5898741e-01
  7.9659991e-02
 -2.6284441e-01
  6.0288227e-01
  4.3401642e+00
 -9.7286090e-02
 -2.1015020e-02
  1.3325342e+00
  4.3893997e-02
 -2.7997837e+00
 -1.9265427e-01
  7.2704296e+00
 -2.9817846e-01
 -1.1013212e-01
 -3.0375296e-02
  1.0143454e+00
 -1.8195009e-01
 -1.7643124e+00
  4.1491528e+00
  1.5954800e+00
  2.8542659e-01
  6.1535335e-01
 -6.4212137e-01
  3.4004278e+00
  1.9520761e-01
 -7.4547416e-01
 -1.2653705e+00
 -3.3336085e-01
  2.9062057e-01
  7.2414654e-01
 -6.7728353e+00
 -2.7827790e+00
 -8.0487454e-01
 -3.5170075e-01
  4.2444643e-01
 -1.8620961e+00
 -2.1349527e-01
 -1.1689746e+00
 -5.1472292e+00
  3.2835653e-01
  6.0559063e+00
 -1.5700644e+00
 -3.8523397e-01
 -7.2102755e-01
 -2.7894139e-01
  7.2985590e-01
  8.2337165e-01
 -1.1803747e-01
  4.5103759e-01
  2.3026147e-01
 -3.8445467e-01
  4.2310858e+00
  4.1613712e+00
  5.3637671e-01
  1.5662220e+00
  1.3853903e-01
 -3.2137328e-01
 -1.6691202e-01
 -2.1385939e+00
  1.5711886e-01
  9.0744406e-01
 -8.0602533e-01
 -8.1022781e-01
 -1.1929247e-01
  3.7232625e-01
 -7.4417108e-01
 -5.1036382e-01
  5.1830733e-01
 -1.1257175e-01
  4.4736698e-01
 -1.4775091e+00
 -8.5551642e-02
 -2.1545038e-01
 -3.6167288e-01
 -3.7883151e-01
  2.6149611e+00
 -4.4494984e-01
  2.6969898e-01
  8.4856278e-01
  4.3524132e+00
 -8.3725905e-04
 -9.4483036e-01
 -8.1782073e-01
 -6.4170104e-01
  1.3361635e+00
 -7.0516521e-01
  3.6853036e-01
  1.5658008e+00
  6.3692206e-01
  8.1160140e-01
  2.2318194e+00
 -7.0642644e-01
  7.6363182e-01
 -2.5925395e+00
  2.9697685e+00
 -1.5201278e-01
  3.3276811e-01
 -4.2985547e-02
  2.1293896e-01
 -9.6405721e-01
  5.3464150e-01
 -1.2006319e-01
  1.0030732e-01
 -9.6470469e-01
  2.6496834e-01
  1.1890441e+00
  1.3185225e-01
 -3.5818522e+00
 -3.6622705e+00
 -1.2579776e+00
  1.6379976e-01
 -1.0230116e+00
  3.8010460e-01
 -2.5906196e+00
 -3.2777033e+00
 -5.3318731e-02
 -6.0756736e-02
  8.6565256e-01
  9.3768597e-01
 -1.0320880e+00
 -4.4011722e+00
  2.5168502e+00
  1.6150057e-01
 -3.4576719e+00
 -1.0763119e+01
  2.9747431e+00
 -7.0097142e-01
  4.5567460e+00
  6.2481719e-01
  5.4065812e-02
 -1.7628272e+00
  2.9484813e+00
 -1.9542474e+00
 -3.2976121e-01
 -6.2668961e-01
 -2.6134393e-01
  6.8897576e+00
  4.3109402e-01
 -9.9885827e-01
 -9.3195415e-01
  8.9030570e-01
  1.1907639e-01
  2.5028226e+00
 -4.0651555e+00
  2.5122154e-01
 -2.9910364e+00
 -4.0458245e+00
 -1.9714309e-01
 -3.7483096e+00
  1.8060185e+00
 -9.4820268e-02
 -1.1845635e+00
 -4.3322611e+00
  6.6814060e+00
  1.7925053e+00
  3.0886998e+00
 -1.5099356e+00
 -6.3648301e-01
 -4.7992730e-01
 -2.7532205e-01
 -9.1429043e-01
 -3.2012222e+00
  1.0479578e+00
 -1.1890669e+00
  1.9482142e+00
  6.2373537e-01
 -5.2074846e-02
 -1.2859299e+00
  1.2986941e+00
 -1.1879810e+00
  2.5865369e+00
  4.9268326e-01
  1.2227476e-01
 -4.0903655e-01
  1.3729396e-01
  2.2286298e+00
  1.5618002e+00
 -4.0267897e-01
  9.8129278e-01
  8.3574718e-01
  9.5202023e-01
  3.3794710e-01
  1.8378026e+00
  1.6887566e-01
 -2.5549879e+00
  1.7532033e-01
 -4.4096680e+00
 -4.2089054e-01
 -2.3288232e-01
  5.2969508e+00
 -5.7709301e-01
 -4.1939992e-02
 -4.6739629e-01
 -1.4879094e-01
  4.0357077e-01
 -2.7106565e-01
  3.9519143e+00
  5.8297949e+00
 -2.0180042e+00
  1.1945153e+00
  5.0706673e-01
 -1.7773409e+00
  6.4553249e-01
 -1.6612101e+00
 -2.2252250e-01
 -3.9939997e-01
  3.1721036e+00
 -4.1875061e-01
 -1.1870779e-01
  9.9427825e-01
 -8.0092549e-01
  2.9195871e+00
  2.9718108e-03
 -1.1632328e+00
  1.6853256e+00
 -1.7682868e+00
 -3.2674918e-01
 -1.0846243e+00
 -9.8155463e-01
  3.1672800e-01
  3.2153022e+00
 -9.2958492e-01
  1.7217814e+00
  4.6934965e-01
 -1.1029842e-01
 -4.7065118e-01
  1.2012209e+00
  3.3927310e-01
 -1.8094161e-01
  2.0939246e-01
 -3.2523549e-01
  1.2327473e+00
 -2.2291870e+00
  2.8333834e-01
  4.1721088e-01
  1.3789564e+00
 -8.1878624e+00
  2.0829861e-01
 -8.7193841e-01
 -2.8074415e+00
 -4.4522080e-01
  1.9368713e-01
  1.8625971e+00
 -3.9120862e-01
  1.9794060e-02
 -6.6863459e-01
 -1.6323892e+00
 -2.6576769e-01
 -9.2612112e-01
 -3.7740153e-01
  7.5950938e-01
 -1.3168995e+00
  1.7793931e+00
 -1.3250479e+00
 -1.0954728e+00
 -5.3910488e-01
 -4.8700032e-01
 -8.4802255e-02
  1.1695707e-01
  3.0481648e-01
 -4.6718812e+00
  1.7595350e+00
 -1.7253109e+00
 -7.2973418e-01
  2.7998444e-01
 -3.3650796e+00
  1.7836492e+00
  7.8678691e-01
  9.2595524e-01
  5.5946839e-01
 -4.3040910e+00
  8.2744312e-01
  3.9552674e+00
 -1.4161363e-01
 -1.4243054e+00
 -5.4591638e-01
 -1.4479409e+00
  1.3054256e+00
  6.6682758e+00
  8.8139164e-01
 -6.8467897e-01
  1.0283624e+00
 -2.4295768e-01
 -2.7242181e-01
  2.0036647e-01
 -1.2037833e+00
 -2.2913951e-01
 -1.1341932e-01
  3.1242663e-01
  2.3229418e+00
 -2.1592889e-02
  5.2544522e-01
 -2.2834799e+00
 -1.1529500e+00
  3.7285254e+00
  3.0605808e-01
 -2.3712888e-01
 -3.8899298e+00
 -1.8815802e-01
 -4.5114237e-01
  3.6428456e+00
  4.3759924e-01
 -3.7845745e+00
 -1.4443292e-01
 -2.0259444e-02
  2.5939436e+00
  4.5066097e-01
  1.3544695e+00
  1.1856143e+00
 -2.0977621e-01
 -3.8835850e+00
 -4.3194801e-01
 -9.7598627e-02
  1.2467491e-03
  8.0585486e-01
 -8.1236029e-01
  9.3092173e-01
 -8.5906404e-01
 -4.7626051e-01
 -3.7108156e-01
  3.0758572e-01
  1.3336072e+00
  3.8116004e+00
 -2.8983343e-01
 -1.0660445e-01
 -3.2431197e-01
 -1.0971093e-01
  8.2513976e-01
  7.6125681e-01
 -5.5982041e-01
 -1.0247432e-01
 -2.5429109e-01
 -6.3519871e-01
 -7.3426056e-01
  3.3431172e-01
  6.4148057e-01
  1.6532707e-01
  1.6989030e-01
 -1.7859831e-02
 -6.7393017e-01
 -2.6638773e-01
 -1.3803430e+00
  3.8147721e-01
  1.0543096e+00
  5.0718961e+00
 -2.1216506e-01
 -2.5290763e-01
 -9.9299347e-01
  6.8961706e+00
  6.9342852e-01
  1.8542236e-01
 -4.7422186e-02
 -7.8088552e-01
 -1.4005610e+00
  1.1017470e+00
 -4.1233506e+00
  2.7038223e-01
  1.0246361e+00
 -1.7911383e+00
  1.4907354e-01
 -3.2269866e+00
  4.4279280e-01
 -6.0215199e-01
  1.8081984e-01
 -1.8910855e-01
 -2.2136116e+00
  1.2744091e+00
  4.5156770e+00
  3.4648940e-02
  2.7093592e-01
  3.2476121e-01
 -4.4003522e-01
  1.6983630e-01
  2.6158376e+00
  4.0063608e-01
 -4.3573351e+00
  3.8799450e-01
 -3.6333258e+00
 -8.6558259e-01
  1.0757293e-01
 -2.2565217e-01
  7.9908615e-01
  1.2859109e-01
  9.3158442e-01
 -2.9230744e-01
 -1.8269505e-01
 -6.0240710e-01
  5.6707972e-01
 -1.6658165e+00
 -1.2084380e-01
 -1.1469089e+00
  9.9217100e+00
  2.6564163e-01
 -3.1874153e-01
  5.6810815e-02
  9.1589257e-02
 -2.3062290e-01
 -9.9697125e-01
  3.5749385e-01
 -2.2242897e+00
 -9.1583651e-01
  6.5576108e-03
 -6.8882227e-01
  1.4159027e-01
  1.8600108e-01
 -1.7967294e+00
  4.1537979e-01
  7.5365341e-01
  6.5661402e+00
 -2.0901635e-02
 -4.2604664e-01
  2.8452283e-02
  4.6837512e-02
 -6.0263342e-01
  3.2278895e-01
 -1.6503556e+00
 -2.6852483e-01
  6.7101407e-01
  5.5256814e-02
  6.5649860e-02
  1.7519969e+00
 -7.9687268e-01
 -7.7221312e-02
  1.1345814e+00
  3.9367121e-01
  5.4623759e-01
 -1.3471794e+00
  1.9347569e-02
 -2.6133260e-01
  1.0545125e+00
 -7.9809719e-01
 -1.7302184e+00
  1.0658362e+00
  1.8690171e+00
 -3.8567770e-01
  2.6588837e-02
  2.7177313e-01
  2.0069924e-01
  6.7210937e-01
 -2.1873032e-01
 -4.5114341e-01
  4.9524341e+00
  1.9123161e+00
 -1.1081335e-01
  6.8128699e-01
  1.6328640e-01
 -9.9931121e-02
 -2.5732603e+00
 -9.2922026e-01
 -4.5301753e-01
  5.8467782e-01
 -1.7495524e+00
  9.8786896e-01
 -5.6795273e-02
 -1.2700719e+00
 -2.5757560e-01
  4.0193167e-02
  3.5526435e+00
 -2.2632277e+00
  9.0058821e-01
  1.5805219e+00
  1.3937892e-01
  1.0251836e+00
  2.2116952e+00
 -6.0405695e-01
  1.8558484e-01
 -1.5499163e+00
 -1.5236009e+00
 -7.3743379e-01
  3.5796630e-01
 -1.3809919e+00
  7.9612285e-02
 -7.7881259e-01
  2.8529191e-01
 -4.7169483e-01
  2.7321563e+00
  3.5745304e+00
 -3.1304270e-01
 -5.1191777e-02
 -4.2841035e-01
  1.3246854e-01
 -3.0164056e+00
 -6.6397649e-01
 -4.3487671e-01
  2.9608509e-01
 -7.5069115e-02
  1.6499839e+00
  7.8545845e-01
  1.2314708e-01
 -8.5577494e-01
 -2.1025625e-01
  1.3391256e+00
  1.3285267e+00
 -1.6464547e+00
 -3.3649899e-02
 -1.2744452e-01
  1.8512790e-01
 -2.2395136e+00
 -4.7781041e-01
 -1.4958824e+00
 -3.5311625e+00
  4.4188704e+00
  2.6305640e-01
 -1.1790197e+00
  1.1896010e-01
  6.6033018e-01
  3.0095360e+00
  1.0258809e+00
  2.9968240e+00
  1.6104178e+00
 -2.8684282e+00
 -6.2936068e-01
 -3.5550901e-01
 -6.7401093e-01
  3.8057005e-01
 -1.0266524e-01
 -9.7021580e-01
 -1.3150824e+00
 -1.1713578e+00
  1.3081088e+00
  1.9102614e+00
  6.8426132e-01
 -2.6650229e-01
  9.1406578e-01
 -4.2542682e+00
  1.9478707e+00
 -3.0830842e-01
 -1.5772473e+00
  6.2958223e-01
 -1.8228266e+00
 -4.2315853e-01
  5.7866740e-01
 -6.0312891e-01
 -5.8070552e-01
 -6.1649525e-01
  5.6514281e-01
  1.4739309e-01
 -8.3172873e-02
 -1.0193964e+00
 -1.0920205e-03
  2.9418394e-01
 -2.1779560e-01
  3.9428508e-01
 -1.6252502e+01
  5.2453882e-01
  1.9523877e-01
  1.2256753e+00
 -1.8398170e+00
  7.9579341e-01
 -1.1527086e+00
 -1.3551582e+00
 -3.9959937e-01
  7.2111754e+00
  4.3282950e-01
  5.1906900e+00
  1.9063056e-01
  5.6732655e-01
  1.0268871e+00
  8.4746647e+00
  1.6008659e-01
 -2.0617663e-03
  6.3991064e-01
 -3.2082686e+00
  8.4223914e-01
  3.8166816e+00
 -2.0337093e-01
 -3.9090443e-01
 -1.1175387e-01
  3.0572909e-01
  8.3763599e-01
  2.0713034e+00
  3.5928287e-02
  1.4976878e-01
 -1.3296757e+00
  2.1557465e+00
 -9.0723133e-01
 -3.8295093e-01
  3.4226805e-01
 -9.1493773e-01
 -1.2634562e+00
 -5.1397491e-01
 -6.4500847e+00
  1.1578497e+00
 -8.5071826e-01
  9.3600631e-01
 -5.5842191e-01
  8.0287832e-01
 -5.9937549e-01
 -2.0976542e-02
  2.6275325e-01
  7.9299319e-01
 -3.8641252e-02
 -1.8202338e-01
 -1.0676306e+01
  1.8321063e-01
 -7.6666290e-01
  7.9142630e-02
 -1.0106910e-01
  1.4311486e+00
 -5.8582563e+00
  1.3861161e-01
  1.1862341e+01
 -2.6762185e-01
  5.7077897e-01
 -1.9164863e-01
  2.8071098e+00
 -2.1059178e-01
 -2.9078141e-01
 -2.4864278e+00
  6.4921081e-01
 -4.7113082e-01
 -9.6990518e-02
 -7.6196507e-02
 -1.5021702e+00
  1.5638323e+00
 -4.5988816e-01
 -1.3053685e+00
  2.9247674e-01
  3.4921247e-01
 -8.9066505e-01
 -8.2800245e-01
  7.6674414e-01
 -7.4445925e+00
  6.2126285e-01
  2.1167511e-01
  8.3706003e-01
 -1.4432589e+00
  5.5506635e-01
 -9.0689045e-01
 -4.1024623e+00
 -6.4121433e-02
 -6.0649335e-02
  2.6247999e-01
  1.9808723e-01
 -1.2209696e-01
  3.1975603e+00
  2.4394175e-01
 -7.4037802e-01
  8.5380852e-01
 -1.0014935e+00
 -1.1673661e-01
 -2.8288805e+00
 -3.7565257e-03
  4.2893115e-01
 -2.1220611e-02
  2.2033703e+00
 -2.8205106e+00
  2.0260923e+00
 -1.3451847e-01
 -1.2681150e-01
 -1.7457649e-02
  4.2581367e-01
 -2.7181270e+00
  1.1670322e+00
 -2.1610203e+00
  7.9277217e-02
 -2.0535543e+00
 -1.5643355e-01
 -5.5350101e-01
 -5.5215526e-01
 -6.9395018e-01
 -8.1842977e-01
 -2.3437189e-02
  2.9479117e+00
 -2.0846429e-01
 -6.8281448e-01
  8.9482613e+00
 -3.9835516e-01
  7.0551629e-03
 -2.2822387e+00
  1.1415874e+00
  8.0877978e-01
  5.8364397e-01
  4.6509371e+00
  6.5169781e-02
 -4.5268032e-01
 -2.2920249e+00
 -1.1163474e+00
  5.0129735e-01
  6.8185651e-01
  1.2344782e+00
 -3.5144696e-01
 -6.2780994e-01
  2.1917281e-01
 -1.7570065e+00
 -4.3646362e-01
  3.8346440e-01
  7.2839493e-01
  2.8229024e-02
 -5.3045255e-01
 -6.7703336e-01
  9.6254088e-02
 -2.0965035e-01
  6.1380047e-02
  9.1518176e-01
  1.1635820e+00
 -8.1233017e-02
 -3.4328721e-02
  3.3794305e-01
 -8.9835870e-01
 -6.1757658e-02
 -3.1993076e-01
 -8.3387607e-01
 -1.7439368e-01
  7.4252814e-01
 -2.5874329e+00
  9.0734601e-01
 -1.0856795e+00
 -3.0098782e+00
 -2.8384447e+00
  2.3768809e-01
 -7.1134353e-01
 -3.8115305e-01
 -1.8054171e-01
  5.4280901e+00
  1.1045216e+00
 -4.4913764e+00
  5.6311870e-01
 -6.3560057e-01
 -4.2935963e+00
  1.1135629e+00
 -1.4833755e+00
  1.2435534e+00
 -1.5483518e+00
  1.7404518e-01
  1.1992754e+00
 -4.0740606e-01
 -9.4464798e+00
 -9.4379053e-02
  8.3746403e-01
  1.6405107e+00
  8.9321566e-01
 -4.4679952e+00
 -2.3969522e-01
 -1.7495055e+00
  2.0038791e-01
 -1.9265367e+00
 -6.0809735e-02
 -3.6354724e-01
  1.7621253e-01
  1.1649109e+00
  1.4972212e-02
  1.2649845e+00
 -1.2095625e-01
 -9.1577694e-02
  5.6802255e-01
 -2.6457980e-01
  6.5740705e-01
 -4.4895792e-01
 -6.8599981e-01
  8.6992174e-01
  3.4740895e-01
 -6.0333800e-01
  1.6335231e-01
 -8.6489059e-02
  3.1178665e-01
 -4.7519088e-02
 -5.0493878e-01
 -5.0266213e+00
 -8.2114744e-01
 -1.8489872e+00
 -3.2117143e-01
  1.6685081e+00
 -1.1937338e-01
 -6.4178771e-01
 -3.5108755e+00
 -2.6215348e-01
 -1.4677873e+00
  3.6399072e-01
  2.2703221e+00
 -1.4117622e+00
 -2.7177900e-01
  1.9587597e+00
 -5.0714836e-02
  1.4967526e-01
  2.8012841e+00
 -8.2251799e-01
 -1.1406865e+00
  1.0562085e-01
  5.5740114e-02
 -5.7245165e-01
 -5.1502037e-01
  5.4493910e-01
 -2.0486810e+00
 -5.4896450e-01
  2.4924897e-01
  3.1534598e+00
 -1.7871708e+00
  6.3801056e-01
 -5.9790725e-01
 -1.2924751e+00
 -1.3138874e+00
 -1.8142000e+00
  2.1419296e+00
  2.7991161e+00
 -4.7557316e+00
  5.1086891e-01
 -8.0326438e-02
 -6.5559249e+00
  4.9073353e-01
 -1.1777515e+00
 -1.3415391e+00
 -1.3421878e-01
 -5.6234288e-01
  2.7527168e-01
 -5.0266213e+00
 -1.9823157e+00
  1.9959629e-01
  3.0226097e-01
 -4.5186526e-01
  1.1768733e+00
 -3.3545709e-01
 -5.7551831e-01
  1.7830641e+00
  2.9204216e+00
  5.8927865e+00
  2.4156120e+00
  4.1157201e-01
 -7.3034114e-01
 -1.9455001e+00
 -9.0725839e-02
  4.0635724e+00
  1.5420411e+00
  5.8460230e-01
 -3.1540793e-01
  1.5168791e+00
  4.5504400e-01
 -6.4616293e-02
 -3.9516189e+00
 -2.0280100e-01
 -3.1294665e-01
 -3.8998351e-01
 -1.6163443e+00
 -2.8991051e+00
 -2.7791529e-03
 -2.1201601e+00
 -2.0427950e-01
  1.4411656e+00
 -1.2602320e-01
  4.9833158e-01
 -2.7362841e-01
 -7.5349933e-01
  5.2980514e+00
 -1.4384109e-01
 -2.4230478e+00
  1.2456869e-01
  6.2590313e+00
 -4.2361841e-02
 -2.3563147e-02
  4.1518202e-01
 -7.4668783e-01
  5.4736441e-01
 -8.5064955e-02
 -6.9052172e-01
  3.8545833e+00
 -3.7160522e-01
  4.0091639e+00
  2.1883677e-01
 -1.6331922e-01
 -2.1074209e-02
 -6.2941527e+00
  1.1469964e+00
 -1.2058108e+00
  1.1609268e+00
  3.4938915e+00
  1.0151310e+00
 -1.6111622e+00
  1.7367920e+00
 -6.5748622e-03
  7.2150052e-01
 -3.6125696e-01
 -5.6114787e-01
  3.0763754e-01
 -1.0605724e+00
 -7.3761547e-01
  2.5280765e-01
  2.2193987e+00
 -8.6087923e+00
  4.3479261e-01
  1.1056771e+00
 -5.8061715e-02
 -1.2645927e-01
  3.0735141e-01
  8.2986420e-01
  9.7940409e-01
 -2.8438284e+00
 -2.4005891e-01
 -8.0229449e-01
  6.9948959e-01
  1.1429285e+00
  3.4389007e-03
  1.4467058e+00
  5.8078527e-01
  1.1408850e+00
 -2.0141525e+00
 -7.1736521e-01
  4.9415469e-01
 -4.8147598e-01
  9.9883336e-01
 -1.5473261e+00
 -3.8238363e+00
  1.3004775e-01
 -2.9401705e-01
  1.3061868e+00
 -2.6359621e-01
 -8.4737492e-01
 -2.9233735e+00
  6.0863632e-01
 -2.6610145e-01
 -1.6998636e+00
  8.3328733e+00
 -6.2431711e-01
  2.0143168e+00
  8.7337214e-01
 -4.1545433e-01
  3.6740506e-01
 -6.0915774e-01
  6.8152472e-02
  1.4999275e+00
 -1.1601108e+00
  2.4781300e-01
  9.8551787e-02
 -3.9713824e-01
  7.5728559e-01
 -2.0961263e+00
  7.5464070e-02
  7.3952836e-01
 -1.5870732e+00
  5.5381447e-01
 -3.5260984e-01
  1.8175364e+00
 -6.4338050e+00
  1.0768861e+00
  1.5054287e-03
  9.7091949e-01
  1.8663280e+00
 -3.1349342e+00
  2.6296613e+00
 -8.1371766e-01
 -8.7711543e-01
 -3.6157966e-01
  1.2733639e-02
 -1.2690558e+00
  2.4316957e+00
 -6.3279176e-01
 -1.6472194e-01
 -3.7794864e-01
 -1.6573097e+00
 -1.6161611e+00
  1.6603194e+00
  4.4346261e-01
  3.7596983e-01
  4.6046856e-01
  9.4439559e-02
  5.4950076e-01
 -7.5016804e-02
 -1.8214159e+00
 -7.5142008e-01
  1.4542897e-01
 -2.4778363e-01
 -4.7347856e-01
  4.9922422e-01
 -1.6156487e-02
 -6.5310210e-01
  1.5202898e+00
  2.0584896e+00
  3.7306540e-02
  4.3108577e-01
 -1.4202218e-01
 -2.1817479e+00
  1.5113243e-01
 -2.1358819e-01
 -1.0088303e+00
 -1.4525878e+00
  3.8247949e-01
 -6.9634879e-01
  7.3158612e+00
  2.8105181e-01
 -3.3006589e+00
 -6.9832337e-01
  1.1522442e-01
  2.8218088e-01
  8.2907462e-01
  3.2337716e-01
 -2.2058575e+00
  4.3963814e+00
 -9.4345671e-01
 -1.3778545e+00
 -2.8610957e-01
  4.9872747e-01
 -4.1082999e-01
  3.4432626e+00
 -1.0567446e+00
 -5.2101141e-01
 -6.8012780e-01
 -6.5328157e-01
  9.3573555e-02
 -1.0853108e+00
  5.2723279e+00
 -2.7128851e-01
  5.4421574e-01
 -6.3079035e-01
  9.1686629e-02
 -8.2677507e-01
 -1.4147960e+00
 -1.1838618e-01
 -2.0215367e-01
  8.7316060e-01
 -2.4231498e+00
 -1.4355571e+00
  9.3480729e-02
 -2.8485021e-01
 -4.1148156e-01
 -5.0701523e-01
 -3.7457910e-01
  1.5401325e+00
  2.0277359e+00
  1.2590948e+00
  2.3664343e-01
 -5.4994422e-01
  4.2176440e-01
 -1.0449811e+00
  4.4730821e-01
 -3.8536983e+00
  3.8909838e-01
  8.6872691e-01
  5.6311858e-01
 -2.3716676e+00
  1.5064517e+00
  4.4818382e+00
 -3.8192481e-01
  2.0617964e+00
  4.6325338e-01
 -3.4333515e-01
  6.6993874e-01
  2.6301319e-02
 -6.4433849e-01
 -1.7201072e+00
 -4.5896161e-01
 -4.3567809e-01
 -2.3927908e-01
 -9.0327308e-02
 -1.9403242e-01
  3.5888737e-01
  7.0959216e-01
 -1.5699007e-01
 -9.4408584e-01
 -2.9308674e+00
 -3.4770888e-01
 -3.1665310e-01
  1.0418273e+00
 -4.0851849e-01
  2.6552532e-02
 -2.6790252e+00
 -6.4643359e-01
 -1.5995827e-01
  7.8105122e-01
 -4.0752414e-01
 -1.0418725e+00
 -3.8523602e+00
 -7.8887016e-01
 -3.5300839e+00
 -2.0775519e-01
  3.5456789e+00
  2.0557654e+00
  3.8295096e-01
 -3.2067599e+00
 -6.3593006e-01
  4.6277866e-01
  4.7285709e-01
 -8.8543940e-01
 -4.0617838e+00
  6.9374895e-01
 -2.0117602e+00
  2.3093825e-02
  1.5875274e+00
 -1.9885455e+00
 -5.6682688e-01
  1.9380608e-01
  2.5168560e+00
 -3.4190986e-01
 -1.9969811e-01
  7.2810311e+00
  2.3239936e-01
 -2.4179900e-01
 -5.8810139e-01
 -4.6822730e-01
  4.4746968e-01
 -2.4671552e+00
  4.2514825e+00
  5.9746116e-01
 -5.4823373e-02
 -1.4449170e-01
  2.2658963e-02
  3.3811100e+00
  1.1781875e+00
 -3.8294787e+00
  3.1467690e+00
  9.5202297e-01
 -1.2965140e-01
  7.6755576e-02
 -5.3935814e-01
 -6.1776061e+00
 -1.7207841e+00
 -4.1269689e+00
 -2.2969427e-02
 -1.4985357e-01
 -2.8267932e+00
 -2.1596164e-01
 -6.4509306e+00
 -1.3700735e-02
  6.7349002e-02
 -1.3190405e+00
  1.3648523e+00
 -3.6837444e+00
 -1.9982156e-01
  7.3883808e-01
 -9.2374742e-01
 -1.7156509e+00
  1.7702106e+00
 -7.3646063e-01
 -4.6684983e-01
 -1.0646105e+00
  5.9506601e-01
  1.5881266e-01
 -2.5370953e+00
 -9.6880481e-02
 -8.0950177e-01
 -3.2420456e+00
  4.5341021e-01
 -5.4149222e+00
  1.7793714e+00
  6.0902548e-01
 -2.5254617e+00
 -2.4575465e+00
 -5.1846153e-01
  7.1075311e+00
  6.6028014e-02
  8.4046650e-01
 -1.2380558e+00
  6.8180966e-01
 -1.6361568e+00
  1.7725165e-01
 -9.1047817e-01
 -3.1443018e-01
 -1.0574747e-01
  2.4378732e-01
 -8.9436805e-01
 -7.5727469e-01
  1.3374467e+00
  8.7099183e-01
  6.4569876e-02
  1.8136746e+00
 -7.7585913e-02
 -1.2800087e+00
 -3.0017869e+00
 -1.6242362e+00
 -1.7492932e+00
 -5.5209303e-01
  1.0398558e+00
  5.8020562e-01
  9.9500074e+00
 -4.3370458e-01
 -1.0573736e+00
 -3.0607104e-02
 -1.3595551e-01
 -1.7025033e-01
  8.9890778e-01
 -1.4004052e-02
 -4.8174459e-01
  5.5187780e-01
 -5.9152591e-01
  5.0591760e+00
  5.8095443e-01
 -3.2241818e-01
 -3.4208393e+00
  3.0197939e-01
  8.6164081e-01
 -3.4008563e-01
  8.6525214e-01
  7.6273456e+00
  5.1651149e+00
  2.9690650e-01
 -1.6384448e+00
 -1.6521366e+00
  5.0034565e-01
 -8.2291061e-01
 -4.8720760e+00
 -1.2846437e+00
  1.8052211e-01
 -1.2048348e+00
  1.5561310e+00
 -1.7380140e+00
 -1.2489178e+00
  7.0623577e-01
 -1.9074605e+00
  4.2264685e-01
 -7.1189899e+00
  7.5185543e-01
  9.2320964e-02
 -3.4932867e-01
 -4.8712704e-02
  3.6404505e+00
 -2.4135314e-01
 -4.6739671e-02
 -7.5358353e+00
  4.8721700e+00
  1.6187232e-02
 -3.6758283e-01
 -1.0080839e+00
 -6.6163654e+00
 -1.3742443e+00
  6.1988956e-01
 -4.8587158e-01
 -1.9728069e+00
 -5.5611138e+00
 -6.5512924e+00
 -2.2001550e+00
 -1.0727890e-01
  2.2653871e+00
 -3.3101337e+00
 -1.5993854e-01
 -3.5083709e+00
  2.9427516e-01
 -1.0320371e+00
 -1.0619255e+00
  8.7660992e-01
 -2.4376369e+00
  4.5997109e-02
 -4.3106273e-01
 -4.0272574e+00
 -1.1065544e+01
  1.4984419e+00
  2.1823988e+00
 -5.3602297e-02
 -9.7690010e-01
  1.4884088e+00
 -1.5441104e+00
 -7.7031124e-01
 -1.2599030e+00
  1.6467707e-01
  2.5910068e+00
 -4.0748515e+00
  1.0821915e+00
 -5.9122539e-01
  1.3313318e+00
  1.1723629e-01
 -6.0010052e-01
 -1.6863970e-01
 -5.3382003e-01
 -2.7290914e+00
 -4.9521643e-01
  2.7540258e-01
 -1.6706074e+00
  1.9262123e+00
 -2.2485986e+00
  2.9220259e-01
  4.4844360e+00
 -5.8313789e+00
  6.2783640e-03
  3.9525792e-01
 -9.7270119e-01
 -2.0106468e-01
  1.1967047e+00
  3.3411533e-01
 -9.9423981e-01
  3.8349068e-01
 -1.8196326e-02
  1.5523213e-01
  1.6635143e+00
  4.7973430e-01
  1.0313787e+00
  2.6277164e-01
 -2.7201545e-01
  4.0644154e-01
  4.1653407e-01
 -4.6778262e-01
  2.5138310e-01
 -7.6864737e-01
  8.9110863e-01
 -9.4174601e-02
 -3.6534996e+00
  3.1144228e+00
 -6.8364263e+00
  3.7844045e+00
  4.5376601e+00
  1.3821907e+00
  7.8193054e+00
  6.3791447e+00
  2.8429970e-01
  4.9661975e+00
 -2.3588796e+00
  1.0479896e-02
  1.5532779e+00
 -5.3274632e-01
  3.1683650e+00
  7.2618335e-02
 -4.6720842e-01
  1.2753712e-01
 -4.0511334e-01
 -3.1520617e-01
  1.5755856e+00
 -2.0233679e+00
 -6.2336212e-01
 -3.7776520e+00
  6.1566496e-01
  6.9609839e-01
 -1.1149479e+00
  3.9686961e+00
 -7.5302303e-01
  4.6358937e-01
  4.5065877e-01
 -8.0811149e-01
  1.1484925e-01
  1.1797393e-01
  3.7397909e-01
  1.6944897e+00
  3.8607702e+00
 -1.7896129e-01
 -4.7360656e-01
  5.4856592e-01
  1.5073315e+00
 -1.9660525e-02
 -2.9487133e-01
 -2.0924647e+00
  2.4713035e+00
 -3.7463634e+00
 -7.8000794e-03
 -3.1006718e-01
  4.6612091e+00
  9.6356761e-01
  1.4341421e+00
 -9.0601601e-02
  3.5583547e-01
 -4.7393255e+00
  9.6625917e-02
  4.4264856e-01
 -6.3560677e-01
 -5.6607449e-01
 -8.5550122e-02
  4.0286307e+00
  8.5175860e-01
 -2.4544585e+00
 -7.7064168e-01
  3.4437430e-01
 -1.5621128e+00
 -2.6044663e-02
  1.4916261e-01
  8.2493730e-02
 -3.2880538e+00
 -3.8822308e-01
 -1.4087960e+00
 -9.0355504e-01
 -6.5800118e-01
 -1.9603311e+00
  1.4464885e+00
 -6.0177851e-01
 -1.2271475e+00
  1.4467435e-01
 -1.3894472e+00
 -3.2522392e+00
 -4.9570346e-01
  5.0782721e-02
 -2.6667807e-01
  1.0427933e+00
  2.5626090e-01
 -9.2373824e-01
 -4.0439277e+00
  1.7989165e-01
 -1.0132209e+00
  7.9388076e-01
  1.0952562e+00
 -1.2208189e+00
 -1.1116887e+00
 -1.7092066e+00
 -2.5419396e-01
  9.9458307e-02
 -1.5304196e-01
 -4.2790356e+00
 -2.4038508e+00
 -2.8088158e-01
  6.8777972e-01
  1.4158943e+00
 -4.5115343e-01
  6.7549896e+00
 -1.1821719e-01
  1.2386482e+00
 -6.3489747e-01
  1.3312629e+00
  2.0736239e+00
 -8.9985985e-01
  9.3752824e-02
 -8.0255032e-02
  3.5672259e+00
  2.1882334e+00
  1.0494314e+00
 -2.3874146e-01
 -3.1989852e-01
 -3.7206154e+00
 -3.8430209e+00
  3.2222335e+00
  1.7419512e+00
 -1.8938254e+00
  1.7454368e+00
  1.8742219e+00
  6.8768960e-01
  6.8669641e-01
 -1.7834793e+00
 -3.4769776e-01
 -1.6259271e-01
  9.6969175e+00
  2.0379071e+00
  4.4195384e-02
  2.2254550e-01
  1.4001365e+00
  3.4761276e+00
 -1.0681788e+00
  6.0166615e-01
  7.0766485e-01
  2.0436487e-01
  6.7469716e-02
 -9.8075576e-02
  1.4094332e-01
  2.8171161e-01
  6.6821516e-01
  1.3929276e+00
  6.8026511e-03
  1.0470979e-01
  8.5946079e-03
  1.5037139e-01
  3.8361094e+00
 -1.4651564e-01
  2.4099563e-01
  4.4406354e-02
 -3.6818024e-03
 -3.0328355e+00
  8.8447351e+00
  2.5352972e-02
  6.3369794e+00
  4.6273012e+00
  4.0237952e-02
  2.5653160e-01
 -1.4736842e+00
  1.0229415e+00
 -3.6450369e+00
 -4.7026068e-01
 -5.9569877e-01
 -7.3082247e+00
  8.6603022e-01
 -1.8821334e+00
 -8.4406775e-01
  6.7082896e+00
  1.8734764e-01
 -3.2866106e+00
 -1.3143871e-02
 -5.2274257e-01
 -4.9661046e-01
 -1.3115222e+00
  1.8532093e+00
  1.2191123e+00
  4.1416034e-01
  7.8227097e-01
 -1.4302420e-02
 -3.0793748e+00
 -7.6415306e-01
  3.7990482e+00
 -2.2825287e-01
 -9.9821007e-01
 -3.6193117e-01
  1.3136479e-01
 -1.3887924e+00
  2.4593455e-01
 -1.7440194e+00
 -4.7903177e-01
 -7.1195966e-01
 -9.7908872e-01
  7.6536283e-02
 -5.4572673e+00
 -2.0534040e-01
 -5.7603784e+00
  2.0768458e-01
  6.0808557e-01
 -1.6712172e+00
 -2.0530226e+00
  1.3976436e+00
  6.0700870e-01
 -7.4893486e-01
  2.4347682e-01
 -4.6240950e-01
  3.1860715e-01
 -1.4838564e-01
 -7.7650946e-01
 -4.9484324e-01
 -1.2262105e+00
 -1.2621236e+00
  2.9305309e-01
  1.8347224e+00
 -1.3074838e+00
 -4.8328260e-01
 -1.0511993e+00
 -1.4482194e+00
  1.3249296e-01
 -9.0233946e-01
 -5.4361712e-02
 -3.9118073e+00
 -2.3316535e-01
 -1.9501325e+00
  1.7641042e+00
 -3.5452515e-01
  3.2848341e+00
 -7.0288014e-01
 -1.7235367e+00
  9.8105572e-02
 -7.2171219e-02
  1.5368683e+00
 -7.3403120e-02
  1.6103007e-01
  3.6687177e-01
  1.4495699e+00
 -1.9835594e+00
  1.0132535e+00
  2.2579655e-01
 -8.8631041e-02
  1.4929637e+00
 -2.2390141e+00
 -8.0484740e-02
 -3.0543864e-01
  6.4438236e-01
 -4.8694795e-01
 -4.0577254e+00
 -1.1943364e+00
  6.7549725e+00
  7.6306738e-02
 -1.4996569e-01
  1.1727012e+00
 -4.3470244e+00
  4.2739537e-02
  1.3727000e-01
 -1.3577266e+00
  3.1334639e-01
 -1.1594720e-03
 -9.0295032e-02
  6.2571332e-02
 -1.7443786e+00
  7.8782302e-01
  1.1450759e-01
  3.1187150e-01
 -9.4095488e+00
  6.4540076e-01
  5.4379058e+00
 -1.1379994e+00
 -4.8648591e+00
 -2.7032111e+00
 -9.3029834e-02
 -6.7753881e-01
 -7.7262747e-01
 -2.3834279e-01
  5.5758315e-01
  1.6101094e+00
  1.0486747e+00
  4.9762195e-01
 -2.7004001e+00
 -1.9371728e-03
  8.7576848e-01
  1.3442138e+00
 -2.5908396e+00
 -1.2977087e+00
  8.0972975e-01
 -3.0191588e+00
 -5.2587312e-01
 -1.1730693e-01
 -4.7369599e-01
  4.9544486e-01
  7.8575695e-01
 -1.3803509e+00
  1.8508521e-01
  1.9911186e+00
  2.3595686e+00
 -4.6217364e-01
 -3.7725914e-02
 -2.0766376e-01
 -8.4380007e-01
  3.5859042e-01
 -1.7769422e-01
 -9.7478643e-02
 -2.1405079e+00
  1.6352825e+00
 -1.4775464e-01
  2.2159343e+00
 -5.0994959e-02
  7.4318039e-01
  2.2729492e-01
  5.6083548e-01
  8.4749788e-01
  2.8431427e-01
 -2.7926309e+00
  2.9406449e-01
 -1.2090061e+00
  6.5548801e-01
 -3.2898679e+00
 -2.3913227e-01
 -9.7551100e-02
  1.9613081e-01
 -2.3479543e+00
  1.6380460e+00
  1.1780066e+00
 -6.6759378e-01
  1.9015595e-01
 -9.5012611e-01
  3.3558309e-01
 -4.7189209e-01
 -2.6998210e-01
  1.1998872e+00
  1.0412765e-02
 -2.4603455e+00
 -1.3970820e+00
  5.6811929e-01
 -5.5035156e-01
 -2.5642059e+00
 -7.8277820e-01
  2.3449922e-01
 -7.3558725e-02
  1.5331060e-01
  1.4712578e+00
 -1.0087754e+01
 -4.3023229e-01
 -3.5879129e-01
 -1.4608513e+00
 -7.7472764e-01
 -4.2415004e-02
  1.1205786e+00
  6.5847850e-01
  1.7383387e+00
  6.9683432e-03
  5.2212231e-02
 -2.1919892e+00
 -1.7015923e+00
  3.5480733e+00
 -4.2482978e-01
 -1.0389396e+00
  3.3897689e-01
  3.4068258e+00
 -1.1408644e-01
  1.4155425e-01
  1.4245961e+00
 -1.1932285e+00
  1.5223944e+00
  8.5664093e-01
  1.0070685e+00
 -4.3020958e-01
 -4.5876045e+00
 -5.3909975e-01
 -3.1042015e-02
 -1.4667657e-01
  6.6127813e-01
 -1.2705433e+00
  4.9165702e-01
  1.6763734e+00
  9.4715136e-01
  9.5352727e-01
  1.4159337e-01
 -9.3000108e-01
 -1.8569516e-01
  2.4903181e-01
  7.4060946e+00
 -2.0708358e+00
  6.5135870e+00
 -1.9568643e-01
 -2.2828960e-01
 -3.9489615e-01
  1.9614450e+00
 -1.5051851e-01
 -2.1701357e+00
 -6.5573478e-01
  6.8795383e-02
  5.9790534e-01
  9.8658079e-01
 -2.1191869e+00
 -1.0369597e-01
 -5.4146147e-01
 -1.9338869e-01
  2.3588477e-01
  5.8852905e-01
  1.0927344e-01
 -1.0381765e+00
 -1.5691056e+00
 -4.4952039e-02
 -2.1385619e-01
  2.6193571e+00
 -7.7566367e-01
  3.3281815e+00
 -1.3014072e+00
  5.7715334e-02
 -5.1739326e+00
 -6.5177846e-01
  1.0711122e+00
  2.6064487e+00
  4.4638172e-01
  1.0647961e-01
  4.4841518e+00
 -1.8082891e-01
  3.0687743e-01
  6.0880488e-01
 -1.8799166e-01
 -4.4701137e-02
  1.2843417e-01
  9.0905565e-01
 -3.5751026e-02
 -6.3688256e-02
 -1.0610519e-01
 -1.1925791e-01
 -1.1448357e+00
  2.3700957e-01
  2.4181351e-02
 -3.1695327e-01
 -2.8424921e+00
  5.1301423e-02
  1.1552643e-01
  4.5993112e-02
  4.7097211e+00
 -3.1816916e+00
 -1.1506797e+00
  1.7815766e-01
 -2.5477991e-01
 -2.6914475e+00
  8.1511009e-01
  3.2649189e-01
  1.9409524e-02
 -3.6000278e+00
 -1.4786024e+00
  1.9297547e+00
  2.3152793e-02
  1.7290404e-01
  5.9745245e-02
  4.3628201e-01
 -9.1181852e-02
  1.2242364e+00
 -6.1971369e+00
 -1.4873511e-01
 -1.1729653e+00
 -3.5034091e+00
  1.8047699e-01
 -2.1480949e-01
  9.7680706e-01
 -2.5829446e+00
  6.0660791e-01
  2.7480412e+00
  1.2622115e-01
 -1.0768832e+00
 -1.3536952e+00
 -5.3604388e+00
 -6.0144997e-01
  5.3891498e-01
 -5.5956580e-02
  4.8358936e-02
  2.7193797e-01
 -3.1730959e+00
  7.0034647e-01
 -3.7007028e-01
  2.3268383e+00
 -5.1267505e+00
  7.0363102e+00
 -1.1583278e+00
 -3.6239550e-01
 -4.0428671e-01
  1.7848992e-01
 -1.2780066e-01
  1.8493893e+00
  1.3494724e-01
  5.3975377e+00
 -3.4506330e+00
  7.9732714e+00
 -1.3435045e-01
  2.0978042e-01
 -1.2360376e+00
  2.5963454e+00
 -8.0911946e-01
  2.2490175e+00
  8.4558976e-01
 -8.2250973e-03
 -2.5408545e-01
  3.6721703e-01
  1.2387592e+00
 -1.1403058e-01
 -5.2845228e-01
  2.3336980e-01
  3.3211327e-01
  1.1561921e+00
 -6.3403052e-01
 -2.4902977e-01
 -3.4027977e+00
 -2.6258087e-01
  4.1749420e+00
 -6.7882627e-01
 -4.4017968e-01
 -2.6994580e-01
 -7.6053703e-01
 -1.7553456e-01
  3.7055802e-02
 -8.1809063e+00
  1.4931904e+00
  1.6668865e-01
 -2.3383508e+00
 -1.2122180e+00
 -1.6856341e-01
  2.8648055e-01
 -1.3048172e+00
 -3.7864566e-01
  1.0673021e-02
  3.7705932e+00
  1.2209637e-01
 -8.7934762e-01
  5.4693693e-01
  4.1924009e-01
 -4.9955159e-01
  1.2233579e+00
  2.2599439e-01
 -6.5032089e-01
 -6.5600425e-01
  2.3536804e+00
 -1.3197970e+00
 -2.2630663e-01
  6.5873700e-01
 -2.3580341e-02
  2.1181355e-01
  1.1055651e+00
 -2.8865461e+00
  3.3223717e+00
 -1.3823023e+00
 -1.6635660e+00
 -4.3606520e+00
  6.2835994e+00
  1.7369375e+00
  9.9851948e-01
 -3.5430372e-01
  7.9993927e-01
  3.2605493e+00
 -2.3807950e+00
  8.4160405e-01
 -1.7198483e+00
 -1.2020312e+01
 -4.9223514e+00
  4.6642857e+00
 -6.2984747e-01
  7.9817224e-01
 -8.7139922e-01
  1.7298812e+00
 -1.1056237e+00
 -3.7467238e-01
 -1.3747909e+00
 -1.1436907e+00
 -6.4492421e+00
  2.9297504e+00
  1.3928782e+00
 -1.7906909e+00
 -3.6031756e-01
 -2.7025948e+00
 -2.1727111e+00
  3.4962207e-01
  1.5638839e+00
 -1.9378453e+00
  2.3543139e+00
  1.0155177e+00
 -3.0097091e+00
 -2.6428480e+00
 -2.2958369e+00
 -2.9806027e+00
  6.4211369e-01
  2.6278529e+00
  3.5303373e+00
  3.0266583e-01
  9.1361552e-01
 -4.2348924e+00
  1.6700357e+00
 -5.0338978e-01
  1.3113737e+00
  6.6049241e-02
 -6.3836557e-01
 -9.5801049e-01
 -4.8182082e-01
 -1.0078993e+00
  2.1544695e+00
  1.7323381e-01
  3.8220473e-02
  1.9299321e+00
 -1.4001163e+00
 -1.4607697e+00
 -4.4747686e+00
  1.2217338e+00
 -2.5787661e+00
  5.8102769e-01
 -4.5579869e-01
  8.3594835e-01
 -2.6153409e-01
 -6.5582309e+00
  9.6894908e-01
  1.6172553e+00
 -9.4173811e-02
  7.6808506e-01
  3.7995651e-01
 -3.4255262e-02
  5.2364689e-01
 -1.5550002e+00
 -3.0649176e+00
 -8.4074587e-01
 -1.3066810e+00
  5.1192319e-01
  1.1813211e-01
  6.3498449e-01
  9.2064381e-01
 -4.3725705e+00
 -1.3349371e-01
  2.7535987e+00
 -4.8825938e-01
  4.8006287e-01
 -1.7710674e-01
 -2.5067952e-01
  1.1292297e+00
 -3.2406262e-01
  2.6656916e+00
  5.6158733e-01
 -3.0984008e-01
  4.8910812e-03
  1.7235942e-01
 -4.3191066e-01
  4.2812330e-01
 -4.1131693e-01
 -2.1899903e-01
  1.4077744e+00
 -3.6648288e+00
 -5.7467890e+00
  4.8878643e-01
  2.2034872e+00
  5.7645780e-01
 -3.8794500e-01
  3.6622462e-01
  9.4495505e-01
  1.1970421e+00
 -1.4866510e-01
  9.0010300e-02
 -4.8925993e-01
 -1.7337627e+00
 -1.2224656e-01
 -3.5570469e-02
 -1.4340637e+00
 -2.5680837e-01
 -9.0461478e-02
 -7.8729453e+00
  5.2157438e-01
 -5.4763150e+00
  9.3088883e-01
  2.5556016e+00
  3.7957560e-03
 -5.0821686e-01
 -1.3845970e-01
 -1.0681356e+00
  1.2706174e-01
  7.6110309e-01
 -4.0752253e-01
  1.0214480e+00
  4.6415677e+00
  6.1754592e-02
 -8.0539629e-02
  2.5545163e+00
  1.8899362e-01
 -3.3753407e+00
  1.4822391e+00
  6.4478678e-01
 -1.7458227e+00
 -5.7270527e-01
  4.2842019e-01
  5.7471466e-01
  2.8156471e-01
  2.2758020e-03
 -1.3664699e+00
 -3.1740743e-01
 -6.9860250e-01
  9.4171023e-01
  3.0266380e-01
  3.1223614e+00
 -4.2562168e-02
  6.5560418e-01
 -2.0612962e+00
  2.4215152e+00
 -1.2858772e+00
  2.4142078e-01
 -9.8019892e-01
 -1.3329144e+00
 -1.6688261e+00
  1.2509702e+00
 -4.2470437e-02
 -3.5816294e-01
 -1.4020751e+00
 -1.6416202e-01
 -9.5136201e-01
 -7.9255414e-01
 -2.2898719e-01
  3.0643959e-02
 -1.2603369e-01
  1.4248601e+00
 -1.1621695e+00
 -5.6842322e+00
  1.5135100e-01
 -4.8516420e-01
 -1.3249288e+00
  7.2817940e-01
 -1.4738829e-01
  3.7156859e-01
 -3.3340225e-01
 -6.3485724e-01
 -1.5883075e+00
 -1.7631462e-01
 -1.6373943e+00
 -5.9331805e-01
  6.2732881e-01
  8.4937149e-01
  2.5192392e-01
 -1.8818659e-01
 -2.4904397e+00
  1.5261220e-02
  4.7924206e-01
 -1.5428455e+00
 -4.5306009e-01
 -4.9251208e-01
 -1.0050571e+00
  6.1289895e-01
  1.9006285e-01
 -1.3495816e+00
  2.4237401e+00
 -4.1383827e-01
 -3.9507499e-01
 -1.0141972e+00
  3.1062537e-01
 -3.0333848e+00
 -5.3571739e+00
  1.6821185e-01
 -2.2407301e-01
  5.7800782e-01
  4.3439376e-01
  1.3123688e-01
  7.6417750e-01
  2.1749282e-02
 -4.5377359e-01
 -2.5269952e+00
 -4.2962842e+00
  2.1308799e-01
  1.2707517e+00
  3.2089868e-01
  6.5075173e+00
 -1.0338963e+00
  1.3733556e+00
 -2.7444821e-02
 -7.5848274e-02
 -2.3961885e+00
  6.2667108e-01
 -1.3682493e+00
 -4.9714008e-01
  7.0710248e-01
  4.2032981e-01
  1.7470600e-01
 -2.4209142e-01
  1.9672760e+00
  1.6102022e+00
 -4.2772260e+00
 -1.4254884e+00
 -2.4138258e+00
  1.6599327e+00
  8.8231337e-01
 -1.0853593e-02
  1.4627701e+00
 -8.3112460e-01
  4.9658809e-02
  1.5020765e+00
 -1.7584134e-02
 -2.0322444e+00
  4.4566736e-01
 -3.7110093e-01
 -1.9293526e-01
 -8.6580038e+00
  2.6011152e+00
 -8.2958281e-01
  4.6122542e-01
  8.7097698e-01
 -2.4013305e+00
  1.3861413e-01
 -2.3099044e-01
 -8.0115020e-01
  1.6462484e-01
 -9.2226046e-01
  8.8878083e-01
  9.0569514e-01
 -1.2560798e-01
  3.8347906e-01
 -1.0405151e-01
 -7.7976751e-01
 -8.5921174e-01
 -6.6041417e-02
 -4.6727600e+00
 -1.0542947e+00
  1.2376783e+00
 -2.6887915e-01
  6.6845739e-01
  7.6376259e-01
 -1.6794666e+00
 -5.1108112e+00
 -1.9478641e+00
 -3.5455206e-01
 -4.2774165e-01
  4.0137213e-02
  2.4316430e+00
 -2.9295576e-03
  7.6996535e-01
 -8.6099982e-01
 -1.1479297e+00
  3.0210266e+00
  1.5671299e+00
 -2.2723691e-01
  2.2714789e+00
 -1.1923400e+00
 -3.5412896e-01
  3.0565521e-01
 -1.5420108e-01
 -2.2065105e+00
  1.3663396e-01
  1.8136348e+00
 -4.1534764e-01
 -2.1700034e+00
  8.9339805e-01
  3.1401377e+00
 -7.5920713e-01
  1.4301106e-01
 -1.0976454e+00
  1.4909521e-01
  2.5365090e-01
 -8.3710897e-01
  1.6184360e+00
 -8.5065466e-01
  1.2486721e+01
  2.1257200e+00
  3.0417830e-01
  3.2257957e+00
 -1.3643130e+00
 -1.6145322e+00
 -5.0513542e-01
 -1.7228636e-01
 -6.8438745e-01
 -3.2097147e+00
  1.2274501e+00
  8.7170023e-01
 -3.0356877e+00
  1.6097885e+00
  4.8321497e-01
 -6.5904593e+00
  3.3712026e-01
 -1.2580557e+01
  1.2447850e+00
 -2.9649994e-01
  2.3351777e-01
 -2.9123068e-01
  3.2727509e+00
 -1.4114028e-01
 -6.9677286e-02
 -2.5358638e-01
 -2.5712380e+00
  5.4686856e-01
  3.8290339e+00
  7.9064883e-02
  9.6469820e-01
  1.8303634e+00
 -8.7614584e-01
 -5.4582196e-01
  5.6559706e-01
  5.7610375e-01
  9.8452896e-01
  5.0952730e+00
 -8.3785021e-01
 -1.3728280e+00
  3.1325758e-01
  5.5431671e-02
 -6.4953685e-01
  6.2930083e-01
  1.1612949e+00
  2.4651735e+00
  1.4285392e-01
 -1.3582621e+00
 -2.1178517e+00
  1.6132388e-01
  4.7208685e-01
 -1.4512234e+00
  2.3543124e+00
 -2.0672710e+00
 -2.5589180e-01
  4.2538452e-01
  3.1954788e-02
  1.1719961e+00
  1.5650156e+00
  3.7102523e-01
 -7.0422754e+00
  2.3313271e-01
  1.3399230e+00
  8.6167067e-01
  4.8534346e-01
 -1.0504988e+00
 -5.0739884e+00
  4.8288938e-01
  6.2809443e-01
 -1.7035753e-01
 -1.5751396e-01
  1.9307992e+00
 -1.0232210e+00
 -1.8782957e+00
 -7.3207200e-02
  2.5455150e-01
  1.7199905e+00
 -5.1070652e+00
  3.2864694e-02
  2.5061790e-02
 -1.4600601e-02
 -1.0200989e+00
 -1.5617016e-01
  1.5806152e+00
 -7.8571722e-02
  5.4016930e-01
 -5.2896273e-01
  8.4176713e-01
 -3.5733256e-01
  2.9262860e+00
 -1.9191296e-01
  5.3977686e-01
 -1.2680443e-01
 -1.2726599e+00
  2.0046212e-01
 -6.6903472e-01
 -5.3428227e-01
 -1.2692608e+00
 -5.3294611e-01
 -8.3307117e-02
  1.5143720e+00
  1.9570577e+00
  8.4490091e-02
  3.8374725e-01
  6.6044581e-01
 -5.0547636e-01
 -2.1963201e+00
 -4.2706591e-01
  3.1895342e-01
  6.8771607e-01
 -7.3312432e-01
 -2.1392666e-01
 -1.6167010e+00
  4.7160420e-01
 -4.1704389e-01
 -1.7032105e-01
 -1.1945019e+00
  3.9662379e-01
 -4.6067387e-01
  1.7460087e-01
 -1.4533873e+00
  2.2141230e+00
 -3.2748747e-01
  3.8416496e-01
  5.1273704e-02
 -7.0487803e-01
  2.5501087e+00
  4.9259791e-01
 -4.0156060e-01
  9.1926975e+00
  1.6996717e-01
 -2.5724463e+00
 -2.1937633e-01
 -1.6621903e-01
  8.0667603e-01
 -4.5891018e+00
  5.4541844e-01
 -2.6224637e+00
 -7.1035141e-01
 -1.4848701e+00
  2.1096509e+00
 -9.0956193e-01
 -5.4250546e+00
  1.2515652e+00
  7.0816118e-01
 -2.7773884e-01
  4.4277306e+00
 -3.0613608e+00
 -1.8658684e+00
  1.4575419e+00
 -6.2584591e-01
 -1.4622459e-01
 -1.9242361e+00
 -1.3025475e+00
  1.1750644e+00
 -4.1273341e+00
 -8.9534101e+00
  3.8501233e-02
 -9.1621077e-01
  1.0737902e-01
  1.0438300e+00
 -3.1201246e+00
 -4.7818513e+00
 -2.3348687e+00
 -1.5976730e-01
 -1.1357673e+00
 -3.7453260e+00
 -2.1791565e+00
  6.2167364e-01
 -7.3916239e-01
  1.1234484e-01
  5.8597803e-01
  8.4865201e-01
 -7.5530076e-01
  2.2371192e+00
 -3.2409821e+00
 -1.3394091e+00
 -1.5282826e+00
  7.1493858e-01
  2.3250811e+00
 -1.7439620e+00
 -2.2086504e+00
 -1.8618228e+00
 -1.4820594e+00
  8.1061554e+00
  9.2691064e-02
  2.1871412e-01
  9.7946650e-01
  6.1505198e-01
  8.9106321e-02
  6.7114383e-02
  2.7500678e-02
 -9.0452057e-01
  7.6970148e-01
  3.6489373e-01
 -4.9481437e-01
 -8.6796439e-01
 -2.4051991e+00
 -9.3883187e-01
  1.9070175e-02
  1.2505552e+00
 -2.1085083e-01
 -1.0012268e+00
 -1.2464663e-01
 -7.4664965e+00
  3.7754598e-01
 -2.7168214e-01
 -1.4227375e+00
  3.4087691e-01
  1.6426212e-01
 -5.8500218e-01
 -1.2005031e-01
 -1.0849446e+00
  3.5664043e-01
 -1.5848044e-02
 -8.9081359e-01
  1.8171729e-01
 -1.4877315e+00
 -2.3342144e-01
  1.3168730e-02
  7.9004025e-01
  6.5065300e-01
 -1.3023574e+00
  2.9450595e-01
 -9.4680387e-01
  3.3691826e+00
 -1.7318338e+00
  1.3025088e+00
 -3.3073312e-01
 -2.9975407e+00
  5.8933321e-02
  2.0311978e+00
 -5.0000274e-01
 -1.0372434e+00
 -2.1268897e+00
  9.8531373e-02
 -2.1343945e-01
 -9.6527138e-04
 -1.3985263e-01
 -4.2212781e-01
 -1.2871033e-01
  3.2428883e-02
 -1.0743055e+00
 -4.6958280e-01
  7.5699592e-01
 -1.6292478e-01
 -1.1480173e-01
  1.9183800e-01
  1.2274470e+00
  4.0459296e-01
  3.7945774e-01
 -1.8853065e+00
  1.6114217e+00
  1.2520684e+00
 -5.6543446e-01
 -1.2557095e+00
 -1.5585235e+00
 -8.6799376e-02
 -1.1654168e+00
 -1.3780341e+00
 -3.0734224e+00
  2.4990109e-01
 -7.2972363e-01
  2.6582150e+00
 -6.0997730e-01
 -1.0225032e-01
  8.1998771e-01
  3.4268638e-01
 -3.6390114e+00
 -2.3416927e-01
  5.7810092e+00
 -3.0661246e-02
 -1.0831901e+00
  1.4042579e+00
 -2.3447900e+00
  1.3096654e-01
  1.2981459e+00
 -9.8519631e-02
 -1.2549943e-01
 -2.1869071e+00
 -2.2901909e-01
  9.7745627e-01
  3.6042503e-01
  6.0814804e-01
 -6.3167901e+00
 -9.4988960e-01
 -4.2877710e-01
  8.9470011e-01
 -5.8885264e-01
  1.9013111e-01
 -6.5891951e-01
 -1.9349222e+00
  5.5499661e-01
  6.4545351e-01
 -3.3931430e-02
  9.3690962e-01
  8.5564065e-01
 -2.6363919e+00
  6.3859648e-01
  4.7024161e-01
  2.5018809e+00
 -4.2428944e-01
  6.5340275e-01
  1.7532328e-01
  8.1777138e-01
 -1.1183337e+00
  1.8485366e+00
 -1.1489379e+00
  5.6396884e-01
  1.1915246e+00
  8.8562775e-01
 -1.7325337e+00
  2.5443718e+00
  7.0356860e+00
  2.8010345e+00
  5.3298483e+00
  1.0808461e+00
  9.5871165e-02
 -5.0536436e-01
  2.6077187e-01
 -9.2371476e-01
  7.1407139e-01
  4.5221958e-01
 -1.6103195e+00
  9.7802334e-02
 -8.6504720e-02
  1.8254483e+00
  3.9859073e+00
  2.5086277e-03
  8.9284891e-01
  1.8634871e+00
  6.4720553e-01
 -5.6465703e-01
  2.7308149e-02
  1.1537689e-01
 -8.2281309e-01
  3.9537495e-01
 -2.7140069e-01
  7.9562746e-02
 -6.6547137e-01
  1.2254939e+00
 -1.8081015e+00
 -6.2097085e-01
 -8.6420968e-02
 -1.4904156e-01
 -3.0471662e-01
  3.5972434e-01
 -3.0923656e-01
  8.3600096e-02
 -5.1561272e-01
 -7.9491436e-01
 -1.6481434e+00
 -1.2786070e-01
  5.0779617e-01
  5.8254081e-01
 -8.3841749e-02
  8.3587068e-01
 -3.7866375e-01
  1.0219980e+00
  1.2867637e+00
  2.9547238e-01
  3.4005126e-01
 -5.7048664e+00
 -7.7284282e-01
  4.7074995e+00
  9.1834373e+00
  1.9608200e+00
 -5.3719252e-01
  7.0343828e-01
  3.2497269e-01
  1.5334048e+00
 -5.7204920e-01
 -5.7723284e-01
 -1.2487907e+00
 -3.6739922e-01
  5.2791220e-01
  4.5172715e-01
 -5.5772209e-01
  7.1268958e-01
  4.8561078e-02
 -4.4807925e+00
 -7.4513693e-04
  1.6443290e-01
 -6.3275510e-01
  4.0280294e+00
 -6.5630689e+00
  5.9987170e-01
  5.8351696e-02
  1.2809488e+00
 -3.6260322e-01
  5.4208535e-01
  3.2214101e-02
  4.7603551e-01
 -3.1164831e-01
  6.7841351e-01
  1.1496644e+00
  3.5425448e+00
  4.9079716e-01
  1.6203192e-01
 -1.9956778e+00
 -1.0768146e-01
  1.6075473e+00
  3.1130891e+00
  2.5774261e-01
 -3.0802208e-01
 -1.6108210e+00
  4.6806481e-01
  4.8251042e+00
  6.5961671e-01
  1.4613354e-01
  2.7680111e-01
 -8.6062598e-01
  5.1970458e-01
 -6.5085924e-01
 -1.8730702e-02
 -1.2122492e+00
 -1.2370743e+00
  2.5961835e+00
 -1.0492530e+00
 -3.4010437e-01
  1.3198673e+00
 -4.9129382e-01
  4.3725328e+00
 -5.2220064e-01
  3.9265311e+00
  6.3530877e-02
 -5.3137860e+00
  2.5216076e+00
  1.4057651e-01
  1.0773354e-01
 -7.7568841e-01
 -3.0244860e-01
  5.6922078e+00
 -2.1864271e+00
 -2.8147301e-01
 -1.7152928e+00
 -1.0777467e+00
  3.3759344e-01
  4.9589920e-01
  2.1090155e+00
 -1.3125759e+00
  1.8775465e+00
  7.1512157e-01
 -1.4635648e+00
  6.2316594e+00
  5.1601520e-03
  4.6586388e-01
 -5.2333336e+00
  1.6674892e+00
 -9.1943473e-01
 -5.7720619e-01
  4.0710402e+00
  1.2260335e+01
 -2.6926346e+00
  1.3875457e+00
 -1.7882748e+00
 -2.5555930e-01
  3.2489446e-01
  9.9006414e-01
 -2.8698677e-01
 -6.8959159e-01
  1.8941615e+00
  7.0537198e-01
  3.4516525e-01
 -2.6184103e+00
 -1.7334709e+00
 -5.3033525e-01
  7.1724826e-01
  5.1310120e+00
 -6.6442108e-01
  3.2442918e-01
  4.0916455e-01
 -4.5676696e-01
  1.5000671e+00
  5.3288155e+00
 -3.8818393e+00
 -7.2304773e-01
  1.1314385e+00
  1.2072979e+00
  2.5918622e+00
  2.4134281e-01
  9.7985196e-01
 -1.0594815e+00
 -9.0032227e-02
  9.7902542e-01
  9.1540372e-01
 -8.2152224e-01
 -3.9217848e-01
  4.3945569e-01
  9.6893539e+00
  2.3956487e-01
  2.8725114e+00
 -1.8246017e+00
  2.4862209e-01
 -6.1004221e-01
 -7.5546271e-01
 -3.7082157e+00
  6.0652041e-01
 -1.2705530e+00
 -4.7040921e-01
  2.2726765e+00
  1.4540148e-01
  1.5235090e+00
  8.0493754e-01
  4.6780869e-01
 -2.2212696e+00
  3.4391115e+00
 -2.1542656e+00
 -1.2635297e-01
  6.8528362e-02
 -3.5651398e-01
  9.3852377e-01
 -4.3968234e-02
  1.8592649e+00
 -6.4754438e-01
  9.1648504e-02
 -2.5745764e+00
  1.9952270e-01
 -4.8696157e-01
 -2.8234002e-01
  2.0426509e+00
 -1.0641022e-01
  3.8456814e+00
  6.0712881e+00
  1.4712639e+00
  2.2725844e+00
 -3.8829949e+00
  2.0658884e+00
 -1.3315046e-01
  5.3097481e-01
 -8.0461180e-01
  5.1483538e-02
  1.2172701e+00
  4.3617344e-01
  1.7909486e+00
 -1.0245606e-01
 -1.7124454e+00
  1.8927878e+00
  9.5150226e-01
 -5.3498280e-01
 -1.8308855e+00
  5.4059106e-01
  9.4711924e-01
  3.2588166e-01
 -1.3002728e-01
 -5.6504661e-01
 -9.0434521e-01
  7.0335291e-02
  4.2487890e-01
  5.2608311e-01
 -4.2112434e-01
  8.1616068e+00
 -1.1156052e+00
 -1.9723355e+00
  6.4131528e-01
 -1.9046781e+00
 -5.4910320e-01
  8.3505648e-01
 -8.2478565e-01
  4.0164471e+00
 -7.3697752e-01
  9.2166501e-01
  1.9118104e+00
 -5.9697551e-01
 -8.6684430e-01
  5.3069746e-01
 -3.6471587e-01
  1.2795531e+00
 -2.8287823e+00
 -1.1134049e-01
 -1.4677375e-02
  2.8956421e-02
  2.9522964e-01
 -7.9305655e-01
 -7.9707354e-01
 -6.7571092e-01
 -3.1527644e-01
 -1.2730139e+00
 -5.9992087e-01
 -1.2782016e+00
  4.6479902e-01
  9.4708629e-02
 -8.9191115e-01
 -1.8479397e+00
  9.7953528e-01
 -3.7358313e+00
 -2.8969066e+00
 -1.9461865e+00
 -3.4150324e+00
  1.5539863e+00
 -2.3618110e-02
 -3.6965528e-01
  8.2256757e-02
  1.9602306e+00
 -4.2459056e-01
  2.1259314e-01
  1.3930411e+00
 -6.4110312e+00
  8.1831925e-03
 -4.3044794e-01
 -2.6198158e+00
  2.3793845e+00
 -1.7490687e+00
  1.2698664e-01
 -1.7659783e-01
 -7.7372169e+00
 -7.2047122e-02
  1.8389519e+00
 -4.7599413e-02
 -7.0891209e-04
 -5.7839212e+00
  4.2272559e-01
 -2.2051248e-01
 -6.6050136e-01
 -2.4626625e+00
 -2.9496768e+00
 -2.5943887e+00
 -5.4183042e-01
  1.2438753e+00
 -1.0679489e+00
  4.1969090e+00
 -4.4287157e-01
  8.5180692e-02
 -3.8027656e-01
  1.6861308e+00
 -1.1933535e+00
  7.4211758e-01
 -3.6483046e-01
 -2.2510993e+00
  3.8853946e+00
 -1.9339668e+00
  3.2077914e-01
 -5.8722985e-01
 -3.6520637e-03
  8.6973381e-01
  5.3210366e-01
 -8.2832739e-02
 -7.2095978e-01
 -1.0723891e+00
 -3.8433325e-01
  2.3980761e+00
 -2.6339300e+00
  9.9333924e-01
  6.4703494e-01
 -3.9954040e-02
  2.9646900e+00
  5.5868607e+00
 -1.8349062e+00
  2.9631345e+00
 -1.4649439e+00
 -1.6649030e+00
  9.9091625e-01
 -3.1443825e-01
 -2.3215817e-01
 -4.9549177e-01
  2.3934696e+00
 -2.4273372e+00
 -7.9524404e-01
  2.4732740e-01
  5.0248820e-01
  3.6628595e-01
 -6.5109652e-01
 -7.8638345e-01
 -5.9796023e-01
  1.6826288e+00
 -2.4916664e-01
 -5.9987631e+00
  5.6800514e-01
  2.3224576e+00
  1.7700018e+00
  3.0918416e-01
 -6.1293387e-01
  8.0831937e-02
 -8.5672104e-01
 -2.4498208e+00
 -7.6720792e-01
  3.1993570e+00
  7.9165089e-01
 -1.3171765e+00
 -1.9795260e+00
  9.6892512e-01
 -1.7865506e+00
 -1.8746665e+00
 -3.0729728e+00
 -1.5166660e-01
  4.0908524e-01
  7.0734353e+00
  1.1517385e-01
  1.8077209e+00
  8.1949554e-02
 -1.6368250e+00
  4.3089360e-01
  4.5508051e-01
 -6.5762985e-01
  6.4236537e-02
  3.8067752e-01
 -1.2431162e-01
  6.0526781e+00
  2.4608929e-01
  7.1417861e-02
 -5.5751643e+00
 -6.5578794e-01
 -5.0083464e-01
  1.2928101e+00
  2.0198481e-01
  7.7713531e-01
 -1.3500535e+00
 -4.0055317e-01
  1.2514682e+00
  3.6719115e+00
  6.3813291e-02
  3.0786468e-02
  3.3621714e-01
  1.7709557e+00
 -4.7297487e+00
 -1.0356808e+00
  4.6309047e+00
  9.1120110e+00
  1.5063684e-01
  9.9231094e-02
 -7.1775216e-01
  5.1960021e-01
 -1.3836358e-01
 -9.9604899e-01
 -9.2619359e-01
  4.4957490e+00
 -2.1688778e+00
  5.7829971e+00
  3.2098148e+00
 -3.9409789e-01
 -2.2335424e-01
 -2.1423087e+00
  3.5395193e-01
 -2.3189232e-01
  2.7080095e-01
  2.6466568e+00
 -1.5918294e-01
  2.0879531e-01
 -2.6800683e-01
  8.3343369e-01
 -1.3391545e-01
  2.5822444e+00
 -9.4317421e-02
  6.5429425e-01
 -8.0867225e-01
  7.2701246e-01
 -1.1370274e+00
 -4.4773087e-02
 -3.5268774e+00
  2.7847224e-01
 -2.3671974e-01
  1.3809069e-01
 -3.2661635e-01
  2.6061432e+00
  2.9255710e+00
  3.1542975e-02
  3.0709269e+00
  1.2417321e+00
  2.1676440e+00
 -3.5159919e-01
  7.5727534e-01
 -3.3807588e+00
  4.3409255e-01
  2.9426679e-01
  6.8675346e+00
 -2.9829690e-01
  1.0699031e+00
  1.3656666e+00
 -4.3528548e-01
  1.4192094e+00
 -1.3190370e+00
 -1.0623515e+00
  1.1805133e+00
 -2.7952519e-01
  2.1502981e+00
 -1.2604045e+00
  1.8576808e+00
 -3.9653733e+00
 -5.1741123e-02
  3.8863400e-01
  2.2131877e-01
 -3.1900659e+00
  3.6621897e+00
  4.9302274e-01
 -1.2735994e-01
 -3.7589487e-01
 -5.6015795e-01
  1.0055083e+00
 -1.4696160e-01
  1.8437892e-01
  2.6516470e-01
 -4.8311739e+00
  1.3629763e+00
 -1.3929909e+00
 -1.6725534e+00
 -1.4826530e+00
  1.0260092e+00
  1.0728701e+00
  1.6818294e-01
 -2.6439109e+00
 -8.3097821e-01
  4.6448100e-01
  1.4744434e-01
  6.7444596e+00
 -8.5569620e+00
 -1.5785758e+00
 -4.1337126e-01
  1.8049253e-02
  1.2956831e+00
  2.3145127e+00
 -1.3564453e+00
 -7.5821511e-02
 -6.0705870e-02
 -7.5134063e-01
 -1.7404970e+00
 -1.1227101e+00
 -8.9207834e-01
  8.9815992e-01
 -8.5542911e-01
  1.6659744e+00
  8.4388953e-01
  4.8020512e-01
  4.5426517e+00
 -1.1626159e+00
 -4.8022142e-01
  3.4718221e-01
 -7.9528666e+00
  2.0170541e+00
  1.7071983e-01
 -1.6219137e+00
  1.0196936e+00
  4.4367638e+00
  9.7817630e-01
 -1.9823409e+00
  7.5635076e+00
  1.0252390e+00
  5.5093384e+00
 -7.9908538e-01
  7.2074004e-02
  8.9001298e-01
 -1.4655144e+00
  1.2870379e-02
 -4.8246074e+00
 -1.0290220e+00
 -2.3181106e-01
 -3.1224081e-01
  5.2745020e-01
  1.0020092e-01
 -6.4118040e-01
 -6.7947990e-01
 -1.8045221e-01
  6.6380513e-01
 -8.7806588e-01
 -8.1077681e+00
  5.4822510e-01
  1.5535314e+00
 -2.2639120e-02
  4.1013402e-01
 -9.9125463e-01
  1.0217438e+00
 -2.9825813e-01
 -1.5032721e-01
 -9.5844096e-01
 -1.7015553e+00
  5.4756618e-01
  3.7784067e-01
 -9.4752753e-01
 -8.8664986e-02
 -1.1185721e+00
 -3.8977557e-01
 -3.1556091e-01
  1.1104830e-01
  4.8823842e-01
  1.2088783e-01
 -2.2761185e+00
 -3.2442617e-01
  4.8052478e-01
  7.1430373e-01
 -1.7060161e-01
 -2.6243177e-01
 -2.0789586e-01
 -1.0809237e+00
 -8.9882177e-01
  4.0506536e-01
  2.5869441e-01
  3.6319151e+00
  8.2530422e+00
 -1.1215620e+00
 -6.2507504e-01
 -1.9237965e+00
  1.2464112e+00
 -4.0725179e+00
  1.4397223e+00
  2.5894241e+00
 -1.8454421e-01
 -7.8059241e-02
 -4.4397563e-01
  3.2499656e-01
  2.0488152e-01
  8.9232437e-02
  2.2890422e+00
  2.8048009e-01
  3.6120856e+00
 -3.6257112e+00
  4.5627854e-03
  2.1617471e-01
  1.2377577e-01
  3.3124273e+00
  2.6715558e+00
 -2.0682091e-01
  8.5645682e-01
 -3.0578740e+00
 -9.5240669e-03
  3.2793626e-01
 -1.6859646e-01
  3.9103978e+00
 -5.3652100e-02
 -1.9639114e-01
  2.1792315e-03
 -6.8496533e-02
  1.5447066e+00
 -1.7443438e+00
  5.1709876e+00
  2.1545751e-01
  2.4306886e+00
 -9.1014884e-02
 -1.0727268e+00
 -9.8537928e-01
 -3.3211942e+00
 -1.3918221e+00
  3.0248061e-01
  9.9775851e-02
 -1.6403346e+00
  7.3790723e-01
 -2.1893699e-02
  5.5355763e-01
  2.2811265e+00
  2.3009816e-02
 -6.9996990e-02
 -9.7530228e-01
  4.5697510e-01
  2.0150235e+00
 -5.9010141e-02
  8.1084317e-01
 -1.5451642e+00
  3.9687507e+00
 -7.7978045e-02
 -2.5704396e+00
  9.5285192e-02
 -2.1272993e-01
 -2.9076171e-01
 -1.0100540e+00
  8.6390458e-02
 -6.4621115e-01
 -1.9094083e+00
 -3.3953333e+00
 -4.0356427e-01
 -6.7500748e-02
 -7.3936510e-01
 -7.7978778e-01
 -4.8616448e-01
  2.5255799e+00
  6.0256648e+00
 -4.3522555e-01
 -2.3688383e+00
  3.0952671e+00
  5.4648662e-01
  5.8158588e-02
 -1.8166493e-01
 -7.2109801e-01
 -2.1339771e-01
  2.5795853e-01
 -2.0641278e-01
 -9.5234662e-01
 -3.7627804e+00
  7.3734939e-01
 -1.6337246e+00
  8.8897097e-01
  5.0881970e-01
  1.6790921e-02
 -2.0938487e-01
 -8.6134571e-01
  9.6184663e-02
  3.6325130e+00
 -6.1101747e-01
 -1.4038008e-01
 -2.4713302e+00
  3.6966670e+00
 -1.0098087e+00
  1.3115163e+00
 -3.0006874e-01
  1.7812434e+00
  1.6046675e+00
  8.2380950e-01
  8.4148331e+00
 -5.9079993e-01
  4.1699854e-01
 -2.5881821e-02
 -5.1933920e-01
  9.1265166e-01
  4.9494585e-01
  6.5019286e-01
  2.7716455e-01
 -1.7865331e+00
 -5.6093836e-01
  1.0546108e+00
  5.0229651e-01
 -2.0597324e+00
 -2.7917696e-02
  5.8802667e+00
 -3.0280343e-01
  3.1262112e-01
  1.4629871e+00
  3.7230229e+00
 -3.6971148e-02
 -7.8095399e-02
 -1.0728697e+00
 -7.6173191e+00
 -3.8950956e-01
  6.9697417e-02
  6.5428692e-01
  9.5635034e-02
  9.7978640e-01
  4.6524377e+00
 -4.6572834e-02
  8.7413497e-02
  2.2224810e+00
  7.3075545e-01
  2.2488547e-02
  2.0667040e-01
  8.9687997e-01
 -5.0584655e+00
  2.1861317e+00
  1.5320581e+00
  1.8060254e+00
  7.6668322e-01
 -6.9076765e-01
 -4.2054397e-01
 -8.0841683e-02
  4.5912342e+00
  4.1144051e-02
 -8.1913483e-01
 -2.1071923e+00
  3.0177575e-02
 -2.8624337e+00
  1.0600806e+00
  1.8378354e+00
 -5.8760673e-01
  2.6221170e+00
 -2.9067113e+00
  1.9669402e+00
  1.7891473e-01
  1.0395261e+00
 -6.1732717e+00
  1.5073802e+00
  7.3322761e-01
  1.2266502e+00
  9.7190326e-01
  3.2890087e-01
 -5.6955862e+00
 -2.1427068e-01
  1.1418574e+00
 -2.1663520e+00
 -2.5449927e+00
  3.5779753e-01
 -4.9082676e-01
 -3.3129253e+00
 -1.2874316e-01
  1.7946109e-01
  1.8565789e+00
 -4.7849598e+00
 -1.1864253e+00
  1.2201849e+00
 -1.9703941e-01
 -2.3703043e-01
  1.4856066e-01
 -4.8488450e-01
  1.1211431e+00
  1.6590796e-01
 -4.0999907e-01
  3.2966867e-01
 -1.8673630e+00
  2.1487167e-01
 -1.7980155e+00
  1.1725193e+00
 -2.6420256e-02
  5.9296679e-01
 -8.7173671e-02
 -5.6466800e-01
  5.2197599e+00
 -1.3469615e+00
 -2.8171510e-01
  2.8411667e+00
  7.2521633e-01
  4.1291993e-03
 -3.6724418e-01
 -9.7380471e-01
 -6.4526749e-01
  1.4164495e+00
 -5.4569876e-01
  7.3957717e-01
  1.0596863e+00
 -1.1373068e+00
  1.4515087e-01
 -9.2515624e-01
 -1.7468338e+00
 -2.3776619e-01
  3.9266870e+00
 -9.0234084e-03
  2.3264532e-01
 -1.6741422e-01
  1.2553732e+00
 -2.8186664e-01
  4.0255231e-01
  8.3749563e-01
  7.5180560e-01
 -8.4477192e-01
  9.5169313e-02
  2.9337294e+00
 -1.3640441e-01
  1.2023345e+00
 -6.6035903e-01
  4.0171714e+00
  1.2502155e-01
 -2.9363784e-01
  1.2918527e+00
 -6.6930830e-01
 -3.4562117e-01
  9.9815547e-01
 -8.9246541e-01
 -1.5851043e-01
 -1.2625421e+00
 -3.2992157e-01
  1.5387272e+00
 -5.8864230e-01
 -2.0980234e+00
 -2.1577580e+00
  7.1827650e-01
 -7.9171687e-01
 -2.2235872e-01
 -1.6192774e+00
  6.2694609e-01
 -7.6888776e-01
 -7.0501429e-01
 -1.0508876e+00
 -3.1202464e+00
  2.9966404e+00
 -2.6432179e-02
  4.4685286e-02
  9.5576787e-01
  3.2305130e-01
 -1.5543509e+00
 -4.1828889e-01
 -1.6241201e+00
  7.8395033e-01
 -2.9961294e-01
 -6.6848457e-01
  3.7891462e-01
 -1.0210088e+00
 -6.2160081e-01
 -5.7111388e-01
  4.9183752e-02
  1.1706926e+01
 -1.3937680e+00
 -3.2860844e+00
 -1.5002301e+00
 -4.6199174e+00
 -9.5020704e-02
  7.1635306e-01
 -1.1404788e+00
  8.7355316e-02
 -2.2341703e-01
  1.0956124e+00
  1.7154547e+00
 -8.3416837e-01
 -2.0061133e+00
 -1.1545185e-01
 -1.3126909e+00
 -5.7547064e+00
 -1.0273997e+00
  4.2339765e-02
  2.0169816e+00
 -1.0031362e+00
 -2.0519743e+00
 -2.8248312e+00
  9.2702135e-02
  1.3422171e+00
  5.6526184e-01
 -1.2689445e+00
  4.2584157e-01
  1.0829309e+00
  4.5024246e-01
  1.8925077e-01
 -6.6930753e-01
  1.2007023e+00
  1.6824626e+00
 -5.1245701e-01
  4.6305394e-01
  4.5889795e-01
 -1.7454913e+00
  1.1621486e+00
 -2.6214239e-01
  1.9295466e-01
 -2.2075863e+00
  1.6599114e-01
 -7.8738813e+00
  4.6516672e-02
 -1.7106481e-01
  4.8996782e-01
 -3.8419198e-02
 -5.4193816e+00
  1.1252030e+00
  5.6642896e-01
  1.6467395e-01
  9.6526843e-01
 -1.0485820e+00
  9.5639922e-02
  7.0171046e-01
  4.4613576e-01
 -8.7153282e+00
 -3.5075596e-01
  6.4314687e-01
  1.8062402e+00
 -5.2577057e+00
 -1.3383064e+00
  1.3007461e-01
 -3.6333349e-02
  1.9550228e-01
 -1.5257230e-01
 -4.8800325e+00
  4.6167072e-02
 -4.9630371e-01
  5.6204581e-01
  3.6891720e-01
 -1.0305154e-02
  1.6737629e+00
 -4.6059388e-01
 -6.2667233e-01
  3.3404794e+00
 -7.5789052e-01
  1.0731872e+00
 -2.4931423e-01
  2.3132950e-01
 -4.4238323e-01
  3.5971645e-01
 -8.5714054e-01
  2.2693791e+00
  9.4618452e-01
 -6.2006420e-01
  1.1734651e+00
  9.4226405e-02
 -2.2612956e+00
  6.4110126e+00
  1.6784384e+00
 -8.3949608e-01
 -6.6766167e-01
 -1.0598056e-02
 -1.6199393e+00
 -3.3825276e+00
  1.0319937e+00
  7.2864163e-01
 -5.5813098e-01
 -7.6465571e-01
 -8.3773702e-01
 -1.6964511e+00
 -1.0837535e-01
 -3.3042345e+00
 -2.2295623e-01
  2.2837226e+00
  4.2035374e-01
  2.6143807e-01
  1.0655382e+00
 -6.9747233e-01
 -5.2838693e+00
 -7.2383273e-01
  6.1615920e-01
 -6.9876176e-01
  1.6150998e+00
  2.4263544e+00
 -2.0066075e+00
 -1.5358447e-01
  7.1947545e-02
 -2.8384151e-03
  3.8833025e+00
  5.8061701e-01
  8.3397347e-01
  2.2871838e+00
  4.0022740e-01
 -8.8449937e-01
 -1.2226669e+00
 -3.3588948e+00
  1.5213139e+00
 -1.7247576e+00
 -1.7692372e+00
  1.2031189e+00
 -6.0660720e-01
 -6.9589031e-01
  1.5533932e-01
 -3.2684315e-02
 -7.5598341e-01
 -2.0222881e+00
  4.8529720e+00
  2.0340940e-01
  9.4858295e-01
 -3.8869925e+00
  2.4954554e-01
 -1.5956727e+00
  2.7872220e-01
  1.8138355e-01
  2.3366501e+00
 -1.7275712e-01
 -4.9796003e-01
 -8.0397737e-01
  6.4190072e-01
  1.4535671e+00
  5.5691844e-01
  4.4595185e-01
  6.2049425e-01
  5.4717627e+00
 -2.4617002e+00
  9.8510695e-01
  8.2906671e-02
  1.5886890e+00
 -1.4471549e+00
 -6.1886773e+00
  4.5026979e-01
 -1.0487862e+00
  1.0342722e+00
  5.1411426e-01
  2.0061606e-01
  2.0203836e+00
 -4.7232366e+00
 -8.8000610e-02
 -2.1676431e+00
 -1.0968287e+00
  8.2403100e-01
 -2.7133653e-01
  3.4761782e+00
  2.2599258e-01
 -4.6014315e-01
 -1.5440897e+00
 -2.7819932e-01
 -2.9631761e-01
 -9.5665282e-01
 -9.9348909e-01
  9.7121641e-02
  4.8104039e-01
  1.7240597e+00
  8.9881703e-02
 -1.7316859e+00
 -6.4963794e-01
 -8.7285498e-03
 -2.2558424e+00
  2.3272636e+00
  1.0703973e+00
 -2.8254035e+00
  2.4690689e-01
 -5.8107156e-01
 -8.7901466e-02
 -6.2777967e+00
 -4.5032558e+00
 -3.9003062e-01
 -8.6866423e-02
  7.5387317e-01
 -2.0123510e+00
 -5.2232528e-01
 -9.1287243e-01
  1.3342601e-01
  1.6707162e+00
 -1.7593896e+00
 -5.9317055e+00
 -2.9129863e-01
  8.9745027e-01
  6.5565562e-01
 -1.6829190e+00
 -7.6493984e-01
 -2.2753065e+00
  5.1890407e+00
  1.1110481e+00
  1.2259843e+00
  9.9758679e-01
  1.3866499e-01
 -1.2428556e-01
  1.7815304e+00
 -1.7973647e+00
 -1.0155532e+00
 -1.4120446e+00
 -5.7959169e-01
 -2.4894874e+00
  4.9381077e-01
 -1.0246507e+00
 -7.5660354e-01
 -4.9978620e-01
  1.8262859e-02
  7.0740543e-02
  6.7215639e-01
 -2.0523367e+00
  5.2188849e-01
  1.4040464e+00
  2.2413583e-01
  8.5244900e-01
 -2.4526486e-01
  2.4105100e-01
 -1.1235410e+00
 -6.3851178e-01
  1.0765672e+00
 -6.8882696e-02
  2.0070742e-01
 -3.7271769e+00
 -3.8640885e+00
  2.2413213e+00
  4.8679408e-01
  6.5022361e-01
 -2.2048037e-01
  2.6694137e-01
 -5.7479692e-01
 -1.1392337e+00
  2.3891003e-01
 -8.0892867e-01
 -8.9086944e-01
  6.1870241e-01
 -5.6368339e-01
  1.0034123e-01
  9.6184784e-01
 -3.6519847e+00
 -6.0628963e-01
  2.2616673e+00
  1.4682858e+00
 -3.1007335e+00
 -1.6366675e+00
  4.9453244e-01
  7.1903348e-01
 -3.6725023e-01
  1.4191926e-03
  1.1084665e-01
 -9.2026848e-01
  2.4640337e-01
  2.0107643e-01
  6.0313859e+00
  5.3564799e-01
 -8.4210081e+00
 -9.2655641e-01
  9.9368268e-01
  9.6459031e-01
 -7.7989614e-01
 -3.0940735e-01
  8.1709492e-01
  7.4285340e-01
  3.7297302e-01
  7.1301150e-01
  6.6312529e-02
 -2.8004606e+00
 -2.4841969e-01
 -1.1049883e-01
  2.1771877e-01
  5.9757167e-01
 -7.6031786e-01
  3.9941156e-01
 -2.1492293e-01
  1.3637756e-01
 -1.6710238e+00
  1.8258080e-02
  3.7580153e-01
  4.6390104e-01
 -1.0530079e-01
  4.9857078e+00
  7.9867208e-01
 -3.6287558e+00
  8.4765110e+00
 -2.4601093e-01
 -1.4198945e+00
  3.9930123e-01
  1.6263726e+00
 -7.8981942e-01
 -3.7553647e+00
 -1.7876661e+00
 -2.0085414e-01
  4.0271990e-02
 -3.8556633e+00
  5.8164229e+00
 -1.6070938e+00
 -1.0046206e+00
  5.6697793e+00
  1.2285423e+00
 -3.8182888e+00
 -1.9600351e-01
  5.3530890e-01
  4.8167305e+00
 -8.2837496e+00
 -1.3777087e+00
 -6.9702053e-01
 -8.2078087e-01
 -9.4704700e-01
  2.0560918e+00
  3.5488760e+00
 -3.4606900e+00
 -5.1489198e-01
  4.1321731e+00
 -3.4466131e+00
  1.2567347e+00
  2.5307155e+00
  4.7659736e+00
 -1.8142204e-01
 -9.2356902e-01
 -1.4793538e+00
  1.5821195e+00
  1.1879414e+00
  4.9792314e+00
  1.0792484e-01
  1.6916280e+00
  3.3425105e-01
 -4.3794675e+00
 -2.1295874e+00
 -7.8675216e-03
  1.8504347e+00
  1.7822173e-01
  1.3475013e+00
  2.8921909e+00
  5.4562485e-01
  3.3487022e+00
 -1.8069498e-01
 -2.3971391e+00
  2.8903106e-01
  1.4680167e-01
  2.6209364e+00
  2.3297181e+00
 -2.0812142e-01
 -4.3229756e+00
 -7.3101836e-01
 -1.6901995e+00
  6.3283312e-01
  8.0848849e-01
  3.3462291e+00
 -8.5161966e-01
 -4.5132121e-01
 -4.6090940e-01
  3.4206819e-02
  4.4741664e-02
  1.3607253e+00
  2.4665159e-01
  5.6974564e+00
 -2.7511624e-01
 -1.3179368e+00
 -1.2934823e-01
  1.2835549e-01
  9.6759245e-02
  9.8137088e-02
  1.4263870e-01
 -1.9008650e-01
 -1.5389639e+00
  2.4578850e-01
 -3.6334770e+00
  1.0370516e+00
  5.8650541e-01
 -4.3361109e-01
  6.4242494e-01
  4.8856178e-01
 -7.8349344e-02
  6.3366526e-01
  1.1959659e+00
 -1.6759540e+00
  9.3371958e-01
  2.0989351e+00
 -6.2884969e-01
  3.3068180e-01
  3.7195218e-01
 -1.2297842e-01
 -1.7114089e+00
  4.2794065e+00
 -6.7852461e-01
 -1.0671347e+00
  8.6706322e-01
  4.7077692e-01
 -1.1765822e+00
  4.2718530e-01
  1.4015270e+00
  3.7046063e+00
  6.5188277e-01
  4.6020320e-01
 -3.2296870e+00
  5.7952123e+00
  2.1403430e+00
  1.7259268e-01
  6.0066026e-01
 -1.7453207e+00
  3.2471433e-01
 -8.4738195e-01
  5.4844913e+00
  9.0456821e-02
  8.6169876e-02
 -6.6729300e-02
 -6.1601627e-01
  3.4036908e-01
  5.6443506e-01
 -1.2835780e+01
  1.4587635e+00
 -2.9127877e+00
  4.7823846e-01
 -3.8096240e+00
 -1.7940585e-01
 -1.4775182e+00
 -1.3998313e+00
  7.6712571e-02
  3.7428549e-01
 -1.2790722e+00
  9.2614442e-02
 -2.7062935e-01
  5.3060327e+00
 -8.0852342e-01
  5.1695776e+00
  9.7152388e-01
 -4.4585809e-02
  3.5586259e+00
 -3.1103140e-01
 -6.9113164e+00
  5.8117896e-01
 -6.8878251e-01
 -5.8614087e-01
 -4.1772124e-01
  4.2387886e+00
  2.1675591e+00
 -6.7999130e-01
  3.2445565e-01
 -3.1066499e+00
 -4.0543813e-01
 -4.6695948e+00
 -3.9716136e-02
  6.6733198e+00
  1.6079848e+00
 -3.1416899e-01
 -1.4102904e-01
 -6.7890458e-02
  5.9875286e-01
 -5.2402163e-01
 -2.6952949e+00
 -6.1961538e-01
  3.5816901e+00
 -1.0440959e+00
 -2.5671747e-01
  5.8022183e-01
  6.5456770e-02
 -7.6559033e+00
  4.3055347e-01
 -3.3308706e-01
 -2.2567512e-01
  1.0747261e-01
 -1.6093953e+00
 -9.9634394e-02
 -4.0177315e-01
  4.7532362e-01
 -1.5078349e+00
 -1.0695902e+00
 -1.4337920e-01
  3.1081221e+00
 -2.3002601e+00
 -2.2744282e-01
 -3.8106892e+00
  8.8451318e-02
  9.0761676e-02
  3.4320121e+00
  3.2892950e+00
  3.5493207e+00
  6.5572059e-01
 -1.4968708e+00
 -4.2890102e-01
 -1.7470349e-01
 -1.4460437e-01
  4.3809503e-01
 -2.0523236e+00
 -5.7118487e-01
  6.8291265e-01
  4.9658650e-01
 -1.3041620e+00
 -4.3812066e-01
 -1.5480254e+00
  6.0371232e-01
  2.0335989e+00
 -1.7923069e+00
 -1.7362890e-01
 -1.2671816e-01
  1.1475818e-01
 -2.1105215e-02
 -4.5475775e-01
  4.9468511e-01
 -1.8054070e+00
  2.2349751e-01
  1.5300126e-01
 -1.7954338e+00
 -1.4654168e+00
  4.7182360e+00
  7.1491599e-02
 -6.1850744e-01
 -6.4123392e-01
 -6.8652697e+00
  7.0015931e-01
 -5.2999395e-01
  2.9117739e-01
  1.3423846e+00
 -3.2341653e-01
 -2.9109282e+00
  7.0107903e+00
  9.8662937e-01
  3.9604299e+00
 -8.2699329e-01
  1.0451747e+01
 -6.4798117e-01
  1.4512303e+00
 -4.9960664e-01
  6.8285924e-01
 -9.0661931e-01
 -1.5682919e-01
 -4.3385115e-01
  2.0897801e+00
 -3.9007571e-01
 -9.2797197e-02
 -1.7958301e+00
  2.0243606e-01
 -1.1230981e+00
  1.7465103e+00
  9.9519557e-01
 -1.0373724e-01
 -2.6685721e-01
  6.6564757e-01
  2.0375011e+00
  7.5333714e-01
  8.6735791e-01
  1.8709860e+00
 -1.6276067e+00
 -1.3825511e-02
  2.0018861e+00
  2.3729966e+00
  1.3946676e+00
  1.6694329e+00
  1.3414570e+00
  5.0899905e-01
  5.3014785e-02
  2.1340086e+00
 -3.7495056e-01
 -7.8710084e+00
 -4.1148886e-01
  4.2387495e+00
  1.6746507e+00
 -1.0959008e-01
 -3.0322006e+00
  7.6101846e-01
 -6.4708686e-01
  1.9854234e-01
 -1.1202579e+00
 -2.0220432e+00
  2.4092600e-01
 -5.2007133e-01
 -3.3224818e-01
 -2.9361153e-01
  1.9438787e-01
 -1.1133894e-01
 -8.1928402e-02
 -1.0236449e-01
  1.1319091e+00
  8.3177495e-01
 -1.3919047e-01
 -2.7772427e-01
 -3.1664914e-01
 -3.3677816e+00
 -8.6993384e-01
  1.7387394e+00
  1.1979304e-01
 -3.9671771e-02
  4.1242534e-01
  1.7996843e+00
 -4.2457664e-01
  1.3441515e+00
 -2.7863814e-02
  1.9345337e-01
 -4.0232930e-01
 -2.1349345e-01
  1.3136712e-01
  4.3049282e-01
  2.2260493e-02
 -1.0723989e+00
 -8.1329184e+00
  9.2624342e-01
 -8.3833003e-01
 -1.0792928e+00
 -1.0401598e+00
  5.4990381e-01
  6.7291653e-01
 -9.0244114e-01
  1.1980984e+00
 -2.5344923e-01
  5.8009225e-01
  2.0583344e-01
 -5.5468616e+00
  7.1944028e-01
 -3.3185831e-01
 -8.0772537e-01
  6.3451037e-02
  2.8323457e-01
  3.1214386e-01
 -7.4538517e-01
 -1.2101085e+00
 -3.9037976e-01
 -3.0487418e-02
  1.1822629e+00
  1.4319053e+00
  1.6260667e+00
  1.5507693e+00
  4.5469916e-01
 -1.2234266e+00
  6.0034019e-01
  2.0958643e+00
 -1.0026284e+00
 -5.0375694e-01
 -1.2783957e+00
  2.3276772e+00
  7.3590755e-02
 -1.3466747e+00
 -1.0779425e-02
  5.6426412e-01
 -7.1486616e-01
 -4.1797000e-01
  2.2344686e-01
  1.2888355e+00
 -6.4342135e-01
  4.3538156e+00
 -6.2301021e-02
  1.2629097e+00
 -1.6147454e+00
  1.3255132e+00
 -8.2692957e-01
 -2.0798826e+00
  5.2104944e-01
  3.1605520e+00
 -1.0725702e+00
 -2.4215202e+00
  2.5030345e-02
 -6.8220478e-01
 -5.5684179e-01
  8.2716620e-01
 -3.5060768e+00
 -3.5245800e-01
  1.2572346e-02
 -7.4451101e-01
  2.9424065e-01
  6.5398622e-01
  1.1017766e+00
 -1.4772177e+00
  1.9854251e-01
  8.6524467e+00
 -1.1540724e-01
  2.9626229e+00
  9.2310345e-01
  6.1461943e-01
 -2.6000268e+00
  7.7943897e-01
  3.2596603e-01
  9.2947847e-01
 -6.1354429e-01
 -1.4737664e+00
 -1.7239146e-01
 -2.8465122e-01
 -3.8140526e-01
 -1.5193778e+00
 -1.5986421e+00
  5.7377690e-01
  1.7523304e+00
  2.4734703e-01
 -1.4895311e-01
 -9.2988601e-03
 -5.7664573e-01
  5.4239841e+00
  1.1914729e-01
 -3.0113780e-01
 -4.7317746e-01
  4.1068405e-01
 -3.2518294e+00
 -1.7192605e+00
  1.1413566e+00
  2.3841476e+00
 -1.1683112e+00
 -2.4367778e+00
 -1.3674660e+00
 -1.9134717e-02
  1.1070545e+00
 -1.3768493e-01
  1.2394200e-01
 -3.2609355e+00
  1.0980463e+00
 -9.5881003e-01
 -1.6603905e-01
  1.7702277e+00
 -1.6395018e+00
 -1.9892219e-02
 -1.2697531e-01
 -1.1822115e+00
  3.7142041e+00
  7.4524534e-01
  3.4659218e-02
 -1.4811116e+00
 -6.9002342e-01
 -7.2375765e+00
 -2.5479293e+00
 -2.4592001e+00
 -2.4149083e-01
  7.5864041e-01
 -2.6543126e-01
 -6.1613307e+00
  1.2865257e-01
 -5.4669422e-01
 -5.2905675e-02
 -4.4588782e-02
  1.9231232e+00
  4.8884702e-01
  5.0133836e-01
  7.2423708e-01
  1.2255449e+00
  1.0800698e+00
 -3.9351529e-01
 -1.0711041e-01
 -8.3521378e-01
  1.5260606e-01
  3.6419412e-01
  2.8850296e-01
  7.8380637e+00
 -2.0176883e+00
 -1.7976300e-01
 -3.0987032e-02
 -4.5028362e-01
  1.0180497e-01
 -2.7588620e+00
  3.7500349e-01
 -4.3711707e-01
  1.0438681e-01
 -4.8275542e-01
  1.0331120e+00
 -1.5638465e+00
  6.3075078e-01
 -6.1765812e-02
 -3.2168901e+00
 -2.7865429e+00
 -8.0085427e-01
  2.4874574e-01
 -6.1191682e-02
  5.5332518e-01
 -3.9885521e-01
 -7.3139691e-01
 -1.2006317e+00
 -2.0362055e+00
  2.0547321e-01
 -4.3675985e-02
 -4.0078244e+00
  3.6250645e-01
  5.7324624e-01
 -2.5407495e+00
 -3.9966721e-02
 -3.0154634e+00
 -6.0551178e-01
  1.6747980e+00
  8.5732687e-01
  3.6025354e-01
 -6.9310302e-01
 -3.2057640e-01
  1.1062437e+00
  3.7935647e-01
 -7.3182678e-01
 -6.2375611e-01
  1.7130044e+00
  3.8939631e+00
  1.0768821e-01
  9.6572727e-01
  2.5231137e+00
  2.2636418e+00
 -4.3644948e+00
 -1.5777504e+00
  8.3056176e-01
  5.3386241e-01
 -2.3927538e+00
  3.0600781e+00
  2.4988105e+00
 -3.4874055e-01
  7.1210295e-01
  5.5256349e-01
  7.9743350e-01
 -5.0987679e-01
 -1.4515981e-01
 -3.7555555e-01
  1.0657562e+00
  6.0470018e+00
 -7.0191181e-01
  3.9960563e+00
  2.1877563e-01
 -1.8538685e+00
  2.6841494e-01
 -1.9192084e+00
 -2.2887864e+00
 -9.6974975e-01
 -4.7159801e+00
 -1.8557073e+00
  2.2729135e+00
 -2.4229405e+00
 -3.4611706e-02
 -1.9601297e+00
 -1.0363324e+00
 -1.1875278e-01
  2.9416576e-01
 -3.2868886e-01
  1.0442268e+00
  7.8969347e-01
 -3.6208859e-01
 -8.0550230e-01
 -6.4419115e-01
  5.1119134e-02
  4.1450304e-01
 -7.5150174e-01
  4.7682947e-01
  1.1302317e-02
  1.2939745e+00
  6.5104635e-03
 -1.1355215e-01
  1.2513572e-01
 -1.9426309e-01
  9.0878534e-01
 -1.0544236e+00
  3.2783979e-01
 -3.0133611e-01
 -5.2440553e+00
  5.4062420e-01
  4.5445123e-01
  9.4634876e-02
 -2.1553007e-01
 -5.9618278e+00
  1.1537246e-02
 -2.6382567e-02
  7.5190949e+00
 -1.1605645e+00
  1.0270226e-01
 -2.6304750e+00
  1.7907822e-01
  5.3322202e-01
 -1.2341800e-01
  1.8476740e-01
  4.9367359e-01
  2.5105577e+00
 -3.0494365e-01
 -8.4802908e-01
 -9.0383792e-01
 -1.0685999e+00
 -5.9360236e-02
  1.9881020e+00
  2.3523030e+00
 -5.7516789e-01
 -9.8710781e-01
  4.0891892e-01
  8.2185495e-01
  2.8043089e-02
  1.1437433e-01
 -2.1809813e-01
 -6.8996447e-01
 -3.0197176e-01
 -6.3788211e-01
  2.3299763e-01
  5.6178266e-01
  7.2473437e-01
 -2.4819328e-01
  2.6704726e-01
 -3.0892339e-01
  1.9460827e+00
  8.2332212e-01
  2.6483545e-01
  1.2408537e+00
  3.2398856e+00
  1.4203398e+00
  1.8354377e+00
 -5.2503940e-02
 -2.8471416e-01
 -3.3856082e-01
  1.1301056e-01
 -7.6499514e-02
  1.5651397e-01
 -4.1065091e-01
 -5.8886606e-02
  8.7820327e-01
 -1.7923518e-01
 -3.6128861e-01
  1.4410942e+00
 -6.3788837e-01
 -8.9496982e-01
 -2.2125666e-01
 -1.6154945e-02
 -1.9498507e+00
  1.4922068e+00
 -3.8305822e-01
  2.2331166e+00
  1.9330142e+00
  3.8383633e-01
  1.9215266e-01
  5.1549047e-01
  9.6986830e-01
 -1.1599292e+00
 -3.2943757e+00
 -4.7641811e-01
 -5.5544271e+00
  2.3055264e-01
  2.3348806e+00
 -1.5390575e+00
 -1.8954741e+00
 -3.2718542e-01
  6.3588464e-01
 -1.3777670e+00
 -8.0087337e+00
 -4.2993328e-01
  1.8811627e-01
  1.4124192e+00
  1.8319112e+00
 -4.7697225e+00
  2.4064445e+00
 -6.7752612e-01
 -3.0310816e-01
 -1.6707449e+00
 -3.9810023e+00
 -5.2441233e-01
 -1.2370624e-01
 -2.0735963e-01
 -4.0530100e-01
  5.8919519e-02
  4.5791364e-01
 -4.7920039e-01
 -6.3105382e-02
 -2.7336672e-01
 -3.8989332e-01
  5.0973851e-02
  3.8950396e-01
 -4.0365887e+00
 -4.0833616e-01
 -1.0081064e+00
 -1.6428788e+00
 -1.5598375e+00
  3.6059588e-01
  5.8824900e-03
  4.6887221e+00
 -5.9695301e+00
 -1.4256759e+00
  1.5876470e+00
 -5.5320889e-01
 -1.2899492e+00
  8.4200639e-01
 -3.1554072e+00
 -6.7888951e-01
  1.0444818e-01
 -2.6763213e+00
  7.1723020e-01
  1.9459875e-01
  1.6555005e-01
  2.0905270e-01
  1.0067297e+00
  4.2809092e-02
  2.8676033e-01
  3.6694372e-01
 -5.6904525e-01
 -4.6748024e-01
  1.2264732e+00
 -7.1041577e-02
 -3.7517184e-01
  1.2582414e+00
 -3.5071859e-01
 -1.3158126e+01
  7.0141220e-01
 -5.1434379e-02
  7.8893882e-01
 -1.4358383e-01
  2.3794177e-01
  3.5306091e+00
  1.1366634e+00
 -1.5563182e+00
  2.8070035e+00
 -8.6921424e-01
  1.4787277e+00
  1.3711144e+00
  2.0776835e-01
 -3.7483125e+00
  1.0799435e+00
  8.2903975e-01
  1.6775780e+00
  1.1372205e+00
 -1.8880433e-01
 -1.7109376e+00
  1.4522046e-01
  1.8441058e+00
  5.9242706e+00
 -4.9405193e-01
  1.8631024e+00
  2.4030299e+00
  3.9059441e+00
  1.0008509e+00
 -4.3394918e+00
  9.2063278e-01
  2.5924563e+00
 -7.1809649e-01
 -1.8463036e+00
  2.2384586e+00
  3.2040215e+00
 -3.8339174e-01
  5.9946322e+00
  1.1952657e+00
 -8.6587733e-01
 -3.1115699e-01
 -5.3122783e-01
 -9.1912991e-01
  1.0784954e+00
  8.7678033e-01
 -4.0766649e+00
  4.4822335e+00
  2.9371652e-01
  2.2698257e+00
 -3.9042416e+00
 -3.5296959e-01
  7.2788376e-01
  3.0258307e+00
  1.4665000e+00
 -1.5351931e+00
 -1.2601542e+00
 -4.9757473e-03
  4.5196981e+00
  5.4998523e-01
  4.1009533e-01
 -1.7653022e+00
 -2.3915415e-01
 -6.1775422e-01
  8.8227257e-02
 -9.7340804e-01
 -5.2109456e-01
  1.6800667e+00
 -5.9588701e-03
 -1.7945482e-01
 -4.6040213e-01
  1.8494280e-01
 -7.1582592e-01
 -8.8240469e-01
  3.6353502e-01
 -2.0861545e+00
 -1.1688762e-01
  2.0514510e+00
 -3.7007117e-01
  4.6743202e+00
 -2.2874146e+00
 -4.1455278e+00
 -2.6682308e+00
  3.5422722e-01
  1.0346734e-01
 -5.6023542e-02
  1.2460481e-01
 -6.9672239e-01
  1.0967971e+00
  4.1486663e-01
 -2.1030531e+00
 -2.0218093e+00
  3.9026120e-01
  1.1835912e+00
 -7.3081551e+00
 -4.8292646e-01
 -1.3153139e+00
  2.3037586e+00
 -4.1176229e+00
 -1.5461980e+00
 -5.4053724e-01
  4.9651618e+00
  7.6070422e-01
 -3.7452400e-02
  2.4441542e-01
 -3.5022604e+00
  1.7047618e-02
  2.2805412e+00
 -4.8587623e-01
  4.9804816e-01
  6.9018584e-01
  5.2668376e+00
 -2.9978800e-01
  1.0750099e+00
 -2.9292646e-01
  6.0014162e+00
  4.5303014e-01
  9.9398029e-01
 -2.9838890e-01
  2.4255006e+00
 -4.2866498e-01
 -4.9640319e-01
  5.1576190e-02
 -1.9350582e-01
  2.1770666e+00
  3.5898349e-01
  2.5055308e+00
 -4.0621421e-01
 -8.6289960e-01
  1.4298663e-01
 -5.0309277e-01
  2.6000339e-01
 -3.6008292e-01
  2.1984074e+00
  6.5603727e-01
 -1.0421483e-02
  8.5220516e-02
  1.5749695e+00
  7.2864122e+00
  1.2441009e+00
  6.2005816e+00
  1.7195928e+00
  1.7689815e+00
  7.5039834e-01
  7.5477260e-01
 -6.2397253e-03
  1.7061110e-01
  8.4778613e-01
 -5.7039136e-01
 -4.6776700e-01
  1.9508100e+00
  2.8202248e-01
 -1.5666403e-01
  5.5487409e-02
 -1.3177736e-01
 -5.4109091e-01
  5.4468284e+00
 -1.2194080e+00
  2.5859079e-01
  2.4333935e+00
  1.1285417e+00
  2.9564884e+00
  8.9844793e-02
  8.4656787e-01
  6.1057782e-01
 -3.4213278e-01
  3.9866191e-01
 -6.6842008e-01
 -6.2246698e-01
  2.1156901e-01
 -2.2095482e-01
  1.3359775e-01
 -1.1726037e-01
 -4.1465040e-02
 -2.3684962e-01
  2.4084403e-01
  2.4551131e-01
 -2.5068712e+00
  3.1235689e-01
  8.8025343e-01
 -5.7061296e-02
  7.5251199e-02
  1.1004540e+00
 -2.2143175e-01
 -3.8984020e+00
 -7.0850277e-01
 -3.2898421e+00
  1.8571769e+00
  4.8100159e-02
  9.7890455e-01
 -3.4250203e-01
  3.0637621e-03
 -1.9425753e+00
 -1.1688867e+00
 -1.0622866e+00
  1.3383397e+00
  3.9136827e-02
  4.4586547e-02
  7.9916269e-01
 -9.4956674e-02
  1.0261622e-01
  8.2000047e-01
 -3.1240955e-01
 -2.0161079e-01
  5.7124692e-01
  2.6139840e-01
 -6.8880808e-01
  1.2632376e-01
 -1.0511974e+00
  2.2902589e-01
 -1.0571213e-02
  5.0562000e+00
  2.0862918e+00
 -3.6254096e-01
 -2.0890212e+00
 -6.3166010e-01
 -8.4338641e-01
 -1.8246870e-01
  6.6978380e-02
  1.2481291e+00
  1.1384058e+00
  1.9079797e+00
 -5.6976199e-02
 -1.2808297e+00
 -8.0307989e+00
 -8.4103078e-01
 -7.6290995e-01
 -4.0028948e-01
  8.8309658e-01
  8.7312061e-01
  9.9118626e-01
  3.0826810e-01
 -7.3963642e-01
 -4.3050393e-01
 -5.0148875e-01
 -3.6747341e+00
 -1.4293216e-01
  1.8503386e+00
 -4.3895653e-01
 -5.8733994e-01
 -1.1127698e+00
 -5.8900621e-02
 -4.0750623e-02
  2.3866780e-01
 -3.9412265e+00
  1.8567091e-01
 -2.2443373e+00
 -2.2574925e+00
 -2.7040288e-01
  3.6928859e-01
 -2.6530747e+00
  7.2213024e-02
 -1.4904699e-02
 -1.7155980e-01
 -1.8178068e-01
  7.1122676e-01
 -1.2325081e+00
 -5.8273511e+00
 -9.1204338e-02
 -1.8528317e-01
  3.3573109e-01
 -1.9279767e-02
  4.4329209e+00
 -9.7169709e-01
 -2.0193806e-01
 -2.7197812e+00
 -5.2256685e-01
 -2.3553781e-01
 -1.3097851e+00
  2.1572766e-01
 -1.0921805e+00
 -5.2823943e-01
  5.7929021e-01
 -8.0393448e+00
  2.4390724e+00
  2.3622770e+00
  6.2983519e-01
  1.4707371e+00
 -1.0496540e-01
 -4.7560593e-01
 -9.8421830e-01
  4.3564013e-01
  7.8779352e-01
 -1.1219070e-02
 -2.2967085e-01
  3.0347342e+00
  1.8851182e+00
 -1.6657884e-01
  1.1130189e+00
 -4.6566110e-03
 -2.8679514e-01
  7.5998992e-01
  1.2633121e-01
 -5.0334525e-01
 -7.0773625e-01
 -2.1958143e-01
 -5.3263110e-01
  9.4359601e-01
  6.7052081e-02
  5.4983381e-02
  1.0583122e+00
  1.0595430e+00
 -9.6976213e-02
  3.5443774e-01
 -9.6805668e-01
  2.1044146e-02
  7.7167667e-02
  1.7206846e+00
 -6.6701733e-02
 -4.1097865e+00
  2.0215175e+00
 -1.4628974e+00
 -6.7058986e-01
 -5.6882566e-01
  1.4953278e-01
  1.4181451e-01
 -9.9423540e-01
 -1.1611369e-01
  2.2128806e+00
  1.4127263e+00
  3.4243533e-01
 -3.0591077e-04
 -3.0976358e-01
 -6.0316217e-01
  6.4520830e-01
 -1.9151218e+00
 -1.1011820e+00
 -9.9975449e-01
 -1.0241251e+01
 -2.3693676e+00
 -7.5037968e-01
 -2.4324732e+00
  3.9880401e-01
  1.2391692e+00
 -1.4046536e-01
  8.4323180e-01
 -3.5367742e-01
 -2.7442434e-01
  6.0970473e-01
 -6.5144962e-01
 -1.7358215e-01
 -6.0746732e+00
 -1.5474885e-03
 -2.8383656e+00
 -7.6638180e-01
  3.0576137e-01
  4.4547477e+00
 -6.4945930e-01
  1.2405087e+00
  2.1514592e-01
 -6.8125480e-01
 -9.5260316e-01
  4.5919701e-01
  6.6743178e+00
  8.9125633e-01
  1.5643106e+00
  7.1145326e-01
  6.6990513e-01
  4.4251382e-02
 -1.5095512e+00
  7.0136797e-01
 -1.7162657e+00
  1.0972726e+00
 -8.3654428e-01
  4.3778056e-01
 -3.8394412e-01
  8.2859331e-01
 -8.9048105e-01
 -1.2457664e+00
 -4.7091338e-01
 -6.8244390e-02
 -8.5977608e-01
 -1.4104854e-02
  1.4043483e+00
  3.3485396e+00
 -1.3080654e+00
 -5.7805300e-01
  1.6077887e-01
 -5.0716031e-01
 -1.2820457e-01
  6.4865029e-01
 -3.7006817e+00
  3.1866115e-01
  7.9761887e-01
  3.9906293e-01
  4.6201888e-01
  3.9127231e-01
 -1.6720189e+00
  1.9386823e-01
 -1.1488196e+00
  3.8375906e-03
  9.8858155e-02
  9.1599095e-01
  3.2084842e+00
 -1.4727654e-01
  2.5809350e+00
  5.5514426e+00
 -1.1270613e-02
  2.0161934e+00
 -2.2446974e-01
 -1.9073477e+00
  9.2471510e-01
 -4.4655886e-01
  9.7760624e-01
  1.5702929e+00
 -4.5627397e-01
 -8.0867243e-01
  1.0289366e+00
 -3.5499799e-01
 -1.3250444e+00
 -5.5912590e-01
 -2.8372312e-01
 -1.5131737e-01
  1.8982351e-01
  1.4862159e+00
  1.4315371e-01
 -3.8018617e-01
  4.0393500e+00
  1.8137236e+00
  1.4155612e+00
  1.1069490e-01
  1.1980958e-01
  6.5688628e-01
  2.2018328e+00
 -5.2683276e-01
 -3.2996194e+00
 -5.1111263e-01
  9.8235875e-01
 -1.2435977e+00
 -2.7333884e-02
 -5.1754904e+00
 -8.0521137e-01
 -5.1860082e-01
  3.0015805e-01
 -5.9760582e-01
  5.6024754e-01
 -2.8269832e+00
 -2.4694023e+00
  2.8728552e+00
 -1.0202546e+00
 -9.3146577e-02
 -6.2418181e-01
  4.9584153e-01
 -2.1753879e+00
  3.7771320e-01
  3.1824534e+00
  3.7289820e+00
 -3.2901902e+00
 -2.0244080e-01
  8.2618430e-02
  1.2930640e+00
  1.8869193e+00
 -7.7436358e-01
  8.9606303e-01
 -6.3863659e-01
  8.6127385e-02
  2.2273956e-01
 -2.8480837e+00
 -1.1044474e+00
 -1.6602954e+00
  2.6596835e+00
  8.6146571e-02
 -3.4293830e-02
  1.0255698e-01
  4.8905909e-01
 -8.5810363e-01
  2.4415972e+00
 -4.8289892e-01
 -5.3899741e-01
  8.4163174e-02
  1.0275855e+00
 -3.4630275e+00
 -9.3336639e+00
 -3.3279839e-01
 -3.8332168e-02
  4.8967499e-01
 -4.4287306e-01
 -1.7150593e-01
 -1.6582523e-01
  7.6339060e-01
 -3.8219357e-01
 -5.0463138e+00
 -1.9598474e-01
  3.1323123e-01
 -1.0252789e+00
  2.7307257e-01
 -1.2616967e+00
 -9.8364466e-01
 -1.6882669e+00
  8.2270467e-01
  4.1094046e+00
 -9.8230076e-01
  2.1962137e+00
 -2.1479867e+00
  1.9207299e+00
 -5.6677847e+00
 -4.8938298e-01
 -2.0339789e+00
 -1.0617512e+00
  5.1900303e-01
  5.9973371e-01
  2.6321414e+00
 -4.0525407e-01
 -2.7262586e-01
 -8.8871223e-01
 -9.1350609e-01
 -3.0695572e-01
 -3.1702489e-01
 -1.8210218e+00
  7.3053107e-02
  8.0123460e-01
  9.4441667e-02
  1.5284590e+00
  4.4700924e-01
  2.3354259e+00
 -7.2698760e-01
 -2.1403983e-01
  5.3222084e-01
  3.3296648e-01
  9.0892668e+00
 -3.3119223e-01
 -2.9412299e-01
 -1.9490750e-01
 -2.7244134e+00
  9.5016725e-02
  8.8626534e-01
 -1.2059319e+00
 -6.6512632e-01
  8.6173356e-02
  3.0622282e+00
  1.0861265e+01
  1.2190485e+00
 -4.1389074e+00
 -1.3462554e-01
  2.5254924e+00
 -1.2700655e+00
 -1.9681588e-01
 -6.0653783e-02
 -1.0636834e+00
 -1.6611309e+00
 -6.4314324e-01
 -2.8360906e+00
 -1.4657408e+00
  9.3299747e-02
 -1.8958975e-01
  2.5802764e-01
  2.2640083e+00
 -3.6889839e-01
 -7.2109284e+00
 -3.0148491e-01
  4.6328709e-01
 -5.0943107e-03
 -4.4660787e-03
 -8.5489547e-01
  1.5432771e-01
 -2.6595185e+00
  6.7627925e-01
 -9.9806987e-02
  1.9754571e-01
  2.4480855e+00
 -7.8116167e-01
 -5.8027941e-01
  2.5662603e+00
  2.8974402e-01
 -2.6394784e-01
  9.7417757e-02
 -1.3506196e-01
 -3.1864116e+00
  1.9830683e+00
 -5.0112903e-01
  3.9486450e-01
  5.1030231e+00
 -4.4562839e-02
 -2.9705295e-01
  1.1099347e+01
 -5.2673084e-01
  1.8998489e+00
 -2.8065507e+00
 -1.2649535e+00
 -1.8561937e+00
  3.1480544e+00
 -7.2376914e-02
  2.8559413e+00
 -2.6390355e+00
  7.5670981e-01
 -9.4900280e-02
  1.8080239e+00
 -5.6763226e-01
  3.8382425e+00
  1.2648889e-02
  1.5162169e+00
  2.3194537e+00
  8.5512853e-01
 -7.7707773e-01
 -5.6686753e-01
  8.9323640e-01
  3.9808717e-01
  2.5504908e-01
  2.0525155e+00
 -1.0837072e+00
 -3.4336884e+00
 -5.0293036e+00
 -1.1241884e+00
  3.8592029e+00
 -2.0405180e+00
 -7.7348709e-01
 -4.6699772e+00
 -7.7014405e-01
 -1.7157884e+00
 -2.4508209e+00
 -4.5529857e-01
  6.3816838e-02
 -7.7926021e+00
 -6.2864572e-02
 -7.9333186e-01
 -6.5724540e-01
 -5.4430389e-01
  5.1278794e-01
  7.7520877e-01
 -2.9884655e+00
 -4.9812822e+00
 -1.3146152e+00
  1.5932103e+00
 -1.1156888e-01
  1.7422128e+00
 -3.1438899e-01
  8.6298239e-01
  3.1773028e+00
  4.1608152e+00
 -3.3305530e-02
 -1.5491039e+00
 -4.7550888e+00
 -3.3135900e-01
  4.6299968e+00
 -2.8775046e+00
 -5.1452570e+00
  1.3459994e+00
  2.7154270e-01
 -3.3584793e+00
  7.7080369e-02
  2.3313801e+00
  4.7783780e-01
 -2.7343094e+00
 -2.9188957e+00
  5.4095529e-02
  1.0968084e+00
  1.0437829e+00
 -3.8802665e-01
  1.5438167e+00
  1.1565759e-01
 -1.0142027e+00
 -1.0541235e+00
 -9.9471563e-01
 -3.0880681e-01
 -3.1867974e-02
  4.2091516e-01
 -4.1438875e-01
 -4.0663171e+00
 -3.3058536e-01
  1.0304971e+00
 -9.9479979e-01
 -5.2039832e-01
 -3.8874021e-01
  4.3389707e+00
  4.6364431e+00
  1.1415333e+00
  8.7410450e-01
 -3.9415104e+00
 -3.5856476e-01
 -2.0338664e+00
  1.8811602e-02
  5.9513149e+00
 -1.0783975e+00
 -8.2137191e-01
  5.0631380e+00
  1.4346434e-01
 -1.1542134e+00
 -1.4831042e-01
  4.3105775e-01
 -6.8772785e-02
 -5.1004086e-02
 -1.0279117e+00
 -2.6833848e-03
 -3.5684803e+00
  1.0638121e+00
  3.0025308e+00
  3.2774940e-01
 -3.5076101e+00
 -6.2242579e-01
 -2.2721920e+00
  3.5731919e+00
  3.8189778e-01
  8.2030144e+00
 -6.0803157e-01
 -7.4460667e-01
 -1.4522145e+00
 -2.1538238e-01
  5.1487389e+00
  3.9549880e+00
 -2.0370085e+00
  1.0400269e+00
  1.1631114e+00
  1.2779318e+00
  9.2714924e-01
 -2.5161927e+00
  3.9471924e-01
 -4.4527996e-01
 -5.4126945e+00
 -2.5404698e-01
  6.7705779e+00
 -1.5056099e+00
  1.7241243e+00
 -1.8519362e+00
 -8.5623350e+00
 -1.8858831e+00
  5.3268666e+00
  1.8632077e+00
 -2.0018713e+00
 -6.7317146e-01
  1.9741535e+00
  2.7026170e-01
  2.3508065e+00
 -6.4109749e-01
 -1.7471017e-01
  7.2293830e-01
  6.1895424e-01
  4.5116156e-01
  7.3851570e-02
 -4.5797234e+00
 -8.8435869e+00
 -4.8222480e+00
 -2.0352104e+00
  1.6915217e-01
 -1.2178366e-01
  5.7476109e-01
 -3.2214999e-01
 -2.6655462e+00
 -2.5024629e+00
  9.1378325e-01
  3.4859345e+00
  2.7945182e+00
 -9.0978670e-01
 -2.8703048e+00
  5.6114811e-01
 -6.5768898e-01
  5.5371690e+00
  4.1181879e+00
  4.8425861e-02
  3.3636003e+00
  2.7022674e+00
 -2.4076118e+00
  2.2279563e+00
 -9.6804106e-01
 -5.4023826e-01
 -1.7906402e+00
 -1.1094555e+00
 -1.2090775e+00
  9.2039318e+00
  1.7117441e-01
 -7.4879843e-01
 -3.7072999e+00
 -2.5563297e+00
 -4.2886052e+00
 -1.5134832e+00
 -8.8959146e-01
 -3.2091427e-01
  9.2765493e+00
  2.2800422e+00
 -3.8439423e-01
  5.4066463e+00
  6.0650259e-01
 -1.9589350e+00
 -3.9772444e+00
  3.5206366e-01
 -2.1728659e+00
  6.1685014e-01
  1.0943938e+00
  6.9660008e-01
 -1.9596964e+00
  2.1723342e+00
 -7.0599025e-01
  1.4941041e+00
 -2.0438371e+00
 -8.4860325e-01
  4.9143457e+00
 -2.9288764e+00
 -4.3325834e+00
 -5.1907058e+00
 -1.9560279e+00
  1.7057402e+00
  1.4311480e-02
 -2.1812624e-01
 -1.1864536e-01
  6.4702278e-01
 -1.3824803e+00
 -3.3643925e-01
  6.4141214e-01
 -1.2475644e+00
  1.0222211e-01
  5.2091689e+00
  1.1929896e+00
  8.9320195e-01
 -5.9491742e-01
 -1.2498238e+00
 -4.5858732e-01
  1.0625608e-01
  4.9869969e-01
 -5.2842010e-02
 -3.2940764e+00
  4.1848364e-01
 -2.9627272e-01
 -9.2463100e-01
 -1.8403357e+00
  2.6441577e-01
 -2.1623394e+00
 -1.2089626e+00
  1.2371149e+00
 -3.1276867e-01
 -1.2905670e+00
 -3.6485502e-01
  4.4111605e+00
  1.9297415e-01
  1.5072631e+00
 -1.2558028e+00
 -1.4363719e+00
  2.7265742e+00
 -4.0594087e+00
 -1.4542320e+00
  3.6414418e-01
  1.5197436e+00
  7.7528578e-01
  6.0629624e-01
  8.4119434e+00
 -3.6791432e-01
 -9.1709870e-01
  1.9356205e-01
 -7.8886819e-01
 -6.5500450e-01
 -3.3732903e-01
  5.7367420e-01
 -3.8550601e+00
  2.4520936e+00
  1.3155788e+00
  3.4011313e-01
 -2.3994081e+00
  3.9474893e+00
 -7.5597608e-01
 -4.9047568e-01
  3.6446980e-01
  1.2000636e+00
  1.6076194e+00
 -2.3586372e-01
  1.3693506e+00
 -2.4015644e+00
  3.2838140e+00
 -4.7780171e-01
  5.5233872e-01
  9.9731648e-01
  2.9845479e+00
 -1.4825399e+00
 -4.3518753e+00
 -1.0496217e+00
  3.0589693e+00
  1.2041266e+00
  3.4501464e+00
 -1.1530310e-01
 -8.3439857e-01
 -1.5352616e+00
 -5.1695919e+00
  2.6620851e+00
 -1.0892429e+00
 -4.2655487e+00
 -8.2749262e-02
  1.3925289e+00
  3.8299945e-01
 -1.8050721e+00
  4.5739758e-01
  1.6412474e+00
  2.0737951e+00
 -4.4803019e+00
 -4.0322652e+00
 -1.3335272e+00
 -2.0061200e+00
 -2.7222273e-01
 -4.8714590e-01
  8.2763493e-01
 -3.1310966e+00
  7.9090804e-01
  2.6050460e-01
 -3.1810269e+00
  1.6292866e+00
 -3.8032506e+00
 -3.0514095e+00
 -2.3341696e+00
 -3.3901255e+00
  1.4741559e+00
  9.1135806e-01
  4.2489749e-01
 -2.7256873e+00
 -1.7843126e+00
 -4.8313776e-01
 -1.7514266e-01
  1.5739401e-01
 -2.8229100e-01
  3.8780615e-02
 -6.3829221e-02
 -1.8357108e+00
 -3.3847332e+00
 -9.4654548e-01
 -1.6876185e-01
 -3.7683836e-01
 -7.1235615e-01
  1.5765564e+00
 -1.9478655e+00
  3.1724265e+00
  4.5040082e-02
 -1.0928766e-02
  2.7975878e-01
  2.6672474e-01
  6.8812150e-01
 -3.8437843e-01
  1.5080860e+00
  2.0220115e+00
  1.1452506e+00
  1.0793516e+01
  4.2201012e-01
 -6.5702283e-01
  1.3716311e+00
  1.9095613e-01
  1.9102476e+00
  2.7658632e+00
  1.5180404e+00
  5.1018482e-01
  1.8554987e-01
 -2.7527663e-01
  1.4712203e+00
  2.0852432e+00
 -1.5316836e+00
 -1.9534636e+00
 -1.6743405e+00
  2.2824616e+00
 -1.0445299e-01
 -1.9823211e+00
  6.5464222e-01
 -9.0666497e-01
  3.7785676e-01
  8.8217008e-01
 -1.0179447e-01
 -6.7774997e+00
 -1.3688353e-01
 -7.3953180e+00
 -2.9001302e-01
  5.6744971e+00
  3.6503208e-01
  2.9480992e-02
 -6.4652616e-01
  2.5944922e+00
 -2.7880352e+00
  2.6503332e+00
  5.1153141e-01
 -4.5189336e-02
  4.4617386e+00
 -2.1883030e+00
 -1.7984200e-01
  4.8994537e-02
 -2.7023456e-01
 -4.4085832e+00
  2.5781026e+00
 -2.9177983e+00
  6.3186135e+00
  1.1804100e+01
  1.8344196e+00
  1.4738747e+00
  2.3399372e+00
 -2.3571129e+00
  2.2907834e+00
 -4.6236644e+00
  7.8513517e+00
 -6.9535071e-01
 -8.5380930e-01
 -8.8392763e+00
 -1.2727992e-01
  1.8459703e+00
  6.8689954e-01
 -1.4620913e+00
  2.3213418e-01
 -1.4839305e+00
 -1.9457113e+00
  1.3433808e+00
 -9.4338989e-01
  2.6189988e+00
  8.6387418e-02
  7.2044504e-01
  5.6621784e-01
  3.6463094e-01
 -5.4747701e+00
 -6.2288127e+00
 -3.2498547e-01
 -1.5354947e+00
  5.5687455e-04
 -9.7787768e-01
  3.8962774e+00
  4.5037827e+00
 -5.1596026e+00
 -2.0347071e+00
 -5.1491421e-01
  9.1579163e-01
 -2.1517174e-02
 -2.7463350e+00
 -8.0728889e-01
  7.5708365e-01
  5.7926935e-01
 -5.5107112e+00
  5.0930905e-01
 -1.1192586e+00
  1.3663207e+00
  1.4376386e+00
  2.4387355e+00
  6.4834344e-01
 -2.5935957e-01
 -7.9444021e-01
  4.5916042e-01
 -6.4826262e-01
  6.6945404e-01
 -7.5049885e-02
  1.4088115e-01
  1.4007622e+00
  1.5576787e+00
 -7.3613060e-01
  3.8477749e-01
  1.0435886e+00
  1.5208803e-01
 -2.2419345e-01
 -1.2874797e-01
 -1.1734220e-01
 -1.7812820e-01
  1.3979128e-01
  5.1032406e-01
 -2.0911772e+00
 -3.8617587e+00
  4.5885700e-01
  3.4125304e+00
  1.0633759e-01
 -2.5048928e-02
  1.0445727e-01
 -1.3543867e+00
  3.1761795e-01
  5.0543222e+00
  1.1258836e+00
  1.2548630e+00
  1.6548576e+00
 -9.4301599e-01
  2.1036096e+00
  1.4600825e-01
  2.7320260e-01
  8.4816307e-01
 -3.3856103e+00
  2.0270233e+00
 -1.7598858e+00
 -2.7524021e+00
 -6.8136257e-01
  5.1028077e-02
 -5.6007427e-01
 -1.9259705e-01
  2.8785029e-01
  2.6220031e+00
  2.2270747e-01
 -6.6049391e-01
 -4.4811502e+00
 -1.3978061e-01
 -7.6491964e-01
  2.5602916e-01
 -1.3680171e+00
  6.2966329e-01
 -5.6180137e-01
  2.5823829e-01
  3.1522855e-01
  1.1663926e-01
  4.8813713e-01
  1.5167113e-01
  4.4264978e-01
 -1.4969621e+00
  4.4014769e+00
 -2.9895687e+00
 -3.4714663e+00
 -1.2188615e+00
  5.7472348e+00
 -6.3447127e+00
 -3.7422369e+00
 -1.7171185e+00
 -5.0707078e+00
 -7.1385992e-01
  6.5425828e-02
 -4.3121428e+00
 -7.0983261e-01
 -3.9710290e+00
 -3.0073130e-01
  4.4303942e+00
  1.5551163e+00
  2.4121864e+00
 -5.5545460e-02
  6.6351551e-01
  1.3649407e-01
 -1.7800338e+00
  5.7294399e-01
  5.1958752e-01
 -1.8709561e+00
  5.7500333e-01
  1.0203426e+00
 -1.4709463e+00
  5.5131984e-01
 -1.1000789e+00
 -2.5866280e+00
  2.0691652e+00
  3.4732527e-01
 -1.8219061e+00
  7.3855835e-01
 -1.7512344e-01
  6.0512400e-01
 -5.6928784e-01
  4.0460182e-03
 -4.7036159e-01
 -6.3854045e-01
  8.3922136e-01
  7.2322983e-01
  9.8120570e-01
 -2.6996245e+00
 -2.7227480e+00
  9.6151966e-01
  1.0403482e-01
  1.0399796e+00
 -3.6542583e+00
 -5.4358095e-01
 -5.2982718e-01
  4.7519222e-01
 -8.8485426e-01
  5.3744841e-01
  6.9241029e-01
 -3.1355832e+00
  5.3086817e-01
  3.7208991e+00
  7.3371269e-02
 -2.6050787e-02
 -1.4076521e+00
  1.5450040e+00
 -1.9119412e+00
  2.8464656e+00
  7.6783031e-01
 -8.6242551e-01
 -1.0422126e+00
 -4.4386015e+00
  1.1436029e-02
 -1.3832654e+00
 -3.7390321e-01
 -1.6564986e+00
 -3.8427055e-02
 -1.9316144e+00
  7.5660557e-01
  1.3814019e+00
  3.4840637e-01
 -1.0291197e+00
  1.7704054e+00
 -1.1509316e+00
 -4.4164109e-01
 -1.4337088e+00
 -9.8551691e-01
  1.7510644e-01
  1.8253911e-01
  1.2630296e+00
  2.1448873e-02
  5.2278298e-01
 -1.9056835e+00
 -1.1440947e+00
 -5.2642614e-01
  2.7679944e-01
  3.6984551e+00
  4.8475013e+00
 -7.8423309e-01
  5.6339747e-01
 -3.6886895e+00
 -7.7277474e-02
 -2.5488663e-01
 -6.0113484e-01
  1.0450757e+00
 -5.2552372e-01
  5.7756066e-01
  1.4804695e+00
 -9.6160382e-02
 -1.0160801e+00
 -4.2869958e-01
 -2.7645507e+00
 -1.1413715e+00
  1.5868427e-01
  4.7678381e-01
  9.3598467e-01
  3.5739982e-01
  2.9910493e+00
  6.2728763e-01
  1.1430987e+00
  4.5708826e-01
  8.9908113e+00
 -4.2122570e-01
 -1.3828986e+00
  2.2189477e-01
 -8.8325100e+00
 -1.0867414e+00
  1.5595016e-01
  1.4956918e+00
  5.0160384e-01
 -1.0928069e+00
  2.7163908e-01
  4.6277437e+00
 -2.0044250e+00
  6.3805151e-01
  5.7446867e-01
 -1.4705363e-01
  5.5522931e-01
  5.0367415e-01
  1.1553897e+00
  6.7918795e-01
  7.6706243e-01
 -9.1809154e-01
 -3.4434356e-02
 -7.2167170e-01
  1.9005684e+00
 -6.2381700e-02
  6.9020778e-01
  2.5505763e-01
 -5.7764804e-01
 -6.1677361e-01
 -1.2354492e-02
 -2.9566910e+00
 -1.4936057e-01
  1.1696080e+00
  6.3262576e-01
  8.1859231e-01
 -1.4606508e+00
 -4.0552402e+00
  3.9577566e-02
  6.4863300e-01
 -2.7624922e+00
 -1.0500288e+00
  8.8938050e-02
  2.8559048e+00
  1.5864215e+00
  9.9644989e-01
  4.5054179e-01
  8.0821848e-01
 -4.2765789e+00
 -2.2681831e-01
 -4.5398336e-02
 -1.1518745e+00
 -4.1412949e-03
 -1.5382482e+00
  7.3895460e-01
 -4.8137426e+00
 -6.6235429e-01
  2.2191360e+00
  1.6731077e+00
 -1.1998013e+00
  7.2846241e-02
 -5.5228372e+00
  7.2337788e-01
 -1.1227818e-01
  1.4219019e+00
  4.1059330e-01
 -3.1678146e-01
  1.3661177e+00
 -2.3758903e-01
 -1.2272637e+00
  5.1898074e-01
 -7.5862390e-01
 -1.1610775e+00
  7.9595339e-01
 -6.7492402e-01
  1.9335765e-01
 -1.7877960e+00
  2.4843500e+00
 -1.4817997e+00
 -6.5179072e-02
  1.9649398e-02
  1.1791606e+00
  7.3574793e-01
  1.7202961e+00
  1.7810820e+00
  2.2519591e+00
 -2.1868862e-01
 -1.8451856e+00
 -1.6807843e+00
 -1.3292158e+00
  3.3356565e-01
  3.1564567e+00
  5.8230386e+00
 -9.0878236e-01
  1.2673871e-01
 -9.3342043e-02
  1.2723554e+00
  3.0513340e-01
  3.4599371e+00
 -4.6294209e-01
  1.4263080e-01
  1.7526633e-01
  3.9920423e+00
 -1.7980437e+00
  1.2240030e+00
 -3.0200613e+00
  3.5330014e+00
  3.7383485e+00
 -1.6560179e+00
 -2.0529708e-02
 -2.7304544e+00
 -5.8642262e-01
  3.7527129e-02
 -5.7917003e-02
 -1.1063067e-01
 -5.6670898e-01
  2.9062173e-01
  1.4198166e+00
  2.8389364e-02
 -9.8199612e-01
  1.3726850e+00
  4.4616213e+00
 -3.1683230e-01
 -2.5501052e-01
  5.7423820e+00
 -2.4637222e+00
  2.2189337e-01
 -4.5924401e+00
 -2.2353880e+00
  2.4329257e+00
 -2.5474849e-01
 -6.4917177e-02
 -4.6861392e-01
  6.6339340e+00
  5.5028558e-02
  6.9547147e-02
 -1.7068558e+00
  1.7775302e-01
 -1.5033767e-02
  2.1713555e+00
  1.7740224e-01
 -6.5366912e-01
 -2.6514691e-01
  4.8041096e-01
 -3.9008176e-03
 -1.6330762e+00
 -1.2586069e+00
 -9.8702961e-01
 -3.3346203e-01
  1.3189814e+00
 -1.1175741e-01
  2.0369248e+00
 -2.1927184e-01
  9.1570115e-01
  5.8514422e-01
  6.4320140e+00
 -1.1986924e+00
 -3.3171739e-02
  4.1146922e+00
 -2.3314917e-01
  2.1997721e-01
 -2.2666996e+00
  2.5435895e-01
 -1.7441829e+00
 -5.4768139e-01
  2.9752791e-01
  6.2467533e-01
  7.7035475e-01
 -2.3817109e-01
 -9.0404695e-01
 -8.2583606e-01
 -1.5113931e+00
 -3.8085196e+00
 -2.5678080e-01
  1.4536306e+00
  1.3305994e+00
 -6.2776124e-01
  1.3296431e+00
 -8.1677091e-01
 -5.2559918e-01
  2.8383102e+00
  6.4083487e-01
  1.0270661e+00
 -6.2408924e-01
 -2.3990543e-01
  5.1118080e-02
 -3.1051633e-01
 -7.5334797e+00
 -2.9721754e+00
  1.9993055e-01
  9.9432904e-01
 -3.5595760e-02
 -2.6395702e+00
 -1.4159945e+00
 -1.8530604e+00
 -9.8822814e-01
 -6.6632742e-01
  4.5964208e+00
  4.0401924e-01
 -3.1802636e-01
  5.0418735e-01
 -1.8340160e-01
 -4.7033143e-01
  9.1883577e-02
 -1.7374858e+00
 -4.2497194e-01
  1.8230804e+00
 -6.1352026e-01
 -4.6817102e+00
 -4.3372798e+00
  2.4676766e-01
  8.3304971e-01
 -2.1091066e-02
 -8.5492384e-01
 -3.6656782e-01
 -3.4881902e-01
 -1.6241062e+00
  3.3559160e+00
